{"learner":{"attributes":{"best_iteration":"20","best_score":"0.6462475652639973","scikit_learn":"{\"_estimator_type\": \"classifier\"}"},"feature_names":[],"feature_types":[],"gradient_booster":{"model":{"cats":{"enc":[],"feature_segments":[],"sorted_idx":[]},"gbtree_model_param":{"num_parallel_tree":"1","num_trees":"61"},"iteration_indptr":[0,1,2,3,4,5,6,7,8,9,10,11,12,13,14,15,16,17,18,19,20,21,22,23,24,25,26,27,28,29,30,31,32,33,34,35,36,37,38,39,40,41,42,43,44,45,46,47,48,49,50,51,52,53,54,55,56,57,58,59,60,61],"tree_info":[0,0,0,0,0,0,0,0,0,0,0,0,0,0,0,0,0,0,0,0,0,0,0,0,0,0,0,0,0,0,0,0,0,0,0,0,0,0,0,0,0,0,0,0,0,0,0,0,0,0,0,0,0,0,0,0,0,0,0,0,0],"trees":[{"base_weights":[-3.847026E-3,6.240708E-1,-9.544264E-2,7.8218186E-1,2.2736451E-4,4.2934805E-1,-1.7434436E-1,3.1626467E-2,5.753595E-1,6.1638284E-1,-2.4147732E-3,-3.4199532E-2,-5.03772E-1,7.4640936E-3,2.3387104E-2,8.7592304E-1,4.4703233E-4,-1.687856E-1,3.798468E-1,-6.3706994E-1,-1.2199477E-1,1.4667136E-2,3.5921752E-2,-7.386627E-3,5.5777146E-3,-4.446541E-3,1.6400248E-2,-2.569396E-2,-7.2182273E-3,-1.2632597E-2,7.5087463E-3],"categories":[],"categories_nodes":[],"categories_segments":[],"categories_sizes":[],"default_left":[0,0,0,0,0,0,0,0,0,0,0,0,0,0,0,0,0,0,0,0,0,0,0,0,0,0,0,0,0,0,0],"id":0,"left_children":[1,3,5,7,-1,9,11,-1,13,15,-1,17,19,-1,-1,21,-1,23,25,27,29,-1,-1,-1,-1,-1,-1,-1,-1,-1,-1],"loss_changes":[4.535523E1,9.692516E0,2.865632E1,3.109909E0,0E0,8.780037E0,2.7639757E1,0E0,2.8373795E0,1.02761345E1,0E0,2.371801E1,8.872387E0,0E0,0E0,4.4270477E0,0E0,8.923622E0,9.396738E0,1.0953407E1,5.67983E0,0E0,0E0,0E0,0E0,0E0,0E0,0E0,0E0,0E0,0E0],"parents":[2147483647,0,0,1,1,2,2,3,3,5,5,6,6,8,8,9,9,11,11,12,12,15,15,17,17,18,18,19,19,20,20],"right_children":[2,4,6,8,-1,10,12,-1,14,16,-1,18,20,-1,-1,22,-1,24,26,28,30,-1,-1,-1,-1,-1,-1,-1,-1,-1,-1],"split_conditions":[2.5329975E-2,2.8059973E1,3.8328796E1,1.6609352E1,2.2736451E-4,-9.045833E1,1.5670798E0,3.1626467E-2,1.9047657E1,-1.2185085E3,-2.4147732E-3,8.66438E2,1.09102E-3,7.4640936E-3,2.3387104E-2,3.607585E-2,4.4703233E-4,1.5551292E2,-6.23004E1,2.0175817E0,-1.251596E1,1.4667136E-2,3.5921752E-2,-7.386627E-3,5.5777146E-3,-4.446541E-3,1.6400248E-2,-2.569396E-2,-7.2182273E-3,-1.2632597E-2,7.5087463E-3],"split_indices":[7,13,0,13,0,1,5,0,13,25,0,20,16,0,0,17,0,1,25,5,2,0,0,0,0,0,0,0,0,0,0],"split_type":[0,0,0,0,0,0,0,0,0,0,0,0,0,0,0,0,0,0,0,0,0,0,0,0,0,0,0,0,0,0,0],"sum_hessian":[7.8543536E2,9.836854E1,6.8706683E2,7.773276E1,2.0635777E1,8.8471985E1,5.9859485E2,2.9825432E1,4.790733E1,6.456466E1,2.3907328E1,4.2170474E2,1.7689009E2,2.0327587E1,2.7579742E1,4.434914E1,2.0215517E1,3.193319E2,1.0237285E2,1.2992673E2,4.6963364E1,2.2551725E1,2.1797415E1,2.6284482E2,5.648707E1,2.448707E1,7.788578E1,8.198492E1,4.794181E1,2.604526E1,2.0918104E1],"tree_param":{"num_deleted":"0","num_feature":"34","num_nodes":"31","size_leaf_vector":"1"}},{"base_weights":[-6.2766336E-3,-4.842316E-1,2.4881577E-1,-7.6870644E-1,-2.0736514E-1,7.168194E-1,7.057841E-2,-3.793352E-3,-8.9100623E-1,-5.5859633E-2,-1.9815417E-2,5.3268915E-1,3.9136108E-2,6.943685E-1,-2.3643197E-2,-1.119847E0,-5.811193E-1,1.256312E-1,-1.1561937E-2,8.7475884E-1,2.6469263E-1,2.7990066E-2,9.875705E-3,1.1371998E-1,-3.6422378E-1,-4.0027704E-2,-2.505968E-2,-2.503009E-2,-5.9534E-3,-5.782495E-3,9.03114E-3,3.4171853E-2,1.6024461E-2,-2.8158275E-3,1.6039936E-2,-4.4945525E-3,8.670737E-3,7.405084E-5,-1.7562991E-2],"categories":[],"categories_nodes":[],"categories_segments":[],"categories_sizes":[],"default_left":[0,0,0,0,0,0,0,0,0,0,0,0,0,0,0,0,0,0,0,0,0,0,0,0,0,0,0,0,0,0,0,0,0,0,0,0,0,0,0],"id":1,"left_children":[1,3,5,7,9,11,13,-1,15,17,-1,19,-1,21,23,25,27,29,-1,31,33,-1,-1,35,37,-1,-1,-1,-1,-1,-1,-1,-1,-1,-1,-1,-1,-1,-1],"loss_changes":[9.612009E1,2.1196083E1,4.267871E1,1.0231827E1,9.602049E0,1.372123E1,2.2108648E1,0E0,6.503525E0,6.6271825E0,0E0,9.610481E0,0E0,3.5595398E0,1.5411464E1,1.3574371E0,4.61541E0,4.116689E0,0E0,2.917717E0,6.469542E0,0E0,0E0,1.0930459E1,7.742838E0,0E0,0E0,0E0,0E0,0E0,0E0,0E0,0E0,0E0,0E0,0E0,0E0,0E0,0E0],"parents":[2147483647,0,0,1,1,2,2,3,3,4,4,5,5,6,6,8,8,9,9,11,11,13,13,14,14,15,15,16,16,17,17,19,19,20,20,23,23,24,24],"right_children":[2,4,6,8,10,12,14,-1,16,18,-1,20,-1,22,24,26,28,30,-1,32,34,-1,-1,36,38,-1,-1,-1,-1,-1,-1,-1,-1,-1,-1,-1,-1,-1,-1],"split_conditions":[6.243772E-1,4.355251E-1,1.1005342E0,9.391605E-1,8.040808E-2,8.4755E-4,-2.6832004E2,-3.793352E-3,4.1257863E0,5.6535167E-1,-1.9815417E-2,2.0202686E1,3.9136108E-2,-3.826141E3,1.6431334E0,-1.29532E2,1.3285794E0,4.736784E1,-1.1561937E-2,8.525611E-1,4.8557655E1,2.7990066E-2,9.875705E-3,9.2888135E-1,-1.376591E3,-4.0027704E-2,-2.505968E-2,-2.503009E-2,-5.9534E-3,-5.782495E-3,9.03114E-3,3.4171853E-2,1.6024461E-2,-2.8158275E-3,1.6039936E-2,-4.4945525E-3,8.670737E-3,7.405084E-5,-1.7562991E-2],"split_indices":[6,6,5,5,7,16,1,0,2,6,0,13,0,24,5,20,4,0,0,5,0,0,0,6,24,0,0,0,0,0,0,0,0,0,0,0,0,0,0],"split_type":[0,0,0,0,0,0,0,0,0,0,0,0,0,0,0,0,0,0,0,0,0,0,0,0,0,0,0,0,0,0,0,0,0,0,0,0,0,0,0],"sum_hessian":[7.841997E2,2.724041E2,5.117956E2,1.3242546E2,1.3997865E2,1.3933492E2,3.724607E2,2.1964357E1,1.10461105E2,1.0675385E2,3.3224804E1,1.0912824E2,3.0206676E1,4.734401E1,3.2511667E2,6.034687E1,5.0114235E1,6.944281E1,3.7311047E1,4.578596E1,6.3342285E1,2.6586683E1,2.0757324E1,2.3241678E2,9.26999E1,3.0005333E1,3.0341536E1,2.8580454E1,2.153378E1,2.4395206E1,4.50476E1,2.297563E1,2.2810331E1,2.7608843E1,3.573344E1,9.2731804E1,1.3968498E2,3.5454174E1,5.724572E1],"tree_param":{"num_deleted":"0","num_feature":"34","num_nodes":"39","size_leaf_vector":"1"}},{"base_weights":[2.1262309E-2,-4.4363126E-1,2.6175186E-1,-7.703094E-1,-2.2237416E-1,3.8040783E-2,2.017327E-1,-3.010144E-2,-4.6706533E-1,-7.730077E-2,-1.9528486E-2,6.815017E-1,1.135293E-1,-5.478264E-3,-2.2111394E-2,1.0493522E-2,-1.8368714E-1,9.098851E-1,1.708343E-3,2.694917E-1,-2.7884886E-1,-9.772036E-3,9.293132E-3,1.3656765E-2,3.4684476E-2,5.990112E-3,3.2417882E-2,-1.260576E-2,1.1391275E-2],"categories":[],"categories_nodes":[],"categories_segments":[],"categories_sizes":[],"default_left":[0,0,0,0,0,0,0,0,0,0,0,0,0,0,0,0,0,0,0,0,0,0,0,0,0,0,0,0,0],"id":2,"left_children":[1,3,5,7,9,-1,11,-1,13,15,-1,17,19,-1,-1,-1,21,23,-1,25,27,-1,-1,-1,-1,-1,-1,-1,-1],"loss_changes":[8.8707306E1,1.910667E1,3.0932083E1,6.5641556E0,1.00381155E1,0E0,2.0758987E1,0E0,3.5522327E0,5.798115E0,0E0,1.0706512E1,2.5951332E1,0E0,0E0,0E0,7.3312654E0,5.0272293E0,0E0,1.6594643E1,1.15603E1,0E0,0E0,0E0,0E0,0E0,0E0,0E0,0E0],"parents":[2147483647,0,0,1,1,2,2,3,3,4,4,6,6,8,8,9,9,11,11,12,12,16,16,17,17,19,19,20,20],"right_children":[2,4,6,8,10,-1,12,-1,14,16,-1,18,20,-1,-1,-1,22,24,-1,26,28,-1,-1,-1,-1,-1,-1,-1,-1],"split_conditions":[6.243772E-1,4.051138E-1,1.8309174E-2,-3.6471496E0,8.040808E-2,3.8040783E-2,3.8775585E1,-3.010144E-2,8.116577E1,1.6143972E1,-1.9528486E-2,-9.045833E1,7.224777E-2,-5.478264E-3,-2.2111394E-2,1.0493522E-2,6.9828804E1,1.7719E-4,1.708343E-3,6.668135E3,4.5856E-4,-9.772036E-3,9.293132E-3,1.3656765E-2,3.4684476E-2,5.990112E-3,3.2417882E-2,-1.260576E-2,1.1391275E-2],"split_indices":[6,6,7,2,7,0,0,0,1,13,0,1,7,0,0,0,1,15,0,24,15,0,0,0,0,0,0,0,0],"split_type":[0,0,0,0,0,0,0,0,0,0,0,0,0,0,0,0,0,0,0,0,0,0,0,0,0,0,0,0,0],"sum_hessian":[7.8951733E2,2.684561E2,5.210613E2,1.06216415E2,1.6223965E2,2.6969727E1,4.9409155E2,5.7259552E1,4.895686E1,1.2314796E2,3.90917E1,7.446481E1,4.1962674E2,2.5652315E1,2.3304544E1,2.3458563E1,9.96894E1,5.3739815E1,2.0724997E1,3.009045E2,1.18722244E2,7.809215E1,2.159725E1,2.1025354E1,3.271446E1,2.7946344E2,2.1441078E1,9.8464935E1,2.0257309E1],"tree_param":{"num_deleted":"0","num_feature":"34","num_nodes":"29","size_leaf_vector":"1"}},{"base_weights":[-2.3589896E-2,-3.4667316E-1,3.1737822E-1,-7.451146E-1,-1.604296E-1,7.328732E-1,1.4780651E-1,-1.0601963E-2,-8.562489E-1,7.394113E-2,-4.6118817E-1,8.689631E-3,8.797259E-1,2.6446188E-2,5.1429402E-2,-3.764385E-2,-6.980082E-1,4.3930912E-1,-1.1054078E-1,-2.878232E-1,-2.8658815E-2,3.1462383E-2,1.09951245E-2,-1.6529182E-2,1.8062549E-2,-1.1151636E-2,-2.5776273E-2,1.9286515E-3,2.15324E-2,9.1213705E-3,-6.8160966E-3,-2.373865E-3,-1.8299453E-2,9.712184E-3,-3.7884547E-3],"categories":[],"categories_nodes":[],"categories_segments":[],"categories_sizes":[],"default_left":[0,0,0,0,0,0,0,0,0,0,0,0,0,0,0,0,0,0,0,0,0,0,0,0,0,0,0,0,0,0,0,0,0,0,0],"id":3,"left_children":[1,3,5,7,9,11,13,-1,15,17,19,-1,21,-1,23,-1,25,27,29,31,-1,-1,-1,33,-1,-1,-1,-1,-1,-1,-1,-1,-1,-1,-1],"loss_changes":[8.800919E1,3.0116272E1,2.7075058E1,4.931839E0,2.000684E1,6.6603394E0,1.9520922E1,0E0,4.3369904E0,1.0928402E1,9.956911E0,0E0,6.2844543E0,0E0,9.379432E0,0E0,3.2360764E0,5.5031357E0,5.347787E0,6.2139196E0,0E0,0E0,0E0,8.390981E0,0E0,0E0,0E0,0E0,0E0,0E0,0E0,0E0,0E0,0E0,0E0],"parents":[2147483647,0,0,1,1,2,2,3,3,4,4,5,5,6,6,8,8,9,9,10,10,12,12,14,14,16,16,17,17,18,18,19,19,23,23],"right_children":[2,4,6,8,10,12,14,-1,16,18,20,-1,22,-1,24,-1,26,28,30,32,-1,-1,-1,34,-1,-1,-1,-1,-1,-1,-1,-1,-1,-1,-1],"split_conditions":[8.0885077E-1,4.355251E-1,1.1046526E0,1.014718E0,1.3984749E0,7.801E-5,3.412311E1,-1.0601963E-2,4.9127376E-1,2.0291906E1,1.200578E3,8.689631E-3,7.3401016E-1,2.6446188E-2,2.2737112E0,-3.764385E-2,-6.30414E2,4.8827587E1,9.762563E-1,3.3092762E1,-2.8658815E-2,3.1462383E-2,1.09951245E-2,3.9282735E-2,1.8062549E-2,-1.1151636E-2,-2.5776273E-2,1.9286515E-3,2.15324E-2,9.1213705E-3,-6.8160966E-3,-2.373865E-3,-1.8299453E-2,9.712184E-3,-3.7884547E-3],"split_indices":[6,6,5,5,5,15,0,0,22,3,24,0,17,0,6,0,24,0,5,3,0,0,0,7,0,0,0,0,0,0,0,0,0,0,0],"split_type":[0,0,0,0,0,0,0,0,0,0,0,0,0,0,0,0,0,0,0,0,0,0,0,0,0,0,0,0,0,0,0,0,0,0,0],"sum_hessian":[7.9488947E2,4.082825E2,3.8660696E2,1.2797017E2,2.8031232E2,1.09954994E2,2.7665195E2,3.0328985E1,9.764118E1,1.582047E2,1.2210763E2,2.901377E1,8.094122E1,3.0107553E1,2.465444E2,2.3631481E1,7.40097E1,5.2334736E1,1.0586996E2,9.288488E1,2.922275E1,5.9172188E1,2.1769035E1,2.2102518E2,2.5519228E1,2.686482E1,4.714488E1,2.3501741E1,2.8832994E1,2.23554E1,8.351456E1,5.8069256E1,3.481562E1,5.2731113E1,1.6829407E2],"tree_param":{"num_deleted":"0","num_feature":"34","num_nodes":"35","size_leaf_vector":"1"}},{"base_weights":[2.2976806E-2,-4.959247E-1,1.977491E-1,-7.352653E-1,-2.5383192E-1,3.1182492E-2,1.5079089E-1,-2.9872628E-2,-4.3174565E-1,-4.157926E-2,-4.688098E-1,7.9015754E-2,7.2692853E-1,-1.7387182E-2,-6.2209754E-3,-9.506538E-3,7.936573E-3,-2.1941766E-2,-7.2116284E-3,2.6895574E-1,-1.0587788E-1,1.2675186E-2,2.5559459E-2,5.8304663E-3,2.7163943E-2,2.1042736E-2,-5.591232E-3],"categories":[],"categories_nodes":[],"categories_segments":[],"categories_sizes":[],"default_left":[0,0,0,0,0,0,0,0,0,0,0,0,0,0,0,0,0,0,0,0,0,0,0,0,0,0,0],"id":4,"left_children":[1,3,5,7,9,-1,11,-1,13,15,17,19,21,-1,-1,-1,-1,-1,-1,23,25,-1,-1,-1,-1,-1,-1],"loss_changes":[7.175199E1,1.1076E1,2.2966997E1,6.821495E0,4.579908E0,0E0,2.3094616E1,0E0,1.3199368E0,4.717873E0,2.575183E0,1.7745586E1,1.512661E0,0E0,0E0,0E0,0E0,0E0,0E0,1.1365072E1,1.6856789E1,0E0,0E0,0E0,0E0,0E0,0E0],"parents":[2147483647,0,0,1,1,2,2,3,3,4,4,6,6,8,8,9,9,10,10,11,11,12,12,19,19,20,20],"right_children":[2,4,6,8,10,-1,12,-1,14,16,18,20,22,-1,-1,-1,-1,-1,-1,24,26,-1,-1,-1,-1,-1,-1],"split_conditions":[5.2513874E-1,3.9279354E-1,1.8309174E-2,-3.6471496E0,5.7858776E-2,3.1182492E-2,2.087201E0,-2.9872628E-2,1.101164E0,-2.224786E2,5.485E-5,5.3511355E-2,4.2024925E-2,-1.7387182E-2,-6.2209754E-3,-9.506538E-3,7.936573E-3,-2.1941766E-2,-7.2116284E-3,6.2635647E1,3.323881E1,1.2675186E-2,2.5559459E-2,5.8304663E-3,2.7163943E-2,2.1042736E-2,-5.591232E-3],"split_indices":[6,6,7,2,7,0,6,0,4,25,14,7,7,0,0,0,0,0,0,0,0,0,0,0,0,0,0],"split_type":[0,0,0,0,0,0,0,0,0,0,0,0,0,0,0,0,0,0,0,0,0,0,0,0,0,0,0],"sum_hessian":[7.873482E2,1.973036E2,5.900446E2,9.695928E1,1.0034432E2,2.8833876E1,5.6121075E2,4.954636E1,4.7412918E1,5.1927288E1,4.8417034E1,5.0121707E2,5.9993675E1,2.6404978E1,2.100794E1,2.747517E1,2.4452116E1,2.0271877E1,2.8145155E1,2.4705287E2,2.541642E2,2.025152E1,3.9742153E1,2.2361067E2,2.3442202E1,2.1533564E1,2.3263063E2],"tree_param":{"num_deleted":"0","num_feature":"34","num_nodes":"27","size_leaf_vector":"1"}},{"base_weights":[7.632454E-3,-3.8913408E-1,2.670382E-1,1.6462097E-1,-4.777645E-1,6.533913E-1,1.16692714E-1,1.7539183E-2,-8.017369E-3,-8.1016845E-1,-3.6236933E-1,3.1900296E-1,1.1180708E0,6.9505435E-1,9.225147E-3,-6.0208595E-1,-3.4127142E-2,4.1313474E-3,-4.281024E-1,2.7272679E-2,8.154825E-2,2.2732764E-2,4.1210096E-2,4.9496465E-3,3.0117366E-2,1.5169883E-1,-3.021537E-1,-2.6487745E-2,-9.1310525E-3,-2.4948955E-2,-8.512225E-3,-6.526029E-3,1.8629143E-2,-6.5583377E-3,7.82965E-3,-1.8331617E-2,4.043496E-3],"categories":[],"categories_nodes":[],"categories_segments":[],"categories_sizes":[],"default_left":[0,0,0,0,0,0,0,0,0,0,0,0,0,0,0,0,0,0,0,0,0,0,0,0,0,0,0,0,0,0,0,0,0,0,0,0,0],"id":5,"left_children":[1,3,5,7,9,11,13,-1,-1,15,17,19,21,23,25,27,-1,-1,29,-1,31,-1,-1,-1,-1,33,35,-1,-1,-1,-1,-1,-1,-1,-1,-1,-1],"loss_changes":[8.171762E1,1.5589249E1,2.766793E1,8.438943E0,9.696842E0,1.9951622E1,2.156887E1,0E0,0E0,3.0912552E0,6.889902E0,1.1074351E1,2.781105E0,8.46019E0,1.3205607E1,3.1926804E0,0E0,0E0,1.0016518E1,0E0,9.979722E0,0E0,0E0,0E0,0E0,8.398388E0,1.281187E1,0E0,0E0,0E0,0E0,0E0,0E0,0E0,0E0,0E0,0E0],"parents":[2147483647,0,0,1,1,2,2,3,3,4,4,5,5,6,6,9,9,10,10,11,11,12,12,13,13,14,14,15,15,18,18,20,20,25,25,26,26],"right_children":[2,4,6,8,10,12,14,-1,-1,16,18,20,22,24,26,28,-1,-1,30,-1,32,-1,-1,-1,-1,34,36,-1,-1,-1,-1,-1,-1,-1,-1,-1,-1],"split_conditions":[6.724169E-1,2.8585402E-2,1.1046526E0,4.5565E-4,3.6100188E-1,5.9732E-4,3.7844887E1,1.7539183E-2,-8.017369E-3,8.1594E-4,1.6064817E1,8.293274E-1,8.5502E-4,-2.3955049E-1,7.895243E-2,7.7415395E-1,-3.4127142E-2,4.1313474E-3,2.1902113E1,2.7272679E-2,2.707182E2,2.2732764E-2,4.1210096E-2,4.9496465E-3,3.0117366E-2,-1.580869E3,1.1681706E0,-2.6487745E-2,-9.1310525E-3,-2.4948955E-2,-8.512225E-3,-6.526029E-3,1.8629143E-2,-6.5583377E-3,7.82965E-3,-1.8331617E-2,4.043496E-3],"split_indices":[6,7,5,16,6,16,0,0,0,16,3,5,16,17,7,4,0,0,3,0,25,0,0,0,0,20,6,0,0,0,0,0,0,0,0,0,0],"split_type":[0,0,0,0,0,0,0,0,0,0,0,0,0,0,0,0,0,0,0,0,0,0,0,0,0,0,0,0,0,0,0,0,0,0,0,0,0],"sum_hessian":[7.900639E2,3.1178952E2,4.7827435E2,4.262557E1,2.6916397E2,1.3191817E2,3.463562E2,2.1367922E1,2.1257647E1,6.6035576E1,2.0312839E2,7.880061E1,5.3117554E1,5.2413754E1,2.9394244E2,4.4033356E1,2.2002214E1,2.316715E1,1.7996124E2,2.0867008E1,5.7933605E1,2.5496399E1,2.7621157E1,2.0545473E1,3.1868282E1,2.0259184E2,9.13506E1,2.046315E1,2.3570208E1,4.4725945E1,1.3523529E2,3.7918056E1,2.001555E1,4.5501545E1,1.5709029E2,5.318348E1,3.816712E1],"tree_param":{"num_deleted":"0","num_feature":"34","num_nodes":"37","size_leaf_vector":"1"}},{"base_weights":[-6.203017E-3,5.03496E-1,-8.1069276E-2,7.354869E-1,-1.8087627E-3,3.5633948E-1,-1.611395E-1,9.8447317E-1,8.638543E-3,5.882104E-1,-4.8586903E-3,-2.1010697E-1,4.59008E-1,2.0043978E-2,3.7293334E-2,9.161275E-1,-4.6961966E-5,2.9194063E-1,-2.593495E-1,2.3983322E-2,2.6165897E-3,1.5271354E-2,3.784019E-2,-6.756747E-3,2.0465424E-2,7.7848164E-3,-8.753848E-3],"categories":[],"categories_nodes":[],"categories_segments":[],"categories_sizes":[],"default_left":[0,0,0,0,0,0,0,0,0,0,0,0,0,0,0,0,0,0,0,0,0,0,0,0,0,0,0],"id":6,"left_children":[1,3,5,7,-1,9,11,13,-1,15,-1,17,19,-1,-1,21,-1,23,25,-1,-1,-1,-1,-1,-1,-1,-1],"loss_changes":[3.012586E1,1.3377329E1,2.4239096E1,7.3167686E0,0E0,1.3103622E1,1.7910423E1,1.8477516E0,0E0,1.4513668E1,0E0,1.357299E1,5.244339E0,0E0,0E0,5.2882767E0,0E0,1.029541E1,8.500427E0,0E0,0E0,0E0,0E0,0E0,0E0,0E0,0E0],"parents":[2147483647,0,0,1,1,2,2,3,3,5,5,6,6,7,7,9,9,11,11,12,12,15,15,17,17,18,18],"right_children":[2,4,6,8,-1,10,12,14,-1,16,-1,18,20,-1,-1,22,-1,24,26,-1,-1,-1,-1,-1,-1,-1,-1],"split_conditions":[2.5329975E-2,2.4762383E1,3.9529987E1,4.99092E-1,-1.8087627E-3,-9.045833E1,6.668135E3,-1.162659E3,8.638543E-3,1.0107992E-1,-4.8586903E-3,1.8839855E-1,6.880785E-2,2.0043978E-2,3.7293334E-2,5.6496E-4,-4.6961966E-5,-2.345108E2,-2.6832004E2,2.3983322E-2,2.6165897E-3,1.5271354E-2,3.784019E-2,-6.756747E-3,2.0465424E-2,7.7848164E-3,-8.753848E-3],"split_indices":[7,3,0,22,0,1,24,24,0,7,0,4,7,0,0,16,0,25,1,0,0,0,0,0,0,0,0],"split_type":[0,0,0,0,0,0,0,0,0,0,0,0,0,0,0,0,0,0,0,0,0,0,0,0,0,0,0],"sum_hessian":[7.864447E2,9.908374E1,6.8736096E2,6.989231E1,2.9191427E1,1.050953E2,5.822657E2,4.3222507E1,2.6669806E1,7.255804E1,3.2537262E1,5.410291E2,4.1236557E1,2.2840021E1,2.0382486E1,4.6028763E1,2.6529276E1,4.7264126E1,4.9376498E2,2.0184591E1,2.1051964E1,2.3525635E1,2.2503128E1,2.0579979E1,2.6684147E1,2.8054853E1,4.6571014E2],"tree_param":{"num_deleted":"0","num_feature":"34","num_nodes":"27","size_leaf_vector":"1"}},{"base_weights":[3.0780951E-3,-3.9188066E-1,2.1766974E-1,-2.333296E-1,-6.066701E-1,6.352848E-1,6.32205E-2,-5.1536644E-1,-9.914488E-2,-4.016691E-1,-8.2907546E-1,1.1986475E-3,7.336937E-1,2.8724834E-2,-1.7382879E-2,-5.7156794E-3,-2.1570243E-2,-1.5319649E-2,7.5523816E-2,-5.5652887E-1,-2.652463E-3,-1.4243122E-2,-3.3879794E-2,3.6607423E-1,9.822445E-1,1.7447893E-1,-2.5762537E-1,8.196698E-3,-4.8375297E-3,-2.3577074E-2,-8.582826E-3,1.9741017E-2,-2.3210843E-3,3.5991594E-2,2.0551087E-2,1.816973E-2,2.2144772E-3,-1.2466194E-2,2.800825E-3],"categories":[],"categories_nodes":[],"categories_segments":[],"categories_sizes":[],"default_left":[0,0,0,0,0,0,0,0,0,0,0,0,0,0,0,0,0,0,0,0,0,0,0,0,0,0,0,0,0,0,0,0,0,0,0,0,0,0,0],"id":7,"left_children":[1,3,5,7,9,11,13,15,17,19,21,-1,23,-1,25,-1,-1,-1,27,29,-1,-1,-1,31,33,35,37,-1,-1,-1,-1,-1,-1,-1,-1,-1,-1,-1,-1],"loss_changes":[6.7683784E1,9.20422E0,3.324302E1,6.0888596E0,4.5836563E0,8.029785E0,2.7542767E1,3.1110878E0,8.36269E0,3.0112886E0,4.555153E0,0E0,1.0051331E1,0E0,1.6265688E1,0E0,0E0,0E0,3.941057E0,2.1225586E0,0E0,0E0,0E0,6.8267183E0,2.6830292E0,8.348674E0,8.799478E0,0E0,0E0,0E0,0E0,0E0,0E0,0E0,0E0,0E0,0E0,0E0,0E0],"parents":[2147483647,0,0,1,1,2,2,3,3,4,4,5,5,6,6,7,7,8,8,9,9,10,10,12,12,14,14,18,18,19,19,23,23,24,24,25,25,26,26],"right_children":[2,4,6,8,10,12,14,16,18,20,22,-1,24,-1,26,-1,-1,-1,28,30,-1,-1,-1,32,34,36,38,-1,-1,-1,-1,-1,-1,-1,-1,-1,-1,-1,-1],"split_conditions":[6.243772E-1,1.3984749E0,1.1005342E0,-4.6222487E-1,-3.7425317E-2,1.1098E-4,3.323881E1,-9.58612E2,4.641206E1,9.1096506E-2,3E-4,1.1986475E-3,4.8228504E1,2.8724834E-2,6.57396E-2,-5.7156794E-3,-2.1570243E-2,-1.5319649E-2,4.9913448E-1,4.5579925E-1,-2.652463E-3,-1.4243122E-2,-3.3879794E-2,2.4762383E1,9.8345804E-1,4.9066386E-1,1.3140714E0,8.196698E-3,-4.8375297E-3,-2.3577074E-2,-8.582826E-3,1.9741017E-2,-2.3210843E-3,3.5991594E-2,2.0551087E-2,1.816973E-2,2.2144772E-3,-1.2466194E-2,2.800825E-3],"split_indices":[6,5,5,17,17,16,0,24,0,7,15,0,0,0,7,0,0,0,22,6,0,0,0,3,5,22,6,0,0,0,0,0,0,0,0,0,0,0,0],"split_type":[0,0,0,0,0,0,0,0,0,0,0,0,0,0,0,0,0,0,0,0,0,0,0,0,0,0,0,0,0,0,0,0,0,0,0,0,0,0,0],"sum_hessian":[7.947757E2,2.7905426E2,5.1572144E2,1.6321332E2,1.1584094E2,1.373816E2,3.783398E2,5.0546085E1,1.1266724E2,6.3433304E1,5.2407642E1,2.0031034E1,1.1735057E2,2.9584938E1,3.4875488E2,2.1157854E1,2.9388231E1,3.259665E1,8.007059E1,4.1195496E1,2.223781E1,2.6560753E1,2.5846888E1,4.9494156E1,6.7856415E1,1.9397462E2,1.5478026E2,4.369833E1,3.6372253E1,2.002719E1,2.1168306E1,2.9397053E1,2.0097103E1,3.548289E1,3.2373524E1,3.4627E1,1.5934763E2,1.0669397E2,4.808629E1],"tree_param":{"num_deleted":"0","num_feature":"34","num_nodes":"39","size_leaf_vector":"1"}},{"base_weights":[2.8910983E-2,-3.9114332E-1,2.5135213E-1,-7.912583E-1,-2.6451173E-1,6.549991E-1,9.761455E-2,-2.7611868E-2,-1.4182138E-2,-6.0802287E-1,-1.3186619E-1,4.5045942E-1,3.984857E-2,7.085265E-1,-2.0515405E-2,-9.9230865E-3,-2.285465E-2,-3.5483822E-2,-2.0204907E-2,2.5009062E-2,2.3215315E-1,5.496862E-3,3.1228486E-2,1.1331634E-1,-2.5888523E-1,4.380312E-3,-1.0692453E-2,1.1884238E-3,2.0052904E-2,1.2361842E-2,-9.3246275E-4,-1.2004761E-2,8.554395E-3],"categories":[],"categories_nodes":[],"categories_segments":[],"categories_sizes":[],"default_left":[0,0,0,0,0,0,0,0,0,0,0,0,0,0,0,0,0,0,0,0,0,0,0,0,0,0,0,0,0,0,0,0,0],"id":8,"left_children":[1,3,5,7,9,11,13,-1,-1,15,17,19,-1,21,23,-1,-1,25,-1,-1,27,-1,-1,29,31,-1,-1,-1,-1,-1,-1,-1,-1],"loss_changes":[7.4193954E1,1.3402294E1,3.201828E1,1.6593132E0,9.424485E0,1.8275173E1,2.7416586E1,0E0,0E0,1.8722382E0,8.008897E0,8.923542E0,0E0,1.0240797E1,1.025034E1,0E0,0E0,7.9557853E0,0E0,0E0,6.1474357E0,0E0,0E0,8.925674E0,9.123323E0,0E0,0E0,0E0,0E0,0E0,0E0,0E0,0E0],"parents":[2147483647,0,0,1,1,2,2,3,3,4,4,5,5,6,6,9,9,10,10,11,11,13,13,14,14,17,17,20,20,23,23,24,24],"right_children":[2,4,6,8,10,12,14,-1,-1,16,18,20,-1,22,24,-1,-1,26,-1,-1,28,-1,-1,30,32,-1,-1,-1,-1,-1,-1,-1,-1],"split_conditions":[6.243772E-1,3.4279978E-1,1.1046526E0,2.7313966E-1,2.769E-5,8.4755E-4,3.8775585E1,-2.7611868E-2,-1.4182138E-2,-3.118594E2,1.0403E-4,1.922933E1,3.984857E-2,-2.3955049E-1,1.5670798E0,-9.9230865E-3,-2.285465E-2,1.4459596E0,-2.0204907E-2,2.5009062E-2,5.150248E2,5.496862E-3,3.1228486E-2,-2.5616497E-1,1.67448E-3,4.380312E-3,-1.0692453E-2,1.1884238E-3,2.0052904E-2,1.2361842E-2,-9.3246275E-4,-1.2004761E-2,8.554395E-3],"split_indices":[6,6,5,17,14,16,0,0,0,25,14,3,0,17,5,0,0,5,0,0,25,0,0,17,16,0,0,0,0,0,0,0,0],"split_type":[0,0,0,0,0,0,0,0,0,0,0,0,0,0,0,0,0,0,0,0,0,0,0,0,0,0,0,0,0,0,0,0,0],"sum_hessian":[7.9009534E2,2.7286157E2,5.1723376E2,6.288345E1,2.099781E2,1.406852E2,3.7654858E2,4.1830864E1,2.1052586E1,5.6288006E1,1.5369011E2,1.1057877E2,3.0106424E1,5.9531387E1,3.1701718E2,2.2563784E1,3.3724224E1,1.3243852E2,2.125158E1,3.792195E1,7.265682E1,2.4391283E1,3.5140106E1,2.0343127E2,1.13585915E2,8.509422E1,4.73443E1,5.208246E1,2.0574366E1,6.530578E1,1.381255E2,9.073634E1,2.284957E1],"tree_param":{"num_deleted":"0","num_feature":"34","num_nodes":"33","size_leaf_vector":"1"}},{"base_weights":[-3.2942228E-3,4.9178368E-1,-7.790067E-2,6.568841E-1,-1.0932549E-3,5.007582E-1,-1.3223822E-1,2.9984614E-2,4.7189438E-1,2.4764484E-2,8.264208E-4,-1.7065454E-1,4.0945148E-1,2.509463E-2,3.8493287E-3,-9.170459E-2,-3.8651988E-1,2.441291E-2,-8.854559E-4,-5.310821E-3,2.6700771E-3,-1.7603545E-2,-6.2824083E-3],"categories":[],"categories_nodes":[],"categories_segments":[],"categories_sizes":[],"default_left":[0,0,0,0,0,0,0,0,0,0,0,0,0,0,0,0,0,0,0,0,0,0,0],"id":9,"left_children":[1,3,5,7,-1,9,11,-1,13,-1,-1,15,17,-1,-1,19,21,-1,-1,-1,-1,-1,-1],"loss_changes":[2.929373E1,9.165611E0,2.1800716E1,3.939251E0,0E0,9.014739E0,1.3283971E1,0E0,6.6428194E0,0E0,0E0,9.978409E0,7.6375604E0,0E0,0E0,6.7745857E0,5.267868E0,0E0,0E0,0E0,0E0,0E0,0E0],"parents":[2147483647,0,0,1,1,2,2,3,3,5,5,6,6,8,8,11,11,12,12,15,15,16,16],"right_children":[2,4,6,8,-1,10,12,-1,14,-1,-1,16,18,-1,-1,20,22,-1,-1,-1,-1,-1,-1],"split_conditions":[2.5329975E-2,2.794807E1,-2.968969E2,3.1321E-4,-1.0932549E-3,8.772E-4,6.668135E3,2.9984614E-2,1.6609352E1,2.4764484E-2,8.264208E-4,7.895243E-2,6.928055E-2,2.509463E-2,3.8493287E-3,5.2103596E1,5.6496E-4,2.441291E-2,-8.854559E-4,-5.310821E-3,2.6700771E-3,-1.7603545E-2,-6.2824083E-3],"split_indices":[7,13,1,16,0,16,24,0,13,0,0,7,7,0,0,1,16,0,0,0,0,0,0],"split_type":[0,0,0,0,0,0,0,0,0,0,0,0,0,0,0,0,0,0,0,0,0,0,0],"sum_hessian":[7.9014026E2,1.0183745E2,6.883028E2,7.736018E1,2.4477262E1,5.751668E1,6.3078613E2,2.3847641E1,5.3512547E1,3.3101643E1,2.441504E1,5.904652E2,4.0320915E1,2.4429234E1,2.9083313E1,4.3476755E2,1.5569768E2,2.0218632E1,2.0102283E1,2.9572977E2,1.3903777E2,7.0635155E1,8.506253E1],"tree_param":{"num_deleted":"0","num_feature":"34","num_nodes":"23","size_leaf_vector":"1"}},{"base_weights":[1.2418378E-2,-4.001221E-1,2.3345579E-1,4.461127E-3,-4.9298108E-1,6.339757E-1,8.400759E-2,-6.7409164E-1,-3.0456793E-1,1.2364516E-3,7.3359877E-1,2.4533452E-2,9.768659E-3,-8.0667335E-1,-9.576055E-3,-1.5708476E-1,-1.8819094E-2,4.6659467E-1,1.0204239E0,-4.8945E-2,1.8994883E-2,-1.1253503E-2,-2.7879326E-2,5.844563E-3,-9.162131E-3,5.286474E-3,2.2700263E-2,3.768834E-2,2.0250013E-2,2.5079525E-3,-1.0908892E-2],"categories":[],"categories_nodes":[],"categories_segments":[],"categories_sizes":[],"default_left":[0,0,0,0,0,0,0,0,0,0,0,0,0,0,0,0,0,0,0,0,0,0,0,0,0,0,0,0,0,0,0],"id":10,"left_children":[1,3,5,-1,7,9,11,13,15,-1,17,-1,19,21,-1,23,-1,25,27,29,-1,-1,-1,-1,-1,-1,-1,-1,-1,-1,-1],"loss_changes":[7.1566086E1,1.4131409E1,3.042237E1,0E0,7.5016937E0,8.036953E0,2.0318127E1,4.913746E0,5.3871937E0,0E0,7.9552193E0,0E0,1.26568E1,3.6299477E0,0E0,4.5423293E0,0E0,5.124276E0,2.603489E0,1.321625E1,0E0,0E0,0E0,0E0,0E0,0E0,0E0,0E0,0E0,0E0,0E0],"parents":[2147483647,0,0,1,1,2,2,4,4,5,5,6,6,7,7,8,8,10,10,12,12,13,13,15,15,17,17,18,18,19,19],"right_children":[2,4,6,-1,8,10,12,14,16,-1,18,-1,20,22,-1,24,-1,26,28,30,-1,-1,-1,-1,-1,-1,-1,-1,-1,-1,-1],"split_conditions":[6.243772E-1,1.6064817E1,1.1046526E0,4.461127E-3,4.437152E-1,1.1098E-4,3.412311E1,5.0572784E1,8.040808E-2,1.2364516E-3,5.1516125E1,2.4533452E-2,2.1968796E0,3.0672E-4,-9.576055E-3,4.9359536E-1,-1.8819094E-2,6.973E-5,5.0302595E-1,8.310564E-2,1.8994883E-2,-1.1253503E-2,-2.7879326E-2,5.844563E-3,-9.162131E-3,5.286474E-3,2.2700263E-2,3.768834E-2,2.0250013E-2,2.5079525E-3,-1.0908892E-2],"split_indices":[6,3,5,0,6,16,0,2,7,0,0,0,6,16,0,22,0,14,22,7,0,0,0,0,0,0,0,0,0,0,0],"split_type":[0,0,0,0,0,0,0,0,0,0,0,0,0,0,0,0,0,0,0,0,0,0,0,0,0,0,0,0,0,0,0],"sum_hessian":[7.8096277E2,2.7173267E2,5.0923007E2,3.8992836E1,2.3273984E2,1.364342E2,3.7279587E2,1.1577034E2,1.169695E2,2.0181973E1,1.1625223E2,3.2287697E1,3.4050818E2,8.2224594E1,3.354575E1,8.253572E1,3.4433773E1,6.3107723E1,5.3144505E1,3.1273605E2,2.7772123E1,2.0172222E1,6.205237E1,2.4086586E1,5.8449135E1,3.331658E1,2.9791142E1,2.8275045E1,2.4869461E1,2.2086139E2,9.187465E1],"tree_param":{"num_deleted":"0","num_feature":"34","num_nodes":"31","size_leaf_vector":"1"}},{"base_weights":[5.03581E-3,3.6880967E-1,-1.2482015E-1,-7.2394885E-2,5.230333E-1,2.6293352E-1,-2.0429726E-1,8.717485E-3,-9.445483E-3,3.4637904E-1,3.235175E-2,-1.8411787E-2,6.458055E-1,-6.5813825E-2,-4.0089864E-1,1.22792915E-1,6.893213E-1,1.2155173E-2,-1.391484E-2,9.991543E-3,2.6776977E-2,-1.4636357E-1,3.0515152E-1,1.6760869E-2,-5.477935E-1,1.1837594E-2,-3.6235158E-3,3.0515667E-2,8.594373E-3,-6.6495175E-3,1.0303584E-2,-3.8579039E-3,1.8581567E-2,9.958397E-3,-6.51737E-3,-1.9863918E-2,-4.5673545E-3],"categories":[],"categories_nodes":[],"categories_segments":[],"categories_sizes":[],"default_left":[0,0,0,0,0,0,0,0,0,0,0,0,0,0,0,0,0,0,0,0,0,0,0,0,0,0,0,0,0,0,0,0,0,0,0,0,0],"id":11,"left_children":[1,3,5,7,9,11,13,-1,-1,15,-1,17,19,21,23,25,27,-1,-1,-1,-1,29,31,33,35,-1,-1,-1,-1,-1,-1,-1,-1,-1,-1,-1,-1],"loss_changes":[3.727272E1,1.4248577E1,1.8004875E1,5.0580025E0,1.4244335E1,1.08025055E1,1.3063385E1,0E0,0E0,8.959631E0,0E0,1.153923E1,2.550768E0,8.629926E0,1.2287544E1,5.1091366E0,5.4674397E0,0E0,0E0,0E0,0E0,8.873938E0,7.229305E0,4.1069508E0,6.3896713E0,0E0,0E0,0E0,0E0,0E0,0E0,0E0,0E0,0E0,0E0,0E0,0E0],"parents":[2147483647,0,0,1,1,2,2,3,3,4,4,5,5,6,6,9,9,11,11,12,12,13,13,14,14,15,15,16,16,21,21,22,22,23,23,24,24],"right_children":[2,4,6,8,10,12,14,-1,-1,16,-1,18,20,22,24,26,28,-1,-1,-1,-1,30,32,34,36,-1,-1,-1,-1,-1,-1,-1,-1,-1,-1,-1,-1],"split_conditions":[1.0874325E0,-4.937551E-1,4.0436733E1,2.5934098E-2,8.4755E-4,2.0876485E-1,1.5020068E0,8.717485E-3,-9.445483E-3,8.32812E1,3.235175E-2,8.656615E-2,9.568E-5,1E0,-2.228777E3,2.1724726E1,6.1655504E-1,1.2155173E-2,-1.391484E-2,9.991543E-3,2.6776977E-2,1.699472E3,1E0,2.4762383E1,1.09102E-3,1.1837594E-2,-3.6235158E-3,3.0515667E-2,8.594373E-3,-6.6495175E-3,1.0303584E-2,-3.8579039E-3,1.8581567E-2,9.958397E-3,-6.51737E-3,-1.9863918E-2,-4.5673545E-3],"split_indices":[5,17,0,7,16,17,5,0,0,25,0,7,14,10,24,13,4,0,0,0,0,20,8,13,16,0,0,0,0,0,0,0,0,0,0,0,0],"split_type":[0,0,0,0,0,0,0,0,0,0,0,0,0,0,0,0,0,0,0,0,0,0,0,0,0,0,0,0,0,0,0,0,0,0,0,0,0],"sum_hessian":[7.845721E2,2.0562666E2,5.789454E2,5.3366886E1,1.5225978E2,9.748072E1,4.814647E2,2.104742E1,3.2319466E1,1.1811574E2,3.4144035E1,5.713726E1,4.034346E1,2.8435025E2,1.9711444E2,7.332086E1,4.479488E1,2.9263908E1,2.787335E1,2.0043795E1,2.0299665E1,2.3483887E2,4.9511383E1,5.1572308E1,1.4554213E2,3.4261265E1,3.9059593E1,2.287717E1,2.1917707E1,2.0467804E2,3.016083E1,2.1162848E1,2.8348534E1,2.1799976E1,2.9772331E1,1.11663864E2,3.3878265E1],"tree_param":{"num_deleted":"0","num_feature":"34","num_nodes":"37","size_leaf_vector":"1"}},{"base_weights":[2.5622494E-4,-3.979248E-1,1.922772E-1,-6.83429E-1,-2.2835264E-1,3.4991313E-2,1.3680889E-1,-7.7900255E-1,-8.952326E-3,8.496774E-3,-3.2456613E-1,6.1740164E-2,6.5227026E-1,-3.1093465E-2,-6.106882E-1,-1.962758E-2,-2.2082226E-1,1.7017692E-1,-2.6288593E-1,2.4614437E-2,1.33599145E-2,-8.949637E-3,-2.387258E-2,1.9780565E-3,-1.1263647E-2,1.2600964E-2,2.1146277E-3,6.755605E-3,-1.2388726E-2],"categories":[],"categories_nodes":[],"categories_segments":[],"categories_sizes":[],"default_left":[0,0,0,0,0,0,0,0,0,0,0,0,0,0,0,0,0,0,0,0,0,0,0,0,0,0,0,0,0],"id":12,"left_children":[1,3,5,7,9,-1,11,13,-1,-1,15,17,19,-1,21,-1,23,25,27,-1,-1,-1,-1,-1,-1,-1,-1,-1,-1],"loss_changes":[6.0422916E1,1.2040409E1,2.8376583E1,2.9066086E0,8.283689E0,0E0,1.9471195E1,1.7888985E0,0E0,0E0,4.3961334E0,1.5746077E1,1.3735065E0,0E0,2.307951E0,0E0,4.93095E0,8.237022E0,8.407543E0,0E0,0E0,0E0,0E0,0E0,0E0,0E0,0E0,0E0,0E0],"parents":[2147483647,0,0,1,1,2,2,3,3,4,4,6,6,7,7,10,10,11,11,12,12,14,14,16,16,17,17,18,18],"right_children":[2,4,6,8,10,-1,12,14,-1,-1,16,18,20,-1,22,-1,24,26,28,-1,-1,-1,-1,-1,-1,-1,-1,-1,-1],"split_conditions":[6.024193E-1,3.882502E-1,1.8309174E-2,3.717377E1,1.6064817E1,3.4991313E-2,2.0519552E0,-4.6222487E-1,-8.952326E-3,8.496774E-3,1.14E-5,8.310564E-2,2.9617903E-1,-3.1093465E-2,4.9846714E1,-1.962758E-2,2.0724E-4,1.922933E1,3.9149887E1,2.4614437E-2,1.33599145E-2,-8.949637E-3,-2.387258E-2,1.9780565E-3,-1.1263647E-2,1.2600964E-2,2.1146277E-3,6.755605E-3,-1.2388726E-2],"split_indices":[6,6,7,13,13,0,6,17,0,0,14,7,17,0,0,0,15,13,0,0,0,0,0,0,0,0,0,0,0],"split_type":[0,0,0,0,0,0,0,0,0,0,0,0,0,0,0,0,0,0,0,0,0,0,0,0,0,0,0,0,0],"sum_hessian":[7.865321E2,2.5502939E2,5.3150275E2,9.255188E1,1.6247751E2,2.6379736E1,5.05123E2,7.229875E1,2.0253124E1,2.4940283E1,1.3753723E2,4.430355E2,6.2087494E1,2.4268686E1,4.8030067E1,3.0149298E1,1.07387924E2,3.3304584E2,1.09989655E2,3.0711092E1,3.1376404E1,2.0013674E1,2.8016392E1,3.779666E1,6.959126E1,9.286492E1,2.4018092E2,2.547401E1,8.451565E1],"tree_param":{"num_deleted":"0","num_feature":"34","num_nodes":"29","size_leaf_vector":"1"}},{"base_weights":[2.7889779E-2,-3.5499027E-1,2.374331E-1,-5.9603006E-1,-1.321559E-1,5.588714E-1,1.14524715E-1,-5.141464E-3,-6.7337316E-1,1.1152811E-2,-2.2878306E-1,1.3297031E-3,6.5944874E-1,6.346596E-1,1.3924436E-2,-8.757264E-1,-3.4678617E-1,-1.3155192E-1,-1.6943494E-2,7.6188076E-1,9.425678E-3,2.6004048E-2,1.2153379E-2,-5.6183197E-2,1.3940597E-2,-3.4463264E-2,-1.9173088E-2,-2.0500983E-3,-1.6596712E-2,-7.3738447E-3,3.2916805E-3,2.6946066E-2,1.4187489E-2,1.9384269E-3,-1.0596406E-2],"categories":[],"categories_nodes":[],"categories_segments":[],"categories_sizes":[],"default_left":[0,0,0,0,0,0,0,0,0,0,0,0,0,0,0,0,0,0,0,0,0,0,0,0,0,0,0,0,0,0,0,0,0,0,0],"id":13,"left_children":[1,3,5,7,9,11,13,-1,15,-1,17,-1,19,21,23,25,27,29,-1,31,-1,-1,-1,33,-1,-1,-1,-1,-1,-1,-1,-1,-1,-1,-1],"loss_changes":[6.3225388E1,1.4738064E1,1.993046E1,4.0557404E0,7.3424444E0,7.125061E0,1.934344E1,0E0,6.6520996E0,0E0,3.8736677E0,0E0,3.5493698E0,2.365694E0,9.993604E0,2.711853E0,2.5197768E0,2.8233428E0,0E0,2.5018387E0,0E0,0E0,0E0,9.859619E0,0E0,0E0,0E0,0E0,0E0,0E0,0E0,0E0,0E0,0E0,0E0],"parents":[2147483647,0,0,1,1,2,2,3,3,4,4,5,5,6,6,8,8,10,10,12,12,13,13,14,14,15,15,16,16,17,17,19,19,23,23],"right_children":[2,4,6,8,10,12,14,-1,16,-1,18,-1,20,22,24,26,28,30,-1,32,-1,-1,-1,34,-1,-1,-1,-1,-1,-1,-1,-1,-1,-1,-1],"split_conditions":[6.243772E-1,4.3896684E-1,1.1005342E0,1.6609352E1,1.6064817E1,-3.650476E3,-2.3367871E2,-5.141464E-3,6.615448E-2,1.1152811E-2,8.6951303E-1,1.3297031E-3,4.3416448E-2,2.8541843E1,1.9152021E0,2.2194828E1,-6.51314E2,4.679339E1,-1.6943494E-2,9.9020535E-1,9.425678E-3,2.6004048E-2,1.2153379E-2,8.310564E-2,1.3940597E-2,-3.4463264E-2,-1.9173088E-2,-2.0500983E-3,-1.6596712E-2,-7.3738447E-3,3.2916805E-3,2.6946066E-2,1.4187489E-2,1.9384269E-3,-1.0596406E-2],"split_indices":[6,6,5,3,3,24,1,0,7,0,23,0,7,3,6,3,24,1,0,5,0,0,0,7,0,0,0,0,0,0,0,0,0,0,0],"split_type":[0,0,0,0,0,0,0,0,0,0,0,0,0,0,0,0,0,0,0,0,0,0,0,0,0,0,0,0,0,0,0,0,0,0,0],"sum_hessian":[7.8409753E2,2.766797E2,5.0741785E2,1.3108589E2,1.455938E2,1.3816685E2,3.6925098E2,2.1386925E1,1.0969897E2,2.2343178E1,1.23250626E2,2.3224958E1,1.149419E2,5.7961327E1,3.1128964E2,6.5466705E1,4.4232258E1,9.7978455E1,2.5272171E1,8.655857E1,2.8383327E1,2.5840637E1,3.2120693E1,2.7071402E2,4.0575638E1,2.6618378E1,3.8848328E1,2.0171186E1,2.4061071E1,6.674966E1,3.1228798E1,5.571282E1,3.0845757E1,1.9332155E2,7.739248E1],"tree_param":{"num_deleted":"0","num_feature":"34","num_nodes":"35","size_leaf_vector":"1"}},{"base_weights":[-1.6414667E-2,-5.864887E-1,1.0444803E-1,-7.777315E-1,-3.0140215E-1,2.0682457E-1,-2.2234961E-1,-1.2540595E-2,-9.5489955E-1,-1.8054748E-2,4.61591E-3,2.3271121E-2,1.6873224E-1,-5.38593E-1,5.7341304E-2,-2.1344716E-2,-3.5428356E-2,3.965841E-1,7.341147E-2,-3.939E-3,-7.144822E-1,-1.3275992E-2,2.2724473E-1,4.3454077E-3,1.837432E-2,9.472755E-3,-2.7004557E-3,-2.7346794E-2,-1.4364027E-2,8.0921926E-4,1.599572E-2],"categories":[],"categories_nodes":[],"categories_segments":[],"categories_sizes":[],"default_left":[0,0,0,0,0,0,0,0,0,0,0,0,0,0,0,0,0,0,0,0,0,0,0,0,0,0,0,0,0,0,0],"id":14,"left_children":[1,3,5,7,9,11,13,-1,15,-1,-1,-1,17,19,21,-1,-1,23,25,-1,27,-1,29,-1,-1,-1,-1,-1,-1,-1,-1],"loss_changes":[5.4919926E1,7.0259094E0,2.2076824E1,4.2891273E0,8.36269E0,1.0514996E1,1.404022E1,0E0,1.0566521E0,0E0,0E0,0E0,1.0165893E1,5.048874E0,7.417053E0,0E0,0E0,7.286165E0,1.3394427E1,0E0,1.3686218E0,0E0,3.9021976E0,0E0,0E0,0E0,0E0,0E0,0E0,0E0,0E0],"parents":[2147483647,0,0,1,1,2,2,3,3,4,4,5,5,6,6,8,8,12,12,13,13,14,14,17,17,18,18,20,20,22,22],"right_children":[2,4,6,8,10,12,14,-1,16,-1,-1,-1,18,20,22,-1,-1,24,26,-1,28,-1,30,-1,-1,-1,-1,-1,-1,-1,-1],"split_conditions":[4.437152E-1,9.732458E0,8.1187226E-2,-1.1143282E2,5.1664E-4,1.7971199E-2,8.9838445E-1,-1.2540595E-2,8.0835E-4,-1.8054748E-2,4.61591E-3,2.3271121E-2,1E0,-4.2682804E1,3.9493E-4,-2.1344716E-2,-3.5428356E-2,9.071258E-1,1.9047657E1,-3.939E-3,1.6795958E2,-1.3275992E-2,1.6795958E2,4.3454077E-3,1.837432E-2,9.472755E-3,-2.7004557E-3,-2.7346794E-2,-1.4364027E-2,8.0921926E-4,1.599572E-2],"split_indices":[6,2,7,1,16,7,6,0,16,0,0,0,30,1,16,0,0,6,3,0,2,0,2,0,0,0,0,0,0,0,0],"split_type":[0,0,0,0,0,0,0,0,0,0,0,0,0,0,0,0,0,0,0,0,0,0,0,0,0,0,0,0,0,0,0],"sum_hessian":[7.926105E2,1.3744498E2,6.551655E2,7.9983376E1,5.746161E1,4.996724E2,1.5549312E2,2.8797653E1,5.118572E1,3.436229E1,2.3099321E1,2.876322E1,4.7090918E2,7.227678E1,8.321635E1,2.8853441E1,2.2332277E1,1.3672227E2,3.341869E2,2.3023825E1,4.9252953E1,2.0146208E1,6.3070137E1,6.487794E1,7.184434E1,1.3409047E2,2.0009642E2,2.3468594E1,2.5784359E1,3.9631035E1,2.3439102E1],"tree_param":{"num_deleted":"0","num_feature":"34","num_nodes":"31","size_leaf_vector":"1"}},{"base_weights":[-5.0630323E-3,-6.077158E-1,1.1574324E-1,-8.3312947E-1,-3.2610676E-1,2.5945273E-1,-1.2528744E-1,-3.1086473E-2,-1.609428E-2,-1.8332027E-2,3.955448E-3,-1.2876872E-2,3.037078E-1,1.6946532E-2,-2.583865E-1,4.772724E-1,1.6771625E-1,-3.5504743E-1,8.968454E-3,1.0563183E-2,2.6661213E-2,-6.0857134E-4,1.2040154E-2,-5.7873763E-3,-2.0768553E-2],"categories":[],"categories_nodes":[],"categories_segments":[],"categories_sizes":[],"default_left":[0,0,0,0,0,0,0,0,0,0,0,0,0,0,0,0,0,0,0,0,0,0,0,0,0],"id":15,"left_children":[1,3,5,7,9,11,13,-1,-1,-1,-1,-1,15,-1,17,19,21,23,-1,-1,-1,-1,-1,-1,-1],"loss_changes":[5.7511738E1,7.715542E0,2.285007E1,3.0562248E0,8.318058E0,1.2828238E1,2.2918564E1,0E0,0E0,0E0,0E0,0E0,8.960598E0,0E0,1.1437655E1,7.9815636E0,9.7872715E0,9.407167E0,0E0,0E0,0E0,0E0,0E0,0E0,0E0],"parents":[2147483647,0,0,1,1,2,2,3,3,4,4,5,5,6,6,12,12,14,14,15,15,16,16,17,17],"right_children":[2,4,6,8,10,12,14,-1,-1,-1,-1,-1,16,-1,18,20,22,24,-1,-1,-1,-1,-1,-1,-1],"split_conditions":[4.355251E-1,7.126268E-1,1.4553179E0,4.973366E-1,5.6496E-4,-1.26E-5,-2.79996E2,-3.1086473E-2,-1.609428E-2,-1.8332027E-2,3.955448E-3,-1.2876872E-2,1.1005342E0,1.6946532E-2,4.5856E-4,8.4755E-4,-9.95604E1,1E0,8.968454E-3,1.0563183E-2,2.6661213E-2,-6.0857134E-4,1.2040154E-2,-5.7873763E-3,-2.0768553E-2],"split_indices":[6,2,5,21,16,15,1,0,0,0,0,0,5,0,15,16,25,9,0,0,0,0,0,0,0],"split_type":[0,0,0,0,0,0,0,0,0,0,0,0,0,0,0,0,0,0,0,0,0,0,0,0,0],"sum_hessian":[7.853424E2,1.2993198E2,6.554104E2,6.9793686E1,6.0138298E1,4.107634E2,2.4464702E2,3.827074E1,3.1522943E1,3.6793415E1,2.3344883E1,2.361516E1,3.8714822E2,3.838192E1,2.062651E2,1.6755064E2,2.195976E2,1.7655055E2,2.9714561E1,1.3150037E2,3.605027E1,1.22453964E2,9.714363E1,1.21552124E2,5.4998417E1],"tree_param":{"num_deleted":"0","num_feature":"34","num_nodes":"25","size_leaf_vector":"1"}},{"base_weights":[1.8712664E-4,-2.5642443E-1,2.512002E-1,-6.0177106E-1,-1.4469405E-1,4.6698502E-1,9.674961E-2,-4.2657536E-1,-2.6910549E-2,-8.136361E-2,-2.7047507E-2,2.5969138E-2,3.1848678E-1,-2.2697294E-2,2.3179302E-2,-1.8995367E-2,-1.0986071E-4,1.3593892E-2,-1.5081821E-1,2.0267593E-2,1.8579802E-1,3.3978322E-1,-1.8137567E-1,1.17239645E-2,-6.907288E-3,-1.7326188E-3,1.1881416E-2,1.7390272E-2,-2.2756702E-3,-1.1752163E-2,1.3047998E-3],"categories":[],"categories_nodes":[],"categories_segments":[],"categories_sizes":[],"default_left":[0,0,0,0,0,0,0,0,0,0,0,0,0,0,0,0,0,0,0,0,0,0,0,0,0,0,0,0,0,0,0],"id":16,"left_children":[1,3,5,7,9,11,13,15,-1,17,-1,-1,19,21,-1,-1,-1,-1,23,-1,25,27,29,-1,-1,-1,-1,-1,-1,-1,-1],"loss_changes":[5.0528603E1,1.471114E1,1.3076206E1,3.960518E0,1.393321E1,9.081451E0,1.9004229E1,5.4337482E0,0E0,1.0325213E1,0E0,0E0,5.5080376E0,1.1651301E1,0E0,0E0,0E0,0E0,1.0715204E1,0E0,4.8368745E0,6.281578E0,6.742992E0,0E0,0E0,0E0,0E0,0E0,0E0,0E0,0E0],"parents":[2147483647,0,0,1,1,2,2,3,3,4,4,5,5,6,6,7,7,9,9,12,12,13,13,18,18,20,20,21,21,22,22],"right_children":[2,4,6,8,10,12,14,16,-1,18,-1,-1,20,22,-1,-1,-1,-1,24,-1,26,28,30,-1,-1,-1,-1,-1,-1,-1,-1],"split_conditions":[7.881586E-1,3.882502E-1,4.3711383E-2,8.1594E-4,3.5550277E0,3.9302385E-1,2.1458836E0,4.2431E-4,-2.6910549E-2,2.5131611E-2,-2.7047507E-2,2.5969138E-2,4.9218518E-1,-1.09406494E2,2.3179302E-2,-1.8995367E-2,-1.0986071E-4,1.3593892E-2,2.7038702E-1,2.0267593E-2,5.119986E1,-8.698162E2,1.2299539E0,1.17239645E-2,-6.907288E-3,-1.7326188E-3,1.1881416E-2,1.7390272E-2,-2.2756702E-3,-1.1752163E-2,1.3047998E-3],"split_indices":[6,6,7,16,4,4,6,16,0,7,0,0,22,1,0,0,0,0,4,0,0,25,4,0,0,0,0,0,0,0,0],"split_type":[0,0,0,0,0,0,0,0,0,0,0,0,0,0,0,0,0,0,0,0,0,0,0,0,0,0,0,0,0,0,0],"sum_hessian":[7.804571E2,3.8570648E2,3.947506E2,9.192117E1,2.937853E2,1.6271916E2,2.3203143E2,6.0970455E1,3.095072E1,2.7326758E2,2.051772E1,4.1358276E1,1.21360886E2,1.98701E2,3.3330425E1,4.0133457E1,2.0836998E1,2.9989906E1,2.4327768E2,3.0456888E1,9.0904E1,5.9612038E1,1.3908897E2,2.9948893E1,2.1332878E2,4.2568165E1,4.8335835E1,3.744902E1,2.216302E1,7.1325294E1,6.776367E1],"tree_param":{"num_deleted":"0","num_feature":"34","num_nodes":"31","size_leaf_vector":"1"}},{"base_weights":[1.823687E-2,-5.613824E-1,1.4727964E-1,-4.7213414E-1,-3.000613E-2,5.2254474E-1,2.364822E-2,-6.226892E-1,-2.1787228E-1,7.269999E-1,2.5734273E-1,5.566032E-1,-4.8715487E-2,-4.6063143E-1,-2.5447514E-2,-1.4826751E-2,4.6634967E-3,8.4605885E-1,1.042377E-2,2.8146408E-4,1.6703803E-2,6.5081907E-3,2.56214E-2,1.2974086E-1,-1.9579332E-1,-4.837876E-3,-1.9984538E-2,1.7467935E-2,3.2783527E-2,-8.270851E-3,8.00935E-3,-8.748192E-3,9.34586E-3],"categories":[],"categories_nodes":[],"categories_segments":[],"categories_sizes":[],"default_left":[0,0,0,0,0,0,0,0,0,0,0,0,0,0,0,0,0,0,0,0,0,0,0,0,0,0,0,0,0,0,0,0,0],"id":17,"left_children":[1,3,5,7,-1,9,11,13,15,17,19,21,23,25,-1,-1,-1,27,-1,-1,-1,-1,-1,29,31,-1,-1,-1,-1,-1,-1,-1,-1],"loss_changes":[5.83228E1,4.468132E0,2.9526989E1,4.312792E0,0E0,8.085915E0,1.8705671E1,1.8390808E0,5.209432E0,3.261116E0,5.280724E0,5.3804474E0,1.1246919E1,2.6824741E0,0E0,0E0,0E0,2.8070717E0,0E0,0E0,0E0,0E0,0E0,1.0913279E1,1.159331E1,0E0,0E0,0E0,0E0,0E0,0E0,0E0,0E0],"parents":[2147483647,0,0,1,1,2,2,3,3,5,5,6,6,7,7,8,8,9,9,10,10,11,11,12,12,13,13,17,17,23,23,24,24],"right_children":[2,4,6,8,-1,10,12,14,16,18,20,22,24,26,-1,-1,-1,28,-1,-1,-1,-1,-1,30,32,-1,-1,-1,-1,-1,-1,-1,-1],"split_conditions":[4.437152E-1,9.0166E-4,1.0815616E0,5.6496E-4,-3.000613E-2,2.3365377E1,3.7626797E1,5.3477E1,-6.041675E-1,9.9020535E-1,1E0,2.1893E-4,1.3941319E0,2.4455004E1,-2.5447514E-2,-1.4826751E-2,4.6634967E-3,1.4248586E-1,1.042377E-2,2.8146408E-4,1.6703803E-2,6.5081907E-3,2.56214E-2,1.0501E-4,4.5856E-4,-4.837876E-3,-1.9984538E-2,1.7467935E-2,3.2783527E-2,-8.270851E-3,8.00935E-3,-8.748192E-3,9.34586E-3],"split_indices":[6,16,5,16,0,3,0,24,2,5,9,15,5,3,0,0,0,23,0,0,0,0,0,15,15,0,0,0,0,0,0,0,0],"split_type":[0,0,0,0,0,0,0,0,0,0,0,0,0,0,0,0,0,0,0,0,0,0,0,0,0,0,0,0,0,0,0,0,0],"sum_hessian":[7.761045E2,1.3996233E2,6.3614215E2,1.1994702E2,2.0015305E1,1.558426E2,4.8029956E2,7.32704E1,4.667662E1,8.582042E1,7.002219E1,5.5983364E1,4.243162E2,4.6435673E1,2.6834726E1,2.6603476E1,2.0073145E1,6.3255775E1,2.2564642E1,3.9615295E1,3.0406895E1,2.7908422E1,2.807494E1,1.9150732E2,2.3280888E2,2.055308E1,2.5882595E1,3.401394E1,2.9241837E1,4.773601E1,1.437713E2,1.9670633E2,3.6102543E1],"tree_param":{"num_deleted":"0","num_feature":"34","num_nodes":"33","size_leaf_vector":"1"}},{"base_weights":[3.6094622E-3,-2.440034E-1,2.4293442E-1,-5.110859E-1,-1.0524396E-1,5.267222E-1,1.1708179E-1,-2.9498538E-2,-4.031951E-1,1.1252016E-2,-1.9480346E-1,2.6672091E-2,4.1831058E-1,5.449669E-1,4.0455568E-3,-1.2377116E-1,-1.6959002E-2,-7.1485355E-2,-5.549647E-1,3.412414E-3,5.8016026E-1,1.1132106E-3,2.5234813E-2,-6.824626E-2,1.6786588E-2,-1.1919243E-2,5.158019E-3,1.4536799E-3,-1.2835061E-2,-8.4640235E-3,-2.8149132E-2,2.3314262E-2,7.723419E-3,1.4912675E-3,-1.1463867E-2],"categories":[],"categories_nodes":[],"categories_segments":[],"categories_sizes":[],"default_left":[0,0,0,0,0,0,0,0,0,0,0,0,0,0,0,0,0,0,0,0,0,0,0,0,0,0,0,0,0,0,0,0,0,0,0],"id":18,"left_children":[1,3,5,7,9,11,13,-1,15,-1,17,-1,19,21,23,25,-1,27,29,-1,31,-1,-1,33,-1,-1,-1,-1,-1,-1,-1,-1,-1,-1,-1],"loss_changes":[4.7054256E1,1.4286808E1,1.4240047E1,5.8239365E0,1.128945E1,3.9687233E0,1.3612518E1,0E0,4.8417244E0,0E0,9.637247E0,0E0,4.673229E0,8.705248E0,9.193381E0,3.6958508E0,0E0,7.1968126E0,5.169571E0,0E0,3.5566254E0,0E0,0E0,7.5287466E0,0E0,0E0,0E0,0E0,0E0,0E0,0E0,0E0,0E0,0E0,0E0],"parents":[2147483647,0,0,1,1,2,2,3,3,4,4,5,5,6,6,8,8,10,10,12,12,13,13,14,14,15,15,17,17,18,18,20,20,23,23],"right_children":[2,4,6,8,10,12,14,-1,16,-1,18,-1,20,22,24,26,-1,28,30,-1,32,-1,-1,34,-1,-1,-1,-1,-1,-1,-1,-1,-1,-1,-1],"split_conditions":[7.840499E-1,4.355251E-1,1.1272092E0,4.8839638E-1,9.790025E-1,1.6609352E1,3.9336906E1,-2.9498538E-2,-6.30414E2,1.1252016E-2,6.136289E1,2.6672091E-2,4.6037968E1,-2.972394E-1,2.0724E-4,3.5021535E-1,-1.6959002E-2,3.3092762E1,6.998101E-1,3.412414E-3,5.0388575E-1,1.1132106E-3,2.5234813E-2,1.6371619E0,1.6786588E-2,-1.1919243E-2,5.158019E-3,1.4536799E-3,-1.2835061E-2,-8.4640235E-3,-2.8149132E-2,2.3314262E-2,7.723419E-3,1.4912675E-3,-1.1463867E-2],"split_indices":[6,6,5,22,5,13,0,0,24,0,0,0,0,17,14,6,0,13,17,0,22,0,0,5,0,0,0,0,0,0,0,0,0,0,0],"split_type":[0,0,0,0,0,0,0,0,0,0,0,0,0,0,0,0,0,0,0,0,0,0,0,0,0,0,0,0,0,0,0,0,0,0,0],"sum_hessian":[7.900327E2,3.8806842E2,4.0196432E2,1.3060135E2,2.5746707E2,1.2129302E2,2.806713E2,2.1100016E1,1.09501335E2,3.928542E1,2.1818164E2,2.4403685E1,9.688934E1,5.686994E1,2.2380135E2,4.1724255E1,6.777708E1,1.6452382E2,5.3657833E1,3.5017677E1,6.1871662E1,2.1902914E1,3.496703E1,1.9942336E2,2.4377989E1,2.1493263E1,2.0230991E1,1.2417577E2,4.0348034E1,3.3528076E1,2.012976E1,3.647897E1,2.5392693E1,1.4594339E2,5.3479965E1],"tree_param":{"num_deleted":"0","num_feature":"34","num_nodes":"35","size_leaf_vector":"1"}},{"base_weights":[-2.0455443E-3,1.4346737E-1,-2.0057338E-1,-1.2605762E-2,3.1175858E-1,3.4135765E-1,-3.5346618E-1,3.9680597E-1,-1.4551827E-1,4.342742E-1,-7.869681E-2,-6.157206E-3,5.615016E-1,6.0777892E-3,-4.3922424E-1,2.4372449E-3,2.5502713E-2,1.2702595E-2,-2.5306293E-1,5.31192E-1,-7.059179E-3,-1.4919235E-2,7.344605E-3,2.8693402E-2,7.4717556E-3,-5.293239E-1,1.4954613E-3,-2.0595698E-2,-2.650759E-3,1.2209097E-2,2.6920073E-2,-9.4011985E-3,-2.0391585E-2],"categories":[],"categories_nodes":[],"categories_segments":[],"categories_sizes":[],"default_left":[0,0,0,0,0,0,0,0,0,0,0,0,0,0,0,0,0,0,0,0,0,0,0,0,0,0,0,0,0,0,0,0,0],"id":19,"left_children":[1,3,5,7,9,11,13,15,17,19,21,-1,23,-1,25,-1,-1,-1,27,29,-1,-1,-1,-1,-1,31,-1,-1,-1,-1,-1,-1,-1],"loss_changes":[2.2555073E1,1.1861323E1,2.7620724E1,1.2887225E1,1.0483723E1,9.120269E0,1.2544994E1,8.0632305E0,1.1160662E1,1.1030079E1,7.4899697E0,0E0,5.958086E0,0E0,1.0017372E1,0E0,0E0,0E0,1.0659667E1,5.7551537E0,0E0,0E0,0E0,0E0,0E0,5.657852E0,0E0,0E0,0E0,0E0,0E0,0E0,0E0],"parents":[2147483647,0,0,1,1,2,2,3,3,4,4,5,5,6,6,7,7,8,8,9,9,10,10,12,12,14,14,18,18,19,19,25,25],"right_children":[2,4,6,8,10,12,14,16,18,20,22,-1,24,-1,26,-1,-1,-1,28,30,-1,-1,-1,-1,-1,32,-1,-1,-1,-1,-1,-1,-1],"split_conditions":[1.3941319E0,5.6496E-4,4.1409653E1,8.919507E-1,7.581334E-1,4.8566097E-1,3.2748815E-1,5.031625E1,-1.23254265E2,9.9028E-4,1.1138917E0,-6.157206E-3,3.549139E1,6.0777892E-3,1.59519E-3,2.4372449E-3,2.5502713E-2,1.2702595E-2,-4.279076E2,6.2204937E1,-7.059179E-3,-1.4919235E-2,7.344605E-3,2.8693402E-2,7.4717556E-3,-2.1830668E-1,1.4954613E-3,-2.0595698E-2,-2.650759E-3,1.2209097E-2,2.6920073E-2,-9.4011985E-3,-2.0391585E-2],"split_indices":[5,16,0,5,17,22,4,0,1,16,17,0,0,0,16,0,0,0,25,0,0,0,0,0,0,17,0,0,0,0,0,0,0],"split_type":[0,0,0,0,0,0,0,0,0,0,0,0,0,0,0,0,0,0,0,0,0,0,0,0,0,0,0,0,0,0,0,0,0],"sum_hessian":[7.7657684E2,4.4815112E2,3.2842572E2,2.3316763E2,2.1498347E2,7.158217E1,2.5684357E2,5.5987007E1,1.7718063E2,1.6366193E2,5.132155E1,2.0460848E1,5.1121315E1,3.3798935E1,2.2304462E2,3.452836E1,2.1458649E1,2.7085806E1,1.5009483E2,1.4345967E2,2.0202244E1,2.2039068E1,2.9282478E1,2.0617382E1,3.0503935E1,1.8838011E2,3.4664513E1,3.941662E1,1.1067821E2,1.10474846E2,3.2984833E1,8.014028E1,1.0823982E2],"tree_param":{"num_deleted":"0","num_feature":"34","num_nodes":"33","size_leaf_vector":"1"}},{"base_weights":[-1.966441E-2,-4.8711085E-1,7.741617E-2,-2.6998088E-2,-3.8958648E-1,3.7135476E-1,-5.185196E-2,-1.0925517E-1,-5.441165E-1,7.1483815E-1,2.2722128E-1,4.5168197E-1,-1.3121094E-1,-1.2796461E-2,6.0223276E-3,-2.1216597E-2,-9.141986E-3,7.729258E-3,3.7150078E-2,1.0743E-2,6.402633E-1,2.0995503E-2,5.514818E-3,6.695106E-3,-3.5732E-1,9.385855E-3,-1.22190025E-2,2.7969271E-2,6.9236173E-3,-5.445478E-3,5.206222E-3,-6.5239044E-3,-1.9762993E-2],"categories":[],"categories_nodes":[],"categories_segments":[],"categories_sizes":[],"default_left":[0,0,0,0,0,0,0,0,0,0,0,0,0,0,0,0,0,0,0,0,0,0,0,0,0,0,0,0,0,0,0,0,0],"id":20,"left_children":[1,3,5,-1,7,9,11,13,15,17,19,21,23,-1,-1,-1,-1,-1,-1,25,27,-1,-1,29,31,-1,-1,-1,-1,-1,-1,-1,-1],"loss_changes":[3.5777676E1,4.6287804E0,2.4853828E1,0E0,4.728323E0,9.46806E0,1.8249775E1,4.4263587E0,2.2934933E0,1.3068886E1,1.278031E1,3.7864542E0,1.2337175E1,0E0,0E0,0E0,0E0,0E0,0E0,1.2439952E1,5.3443775E0,0E0,0E0,7.807734E0,5.9379177E0,0E0,0E0,0E0,0E0,0E0,0E0,0E0,0E0],"parents":[2147483647,0,0,1,1,2,2,4,4,5,5,6,6,7,7,8,8,9,9,10,10,11,11,12,12,19,19,20,20,23,23,24,24],"right_children":[2,4,6,-1,8,10,12,14,16,18,20,22,24,-1,-1,-1,-1,-1,-1,26,28,-1,-1,30,32,-1,-1,-1,-1,-1,-1,-1,-1],"split_conditions":[4.437152E-1,4.8839638E-1,1.1272092E0,-2.6998088E-2,-8.12788E2,-4.086827E1,-2.6832004E2,5.079029E-2,5.1664E-4,5.5561E-4,1.159369E3,2.9586626E1,1.5615501E0,-1.2796461E-2,6.0223276E-3,-2.1216597E-2,-9.141986E-3,7.729258E-3,3.7150078E-2,2.4762383E1,9.8345804E-1,2.0995503E-2,5.514818E-3,1.0177263E1,5.016431E-1,9.385855E-3,-1.22190025E-2,2.7969271E-2,6.9236173E-3,-5.445478E-3,5.206222E-3,-6.5239044E-3,-1.9762993E-2],"split_indices":[6,22,5,0,24,1,1,7,16,16,24,13,5,0,0,0,0,0,0,13,5,0,0,1,22,0,0,0,0,0,0,0,0],"split_type":[0,0,0,0,0,0,0,0,0,0,0,0,0,0,0,0,0,0,0,0,0,0,0,0,0,0,0,0,0,0,0,0,0],"sum_hessian":[7.838376E2,1.3359032E2,6.5024725E2,2.21877E1,1.1140262E2,1.977097E2,4.5253757E2,4.1030594E1,7.0372025E1,5.589466E1,1.4181505E2,6.0162457E1,3.923751E2,2.006457E1,2.0966026E1,3.928135E1,3.1090675E1,3.1531765E1,2.4362894E1,9.455318E1,4.7261868E1,2.9360727E1,3.0801731E1,2.4465578E2,1.4771933E2,5.531765E1,3.9235527E1,2.595349E1,2.1308376E1,1.1460257E2,1.300532E2,1.03482834E2,4.4236496E1],"tree_param":{"num_deleted":"0","num_feature":"34","num_nodes":"33","size_leaf_vector":"1"}},{"base_weights":[-9.789368E-3,-4.9426365E-1,9.26713E-2,-2.5773523E-2,-3.681393E-1,2.5543523E-1,-5.7826467E-2,-5.58595E-1,-1.1118983E-1,5.260839E-1,1.0962026E-1,4.4203997E-1,-1.4624831E-1,-6.1271125E-3,-2.3220355E-2,-1.3449053E-2,8.603065E-3,2.3174835E-2,3.4495637E-1,3.273623E-1,-8.2022026E-2,6.9547067E-3,1.9079503E-2,-2.042051E-1,1.6415235E-2,-1.0627604E-3,1.778817E-2,2.3869418E-3,1.3842944E-2,-1.4280622E-2,2.5822902E-3,-2.1263573E-3,-1.1972124E-2],"categories":[],"categories_nodes":[],"categories_segments":[],"categories_sizes":[],"default_left":[0,0,0,0,0,0,0,0,0,0,0,0,0,0,0,0,0,0,0,0,0,0,0,0,0,0,0,0,0,0,0,0,0],"id":21,"left_children":[1,3,5,-1,7,9,11,13,15,17,19,21,23,-1,-1,-1,-1,-1,25,27,29,-1,-1,31,-1,-1,-1,-1,-1,-1,-1,-1,-1],"loss_changes":[3.861747E1,5.4952087E0,1.5762575E1,0E0,4.9296618E0,1.2010372E1,1.4889048E1,4.118437E0,6.6141934E0,4.147667E0,8.569603E0,1.6821241E0,1.1682583E1,0E0,0E0,0E0,0E0,0E0,6.298258E0,3.0585833E0,7.3789406E0,0E0,0E0,6.79478E0,0E0,0E0,0E0,0E0,0E0,0E0,0E0,0E0,0E0],"parents":[2147483647,0,0,1,1,2,2,4,4,5,5,6,6,7,7,8,8,9,9,10,10,11,11,12,12,18,18,19,19,20,20,23,23],"right_children":[2,4,6,-1,8,10,12,14,16,18,20,22,24,-1,-1,-1,-1,-1,26,28,30,-1,-1,32,-1,-1,-1,-1,-1,-1,-1,-1,-1],"split_conditions":[4.437152E-1,-5.569186E2,1.2852309E0,-2.5773523E-2,5.6496E-4,2.0202686E1,-2.5935638E2,2.3806E-4,3.54695E-1,9.5265025E-1,1E0,-3.9686548E2,2.1458836E0,-6.1271125E-3,-2.3220355E-2,-1.3449053E-2,8.603065E-3,2.3174835E-2,3.113909E-2,2.8407E-4,6.801868E-1,6.9547067E-3,1.9079503E-2,8.040808E-2,1.6415235E-2,-1.0627604E-3,1.778817E-2,2.3869418E-3,1.3842944E-2,-1.4280622E-2,2.5822902E-3,-2.1263573E-3,-1.1972124E-2],"split_indices":[6,25,5,0,16,13,1,16,6,5,30,2,6,0,0,0,0,0,7,16,6,0,0,7,0,0,0,0,0,0,0,0,0],"split_type":[0,0,0,0,0,0,0,0,0,0,0,0,0,0,0,0,0,0,0,0,0,0,0,0,0,0,0,0,0,0,0,0,0],"sum_hessian":[7.7330316E2,1.3383008E2,6.394731E2,3.1189262E1,1.02640816E2,3.068661E2,3.3260696E2,5.737576E1,4.526506E1,1.0537567E2,2.0149043E2,4.861985E1,2.8398712E2,2.3340822E1,3.4034935E1,2.4505041E1,2.0760017E1,4.164235E1,6.373332E1,9.3903564E1,1.0758687E2,2.568547E1,2.2934378E1,2.635174E2,2.0469738E1,2.5669613E1,3.8063705E1,3.4349262E1,5.9554302E1,3.1256758E1,7.633011E1,1.5838885E2,1.0512853E2],"tree_param":{"num_deleted":"0","num_feature":"34","num_nodes":"33","size_leaf_vector":"1"}},{"base_weights":[4.4314903E-3,-3.095811E-1,1.7652635E-1,1.157241E-1,-3.8866717E-1,5.143978E-1,5.2180875E-2,-4.140618E-3,1.1640697E-2,-2.6293153E-2,-3.1677622E-1,3.882034E-1,2.7763698E-2,5.0456446E-1,-3.480808E-2,4.524908E-3,-3.994668E-1,1.6434264E-1,6.2899387E-1,2.5311168E-3,2.2812385E-2,8.9542605E-2,-2.3709625E-1,-1.6573265E-2,1.0702605E-4,1.2736167E-2,-1.1917491E-3,2.8140105E-2,8.965716E-3,-7.5343763E-4,1.1555161E-2,-1.1802374E-2,3.9466387E-3],"categories":[],"categories_nodes":[],"categories_segments":[],"categories_sizes":[],"default_left":[0,0,0,0,0,0,0,0,0,0,0,0,0,0,0,0,0,0,0,0,0,0,0,0,0,0,0,0,0,0,0,0,0],"id":22,"left_children":[1,3,5,7,9,11,13,-1,-1,-1,15,17,-1,19,21,-1,23,25,27,-1,-1,29,31,-1,-1,-1,-1,-1,-1,-1,-1,-1,-1],"loss_changes":[4.207191E1,9.384329E0,2.1032341E1,3.209714E0,7.494854E0,6.149914E0,1.4654427E1,0E0,0E0,0E0,8.124451E0,5.474909E0,0E0,6.2414694E0,7.912196E0,0E0,1.091477E1,3.168203E0,4.4743996E0,0E0,0E0,6.6492643E0,7.0294943E0,0E0,0E0,0E0,0E0,0E0,0E0,0E0,0E0,0E0,0E0],"parents":[2147483647,0,0,1,1,2,2,3,3,4,4,5,5,6,6,10,10,11,11,13,13,14,14,16,16,17,17,18,18,21,21,22,22],"right_children":[2,4,6,8,10,12,14,-1,-1,-1,16,18,-1,20,22,-1,24,26,28,-1,-1,30,32,-1,-1,-1,-1,-1,-1,-1,-1,-1,-1],"split_conditions":[6.243772E-1,9.5265025E-1,1.1005342E0,4.894355E1,-1.383298E0,8.4755E-4,3.8775585E1,-4.140618E-3,1.1640697E-2,-2.6293153E-2,1.6284052E1,5.1669376E1,2.7763698E-2,-2.5616497E-1,1.5309426E0,4.524908E-3,6.9828804E1,4.898924E-1,5.0302595E-1,2.5311168E-3,2.2812385E-2,5.128254E-1,1.09102E-3,-1.6573265E-2,1.0702605E-4,1.2736167E-2,-1.1917491E-3,2.8140105E-2,8.965716E-3,-7.5343763E-4,1.1555161E-2,-1.1802374E-2,3.9466387E-3],"split_indices":[6,5,5,0,17,16,0,0,0,0,13,0,0,17,5,0,1,21,22,0,0,21,16,0,0,0,0,0,0,0,0,0,0],"split_type":[0,0,0,0,0,0,0,0,0,0,0,0,0,0,0,0,0,0,0,0,0,0,0,0,0,0,0,0,0,0,0,0,0],"sum_hessian":[7.747571E2,2.7351306E2,5.01244E2,4.254197E1,2.309711E2,1.3294044E2,3.6830356E2,2.2341673E1,2.0200298E1,2.6615402E1,2.043557E2,1.0487581E2,2.806463E1,5.8036304E1,3.1026724E2,3.0278225E1,1.7407748E2,5.6307533E1,4.856828E1,2.3118279E1,3.4918026E1,1.9253339E2,1.17733864E2,1.25825836E2,4.8251644E1,2.4015656E1,3.2291878E1,2.3028275E1,2.5540005E1,1.3980365E2,5.272974E1,8.2773125E1,3.496074E1],"tree_param":{"num_deleted":"0","num_feature":"34","num_nodes":"33","size_leaf_vector":"1"}},{"base_weights":[-4.654925E-3,-2.7535582E-1,1.7381105E-1,-4.7282952E-1,-1.2406484E-1,1.0718927E-1,6.863977E-1,-2.7968233E-2,-3.749579E-1,1.1099351E-2,-2.107224E-1,2.014148E-1,-1.9421117E-1,1.0858498E-2,2.5715532E-2,-1.1839199E-1,-5.315994E-1,-1.9954376E-2,-1.08058766E-1,5.193812E-1,1.21930405E-1,-1.6247904E-2,-3.257801E-2,-1.1489141E-2,3.4348317E-3,-1.1218481E-2,-2.4425672E-2,7.078633E-3,-8.710734E-3,6.5076775E-3,2.0945514E-2,1.41424E-2,5.471331E-4,-5.348986E-3,6.871459E-3],"categories":[],"categories_nodes":[],"categories_segments":[],"categories_sizes":[],"default_left":[0,0,0,0,0,0,0,0,0,0,0,0,0,0,0,0,0,0,0,0,0,0,0,0,0,0,0,0,0,0,0,0,0,0,0],"id":23,"left_children":[1,3,5,7,9,11,13,-1,15,-1,17,19,21,-1,-1,23,25,-1,27,29,31,-1,33,-1,-1,-1,-1,-1,-1,-1,-1,-1,-1,-1,-1],"loss_changes":[3.807062E1,9.18112E0,1.5981143E1,5.235218E0,7.8613915E0,1.2079548E1,2.2524376E0,0E0,4.41951E0,0E0,7.0047812E0,7.9764414E0,5.601158E0,0E0,0E0,2.967598E0,2.4092522E0,0E0,8.226824E0,3.0538177E0,9.406458E0,0E0,2.8036697E0,0E0,0E0,0E0,0E0,0E0,0E0,0E0,0E0,0E0,0E0,0E0,0E0],"parents":[2147483647,0,0,1,1,2,2,3,3,4,4,5,5,6,6,8,8,10,10,11,11,12,12,15,15,16,16,18,18,19,19,20,20,22,22],"right_children":[2,4,6,8,10,12,14,-1,16,-1,18,20,22,-1,-1,24,26,-1,28,30,32,-1,34,-1,-1,-1,-1,-1,-1,-1,-1,-1,-1,-1,-1],"split_conditions":[6.724169E-1,4.437152E-1,2.1458836E0,4.882236E-1,1.6064817E1,8.040808E-2,2.2652874E1,-2.7968233E-2,-6.51314E2,1.1099351E-2,-1.368523E3,4.9066386E-1,8.9838445E-1,1.0858498E-2,2.5715532E-2,3.5021535E-1,8.1594E-4,-1.9954376E-2,-2.01929E2,-1.488461E3,2.663306E-2,-1.6247904E-2,2.0063664E2,-1.1489141E-2,3.4348317E-3,-1.1218481E-2,-2.4425672E-2,7.078633E-3,-8.710734E-3,6.5076775E-3,2.0945514E-2,1.41424E-2,5.471331E-4,-5.348986E-3,6.871459E-3],"split_indices":[6,6,6,22,3,7,3,0,24,0,20,22,6,0,0,6,16,0,20,20,7,0,1,0,0,0,0,0,0,0,0,0,0,0,0],"split_type":[0,0,0,0,0,0,0,0,0,0,0,0,0,0,0,0,0,0,0,0,0,0,0,0,0,0,0,0,0,0,0,0,0,0,0],"sum_hessian":[7.838423E2,3.1123267E2,4.7260962E2,1.3287933E2,1.7835333E2,4.205618E2,5.204784E1,2.0161448E1,1.1271788E2,2.5467546E1,1.5288579E2,3.2115555E2,9.9406235E1,2.030261E1,3.174523E1,4.4303085E1,6.8414795E1,2.5975914E1,1.26909874E2,6.1761253E1,2.593943E2,2.987594E1,6.953029E1,2.0337914E1,2.3965174E1,4.7125225E1,2.128957E1,4.3563942E1,8.334593E1,2.479843E1,3.6962826E1,5.7509357E1,2.0188495E2,4.5311684E1,2.4218609E1],"tree_param":{"num_deleted":"0","num_feature":"34","num_nodes":"35","size_leaf_vector":"1"}},{"base_weights":[-2.5408797E-2,-2.4826835E-1,2.1845323E-1,1.7053267E-1,-3.2403088E-1,6.3372564E-1,1.5714726E-1,-4.8745014E-3,1.1955858E-2,-5.8733475E-1,-2.0567189E-1,2.658128E-2,7.856469E-3,3.991179E-1,5.1974207E-2,-2.8467426E-2,-4.4866478E-1,-2.519785E-1,6.0774414E-3,5.539095E-1,-5.148617E-3,-1.377979E-1,2.2256617E-1,-9.076894E-3,-2.3960749E-2,-5.2998597E-3,-2.6261764E-2,2.3579845E-2,9.780757E-3,8.688758E-3,-7.5345603E-3,1.16834175E-2,-1.3972721E-3],"categories":[],"categories_nodes":[],"categories_segments":[],"categories_sizes":[],"default_left":[0,0,0,0,0,0,0,0,0,0,0,0,0,0,0,0,0,0,0,0,0,0,0,0,0,0,0,0,0,0,0,0,0],"id":24,"left_children":[1,3,5,7,9,11,13,-1,-1,15,17,-1,-1,19,21,-1,23,25,-1,27,-1,29,31,-1,-1,-1,-1,-1,-1,-1,-1,-1,-1],"loss_changes":[4.2506912E1,1.309516E1,9.226526E0,4.991468E0,1.0493839E1,3.8454704E0,8.265324E0,0E0,0E0,4.33749E0,4.6960955E0,0E0,0E0,8.960587E0,7.559239E0,0E0,3.5391636E0,9.874295E0,0E0,3.5208988E0,0E0,5.4940667E0,5.58926E0,0E0,0E0,0E0,0E0,0E0,0E0,0E0,0E0,0E0,0E0],"parents":[2147483647,0,0,1,1,2,2,3,3,4,4,5,5,6,6,9,9,10,10,13,13,14,14,16,16,17,17,19,19,21,21,22,22],"right_children":[2,4,6,8,10,12,14,-1,-1,16,18,-1,-1,20,22,-1,24,26,-1,28,-1,30,32,-1,-1,-1,-1,-1,-1,-1,-1,-1,-1],"split_conditions":[8.213268E-1,9.631491E-1,9.22797E-1,-2.345108E2,4.355251E-1,4.9696982E-1,4.9288338E-1,-4.8745014E-3,1.1955858E-2,4.9127376E-1,1.59519E-3,2.658128E-2,7.856469E-3,3.674211E1,5.7498E-4,-2.8467426E-2,2.579112E2,9.7213E-4,6.0774414E-3,8.1991E-4,-5.148617E-3,-4.21E-6,1.4860157E0,-9.076894E-3,-2.3960749E-2,-5.2998597E-3,-2.6261764E-2,2.3579845E-2,9.780757E-3,8.688758E-3,-7.5345603E-3,1.16834175E-2,-1.3972721E-3],"split_indices":[6,5,5,25,6,4,22,0,0,22,16,0,0,13,16,0,25,16,0,16,0,14,5,0,0,0,0,0,0,0,0,0,0],"split_type":[0,0,0,0,0,0,0,0,0,0,0,0,0,0,0,0,0,0,0,0,0,0,0,0,0,0,0,0,0,0,0,0,0],"sum_hessian":[7.780886E2,4.0674667E2,3.7134192E2,6.172436E1,3.450223E2,4.515655E1,3.261854E2,2.5140154E1,3.6584206E1,1.0427669E2,2.4074564E2,2.5094135E1,2.0062414E1,9.684181E1,2.2934357E2,2.546641E1,7.881027E1,2.1712814E2,2.361749E1,7.636486E1,2.0476952E1,1.0847296E2,1.20870605E2,5.8434242E1,2.0376034E1,1.9615698E2,2.0971159E1,3.518956E1,4.11753E1,2.1900534E1,8.6572426E1,7.428676E1,4.6583847E1],"tree_param":{"num_deleted":"0","num_feature":"34","num_nodes":"33","size_leaf_vector":"1"}},{"base_weights":[5.9003755E-3,1.1608373E-1,-1.9734797E-1,-2.4217235E-2,1.6421784E-1,1.9483925E-1,-3.3342302E-1,1.2812345E-1,2.3235917E-2,1.9627277E-2,-7.2836705E-2,-4.674924E-1,9.37887E-2,-5.7683084E-3,2.545321E-1,5.126238E-3,-1.0801803E-2,3.6076398E-4,-6.101933E-1,-8.348704E-3,1.2093718E-2,1.6271858E-2,-2.8770214E-3,2.1457005E-2,5.076943E-3,-9.526034E-3,-2.6802843E-2],"categories":[],"categories_nodes":[],"categories_segments":[],"categories_sizes":[],"default_left":[0,0,0,0,0,0,0,0,0,0,0,0,0,0,0,0,0,0,0,0,0,0,0,0,0,0,0],"id":25,"left_children":[1,3,5,-1,7,9,11,13,-1,-1,15,17,19,21,23,-1,-1,-1,25,-1,-1,-1,-1,-1,-1,-1,-1],"loss_changes":[1.7620752E1,2.2898815E1,1.4896078E1,0E0,1.0443203E1,9.041686E0,1.1932659E1,7.856069E0,0E0,0E0,3.4551501E0,1.084655E1,6.075718E0,1.1234585E1,9.035748E0,0E0,0E0,0E0,9.3843155E0,0E0,0E0,0E0,0E0,0E0,0E0,0E0,0E0],"parents":[2147483647,0,0,1,1,2,2,4,4,5,5,6,6,7,7,10,10,11,11,12,12,13,13,14,14,18,18],"right_children":[2,4,6,-1,8,10,12,14,-1,-1,16,18,20,22,24,-1,-1,-1,26,-1,-1,-1,-1,-1,-1,-1,-1],"split_conditions":[1.466486E0,-3.565E-5,4.258881E1,-2.4217235E-2,6.668135E3,7.6936305E-2,1.09102E-3,5.6496E-4,2.3235917E-2,1.9627277E-2,-2.3367871E2,1.751E-5,-2.1396328E1,8.2113165E-1,2.3678E-4,5.126238E-3,-1.0801803E-2,3.6076398E-4,2.7816725E1,-8.348704E-3,1.2093718E-2,1.6271858E-2,-2.8770214E-3,2.1457005E-2,5.076943E-3,-9.526034E-3,-2.6802843E-2],"split_indices":[5,15,0,0,24,7,16,16,0,0,1,14,2,5,15,0,0,0,3,0,0,0,0,0,0,0,0],"split_type":[0,0,0,0,0,0,0,0,0,0,0,0,0,0,0,0,0,0,0,0,0,0,0,0,0,0,0],"sum_hessian":[7.83148E2,5.0871646E2,2.7443155E2,2.3540266E1,4.8517618E2,7.027902E1,2.0415251E2,4.6052414E2,2.4652061E1,2.4947584E1,4.5331436E1,1.5542262E2,4.8729893E1,2.2418524E2,2.3633888E2,2.4773191E1,2.0558245E1,3.590426E1,1.19518364E2,2.2065823E1,2.6664068E1,3.0082954E1,1.941023E2,3.4432095E1,2.0190678E2,6.10413E1,5.8477062E1],"tree_param":{"num_deleted":"0","num_feature":"34","num_nodes":"27","size_leaf_vector":"1"}},{"base_weights":[-6.3925236E-4,-4.1568586E-1,8.277174E-2,-6.3308936E-1,-1.7069416E-1,3.157967E-2,5.3793925E-1,-1.0497014E-2,-2.7025096E-2,-1.0963496E-2,4.097679E-3,2.4295664E-1,-1.1058477E-1,2.1412898E-2,1.1258269E-2,2.623541E-2,1.4513402E-1,2.7849808E-1,-1.9944088E-1,1.243214E-2,-4.1608342E-5,1.7039139E-2,-1.9847397E-3,-1.10838665E-2,-1.6940264E-3],"categories":[],"categories_nodes":[],"categories_segments":[],"categories_sizes":[],"default_left":[0,0,0,0,0,0,0,0,0,0,0,0,0,0,0,0,0,0,0,0,0,0,0,0,0],"id":26,"left_children":[1,3,5,7,9,11,13,-1,-1,-1,-1,15,17,-1,-1,-1,19,21,23,-1,-1,-1,-1,-1,-1],"loss_changes":[2.6891125E1,6.6286983E0,1.4956666E1,4.39555E0,3.9579883E0,1.7581076E1,1.2134285E0,0E0,0E0,0E0,0E0,1.4179421E1,1.2188116E1,0E0,0E0,0E0,8.179911E0,6.671441E0,6.866501E0,0E0,0E0,0E0,0E0,0E0,0E0],"parents":[2147483647,0,0,1,1,2,2,3,3,4,4,5,5,6,6,11,11,12,12,16,16,17,17,18,18],"right_children":[2,4,6,8,10,12,14,-1,-1,-1,-1,16,18,-1,-1,-1,20,22,24,-1,-1,-1,-1,-1,-1],"split_conditions":[4.437152E-1,1.9244064E0,2.0519552E0,8.1594E-4,5.6496E-4,4.3711383E-2,1.1810095E-1,-1.0497014E-2,-2.7025096E-2,-1.0963496E-2,4.097679E-3,2.571954E-1,-1.8998438E2,2.1412898E-2,1.1258269E-2,2.623541E-2,2.5563674E-2,-2.462099E3,5.6496E-4,1.243214E-2,-4.1608342E-5,1.7039139E-2,-1.9847397E-3,-1.10838665E-2,-1.6940264E-3],"split_indices":[6,2,6,16,16,7,17,0,0,0,0,4,2,0,0,0,7,24,16,0,0,0,0,0,0],"split_type":[0,0,0,0,0,0,0,0,0,0,0,0,0,0,0,0,0,0,0,0,0,0,0,0,0],"sum_hessian":[7.718141E2,1.2802138E2,6.437927E2,6.59349E1,6.2086483E1,5.808264E2,6.2966297E1,3.4467113E1,3.1467783E1,3.796878E1,2.41177E1,2.3327191E2,3.475545E2,2.6707397E1,3.62589E1,2.9019024E1,2.0425288E2,6.361285E1,2.8394168E2,7.092871E1,1.3332417E2,3.402764E1,2.9585209E1,1.2793544E2,1.5600623E2],"tree_param":{"num_deleted":"0","num_feature":"34","num_nodes":"25","size_leaf_vector":"1"}},{"base_weights":[1.2311587E-2,-1.7899486E-1,2.150762E-1,-5.4860604E-1,-1.0923285E-1,5.1720434E-1,1.0497654E-1,-1.0916302E-2,-2.4281947E-2,-2.91177E-3,-3.9562893E-1,3.5759082E-1,2.6124446E-2,4.7944644E-1,-4.1788246E-2,-1.8349172E-1,2.3468752E-1,-2.0087335E-2,-1.6796356E-1,2.242417E-2,5.4126844E-2,6.6475576E-1,3.6044382E-3,-1.3991494E-1,2.3767062E-1,3.767968E-3,-1.19138425E-2,1.1614221E-2,-3.0269946E-3,4.8800875E-3,-1.1435831E-2,1.0411317E-2,-7.0111575E-3,7.871051E-3,2.7067762E-2,-5.1850075E-4,-1.4184979E-2,2.2583833E-2,-3.4970562E-3],"categories":[],"categories_nodes":[],"categories_segments":[],"categories_sizes":[],"default_left":[0,0,0,0,0,0,0,0,0,0,0,0,0,0,0,0,0,0,0,0,0,0,0,0,0,0,0,0,0,0,0,0,0,0,0,0,0,0,0],"id":27,"left_children":[1,3,5,7,9,11,13,-1,-1,15,17,19,-1,21,23,25,27,-1,29,-1,31,33,-1,35,37,-1,-1,-1,-1,-1,-1,-1,-1,-1,-1,-1,-1,-1,-1],"loss_changes":[3.0578688E1,1.0267123E1,1.2564323E1,2.3595772E0,1.0424817E1,4.983183E0,1.5656306E1,0E0,0E0,1.0934029E1,5.478689E0,8.537708E0,0E0,5.0972424E0,5.684144E0,9.707115E0,5.727783E0,0E0,3.9209592E0,0E0,3.8531575E0,4.4028625E0,0E0,6.1976194E0,1.0057621E1,0E0,0E0,0E0,0E0,0E0,0E0,0E0,0E0,0E0,0E0,0E0,0E0,0E0,0E0],"parents":[2147483647,0,0,1,1,2,2,3,3,4,4,5,5,6,6,9,9,10,10,11,11,13,13,14,14,15,15,16,16,18,18,20,20,21,21,23,23,24,24],"right_children":[2,4,6,8,10,12,14,-1,-1,16,18,20,-1,22,24,26,28,-1,30,-1,32,34,-1,36,38,-1,-1,-1,-1,-1,-1,-1,-1,-1,-1,-1,-1,-1,-1],"split_conditions":[8.0885077E-1,3.4279978E-1,1.0924838E0,1.4024589E0,7.834454E-2,7.9378E-4,-1.1941715E2,-1.0916302E-2,-2.4281947E-2,8.017605E0,5.1664E-4,5.127258E-1,2.6124446E-2,-8.698162E2,1.9192018E2,6.798E-5,1.3482762E2,-2.0087335E-2,8.6206E-4,2.242417E-2,1.2024E-4,-2.1830668E-1,3.6044382E-3,7.197416E-2,2.9309186E2,3.767968E-3,-1.19138425E-2,1.1614221E-2,-3.0269946E-3,4.8800875E-3,-1.1435831E-2,1.0411317E-2,-7.0111575E-3,7.871051E-3,2.7067762E-2,-5.1850075E-4,-1.4184979E-2,2.2583833E-2,-3.4970562E-3],"split_indices":[6,6,5,5,7,16,1,0,0,1,16,4,0,25,1,14,2,0,16,0,15,17,0,7,1,0,0,0,0,0,0,0,0,0,0,0,0,0,0],"split_type":[0,0,0,0,0,0,0,0,0,0,0,0,0,0,0,0,0,0,0,0,0,0,0,0,0,0,0,0,0,0,0,0,0,0,0,0,0,0,0],"sum_hessian":[7.842321E2,4.0338425E2,3.8084787E2,6.1640564E1,3.4174368E2,9.950083E1,2.8134705E2,3.9110832E1,2.2529732E1,2.5095076E2,9.079293E1,7.1522255E1,2.7978573E1,7.813463E1,2.0321243E2,1.4308205E2,1.0786873E2,3.9246452E1,5.154648E1,2.9878914E1,4.164334E1,5.024302E1,2.789161E1,1.5140569E2,5.180674E1,5.8622574E1,8.4459465E1,7.416653E1,3.3702198E1,2.0211708E1,3.133477E1,2.0607634E1,2.1035707E1,2.0366943E1,2.9876074E1,1.1240504E2,3.900065E1,2.0307817E1,3.1498922E1],"tree_param":{"num_deleted":"0","num_feature":"34","num_nodes":"39","size_leaf_vector":"1"}},{"base_weights":[-3.118585E-3,1.0868197E-1,-1.6123413E-1,-1.3519554E-2,1.6462044E-1,4.0395147E-1,-2.5544506E-1,1.9634782E-1,-1.1262359E-2,1.9654002E-2,1.7144642E-3,6.0006874E-3,-3.0204993E-1,1.4191292E-1,2.1229107E-2,-7.959452E-2,-4.1504914E-1,1.178021E-2,2.1899203E-3,-7.46703E-3,1.3332173E-2,-1.683686E-2,-4.9180305E-3],"categories":[],"categories_nodes":[],"categories_segments":[],"categories_sizes":[],"default_left":[0,0,0,0,0,0,0,0,0,0,0,0,0,0,0,0,0,0,0,0,0,0,0],"id":28,"left_children":[1,3,5,-1,7,9,11,13,-1,-1,-1,-1,15,17,-1,19,21,-1,-1,-1,-1,-1,-1],"loss_changes":[1.3842128E1,1.4455753E1,1.7473835E1,0E0,7.294197E0,3.9477415E0,6.0655766E0,1.0748031E1,0E0,0E0,0E0,0E0,6.2849007E0,6.1342545E0,0E0,8.056835E0,5.9132156E0,0E0,0E0,0E0,0E0,0E0,0E0],"parents":[2147483647,0,0,1,1,2,2,4,4,5,5,6,6,7,7,12,12,13,13,15,15,16,16],"right_children":[2,4,6,-1,8,10,12,14,-1,-1,-1,-1,16,18,-1,20,22,-1,-1,-1,-1,-1,-1],"split_conditions":[1.4024589E0,2.75E-6,-2.79996E2,-1.3519554E-2,1.7675599E0,1.9814358E0,2.771386E-1,6.8283676E1,-1.1262359E-2,1.9654002E-2,1.7144642E-3,6.0006874E-3,-1.579611E3,1.6729738E1,2.1229107E-2,8.593392E1,1.8449214E0,1.178021E-2,2.1899203E-3,-7.46703E-3,1.3332173E-2,-1.683686E-2,-4.9180305E-3],"split_indices":[5,15,1,0,17,5,4,0,0,0,0,0,24,3,0,1,4,0,0,0,0,0,0],"split_type":[0,0,0,0,0,0,0,0,0,0,0,0,0,0,0,0,0,0,0,0,0,0,0],"sum_hessian":[7.7876086E2,4.5619016E2,3.2257074E2,4.0029686E1,4.1616046E2,4.4996014E1,2.775747E2,3.9444452E2,2.1715952E1,2.4897087E1,2.0098927E1,2.4955536E1,2.5261919E2,3.5897644E2,3.546808E1,8.654212E1,1.6607706E2,7.504951E1,2.8392694E2,6.634624E1,2.0195885E1,1.0315824E2,6.2918823E1],"tree_param":{"num_deleted":"0","num_feature":"34","num_nodes":"23","size_leaf_vector":"1"}},{"base_weights":[1.1968417E-2,-2.509806E-1,1.5065797E-1,-5.2734023E-1,-1.5992132E-1,2.345244E-1,-9.524168E-2,-1.9175142E-2,-7.659664E-3,-7.062582E-2,-4.7576857E-1,2.0007925E-1,2.2666762E-2,1.2870137E-2,-2.0804007E-1,1.17489835E-2,-1.4280693E-1,-6.467306E-3,-2.0633357E-2,4.9861485E-1,1.2728487E-1,3.868553E-2,-4.77576E-1,-8.067299E-3,7.1473015E-3,2.5978263E-2,9.160447E-3,1.9024521E-2,2.4453267E-3,-6.6403616E-3,1.19514605E-2,-2.2013558E-2,-6.563548E-3],"categories":[],"categories_nodes":[],"categories_segments":[],"categories_sizes":[],"default_left":[0,0,0,0,0,0,0,0,0,0,0,0,0,0,0,0,0,0,0,0,0,0,0,0,0,0,0,0,0,0,0,0,0],"id":29,"left_children":[1,3,5,7,9,11,13,-1,-1,15,17,19,-1,-1,21,-1,23,-1,-1,25,27,29,31,-1,-1,-1,-1,-1,-1,-1,-1,-1,-1],"loss_changes":[2.8331188E1,6.510412E0,1.0554167E1,1.5709648E0,5.6551065E0,6.428831E0,7.8764377E0,0E0,0E0,5.5016394E0,2.0706453E0,7.627244E0,0E0,0E0,7.3254366E0,0E0,6.955229E0,0E0,0E0,4.292141E0,6.602966E0,5.668746E0,3.0584497E0,0E0,0E0,0E0,0E0,0E0,0E0,0E0,0E0,0E0,0E0],"parents":[2147483647,0,0,1,1,2,2,3,3,4,4,5,5,6,6,9,9,10,10,11,11,14,14,16,16,19,19,20,20,21,21,22,22],"right_children":[2,4,6,8,10,12,14,-1,-1,16,18,20,-1,-1,22,-1,24,-1,-1,26,28,30,32,-1,-1,-1,-1,-1,-1,-1,-1,-1,-1],"split_conditions":[6.243772E-1,3.4279978E-1,7.895243E-2,2.5845053E1,3.188182E2,7.026108E1,3.549139E1,-1.9175142E-2,-7.659664E-3,1.583012E1,8.394201E1,4.9014372E-1,2.2666762E-2,1.2870137E-2,3.4600357E1,1.17489835E-2,5.0572784E1,-6.467306E-3,-2.0633357E-2,4.8217925E-1,1.8309174E-2,1.1092331E0,-6.7308E0,-8.067299E-3,7.1473015E-3,2.5978263E-2,9.160447E-3,1.9024521E-2,2.4453267E-3,-6.6403616E-3,1.19514605E-2,-2.2013558E-2,-6.563548E-3],"split_indices":[6,6,7,2,25,0,0,0,0,3,1,22,0,0,3,0,1,0,0,4,7,6,25,0,0,0,0,0,0,0,0,0,0],"split_type":[0,0,0,0,0,0,0,0,0,0,0,0,0,0,0,0,0,0,0,0,0,0,0,0,0,0,0,0,0,0,0,0,0],"sum_hessian":[7.730734E2,2.6614136E2,5.0693207E2,6.3312126E1,2.0282922E2,3.7838086E2,1.2855122E2,4.269316E1,2.0618963E1,1.602793E2,4.2549923E1,3.5769394E2,2.0686922E1,2.1612236E1,1.0693899E2,2.026465E1,1.4001465E2,2.1126955E1,2.1422966E1,6.7558426E1,2.901355E2,5.6532585E1,5.0406403E1,1.058396E2,3.417505E1,2.0712744E1,4.684568E1,2.1721018E1,2.684145E2,3.309725E1,2.3435331E1,2.3290735E1,2.7115667E1],"tree_param":{"num_deleted":"0","num_feature":"34","num_nodes":"33","size_leaf_vector":"1"}},{"base_weights":[-1.257383E-3,-2.3183458E-1,2.1975547E-1,-5.5541605E-1,-1.2926577E-1,3.0250564E-1,-5.1736984E-2,-4.9733473E-3,-6.5986705E-1,1.2150833E-2,-1.9439495E-1,2.5196806E-1,2.4674274E-2,-1.2395966E-2,1.891579E-1,-1.2071815E-2,-2.3660494E-2,-1.8285591E-2,-1.4832808E-1,3.0159926E-1,-9.368779E-3,1.1650692E-2,-4.9070027E-3,2.8145625E-3,-7.4380934E-3,2.2140464E-2,7.498343E-3],"categories":[],"categories_nodes":[],"categories_segments":[],"categories_sizes":[],"default_left":[0,0,0,0,0,0,0,0,0,0,0,0,0,0,0,0,0,0,0,0,0,0,0,0,0,0,0],"id":30,"left_children":[1,3,5,7,9,11,13,-1,15,-1,17,19,-1,-1,21,-1,-1,-1,23,25,-1,-1,-1,-1,-1,-1,-1],"loss_changes":[4.008224E1,1.2570585E1,9.073553E0,3.4370747E0,1.0411778E1,7.5765667E0,8.466837E0,0E0,1.6197567E0,0E0,4.805767E0,8.139116E0,0E0,0E0,4.247504E0,0E0,0E0,0E0,5.8781476E0,5.44228E0,0E0,0E0,0E0,0E0,0E0,0E0,0E0],"parents":[2147483647,0,0,1,1,2,2,3,3,4,4,5,5,6,6,8,8,10,10,11,11,14,14,18,18,19,19],"right_children":[2,4,6,8,10,12,14,-1,16,-1,18,20,-1,-1,22,-1,-1,-1,24,26,-1,-1,-1,-1,-1,-1,-1],"split_conditions":[7.840499E-1,3.882502E-1,1.6431334E0,9.973979E-1,2.5131611E-2,1.18287E-3,1.83685E0,-4.9733473E-3,4.9137566E1,1.2150833E-2,-1.4819419E0,9.6401125E-2,2.4674274E-2,-1.2395966E-2,3.32648E2,-1.2071815E-2,-2.3660494E-2,-1.8285591E-2,4.9359536E-1,4.8664418E-1,-9.368779E-3,1.1650692E-2,-4.9070027E-3,2.8145625E-3,-7.4380934E-3,2.2140464E-2,7.498343E-3],"split_indices":[6,6,5,5,7,16,5,0,0,0,17,7,0,0,20,0,0,0,22,22,0,0,0,0,0,0,0],"split_type":[0,0,0,0,0,0,0,0,0,0,0,0,0,0,0,0,0,0,0,0,0,0,0,0,0,0,0],"sum_hessian":[7.825119E2,3.8314294E2,3.9936896E2,8.985756E1,2.932854E2,3.0618457E2,9.3184364E1,2.0292244E1,6.9565315E1,3.0565472E1,2.627199E2,2.819431E2,2.424148E1,3.6860264E1,5.6324104E1,2.6207188E1,4.3358128E1,2.3581907E1,2.3913802E2,2.601675E2,2.177558E1,3.604784E1,2.0276264E1,6.944072E1,1.696973E2,2.4517136E1,2.3565039E2],"tree_param":{"num_deleted":"0","num_feature":"34","num_nodes":"27","size_leaf_vector":"1"}},{"base_weights":[1.2771989E-2,4.4053216E-2,-5.001426E-1,4.3996492E-1,8.8858465E-3,-2.1543901E-2,-6.3251434E-3,6.1729527E-3,2.375145E-2,2.162524E-1,-6.794645E-2,-5.925944E-3,3.3277643E-1,-1.12790294E-1,3.9940077E-1,1.3620347E-2,-2.8289738E-3,-4.4547534E-3,1.4779649E-2,1.914168E-2,3.7564046E-3],"categories":[],"categories_nodes":[],"categories_segments":[],"categories_sizes":[],"default_left":[0,0,0,0,0,0,0,0,0,0,0,0,0,0,0,0,0,0,0,0,0],"id":31,"left_children":[1,3,5,7,9,-1,-1,-1,-1,11,13,-1,15,17,19,-1,-1,-1,-1,-1,-1],"loss_changes":[1.2517752E1,1.0214956E1,2.4314718E0,4.5079966E0,1.0871323E1,0E0,0E0,0E0,0E0,9.04311E0,1.0477705E1,0E0,7.62562E0,9.952368E0,2.627398E0,0E0,0E0,0E0,0E0,0E0,0E0],"parents":[2147483647,0,0,1,1,2,2,3,3,4,4,9,9,10,10,12,12,13,13,14,14],"right_children":[2,4,6,8,10,-1,-1,-1,-1,12,14,-1,16,18,20,-1,-1,-1,-1,-1,-1],"split_conditions":[3.6330228E0,-2.79996E2,6.400931E1,4.9027106E-1,1.9047657E1,-2.1543901E-2,-6.3251434E-3,6.1729527E-3,2.375145E-2,-6.7225856E-1,4.5856426E1,-5.925944E-3,9.029967E-1,6.668135E3,4.5932585E-1,1.3620347E-2,-2.8289738E-3,-4.4547534E-3,1.4779649E-2,1.914168E-2,3.7564046E-3],"split_indices":[4,2,0,22,3,0,0,0,0,17,3,0,4,24,17,0,0,0,0,0,0],"split_type":[0,0,0,0,0,0,0,0,0,0,0,0,0,0,0,0,0,0,0,0,0],"sum_hessian":[7.7828107E2,7.354511E2,4.282992E1,5.788796E1,6.775632E2,2.2537785E1,2.0292137E1,3.682418E1,2.1063778E1,1.8254787E2,4.950153E2,3.9616985E1,1.429309E2,4.5325497E2,4.176034E1,1.1141205E2,3.151884E1,4.2959738E2,2.3657568E1,2.0712824E1,2.1047516E1],"tree_param":{"num_deleted":"0","num_feature":"34","num_nodes":"21","size_leaf_vector":"1"}},{"base_weights":[2.9948347E-3,-1.9905622E-1,1.9661562E-1,1.4887094E-1,-2.672334E-1,6.1284524E-1,1.4311771E-1,-6.2058764E-3,2.0451324E-2,-1.5543571E-1,-4.868082E-1,9.878862E-3,2.4776535E-2,3.937986E-1,2.672017E-2,-2.8082013E-1,1.3346781E-1,-2.1867938E-2,-1.4709039E-1,-2.0170838E-3,5.245434E-1,-6.537171E-2,4.3718275E-1,1.695787E-3,-1.33385165E-2,1.3936833E-2,-9.482279E-3,-1.2263723E-2,2.7774624E-3,1.9833004E-2,3.185808E-3,-4.1699293E-3,9.491902E-3,2.3767788E-2,4.4730175E-4],"categories":[],"categories_nodes":[],"categories_segments":[],"categories_sizes":[],"default_left":[0,0,0,0,0,0,0,0,0,0,0,0,0,0,0,0,0,0,0,0,0,0,0,0,0,0,0,0,0,0,0,0,0,0,0],"id":32,"left_children":[1,3,5,7,9,11,13,-1,-1,15,17,-1,-1,19,21,23,25,-1,27,-1,29,31,33,-1,-1,-1,-1,-1,-1,-1,-1,-1,-1,-1,-1],"loss_changes":[3.0374027E1,9.098084E0,8.582802E0,1.2319661E1,7.6015167E0,2.020235E0,1.0276491E1,0E0,0E0,7.850546E0,8.4328785E0,0E0,0E0,6.8640747E0,9.333095E0,8.393559E0,1.0125468E1,0E0,3.047031E0,0E0,4.7878075E0,5.724522E0,6.679904E0,0E0,0E0,0E0,0E0,0E0,0E0,0E0,0E0,0E0,0E0,0E0,0E0],"parents":[2147483647,0,0,1,1,2,2,3,3,4,4,5,5,6,6,9,9,10,10,13,13,14,14,15,15,16,16,18,18,20,20,21,21,22,22],"right_children":[2,4,6,8,10,12,14,-1,-1,16,18,-1,-1,20,22,24,26,-1,28,-1,30,32,34,-1,-1,-1,-1,-1,-1,-1,-1,-1,-1,-1,-1],"split_conditions":[7.840499E-1,9.762563E-1,3.5143818E1,5.0146908E1,3.2772877E1,-2.3206543E3,1.1272092E0,-6.2058764E-3,2.0451324E-2,2.4815964E1,-1.38621E2,9.878862E-3,2.4776535E-2,1.8099E-4,1.09102E-3,1.6991291E1,5.6635258E1,-2.1867938E-2,4.0804474E1,-2.0170838E-3,5.0336844E-1,9.219947E-1,1.7429466E0,1.695787E-3,-1.33385165E-2,1.3936833E-2,-9.482279E-3,-1.2263723E-2,2.7774624E-3,1.9833004E-2,3.185808E-3,-4.1699293E-3,9.491902E-3,2.3767788E-2,4.4730175E-4],"split_indices":[6,5,0,0,3,25,5,0,0,3,20,0,0,16,16,3,0,0,3,0,22,17,5,0,0,0,0,0,0,0,0,0,0,0,0],"split_type":[0,0,0,0,0,0,0,0,0,0,0,0,0,0,0,0,0,0,0,0,0,0,0,0,0,0,0,0,0,0,0,0,0,0,0],"sum_hessian":[7.7241205E2,3.7769724E2,3.9471484E2,6.1256126E1,3.164411E2,4.236015E1,3.5235468E2,3.7353878E1,2.3902248E1,2.122461E2,1.04195015E2,2.0558332E1,2.1801817E1,1.0994494E2,2.4240974E2,1.4829013E2,6.3955963E1,5.932631E1,4.4868702E1,2.433634E1,8.56086E1,1.9916312E2,4.3246628E1,4.86967E1,9.959343E1,3.6919807E1,2.7036154E1,2.0973526E1,2.3895178E1,6.348608E1,2.2122517E1,1.6824919E2,3.0913933E1,2.241192E1,2.083471E1],"tree_param":{"num_deleted":"0","num_feature":"34","num_nodes":"35","size_leaf_vector":"1"}},{"base_weights":[-6.0972474E-3,-1.9448428E-1,1.7536932E-1,-1.5078177E-1,-2.437174E-2,1.3043533E-1,1.7377026E-2,-2.0565075E-1,1.7610421E-2,4.276003E-1,4.7059886E-2,-9.894502E-2,-5.4444164E-1,2.5432348E-1,2.0750841E-2,3.3013064E-1,-3.1199083E-2,8.35662E-3,-5.1101926E-3,-2.3057662E-2,-6.4362697E-3,1.625763E-2,-1.509487E-3,-2.7858632E-4,1.6711023E-2,-4.072092E-3,5.499704E-3],"categories":[],"categories_nodes":[],"categories_segments":[],"categories_sizes":[],"default_left":[0,0,0,0,0,0,0,0,0,0,0,0,0,0,0,0,0,0,0,0,0,0,0,0,0,0,0],"id":33,"left_children":[1,3,5,7,-1,9,-1,11,-1,13,15,17,19,21,-1,23,25,-1,-1,-1,-1,-1,-1,-1,-1,-1,-1],"loss_changes":[2.6634361E1,9.987069E0,6.9747105E0,1.47694645E1,0E0,8.823701E0,0E0,1.1993345E1,0E0,3.1364098E0,6.3281956E0,7.053268E0,5.4827156E0,4.5428305E0,0E0,4.8266344E0,5.0583806E0,0E0,0E0,0E0,0E0,0E0,0E0,0E0,0E0,0E0,0E0],"parents":[2147483647,0,0,1,1,2,2,3,3,5,5,7,7,9,9,10,10,11,11,12,12,13,13,15,15,16,16],"right_children":[2,4,6,8,-1,10,-1,12,-1,14,16,18,20,22,-1,24,26,-1,-1,-1,-1,-1,-1,-1,-1,-1,-1],"split_conditions":[7.881586E-1,3.6330228E0,6.668135E3,4.4806713E1,-2.437174E-2,3.9529987E1,1.7377026E-2,3.1557812E1,1.7610421E-2,-1.020653E3,3.9302385E-1,1E0,6.5748E-4,3.412311E1,2.0750841E-2,-1.086175E3,5.9904175E1,8.35662E-3,-5.1101926E-3,-2.3057662E-2,-6.4362697E-3,1.625763E-2,-1.509487E-3,-2.7858632E-4,1.6711023E-2,-4.072092E-3,5.499704E-3],"split_indices":[6,4,24,13,0,0,0,13,0,20,4,30,16,0,0,24,0,0,0,0,0,0,0,0,0,0,0],"split_type":[0,0,0,0,0,0,0,0,0,0,0,0,0,0,0,0,0,0,0,0,0,0,0,0,0,0,0],"sum_hessian":[7.7505133E2,3.8047452E2,3.945768E2,3.578172E2,2.2657343E1,3.576754E2,3.690141E1,3.3451758E2,2.3299603E1,7.629385E1,2.8138156E2,2.5658325E2,7.793432E1,4.866716E1,2.7626692E1,5.982593E1,2.2155563E2,3.966279E1,2.1692047E2,4.4640842E1,3.3293476E1,2.4401346E1,2.4265814E1,2.456197E1,3.526396E1,1.4977205E2,7.1783585E1],"tree_param":{"num_deleted":"0","num_feature":"34","num_nodes":"27","size_leaf_vector":"1"}},{"base_weights":[4.6979478E-3,-4.663835E-1,1.0247599E-1,-6.361772E-1,-2.3072392E-1,-5.4906655E-2,2.2146468E-1,-2.551089E-2,-1.0622721E-2,-1.4751791E-2,6.9123902E-3,1.3723785E-2,-1.2531677E-1,1.8802894E-2,1.80506E-1,-2.7940994E-2,-3.7343547E-1,3.2735395E-1,1.6545177E-2,-1.0298944E-2,1.084915E-3,-5.330882E-3,-1.9453196E-2,5.5985684E-3,1.924225E-2,-1.985005E-3,1.4568148E-2],"categories":[],"categories_nodes":[],"categories_segments":[],"categories_sizes":[],"default_left":[0,0,0,0,0,0,0,0,0,0,0,0,0,0,0,0,0,0,0,0,0,0,0,0,0,0,0],"id":34,"left_children":[1,3,5,7,9,11,13,-1,-1,-1,-1,-1,15,-1,17,19,21,23,25,-1,-1,-1,-1,-1,-1,-1,-1],"loss_changes":[3.5433327E1,4.9090424E0,1.1984703E1,3.8357162E0,7.322756E0,1.0032369E1,5.7348404E0,0E0,0E0,0E0,0E0,0E0,5.840254E0,0E0,7.986573E0,3.6511574E0,3.3682804E0,7.4367046E0,6.315126E0,0E0,0E0,0E0,0E0,0E0,0E0,0E0,0E0],"parents":[2147483647,0,0,1,1,2,2,3,3,4,4,5,5,6,6,12,12,14,14,15,15,16,16,17,17,18,18],"right_children":[2,4,6,8,10,12,14,-1,-1,-1,-1,-1,16,-1,18,20,22,24,26,-1,-1,-1,-1,-1,-1,-1,-1],"split_conditions":[4.437152E-1,1.0265748E1,8.213268E-1,4.9621078E-1,5.6496E-4,2.4766E-2,-3.1943927E2,-2.551089E-2,-1.0622721E-2,-1.4751791E-2,6.9123902E-3,1.3723785E-2,8.040808E-2,1.8802894E-2,5.103544E-2,3.205045E-2,-3.4176E1,5.629988E1,7.484561E1,-1.0298944E-2,1.084915E-3,-5.330882E-3,-1.9453196E-2,5.5985684E-3,1.924225E-2,-1.985005E-3,1.4568148E-2],"split_indices":[6,2,6,21,16,7,1,0,0,0,0,0,7,0,7,7,24,0,0,0,0,0,0,0,0,0,0],"split_type":[0,0,0,0,0,0,0,0,0,0,0,0,0,0,0,0,0,0,0,0,0,0,0,0,0,0,0],"sum_hessian":[7.6597736E2,1.3018779E2,6.3578955E2,7.34461E1,5.6741688E1,2.7383423E2,3.6195535E2,3.925587E1,3.419023E1,3.6287327E1,2.045436E1,3.1584332E1,2.422499E2,3.0371729E1,3.3158362E2,1.7586055E2,6.638934E1,1.7354701E2,1.580366E2,2.8501205E1,1.4735934E2,4.091984E1,2.5469496E1,1.222644E2,5.1282623E1,1.3562563E2,2.2410967E1],"tree_param":{"num_deleted":"0","num_feature":"34","num_nodes":"27","size_leaf_vector":"1"}},{"base_weights":[-7.7789407E-3,-1.9504398E-1,1.7104788E-1,-4.140343E-1,-8.0400415E-2,1.0572057E-1,5.719447E-1,-2.744655E-2,-3.0575198E-1,5.625982E-2,-4.520042E-1,1.7911492E-1,-1.4935127E-1,1.0225369E-2,2.4535509E-2,-4.1455105E-1,4.2387955E-3,1.7120624E-2,-2.707677E-2,-4.1971407E-3,-5.7339454E-1,4.5779887E-1,8.708711E-2,8.751376E-3,-3.8060135E-1,-8.28964E-3,-2.4188694E-2,1.0398978E-2,-3.0226416E-3,-2.2659093E-2,-1.0479057E-2,-6.286653E-4,2.0164078E-2,-1.4698633E-3,1.01679275E-2,-2.2016264E-2,-2.6378466E-3],"categories":[],"categories_nodes":[],"categories_segments":[],"categories_sizes":[],"default_left":[0,0,0,0,0,0,0,0,0,0,0,0,0,0,0,0,0,0,0,0,0,0,0,0,0,0,0,0,0,0,0,0,0,0,0,0,0],"id":35,"left_children":[1,3,5,7,9,11,13,-1,15,17,19,21,23,-1,-1,25,-1,-1,27,-1,29,31,33,-1,35,-1,-1,-1,-1,-1,-1,-1,-1,-1,-1,-1,-1],"loss_changes":[2.631535E1,9.525876E0,1.0331624E1,6.4331207E0,1.3033316E1,6.5728574E0,2.4873085E0,0E0,5.544944E0,8.141476E0,2.380272E0,6.8293114E0,8.244107E0,0E0,0E0,4.31903E0,0E0,0E0,4.546066E0,0E0,1.3496437E0,6.933981E0,7.151427E0,0E0,5.2228584E0,0E0,0E0,0E0,0E0,0E0,0E0,0E0,0E0,0E0,0E0,0E0,0E0],"parents":[2147483647,0,0,1,1,2,2,3,3,4,4,5,5,6,6,8,8,9,9,10,10,11,11,12,12,15,15,18,18,20,20,21,21,22,22,24,24],"right_children":[2,4,6,8,10,12,14,-1,16,18,20,22,24,-1,-1,26,-1,-1,28,-1,30,32,34,-1,36,-1,-1,-1,-1,-1,-1,-1,-1,-1,-1,-1,-1],"split_conditions":[7.840499E-1,4.437152E-1,2.1458836E0,4.8839638E-1,7.756576E-2,1.6475625E0,1.522996E-1,-2.744655E-2,8.532414E-2,2.571954E-1,-6.0420856E1,4.9218518E-1,4.2022705E1,1.0225369E-2,2.4535509E-2,1.5568149E0,4.2387955E-3,1.7120624E-2,2.4766E-2,-4.1971407E-3,5.0084776E-1,-1.994274E3,1.2299539E0,8.751376E-3,1.83685E0,-8.28964E-3,-2.4188694E-2,1.0398978E-2,-3.0226416E-3,-2.2659093E-2,-1.0479057E-2,-6.286653E-4,2.0164078E-2,-1.4698633E-3,1.01679275E-2,-2.2016264E-2,-2.6378466E-3],"split_indices":[6,6,6,22,7,5,23,0,7,4,2,22,0,0,0,5,0,0,7,0,22,20,4,0,5,0,0,0,0,0,0,0,0,0,0,0,0],"split_type":[0,0,0,0,0,0,0,0,0,0,0,0,0,0,0,0,0,0,0,0,0,0,0,0,0,0,0,0,0,0,0,0,0,0,0,0,0],"sum_hessian":[7.817499E2,3.8205005E2,3.9969983E2,1.2918591E2,2.5286412E2,3.4608167E2,5.361816E1,2.0152159E1,1.0903376E2,1.8591904E2,6.694509E1,2.6951816E2,7.6563515E1,3.031104E1,2.330712E1,8.7988686E1,2.1045073E1,2.445639E1,1.6146265E2,2.0182894E1,4.67622E1,6.466379E1,2.0485437E2,2.6006294E1,5.055722E1,6.774874E1,2.0239944E1,2.5146727E1,1.3631592E2,2.2947329E1,2.3814869E1,2.0410885E1,4.42529E1,1.3378055E2,7.1073814E1,2.1386162E1,2.9171057E1],"tree_param":{"num_deleted":"0","num_feature":"34","num_nodes":"37","size_leaf_vector":"1"}},{"base_weights":[9.11345E-3,-1.461598E-1,1.8930376E-1,1.4834441E-2,-1.9264705E-1,1.2562405E-1,5.389597E-1,7.474165E-2,-2.9361036E-1,2.9956374E-1,-1.612275E-2,6.9573424E-3,2.109668E-2,-2.8134426E-1,3.4987557E-1,-2.4216132E-1,-1.984042E-2,-3.928073E-3,4.458715E-1,1.3352091E-2,-9.757145E-2,-4.5234416E-4,-1.7681923E-2,2.7770717E-3,2.1882402E-2,-1.1841573E-2,-3.350364E-3,1.7824445E-2,1.7344488E-3,4.819767E-4,-1.2063863E-2],"categories":[],"categories_nodes":[],"categories_segments":[],"categories_sizes":[],"default_left":[0,0,0,0,0,0,0,0,0,0,0,0,0,0,0,0,0,0,0,0,0,0,0,0,0,0,0,0,0,0,0],"id":36,"left_children":[1,3,5,-1,7,9,11,13,15,17,19,-1,-1,21,23,25,-1,-1,27,-1,29,-1,-1,-1,-1,-1,-1,-1,-1,-1,-1],"loss_changes":[2.1697065E1,1.2556277E1,7.7943935E0,0E0,1.0585012E1,7.598495E0,2.3280058E0,1.0796814E1,4.953617E0,8.846962E0,6.458181E0,0E0,0E0,3.8654187E0,5.841958E0,4.8799934E0,0E0,0E0,5.833153E0,0E0,5.1310005E0,0E0,0E0,0E0,0E0,0E0,0E0,0E0,0E0,0E0,0E0],"parents":[2147483647,0,0,1,1,2,2,4,4,5,5,6,6,7,7,8,8,9,9,10,10,13,13,14,14,15,15,18,18,20,20],"right_children":[2,4,6,-1,8,10,12,14,16,18,20,-1,-1,22,24,26,-1,-1,28,-1,30,-1,-1,-1,-1,-1,-1,-1,-1,-1,-1],"split_conditions":[8.397384E-1,1.4649585E-1,2.1458836E0,1.4834441E-2,1.1005342E0,1.2616484E0,2.1989595E1,6.7272246E-1,1.071988E0,7.482E-5,-2.79996E2,6.9573424E-3,2.109668E-2,2.0323E-4,5.7498E-4,4.939686E-1,-1.984042E-2,-3.928073E-3,4.5972288E-2,1.3352091E-2,1.525838E0,-4.5234416E-4,-1.7681923E-2,2.7770717E-3,2.1882402E-2,-1.1841573E-2,-3.350364E-3,1.7824445E-2,1.7344488E-3,4.819767E-4,-1.2063863E-2],"split_indices":[6,4,6,0,5,5,3,4,17,15,1,0,0,15,16,21,0,0,7,0,6,0,0,0,0,0,0,0,0,0,0],"split_type":[0,0,0,0,0,0,0,0,0,0,0,0,0,0,0,0,0,0,0,0,0,0,0,0,0,0,0,0,0,0,0],"sum_hessian":[7.7135205E2,4.1422745E2,3.5712457E2,2.657481E1,3.8765265E2,3.0464655E2,5.247801E1,1.061244E2,2.8152826E2,1.3610667E2,1.6853987E2,2.018315E1,3.229486E1,4.6079033E1,6.004536E1,2.501232E2,3.1405052E1,3.4403534E1,1.0170315E2,2.377282E1,1.4476706E2,2.601524E1,2.0063793E1,3.7424686E1,2.2620674E1,1.130872E2,1.3703601E2,7.263094E1,2.90722E1,1.06569626E2,3.8197426E1],"tree_param":{"num_deleted":"0","num_feature":"34","num_nodes":"31","size_leaf_vector":"1"}},{"base_weights":[1.5542527E-2,-7.431731E-3,1.7770967E-2,2.0216474E-2,-1.7486207E-2,3.5246623E-1,-2.8227499E-2,1.7712011E-3,5.2172863E-1,9.301911E-2,-1.8648054E-1,2.6817068E-2,7.0890333E-3,-1.4492418E-4,1.4482525E-2,-2.4157888E-3,-1.2815878E-2],"categories":[],"categories_nodes":[],"categories_segments":[],"categories_sizes":[],"default_left":[0,0,0,0,0,0,0,0,0,0,0,0,0,0,0,0,0],"id":37,"left_children":[1,3,-1,5,-1,7,9,-1,11,13,15,-1,-1,-1,-1,-1,-1],"loss_changes":[1.0257405E1,1.1873857E1,0E0,1.1465352E1,0E0,4.3821936E0,1.1948805E1,0E0,5.520856E0,1.348635E1,6.771042E0,0E0,0E0,0E0,0E0,0E0,0E0],"parents":[2147483647,0,0,1,1,3,3,5,5,6,6,8,8,9,9,10,10],"right_children":[2,4,-1,6,-1,8,10,-1,12,14,16,-1,-1,-1,-1,-1,-1],"split_conditions":[7.5693596E1,3.6330228E0,1.7770967E-2,3.8775585E1,-1.7486207E-2,2.6066858E1,1.3222592E0,1.7712011E-3,7.6936305E-2,9.65042E2,3.0441805E1,2.6817068E-2,7.0890333E-3,-1.4492418E-4,1.4482525E-2,-2.4157888E-3,-1.2815878E-2],"split_indices":[0,4,0,0,0,3,5,0,7,20,3,0,0,0,0,0,0],"split_type":[0,0,0,0,0,0,0,0,0,0,0,0,0,0,0,0,0],"sum_hessian":[7.669439E2,7.3929926E2,2.7644648E1,7.070821E2,3.221716E1,8.864297E1,6.1843915E2,3.3630672E1,5.5012295E1,3.5027E2,2.6816913E2,2.1875074E1,3.3137222E1,2.8135007E2,6.891992E1,1.8834914E2,7.982001E1],"tree_param":{"num_deleted":"0","num_feature":"34","num_nodes":"17","size_leaf_vector":"1"}},{"base_weights":[1.8357923E-2,-2.2518031E-1,1.4701512E-1,1.486239E-1,-2.953977E-1,2.6352182E-1,-2.156706E-2,-3.5964134E-3,1.1859526E-2,-3.899066E-1,-6.7518935E-2,1.9337073E-1,2.1167051E-2,-9.9851124E-2,1.4896533E-2,-5.9867847E-1,-1.8790108E-1,2.0057122E-1,-1.6527291E-2,2.292175E-2,1.3193122E-1,-1.7038542E-1,1.113384E-2,-2.2602534E-2,-7.500032E-3,-3.7444357E-4,-1.9883214E-2,1.436211E-2,-1.5124269E-3,1.5022893E-2,1.1739635E-3,3.999605E-3,-8.563567E-3],"categories":[],"categories_nodes":[],"categories_segments":[],"categories_sizes":[],"default_left":[0,0,0,0,0,0,0,0,0,0,0,0,0,0,0,0,0,0,0,0,0,0,0,0,0,0,0,0,0,0,0,0,0],"id":38,"left_children":[1,3,5,7,9,11,13,-1,-1,15,17,19,-1,21,-1,23,25,27,-1,-1,29,31,-1,-1,-1,-1,-1,-1,-1,-1,-1,-1,-1],"loss_changes":[2.4192326E1,7.10458E0,9.963474E0,2.989945E0,4.7576504E0,8.921724E0,8.498785E0,0E0,0E0,6.3871193E0,9.175722E0,8.872325E0,0E0,6.17204E0,0E0,3.6698685E0,6.8958044E0,3.2752075E0,0E0,0E0,8.0707245E0,5.6953893E0,0E0,0E0,0E0,0E0,0E0,0E0,0E0,0E0,0E0,0E0,0E0],"parents":[2147483647,0,0,1,1,2,2,3,3,4,4,5,5,6,6,9,9,10,10,11,11,13,13,15,15,16,16,17,17,20,20,21,21],"right_children":[2,4,6,8,10,12,14,-1,-1,16,18,20,-1,22,-1,24,26,28,-1,-1,30,32,-1,-1,-1,-1,-1,-1,-1,-1,-1,-1,-1],"split_conditions":[6.243772E-1,1.6143972E1,6.095392E-2,4.4386306E-1,5.0572784E1,6.253892E1,2.087201E0,-3.5964134E-3,1.1859526E-2,4.3896684E-1,6.1486134E1,1.8309174E-2,2.1167051E-2,1.67448E-3,1.4896533E-2,5.6161102E1,7.126268E-1,-6.7308E0,-1.6527291E-2,2.292175E-2,4.9014372E-1,-1.1941715E2,1.113384E-2,-2.2602534E-2,-7.500032E-3,-3.7444357E-4,-1.9883214E-2,1.436211E-2,-1.5124269E-3,1.5022893E-2,1.1739635E-3,3.999605E-3,-8.563567E-3],"split_indices":[6,3,7,4,1,0,6,0,0,6,0,7,0,16,0,0,2,25,0,0,22,2,0,0,0,0,0,0,0,0,0,0,0],"split_type":[0,0,0,0,0,0,0,0,0,0,0,0,0,0,0,0,0,0,0,0,0,0,0,0,0,0,0,0,0,0,0,0,0],"sum_hessian":[7.682414E2,2.6477148E2,5.0346994E2,4.1292465E1,2.2347903E2,2.9740262E2,2.060673E2,2.007037E1,2.1222094E1,1.5665013E2,6.68289E1,2.5934647E2,3.805617E1,1.8058911E2,2.5478193E1,7.4860115E1,8.179001E1,4.360738E1,2.3221525E1,2.2825916E1,2.3652054E2,1.5836151E2,2.222759E1,5.0043133E1,2.481698E1,6.13794E1,2.0410612E1,2.0011887E1,2.3595491E1,4.556229E1,1.9095825E2,4.3187298E1,1.15174225E2],"tree_param":{"num_deleted":"0","num_feature":"34","num_nodes":"33","size_leaf_vector":"1"}},{"base_weights":[-1.1513447E-3,-4.1094467E-1,5.327819E-2,8.422767E-4,-5.6549597E-1,4.755472E-1,1.238083E-2,-2.1818105E-2,-9.259348E-3,1.984268E-2,5.6059924E-3,2.4546957E-1,-6.969277E-2,-1.7847087E-2,3.5102066E-1,-1.1725342E-1,1.4308693E-2,5.2668885E-3,-7.069087E-3,2.0925026E-2,4.6606157E-3,-1.0273232E-2,-6.76291E-4],"categories":[],"categories_nodes":[],"categories_segments":[],"categories_sizes":[],"default_left":[0,0,0,0,0,0,0,0,0,0,0,0,0,0,0,0,0,0,0,0,0,0,0],"id":39,"left_children":[1,3,5,-1,7,9,11,-1,-1,-1,-1,13,15,17,19,21,-1,-1,-1,-1,-1,-1,-1],"loss_changes":[1.6879545E1,6.107733E0,1.1448677E1,0E0,2.18614E0,2.8111486E0,1.1718771E1,0E0,0E0,0E0,0E0,4.4810743E0,1.18348675E1,2.0809507E0,7.445794E0,8.859993E0,0E0,0E0,0E0,0E0,0E0,0E0,0E0],"parents":[2147483647,0,0,1,1,2,2,4,4,5,5,6,6,11,11,12,12,13,13,14,14,15,15],"right_children":[2,4,6,-1,8,10,12,-1,-1,-1,-1,14,16,18,20,22,-1,-1,-1,-1,-1,-1,-1],"split_conditions":[3.882502E-1,2.9687E-4,-2.79996E2,8.422767E-4,-3.688008E0,8.8966E-4,1.922933E1,-2.1818105E-2,-9.259348E-3,1.984268E-2,5.6059924E-3,-5.1458967E-1,2.087201E0,2.2382788E-1,7.429E-5,-1.039005E3,1.4308693E-2,5.2668885E-3,-7.069087E-3,2.0925026E-2,4.6606157E-3,-1.0273232E-2,-6.76291E-4],"split_indices":[6,16,1,0,1,16,3,0,0,0,0,17,6,23,14,20,0,0,0,0,0,0,0],"split_type":[0,0,0,0,0,0,0,0,0,0,0,0,0,0,0,0,0,0,0,0,0,0,0],"sum_hessian":[7.511986E2,8.6756516E1,6.644421E2,2.2846909E1,6.390961E1,5.6577137E1,6.078649E2,3.672595E1,2.718366E1,3.2635216E1,2.3941923E1,1.5757869E2,4.5028625E2,4.529539E1,1.122833E2,4.1585883E2,3.442743E1,2.3952618E1,2.1342772E1,3.8488537E1,7.379476E1,1.2125954E2,2.9459927E2],"tree_param":{"num_deleted":"0","num_feature":"34","num_nodes":"23","size_leaf_vector":"1"}},{"base_weights":[3.3793412E-2,-3.0238992E-1,9.658956E-2,-4.5111033E-1,-5.868157E-3,2.2796758E-1,-4.4485506E-2,-5.698664E-1,-3.486379E-3,-6.3950694E-3,5.9431274E-3,-1.0215086E-2,2.6994893E-1,4.8183942E-1,-1.2946926E-1,-2.1405613E-2,-8.2617765E-3,4.7377026E-1,1.5388133E-1,2.291849E-2,5.2364846E-3,-1.7869078E-1,9.891337E-3,2.6110273E-2,1.0434148E-2,1.0182072E-2,-7.0614525E-4,3.5789533E-4,-9.514531E-3],"categories":[],"categories_nodes":[],"categories_segments":[],"categories_sizes":[],"default_left":[0,0,0,0,0,0,0,0,0,0,0,0,0,0,0,0,0,0,0,0,0,0,0,0,0,0,0,0,0],"id":40,"left_children":[1,3,5,7,9,11,13,15,-1,-1,-1,-1,17,19,21,-1,-1,23,25,-1,-1,27,-1,-1,-1,-1,-1,-1,-1],"loss_changes":[1.617626E1,5.265238E0,1.2009893E1,2.9820042E0,1.883786E0,8.174931E0,1.4079142E1,1.9764767E0,0E0,0E0,0E0,0E0,7.204855E0,3.4312744E0,6.2282777E0,0E0,0E0,4.8890266E0,6.727442E0,0E0,0E0,6.5381846E0,0E0,0E0,0E0,0E0,0E0,0E0,0E0],"parents":[2147483647,0,0,1,1,2,2,3,3,4,4,5,5,6,6,7,7,12,12,13,13,14,14,17,17,18,18,21,21],"right_children":[2,4,6,8,10,12,14,16,-1,-1,-1,-1,18,20,22,-1,-1,24,26,-1,-1,28,-1,-1,-1,-1,-1,-1,-1],"split_conditions":[4.355251E-1,3.0317108E1,1.3222592E0,1E0,4.0215E-4,-1.26E-5,-2.79996E2,4.1173422E-1,-3.486379E-3,-6.3950694E-3,5.9431274E-3,-1.0215086E-2,2.03477E1,1.8071202E0,1.9152021E0,-2.1405613E-2,-8.2617765E-3,4.9244893E-1,1E0,2.291849E-2,5.2364846E-3,-2.3955049E-1,9.891337E-3,2.6110273E-2,1.0434148E-2,1.0182072E-2,-7.0614525E-4,3.5789533E-4,-9.514531E-3],"split_indices":[6,1,5,31,16,15,1,23,0,0,0,0,3,5,6,0,0,22,30,0,0,17,0,0,0,0,0,0,0],"split_type":[0,0,0,0,0,0,0,0,0,0,0,0,0,0,0,0,0,0,0,0,0,0,0,0,0,0,0,0,0],"sum_hessian":[7.6245514E2,1.185526E2,6.439025E2,7.80345E1,4.0518097E1,3.3313922E2,3.1076334E2,5.635054E1,2.1683958E1,2.0293518E1,2.0224579E1,2.1768452E1,3.1137076E2,4.1740158E1,2.6902316E2,3.5733097E1,2.0617443E1,1.10427864E2,2.009429E2,2.0042429E1,2.169773E1,2.442775E2,2.4745678E1,2.3579792E1,8.6848076E1,9.7611626E1,1.0333127E2,1.03244484E2,1.41033E2],"tree_param":{"num_deleted":"0","num_feature":"34","num_nodes":"29","size_leaf_vector":"1"}},{"base_weights":[6.4435173E-3,-3.7353438E-1,8.4402144E-2,2.7880415E-3,-4.6057507E-1,3.1740165E-1,-3.3552947E-3,-6.682319E-1,-1.3940282E-1,-6.819182E-3,4.4249514E-1,-4.2945944E-2,1.3273581E-2,-1.1563914E-2,-2.465911E-2,4.086925E-3,-1.1020073E-2,5.9175783E-1,1.272335E-1,4.486554E-2,-2.2338228E-1,5.4145833E-3,2.1056406E-2,-6.204688E-3,1.1280624E-2,1.1094134E-2,-2.1399003E-3,-1.2067178E-2,-4.8078518E-4],"categories":[],"categories_nodes":[],"categories_segments":[],"categories_sizes":[],"default_left":[0,0,0,0,0,0,0,0,0,0,0,0,0,0,0,0,0,0,0,0,0,0,0,0,0,0,0,0,0],"id":41,"left_children":[1,3,5,-1,7,9,11,13,15,-1,17,19,-1,-1,-1,-1,-1,21,23,25,27,-1,-1,-1,-1,-1,-1,-1,-1],"loss_changes":[2.29515E1,5.475916E0,1.3197409E1,0E0,7.1783886E0,1.2247274E1,8.281475E0,2.1618652E0,3.0479376E0,0E0,6.569723E0,6.8996234E0,0E0,0E0,0E0,0E0,0E0,4.0604973E0,4.2566943E0,1.1130008E1,5.229217E0,0E0,0E0,0E0,0E0,0E0,0E0,0E0,0E0],"parents":[2147483647,0,0,1,1,2,2,4,4,5,5,6,6,7,7,8,8,10,10,11,11,17,17,18,18,19,19,20,20],"right_children":[2,4,6,-1,8,10,12,14,16,-1,18,20,-1,-1,-1,-1,-1,22,24,26,28,-1,-1,-1,-1,-1,-1,-1,-1],"split_conditions":[4.437152E-1,1.6412685E1,1.1005342E0,2.7880415E-3,6.615448E-2,-8.553108E2,2.1458836E0,1.0616866E0,3.0874657E1,-6.819182E-3,3.8371872E-2,8.040808E-2,1.3273581E-2,-1.1563914E-2,-2.465911E-2,4.086925E-3,-1.1020073E-2,-6.5394515E-1,4.752512E-2,4.9244893E-1,8.9838445E-1,5.4145833E-3,2.1056406E-2,-6.204688E-3,1.1280624E-2,1.1094134E-2,-2.1399003E-3,-1.2067178E-2,-4.8078518E-4],"split_indices":[6,13,5,0,7,25,6,5,13,0,7,7,0,0,0,0,0,17,7,22,6,0,0,0,0,0,0,0,0],"split_type":[0,0,0,0,0,0,0,0,0,0,0,0,0,0,0,0,0,0,0,0,0,0,0,0,0,0,0,0,0],"sum_hessian":[7.716456E2,1.2985484E2,6.417908E2,2.0218012E1,1.0963683E2,1.7447049E2,4.6732025E2,6.508378E1,4.455306E1,3.212998E1,1.4234052E2,4.310701E2,3.625018E1,2.5622257E1,3.9461517E1,2.0331995E1,2.4221066E1,9.51974E1,4.714311E1,2.905964E2,1.404737E2,2.1412943E1,7.378446E1,2.0095499E1,2.704761E1,7.562045E1,2.1497594E2,7.415157E1,6.632212E1],"tree_param":{"num_deleted":"0","num_feature":"34","num_nodes":"29","size_leaf_vector":"1"}},{"base_weights":[3.926729E-3,-2.0579086E-1,1.1628176E-1,-5.112156E-1,-1.1180588E-1,2.664627E-1,-7.788273E-3,-1.00646885E-2,-2.3782514E-2,9.442162E-3,-1.88659E-1,1.9569363E-2,2.0691969E-1,1.8445915E-2,-7.809338E-2,-5.906654E-2,-5.2159035E-1,-8.9928135E-3,2.7392194E-1,-1.3841687E-1,1.1552813E-2,-5.2449475E-3,5.579293E-3,-9.675685E-3,-2.1070432E-2,1.1700945E-2,1.2491029E-3,5.2315276E-4,-1.00447E-2],"categories":[],"categories_nodes":[],"categories_segments":[],"categories_sizes":[],"default_left":[0,0,0,0,0,0,0,0,0,0,0,0,0,0,0,0,0,0,0,0,0,0,0,0,0,0,0,0,0],"id":42,"left_children":[1,3,5,7,9,11,13,-1,-1,-1,15,-1,17,-1,19,21,23,-1,25,27,-1,-1,-1,-1,-1,-1,-1,-1,-1],"loss_changes":[1.8045578E1,7.487772E0,9.331517E0,2.4234734E0,6.891355E0,4.842268E0,1.2078041E1,0E0,0E0,0E0,7.5098577E0,0E0,6.9229307E0,0E0,7.0382805E0,3.7448344E0,1.2103119E0,0E0,4.7013893E0,6.8371897E0,0E0,0E0,0E0,0E0,0E0,0E0,0E0,0E0,0E0],"parents":[2147483647,0,0,1,1,2,2,3,3,4,4,5,5,6,6,10,10,12,12,14,14,15,15,16,16,18,18,19,19],"right_children":[2,4,6,8,10,12,14,-1,-1,-1,16,-1,18,-1,20,22,24,-1,26,28,-1,-1,-1,-1,-1,-1,-1,-1,-1],"split_conditions":[6.243772E-1,3.4279978E-1,1.2653857E0,1.4143423E0,9.5265025E-1,4.885142E-1,3.3657974E1,-1.00646885E-2,-2.3782514E-2,9.442162E-3,1.668934E2,1.9569363E-2,-1.0021566E3,1.8445915E-2,2.0724E-4,-2.345108E2,1.611506E3,-8.9928135E-3,4.3062523E-2,1E0,1.1552813E-2,-5.2449475E-3,5.579293E-3,-9.675685E-3,-2.1070432E-2,1.1700945E-2,1.2491029E-3,5.2315276E-4,-1.00447E-2],"split_indices":[6,6,5,5,5,22,0,0,0,0,25,0,25,0,14,25,24,0,7,9,0,0,0,0,0,0,0,0,0],"split_type":[0,0,0,0,0,0,0,0,0,0,0,0,0,0,0,0,0,0,0,0,0,0,0,0,0,0,0,0,0],"sum_hessian":[7.621982E2,2.6500214E2,4.9719608E2,6.0017967E1,2.0498418E2,2.2425572E2,2.7294034E2,3.9870457E1,2.014751E1,3.0150913E1,1.7483325E2,2.7093697E1,1.9716202E2,2.5975607E1,2.4696475E2,1.2775876E2,4.7074497E1,2.2041433E1,1.7512059E2,2.1993906E2,2.7025688E1,8.7433784E1,4.032498E1,2.5315939E1,2.1758556E1,1.1556552E2,5.955507E1,1.2336108E2,9.657799E1],"tree_param":{"num_deleted":"0","num_feature":"34","num_nodes":"29","size_leaf_vector":"1"}},{"base_weights":[-7.6735364E-3,-2.4233781E-1,1.2002124E-1,-5.143571E-1,-1.5784653E-1,3.956405E-1,1.8338341E-2,-3.1431335E-1,-2.5469407E-2,7.6904832E-3,-2.2846389E-1,-4.1116797E-3,5.265423E-1,1.6775303E-2,-2.5887214E-2,-1.9317076E-2,1.1025772E-3,-4.8074487E-1,-1.1473457E-1,4.0451485E-1,2.8660256E-2,1.1857185E-2,-7.2695374E-2,-5.7984767E-3,-2.3968672E-2,4.43471E-3,-9.149216E-3,1.9630874E-2,4.49687E-3,-6.900961E-3,1.9946413E-3],"categories":[],"categories_nodes":[],"categories_segments":[],"categories_sizes":[],"default_left":[0,0,0,0,0,0,0,0,0,0,0,0,0,0,0,0,0,0,0,0,0,0,0,0,0,0,0,0,0,0,0],"id":43,"left_children":[1,3,5,7,9,11,13,15,-1,-1,17,-1,19,-1,21,-1,-1,23,25,27,-1,-1,29,-1,-1,-1,-1,-1,-1,-1,-1],"loss_changes":[2.2950428E1,5.9761457E0,1.3831881E1,3.5554695E0,6.2329197E0,9.470379E0,8.797165E0,5.0467076E0,0E0,0E0,4.9940796E0,0E0,4.7148533E0,0E0,6.6987762E0,0E0,0E0,4.625222E0,6.4471717E0,5.278157E0,0E0,0E0,6.760806E0,0E0,0E0,0E0,0E0,0E0,0E0,0E0,0E0],"parents":[2147483647,0,0,1,1,2,2,3,3,4,4,5,5,6,6,7,7,10,10,12,12,14,14,17,17,18,18,19,19,22,22],"right_children":[2,4,6,8,10,12,14,16,-1,-1,18,-1,20,-1,22,-1,-1,24,26,28,-1,-1,30,-1,-1,-1,-1,-1,-1,-1,-1],"split_conditions":[6.243772E-1,3.4279978E-1,1.1005342E0,8.1594E-4,1.6064817E1,-8.553108E2,3.323881E1,8.578123E-1,-2.5469407E-2,7.6904832E-3,2.2285336E1,-4.1116797E-3,8.4755E-4,1.6775303E-2,-2.6832004E2,-1.9317076E-2,1.1025772E-3,4.99092E-1,3.0874657E1,9.122986E-1,2.8660256E-2,1.1857185E-2,1.164479E1,-5.7984767E-3,-2.3968672E-2,4.43471E-3,-9.149216E-3,1.9630874E-2,4.49687E-3,-6.900961E-3,1.9946413E-3],"split_indices":[6,6,5,16,13,25,0,4,0,0,13,0,16,0,1,0,0,22,13,5,0,0,1,0,0,0,0,0,0,0,0],"split_type":[0,0,0,0,0,0,0,0,0,0,0,0,0,0,0,0,0,0,0,0,0,0,0,0,0,0,0,0,0,0,0],"sum_hessian":[7.615481E2,2.680116E2,4.9353653E2,6.0825436E1,2.0718617E2,1.311848E2,3.623517E2,4.0682285E1,2.0143148E1,2.9206034E1,1.7798013E2,2.5708355E1,1.0547645E2,2.5801115E1,3.365506E2,2.0269428E1,2.0412855E1,5.302454E1,1.249556E2,8.5316956E1,2.0159492E1,3.1962677E1,3.0458792E2,2.9712349E1,2.3312191E1,5.2465603E1,7.248999E1,4.1278927E1,4.4038025E1,1.4269485E2,1.6189307E2],"tree_param":{"num_deleted":"0","num_feature":"34","num_nodes":"31","size_leaf_vector":"1"}},{"base_weights":[1.1047717E-2,-1.4610495E-1,1.6587532E-1,2.5748575E-1,-2.2886178E-1,2.3436114E-2,1.2408696E-1,-1.6194168E-3,2.3324957E-2,-2.0008817E-2,-1.8533222E-1,4.038666E-1,5.688897E-2,6.5422114E-3,-2.4073973E-1,3.6922721E-3,2.0823548E-2,-4.380701E-2,2.0912667E-1,-3.2279373E-3,-1.4249312E-2,4.978764E-3,-6.1186627E-3,1.5045646E-2,-6.398694E-4],"categories":[],"categories_nodes":[],"categories_segments":[],"categories_sizes":[],"default_left":[0,0,0,0,0,0,0,0,0,0,0,0,0,0,0,0,0,0,0,0,0,0,0,0,0],"id":44,"left_children":[1,3,5,7,9,-1,11,-1,-1,-1,13,15,17,-1,19,-1,-1,21,23,-1,-1,-1,-1,-1,-1],"loss_changes":[1.8356802E1,1.2610713E1,9.493078E0,1.0586369E1,5.612282E0,0E0,6.6497793E0,0E0,0E0,0E0,6.511731E0,5.3572083E0,4.5074997E0,0E0,7.732829E0,0E0,0E0,6.0131006E0,7.9463487E0,0E0,0E0,0E0,0E0,0E0,0E0],"parents":[2147483647,0,0,1,1,2,2,3,3,4,4,6,6,10,10,11,11,12,12,14,14,17,17,18,18],"right_children":[2,4,6,8,10,-1,12,-1,-1,-1,14,16,18,-1,20,-1,-1,22,24,-1,-1,-1,-1,-1,-1],"split_conditions":[7.840499E-1,9.762563E-1,8.293274E-1,5.08339E1,4.8629385E-1,2.3436114E-2,3.9336906E1,-1.6194168E-3,2.3324957E-2,-2.0008817E-2,4.2137737E1,9.084E-5,5.9229027E1,6.5422114E-3,3.1159565E1,3.6922721E-3,2.0823548E-2,4.9510565E-1,6.37614E-2,-3.2279373E-3,-1.4249312E-2,4.978764E-3,-6.1186627E-3,1.5045646E-2,-6.398694E-4],"split_indices":[6,5,5,0,22,0,0,0,0,0,0,14,0,0,3,0,0,22,7,0,0,0,0,0,0],"split_type":[0,0,0,0,0,0,0,0,0,0,0,0,0,0,0,0,0,0,0,0,0,0,0,0,0],"sum_hessian":[7.5037054E2,3.7212454E2,3.7824597E2,6.239651E1,3.0972803E2,2.165132E1,3.5659467E2,4.0023914E1,2.2372597E1,2.5196733E1,2.8453128E2,6.68317E1,2.8976297E2,3.3433716E1,2.5109758E2,3.5592216E1,3.1239489E1,1.748668E2,1.1489615E2,1.6223048E2,8.8867096E1,7.540402E1,9.946278E1,4.9796898E1,6.509925E1],"tree_param":{"num_deleted":"0","num_feature":"34","num_nodes":"25","size_leaf_vector":"1"}},{"base_weights":[2.4784165E-2,-1.4630723E-1,1.1673103E-1,-8.229877E-2,-4.6003956E-1,3.380662E-1,4.9090665E-2,-1.7576942E-1,2.298536E-1,-2.17292E-2,-3.751135E-3,2.1979098E-1,2.1245405E-2,8.471269E-3,1.280242E-2,1.6057887E-3,-3.7178543E-1,-1.2346499E-3,1.7187882E-2,1.6609916E-2,7.246332E-2,2.5101712E-1,-5.6159683E-2,1.4453868E-2,-6.756371E-3,-1.8937076E-2,1.1264348E-3,8.55586E-3,-7.2713275E-3,-3.619514E-4,1.4971497E-2,-8.515383E-3,9.140849E-4],"categories":[],"categories_nodes":[],"categories_segments":[],"categories_sizes":[],"default_left":[0,0,0,0,0,0,0,0,0,0,0,0,0,0,0,0,0,0,0,0,0,0,0,0,0,0,0,0,0,0,0,0,0],"id":45,"left_children":[1,3,5,7,9,11,13,15,17,-1,-1,19,-1,21,-1,23,25,-1,-1,-1,27,29,31,-1,-1,-1,-1,-1,-1,-1,-1,-1,-1],"loss_changes":[1.1963549E1,5.204694E0,7.33673E0,6.591674E0,3.657054E0,4.6364393E0,5.8048096E0,6.061855E0,4.943012E0,0E0,0E0,4.3020983E0,0E0,5.4860606E0,0E0,1.0336273E1,8.876598E0,0E0,0E0,0E0,4.5099125E0,4.8689218E0,5.4715366E0,0E0,0E0,0E0,0E0,0E0,0E0,0E0,0E0,0E0,0E0],"parents":[2147483647,0,0,1,1,2,2,3,3,4,4,5,5,6,6,7,7,8,8,11,11,13,13,15,15,16,16,20,20,21,21,22,22],"right_children":[2,4,6,8,10,12,14,16,18,-1,-1,20,-1,22,-1,24,26,-1,-1,-1,28,30,32,-1,-1,-1,-1,-1,-1,-1,-1,-1,-1],"split_conditions":[6.243772E-1,9.0166E-4,1.9047657E1,1.8303136E0,1.35954E-3,5.8055595E1,2.1968796E0,4.9846113E-1,4.981898E-1,-2.17292E-2,-3.751135E-3,