{"learner":{"attributes":{"best_iteration":"27","best_score":"0.6858815425735195","scikit_learn":"{\"_estimator_type\": \"classifier\"}"},"feature_names":[],"feature_types":[],"gradient_booster":{"model":{"cats":{"enc":[],"feature_segments":[],"sorted_idx":[]},"gbtree_model_param":{"num_parallel_tree":"1","num_trees":"58"},"iteration_indptr":[0,1,2,3,4,5,6,7,8,9,10,11,12,13,14,15,16,17,18,19,20,21,22,23,24,25,26,27,28,29,30,31,32,33,34,35,36,37,38,39,40,41,42,43,44,45,46,47,48,49,50,51,52,53,54,55,56,57,58],"tree_info":[0,0,0,0,0,0,0,0,0,0,0,0,0,0,0,0,0,0,0,0,0,0,0,0,0,0,0,0,0,0,0,0,0,0,0,0,0,0,0,0,0,0,0,0,0,0,0,0,0,0,0,0,0,0,0,0,0,0],"trees":[{"base_weights":[3.2548553E-3,-7.6414905E-2,7.124918E-1,6.2158066E-1,-1.3925742E-1,3.366376E-1,1.0939059E0,1.0469496E0,-1.347925E-2,-7.820729E-1,-6.730541E-2,-2.8491737E-3,4.6205085E-2,3.4175184E-2,6.837713E-2,2.2180269E-2,7.337569E-2,-6.0027447E-2,-3.5290332E-3,-9.294602E-3,1.1468171E-2],"categories":[],"categories_nodes":[],"categories_segments":[],"categories_sizes":[],"default_left":[0,0,0,0,0,0,0,0,0,0,0,0,0,0,0,0,0,0,0,0,0],"id":0,"left_children":[1,3,5,7,9,11,13,15,-1,17,19,-1,-1,-1,-1,-1,-1,-1,-1,-1,-1],"loss_changes":[2.9116926E1,2.0408592E1,7.0917892E0,1.4857582E1,1.964366E1,6.447512E0,1.9158936E0,6.005129E0,0E0,1.2650858E1,1.3554757E1,0E0,0E0,0E0,0E0,0E0,0E0,0E0,0E0,0E0,0E0],"parents":[2147483647,0,0,1,1,2,2,3,3,4,4,5,5,6,6,7,7,9,9,10,10],"right_children":[2,4,6,8,10,12,14,16,-1,18,20,-1,-1,-1,-1,-1,-1,-1,-1,-1,-1],"split_conditions":[4.668513E1,1.4297387E1,8.605115E2,1E0,6.978759E3,5.005093E-1,-5.2427646E-2,1.1851365E4,-1.347925E-2,1.1550175E0,5.0186723E-1,-2.8491737E-3,4.6205085E-2,3.4175184E-2,6.837713E-2,2.2180269E-2,7.337569E-2,-6.0027447E-2,-3.5290332E-3,-9.294602E-3,1.1468171E-2],"split_indices":[33,33,26,35,7,10,11,7,0,27,10,0,0,0,0,0,0,0,0,0,0],"split_type":[0,0,0,0,0,0,0,0,0,0,0,0,0,0,0,0,0,0,0,0,0],"sum_hessian":[5.1333704E2,4.6229855E2,5.1038506E1,3.7449837E1,4.248487E2,2.6654827E1,2.4383677E1,2.5231562E1,1.2218276E1,4.177386E1,3.8307483E2,1.6501356E1,1.0153471E1,1.1153471E1,1.32302065E1,1.1207701E1,1.4023862E1,2.587039E1,1.5903471E1,2.7394495E2,1.0912988E2],"tree_param":{"num_deleted":"0","num_feature":"46","num_nodes":"21","size_leaf_vector":"1"}},{"base_weights":[3.4426726E-2,-6.409582E-2,4.8298842E-1,1.65613E-2,-6.773576E-1,8.057976E-1,1.3322455E-1,-4.929578E-1,1.0003552E-1,-1.2100182E0,-8.0399334E-2,-9.149615E-3,1.1869392E0,-4.0068664E-2,6.5617985E-1,-4.6575125E-2,6.470491E-4,1.6349709E-2,-5.5591417E-3,-3.5783254E-2,-7.484784E-2,2.8992299E-2,-3.4146715E-2,2.9444784E-2,7.510337E-2,5.826212E-2,6.518592E-3],"categories":[],"categories_nodes":[],"categories_segments":[],"categories_sizes":[],"default_left":[0,0,0,0,0,0,0,0,0,0,0,0,0,0,0,0,0,0,0,0,0,0,0,0,0,0,0],"id":1,"left_children":[1,3,5,7,9,11,13,15,17,19,21,-1,23,-1,25,-1,-1,-1,-1,-1,-1,-1,-1,-1,-1,-1,-1],"loss_changes":[2.2648745E1,2.0811138E1,1.0312132E1,1.5896869E1,1.545211E1,1.8228918E1,2.2759577E1,1.1686175E1,1.5423737E1,2.5842896E0,9.995422E0,0E0,5.641758E0,0E0,7.80293E0,0E0,0E0,0E0,0E0,0E0,0E0,0E0,0E0,0E0,0E0,0E0,0E0],"parents":[2147483647,0,0,1,1,2,2,3,3,4,4,5,5,6,6,7,7,8,8,9,9,10,10,12,12,14,14],"right_children":[2,4,6,8,10,12,14,16,18,20,22,-1,24,-1,26,-1,-1,-1,-1,-1,-1,-1,-1,-1,-1,-1,-1],"split_conditions":[2.303174E0,1.7001905E0,6.061696E1,9.104836E-1,4.9859905E-1,1.4860157E0,4.3688377E1,5.0089806E-1,6.3636766E4,-2.511068E3,6.3246363E4,-9.149615E-3,-1.1179573E3,-4.0068664E-2,3.4375548E0,-4.6575125E-2,6.470491E-4,1.6349709E-2,-5.5591417E-3,-3.5783254E-2,-7.484784E-2,2.8992299E-2,-3.4146715E-2,2.9444784E-2,7.510337E-2,5.826212E-2,6.518592E-3],"split_indices":[36,36,22,27,10,27,33,36,21,12,30,0,23,0,36,0,0,0,0,0,0,0,0,0,0,0,0],"split_type":[0,0,0,0,0,0,0,0,0,0,0,0,0,0,0,0,0,0,0,0,0,0,0,0,0,0,0],"sum_hessian":[5.107906E2,4.195068E2,9.128379E1,3.7160568E2,4.7901142E1,4.6793045E1,4.4490746E1,5.1619488E1,3.1998618E2,2.4771122E1,2.313002E1,1.3163379E1,3.3629665E1,1.57718115E1,2.8718935E1,2.7199755E1,2.4419731E1,1.5398155E2,1.6600462E2,1.0380751E1,1.439037E1,1.1054445E1,1.2075576E1,1.2595309E1,2.1034355E1,1.3973931E1,1.4745004E1],"tree_param":{"num_deleted":"0","num_feature":"46","num_nodes":"27","size_leaf_vector":"1"}},{"base_weights":[-2.3150601E-4,-7.447203E-2,4.9089667E-1,-1.1766772E-1,4.581567E-2,-2.004765E-2,7.572016E-1,4.5875516E-2,-1.6951793E-1,1.139972E0,4.1609105E-1,-4.0920526E-2,-3.8950027E-3,3.3107437E-2,7.682448E-2,-9.562867E-3,5.674241E-2],"categories":[],"categories_nodes":[],"categories_segments":[],"categories_sizes":[],"default_left":[0,0,0,0,0,0,0,0,0,0,0,0,0,0,0,0,0],"id":2,"left_children":[1,3,5,7,-1,-1,9,-1,11,13,15,-1,-1,-1,-1,-1,-1],"loss_changes":[1.8418612E1,1.888807E1,1.6057993E1,2.2772186E1,0E0,0E0,6.240303E0,0E0,2.3842E1,3.4651299E0,1.2775322E1,0E0,0E0,0E0,0E0,0E0,0E0],"parents":[2147483647,0,0,1,1,2,2,3,3,6,6,8,8,9,9,10,10],"right_children":[2,4,6,8,-1,-1,10,-1,12,14,16,-1,-1,-1,-1,-1,-1],"split_conditions":[2.7531831E0,4.7158867E1,4.3667527E4,2.67706E4,4.581567E-2,-2.004765E-2,5.9609497E1,4.5875516E-2,2.9781748E4,-1.15933E3,5.062133E-1,-4.0920526E-2,-3.8950027E-3,3.3107437E-2,7.682448E-2,-9.562867E-3,5.674241E-2],"split_indices":[36,33,19,21,0,0,22,0,29,24,9,0,0,0,0,0,0],"split_type":[0,0,0,0,0,0,0,0,0,0,0,0,0,0,0,0,0],"sum_hessian":[5.031481E2,4.378149E2,6.533316E1,4.2036914E2,1.7445772E1,1.49063835E1,5.0426777E1,1.9254852E1,4.011143E2,2.2658764E1,2.7768015E1,4.8645428E1,3.5246887E2,1.1486669E1,1.1172094E1,1.5448213E1,1.2319803E1],"tree_param":{"num_deleted":"0","num_feature":"46","num_nodes":"17","size_leaf_vector":"1"}},{"base_weights":[-1.2316167E-3,-8.371281E-2,6.207283E-1,5.4701064E-2,-3.6430138E-1,-3.4518403E-3,7.6979697E-1,-5.288484E-1,1.3811712E-1,-4.84588E-1,3.6471072E-1,9.593237E-1,1.7178677E-2,-4.4926222E-2,2.4089038E-2,2.0988015E-2,-6.6081784E-3,1.8208489E-2,-2.8702328E-2,3.7240945E-2,-3.7566877E-3,7.391091E-2,2.8895253E-2],"categories":[],"categories_nodes":[],"categories_segments":[],"categories_sizes":[],"default_left":[0,0,0,0,0,0,0,0,0,0,0,0,0,0,0,0,0,0,0,0,0,0,0],"id":3,"left_children":[1,3,5,7,9,-1,11,13,15,17,19,21,-1,-1,-1,-1,-1,-1,-1,-1,-1,-1,-1],"loss_changes":[2.6604548E1,1.780245E1,6.296789E0,1.5040716E1,1.3451708E1,0E0,3.7105618E0,1.4877932E1,2.0595156E1,1.010812E1,3.7359877E0,5.887102E0,0E0,0E0,0E0,0E0,0E0,0E0,0E0,0E0,0E0,0E0,0E0],"parents":[2147483647,0,0,1,1,2,2,3,3,4,4,6,6,7,7,8,8,9,9,10,10,11,11],"right_children":[2,4,6,8,10,-1,12,14,16,18,20,22,-1,-1,-1,-1,-1,-1,-1,-1,-1,-1,-1],"split_conditions":[4.463836E1,2.842781E1,2.7723412E4,2.7624786E2,1.1635149E-1,-3.4518403E-3,6.56099E4,2.4597704E1,7.2340846E-1,2.091E-5,1.2980687E3,5.6336914E2,1.7178677E-2,-4.4926222E-2,2.4089038E-2,2.0988015E-2,-6.6081784E-3,1.8208489E-2,-2.8702328E-2,3.7240945E-2,-3.7566877E-3,7.391091E-2,2.8895253E-2],"split_indices":[33,33,29,26,31,0,20,33,36,2,26,24,0,0,0,0,0,0,0,0,0,0,0],"split_type":[0,0,0,0,0,0,0,0,0,0,0,0,0,0,0,0,0,0,0,0,0,0,0],"sum_hessian":[5.165943E2,4.568717E2,5.972262E1,3.0648715E2,1.5038455E2,1.0708678E1,4.901394E1,3.766389E1,2.6882324E2,1.293733E2,2.1011246E1,3.3061768E1,1.5952173E1,2.765789E1,1.00060005E1,1.3137364E2,1.374496E2,1.2042894E1,1.17330414E2,1.0899053E1,1.0112194E1,1.2788412E1,2.0273355E1],"tree_param":{"num_deleted":"0","num_feature":"46","num_nodes":"23","size_leaf_vector":"1"}},{"base_weights":[1.7678794E-2,-4.6536988E-1,9.85989E-2,-6.513814E-1,5.537797E-3,2.626694E-2,6.250906E-1,-2.3750152E-1,-9.4533056E-1,1.9717847E-1,-2.9333422E-1,6.0374763E-2,4.5922905E-1,1.7190646E-2,-3.3538498E-2,-5.992911E-2,-1.9679075E-2,2.4487663E-2,-3.554436E-3,-2.2152668E-2,2.2173105E-2,5.6490907E-3,4.318587E-2],"categories":[],"categories_nodes":[],"categories_segments":[],"categories_sizes":[],"default_left":[0,0,0,0,0,0,0,0,0,0,0,0,0,0,0,0,0,0,0,0,0,0,0],"id":4,"left_children":[1,3,5,7,-1,9,11,13,15,17,19,-1,21,-1,-1,-1,-1,-1,-1,-1,-1,-1,-1],"loss_changes":[2.009291E1,7.976961E0,1.674363E1,6.5768414E0,0E0,2.1251003E1,4.5764217E0,6.4143715E0,4.0489807E0,1.992344E1,1.5153712E1,0E0,5.918539E0,0E0,0E0,0E0,0E0,0E0,0E0,0E0,0E0,0E0,0E0],"parents":[2147483647,0,0,1,1,2,2,3,3,5,5,6,6,7,7,8,8,9,9,10,10,12,12],"right_children":[2,4,6,8,-1,10,12,14,16,18,20,-1,22,-1,-1,-1,-1,-1,-1,-1,-1,-1,-1],"split_conditions":[2.51755E5,5.699381E1,4.5532448E1,1.9154942E1,5.537797E-3,2.842781E1,-4.935138E3,-4.3298897E1,1.1413544E0,1E0,1.17994845E-1,6.0374763E-2,8.8108875E2,1.7190646E-2,-3.3538498E-2,-5.992911E-2,-1.9679075E-2,2.4487663E-2,-3.554436E-3,-2.2152668E-2,2.2173105E-2,5.6490907E-3,4.318587E-2],"split_indices":[14,22,33,33,0,33,12,23,27,38,31,0,26,0,0,0,0,0,0,0,0,0,0],"split_type":[0,0,0,0,0,0,0,0,0,0,0,0,0,0,0,0,0,0,0,0,0,0,0],"sum_hessian":[5.1186444E2,7.276232E1,4.3910214E2,5.4904797E1,1.7857521E1,3.8698602E2,5.211611E1,2.3551834E1,3.1352964E1,2.5239633E2,1.3458969E2,1.0160053E1,4.1956055E1,1.0145768E1,1.3406067E1,2.0685865E1,1.0667099E1,1.20333664E2,1.3206267E2,1.12190865E2,2.2398829E1,2.3294762E1,1.8661295E1],"tree_param":{"num_deleted":"0","num_feature":"46","num_nodes":"23","size_leaf_vector":"1"}},{"base_weights":[2.1674858E-2,-6.835099E-2,3.875557E-1,5.6000664E-3,-6.3857114E-1,7.772155E-1,1.859516E-2,2.1599066E-1,-1.822457E-1,-1.1519115E-1,-1.0200741E0,9.116079E-3,1.0659802E0,-5.838264E-1,4.7463444E-1,2.0171463E-2,-1.2078678E-2,-1.9217691E-4,-2.6160762E-2,-5.1069457E-2,3.91589E-2,-2.6658688E-2,-7.442573E-2,1.8976834E-2,7.1840644E-2,-5.1994454E-2,-1.5404187E-3,5.359104E-2,-4.490658E-3],"categories":[],"categories_nodes":[],"categories_segments":[],"categories_sizes":[],"default_left":[0,0,0,0,0,0,0,0,0,0,0,0,0,0,0,0,0,0,0,0,0,0,0,0,0,0,0,0,0],"id":5,"left_children":[1,3,5,7,9,11,13,15,17,19,21,-1,23,25,27,-1,-1,-1,-1,-1,-1,-1,-1,-1,-1,-1,-1,-1,-1],"loss_changes":[1.7138632E1,1.7620607E1,1.4755822E1,1.4694078E1,9.460669E0,8.3848915E0,1.50558605E1,1.513774E1,1.1947536E1,1.8182257E1,5.505625E0,0E0,7.960762E0,5.9266233E0,1.0602535E1,0E0,0E0,0E0,0E0,0E0,0E0,0E0,0E0,0E0,0E0,0E0,0E0,0E0,0E0],"parents":[2147483647,0,0,1,1,2,2,3,3,4,4,5,5,6,6,7,7,8,8,9,9,10,10,12,12,13,13,14,14],"right_children":[2,4,6,8,10,12,14,16,18,20,22,-1,24,26,28,-1,-1,-1,-1,-1,-1,-1,-1,-1,-1,-1,-1,-1,-1],"split_conditions":[2.202861E0,1.6575178E0,6.0467922E1,1E0,2.4005E-4,2.7531831E0,4.3688377E1,2.8209488E1,6.926421E4,3.136E-5,3.283067E1,9.116079E-3,3.9267437E1,1.552702E1,3.4375548E0,2.0171463E-2,-1.2078678E-2,-1.9217691E-4,-2.6160762E-2,-5.1069457E-2,3.91589E-2,-2.6658688E-2,-7.442573E-2,1.8976834E-2,7.1840644E-2,-5.1994454E-2,-1.5404187E-3,5.359104E-2,-4.490658E-3],"split_indices":[36,36,22,38,1,36,33,33,20,0,33,0,22,37,36,0,0,0,0,0,0,0,0,0,0,0,0,0,0],"split_type":[0,0,0,0,0,0,0,0,0,0,0,0,0,0,0,0,0,0,0,0,0,0,0,0,0,0,0,0,0],"sum_hessian":[5.1851434E2,4.1677826E2,1.017361E2,3.6980847E2,4.696977E1,4.8941936E1,5.279416E1,1.7436583E2,1.9544266E2,2.0351582E1,2.6618185E1,1.6526508E1,3.241543E1,2.2625704E1,3.0168453E1,1.2377884E2,5.058699E1,1.2897276E2,6.6469894E1,1.0063473E1,1.0288108E1,1.4100359E1,1.2517827E1,1.2079218E1,2.0336212E1,1.1917334E1,1.070837E1,1.4222328E1,1.5946126E1],"tree_param":{"num_deleted":"0","num_feature":"46","num_nodes":"29","size_leaf_vector":"1"}},{"base_weights":[3.792786E-2,-4.993077E-1,9.881827E-2,4.136901E-2,-9.2907023E-1,1.6056468E-1,-4.1222984E-1,-2.1506669E-2,2.476227E-2,-6.01946E-2,-2.5656281E-2,6.979607E-1,8.697382E-2,-5.8180667E-2,-1.5634507E-1,4.7777403E-2,1.1962502E-2,-4.0549325E-4,3.1287972E-2,1.8584574E-2,-2.9150978E-2],"categories":[],"categories_nodes":[],"categories_segments":[],"categories_sizes":[],"default_left":[0,0,0,0,0,0,0,0,0,0,0,0,0,0,0,0,0,0,0,0,0],"id":6,"left_children":[1,3,5,7,9,11,13,-1,-1,-1,-1,15,17,-1,19,-1,-1,-1,-1,-1,-1],"loss_changes":[1.6838478E1,1.22173395E1,1.463909E1,5.385241E0,2.725216E0,1.6262733E1,9.443723E0,0E0,0E0,0E0,0E0,5.628763E0,1.86621E1,0E0,8.8909445E0,0E0,0E0,0E0,0E0,0E0,0E0],"parents":[2147483647,0,0,1,1,2,2,3,3,4,4,5,5,6,6,11,11,12,12,14,14],"right_children":[2,4,6,8,10,12,14,-1,-1,-1,-1,16,18,-1,20,-1,-1,-1,-1,-1,-1],"split_conditions":[9.104836E-1,3.1768E-4,9.6216945E4,2.6786836E4,1.713496E-1,1.6036228E1,9.442495E4,-2.1506669E-2,2.476227E-2,-6.01946E-2,-2.5656281E-2,2.24402E1,4.463836E1,-5.8180667E-2,1E0,4.7777403E-2,1.1962502E-2,-4.0549325E-4,3.1287972E-2,1.8584574E-2,-2.9150978E-2],"split_indices":[27,2,21,19,11,41,29,0,0,0,0,13,41,0,38,0,0,0,0,0,0],"split_type":[0,0,0,0,0,0,0,0,0,0,0,0,0,0,0,0,0,0,0,0,0],"sum_hessian":[5.1223315E2,5.1413364E1,4.608198E2,2.3168821E1,2.8244545E1,4.1175598E2,4.906381E1,1.1389416E1,1.1779406E1,1.5866755E1,1.237779E1,4.8572403E1,3.6318356E2,1.1562912E1,3.7500896E1,3.0411701E1,1.8160702E1,3.0954135E2,5.3642223E1,1.6817299E1,2.06836E1],"tree_param":{"num_deleted":"0","num_feature":"46","num_nodes":"21","size_leaf_vector":"1"}},{"base_weights":[-1.077066E-3,-1.341789E-1,3.0628356E-1,4.3986303E-1,-2.2509548E-1,1.3346243E-1,7.3747075E-1,6.6703564E-1,-1.5044463E-2,2.0026626E-1,-3.4822252E-1,-5.583276E-2,4.9365354E-1,1.4969195E-2,9.2978776E-1,-1.3866636E-2,5.0836783E-2,-2.5230194E-2,2.4992874E-2,-3.375321E-2,-9.755979E-3,1.4882465E-2,-1.7914861E-2,3.235351E-3,4.7567416E-2,6.9118254E-2,2.0230165E-2],"categories":[],"categories_nodes":[],"categories_segments":[],"categories_sizes":[],"default_left":[0,0,0,0,0,0,0,0,0,0,0,0,0,0,0,0,0,0,0,0,0,0,0,0,0,0,0],"id":7,"left_children":[1,3,5,7,9,11,13,15,-1,17,19,21,23,-1,25,-1,-1,-1,-1,-1,-1,-1,-1,-1,-1,-1,-1],"loss_changes":[2.1134796E1,1.8913177E1,1.1534972E1,8.551893E0,1.640332E1,7.70951E0,3.4663773E0,1.2927238E1,0E0,1.5170347E1,1.198922E1,8.098873E0,7.5784893E0,0E0,6.669403E0,0E0,0E0,0E0,0E0,0E0,0E0,0E0,0E0,0E0,0E0,0E0,0E0],"parents":[2147483647,0,0,1,1,2,2,3,3,4,4,5,5,6,6,7,7,9,9,10,10,11,11,12,12,14,14],"right_children":[2,4,6,8,10,12,14,16,-1,18,20,22,24,-1,26,-1,-1,-1,-1,-1,-1,-1,-1,-1,-1,-1,-1],"split_conditions":[5.0148445E-1,1.568514E1,6.80249E5,1.1576672E2,-1.2606062E3,2.159372E3,1.0059251E2,2.9995467E4,-1.5044463E-2,-2.9746597E2,1.1231409E0,2.912215E-3,6.0699154E-2,1.4969195E-2,2.9260388E2,-1.3866636E-2,5.0836783E-2,-2.5230194E-2,2.4992874E-2,-3.375321E-2,-9.755979E-3,1.4882465E-2,-1.7914861E-2,3.235351E-3,4.7567416E-2,6.9118254E-2,2.0230165E-2],"split_indices":[10,33,14,24,13,12,25,29,0,25,27,3,31,0,25,0,0,0,0,0,0,0,0,0,0,0,0],"split_type":[0,0,0,0,0,0,0,0,0,0,0,0,0,0,0,0,0,0,0,0,0,0,0,0,0,0,0],"sum_hessian":[5.1460895E2,3.5949423E2,1.5511472E2,4.862715E1,3.1086707E2,1.1166755E2,4.3447174E1,3.7290485E1,1.1336665E1,6.9644104E1,2.4122298E2,7.375255E1,3.7914993E1,1.4034388E1,2.9412788E1,1.0133042E1,2.7157444E1,2.0567987E1,4.9076115E1,7.58629E1,1.6536008E2,3.4015488E1,3.9737064E1,2.0161362E1,1.7753632E1,1.4921794E1,1.44909935E1],"tree_param":{"num_deleted":"0","num_feature":"46","num_nodes":"27","size_leaf_vector":"1"}},{"base_weights":[3.0392133E-2,-6.5979135E-1,9.905036E-2,7.6847686E-3,-1.1020999E0,1.5544377E-1,-3.9263502E-1,-2.707517E-2,-7.20452E-2,8.527415E-2,5.952897E-1,-8.723729E-1,7.2180144E-2,1.3419041E-2,-9.120997E-3,1.9224718E-2,6.7029275E-2,-6.191639E-2,-2.0069567E-2,3.0823693E-2,-2.8012699E-2],"categories":[],"categories_nodes":[],"categories_segments":[],"categories_sizes":[],"default_left":[0,0,0,0,0,0,0,0,0,0,0,0,0,0,0,0,0,0,0,0,0],"id":8,"left_children":[1,3,5,-1,7,9,11,-1,-1,13,15,17,19,-1,-1,-1,-1,-1,-1,-1,-1],"loss_changes":[2.4342937E1,1.689518E1,1.3005585E1,0E0,4.9622726E0,1.289738E1,1.0837482E1,0E0,0E0,1.784063E1,8.526323E0,3.6143703E0,9.111031E0,0E0,0E0,0E0,0E0,0E0,0E0,0E0,0E0],"parents":[2147483647,0,0,1,1,2,2,4,4,5,5,6,6,9,9,10,10,11,11,12,12],"right_children":[2,4,6,-1,8,10,12,-1,-1,14,16,18,20,-1,-1,-1,-1,-1,-1,-1,-1],"split_conditions":[8.84424E-1,2.7119799E4,9.625618E4,7.6847686E-3,1.7544685E1,4.4116722E1,1.01288305E5,-2.707517E-2,-7.20452E-2,2.7008947E1,6.787951E4,9.812279E4,5.045813E1,1.3419041E-2,-9.120997E-3,1.9224718E-2,6.7029275E-2,-6.191639E-2,-2.0069567E-2,3.0823693E-2,-2.8012699E-2],"split_indices":[27,19,21,0,33,33,20,0,0,33,20,21,22,0,0,0,0,0,0,0,0],"split_type":[0,0,0,0,0,0,0,0,0,0,0,0,0,0,0,0,0,0,0,0,0],"sum_hessian":[5.113283E2,4.5484795E1,4.658435E2,1.62502E1,2.9234594E1,4.18525E2,4.7318493E1,1.199144E1,1.7243155E1,3.6197256E2,5.6552433E1,2.285398E1,2.4464516E1,2.1494469E2,1.4702788E2,4.5265644E1,1.128679E1,1.1944107E1,1.0909872E1,1.3162053E1,1.1302462E1],"tree_param":{"num_deleted":"0","num_feature":"46","num_nodes":"21","size_leaf_vector":"1"}},{"base_weights":[-3.577185E-2,-5.466328E-1,1.9584803E-2,1.2094815E-2,-1.0264403E0,-1.05191655E-1,2.7607372E-1,-4.4523094E-2,4.0402178E-2,-2.9733846E-2,-7.7188306E-2,5.915355E-1,-1.7244764E-1,4.2393228E-1,2.7775614E-2,6.6858763E-3,4.431148E-2,1.0585529E-3,-2.0685283E-2,3.9894443E-2,9.505467E-3,-3.3828333E-2,1.4906916E-2],"categories":[],"categories_nodes":[],"categories_segments":[],"categories_sizes":[],"default_left":[0,0,0,0,0,0,0,0,0,0,0,0,0,0,0,0,0,0,0,0,0,0,0],"id":9,"left_children":[1,3,5,7,9,11,13,-1,-1,-1,-1,15,17,19,21,-1,-1,-1,-1,-1,-1,-1,-1],"loss_changes":[1.4276505E1,1.3243078E1,1.4626068E1,1.7809782E1,5.0152264E0,1.4513926E1,5.4784555E0,0E0,0E0,0E0,0E0,3.5648623E0,1.3146886E1,8.037867E0,1.1034199E1,0E0,0E0,0E0,0E0,0E0,0E0,0E0,0E0],"parents":[2147483647,0,0,1,1,2,2,3,3,4,4,5,5,6,6,11,11,12,12,13,13,14,14],"right_children":[2,4,6,8,10,12,14,-1,-1,-1,-1,16,18,20,22,-1,-1,-1,-1,-1,-1,-1,-1],"split_conditions":[2.7624786E2,2.7119799E4,5.008765E-1,2.6246156E4,-2.5969805E1,-1.3787249E0,4.6805923E2,-4.4523094E-2,4.0402178E-2,-2.9733846E-2,-7.7188306E-2,-2.0863461E0,1.12937325E2,1.1085E-4,3.543E-5,6.6858763E-3,4.431148E-2,1.0585529E-3,-2.0685283E-2,3.9894443E-2,9.505467E-3,-3.3828333E-2,1.4906916E-2],"split_indices":[26,19,10,30,24,3,24,0,0,0,0,3,24,1,0,0,0,0,0,0,0,0,0],"split_type":[0,0,0,0,0,0,0,0,0,0,0,0,0,0,0,0,0,0,0,0,0,0,0],"sum_hessian":[5.034564E2,4.8353115E1,4.5510327E2,2.2789694E1,2.5563421E1,3.0655878E2,1.4854451E2,1.0623996E1,1.2165697E1,1.5105662E1,1.0457758E1,2.630114E1,2.8025763E2,9.2659515E1,5.588499E1,1.0869195E1,1.5431945E1,1.5598557E2,1.2427206E2,3.4719593E1,5.7939926E1,1.50845785E1,4.080041E1],"tree_param":{"num_deleted":"0","num_feature":"46","num_nodes":"23","size_leaf_vector":"1"}},{"base_weights":[6.4057675E-3,-2.5195274E-1,1.6067472E-1,5.021009E-1,-3.8911667E-1,3.8242933E-1,-5.5555604E-2,4.269163E-2,-1.4284825E-3,-2.2638376E-1,-7.4825644E-1,-2.3461552E-2,4.4497856E-1,1.8499008E-1,-3.4092692E-1,-1.9621372E-2,1.5629122E-2,-5.008006E-2,6.478098E-3,3.2765254E-2,9.257469E-3,-9.905595E-3,3.0776028E-2,-2.8264824E-2,3.1312652E-2],"categories":[],"categories_nodes":[],"categories_segments":[],"categories_sizes":[],"default_left":[0,0,0,0,0,0,0,0,0,0,0,0,0,0,0,0,0,0,0,0,0,0,0,0,0],"id":10,"left_children":[1,3,5,7,9,11,13,-1,-1,15,17,-1,19,21,23,-1,-1,-1,-1,-1,-1,-1,-1,-1,-1],"loss_changes":[2.036818E1,1.995758E1,1.5362835E1,5.594795E0,9.311768E0,8.630032E0,1.1242947E1,0E0,0E0,1.0241896E1,1.1283236E1,0E0,7.954754E0,1.4804937E1,1.659554E1,0E0,0E0,0E0,0E0,0E0,0E0,0E0,0E0,0E0,0E0],"parents":[2147483647,0,0,1,1,2,2,3,3,4,4,5,5,6,6,9,9,10,10,12,12,13,13,14,14],"right_children":[2,4,6,8,10,12,14,-1,-1,16,18,-1,20,22,24,-1,-1,-1,-1,-1,-1,-1,-1,-1,-1],"split_conditions":[4.151505E-2,1.446734E1,6.611244E4,5.218172E0,5.003513E-1,3.469403E-1,2.842781E1,4.269163E-2,-1.4284825E-3,5.013729E-1,9.024258E2,-2.3461552E-2,8.7092626E-1,1.552702E1,4.5944366E1,-1.9621372E-2,1.5629122E-2,-5.008006E-2,6.478098E-3,3.2765254E-2,9.257469E-3,-9.905595E-3,3.0776028E-2,-2.8264824E-2,3.1312652E-2],"split_indices":[31,33,28,37,3,32,33,0,0,10,26,0,32,37,33,0,0,0,0,0,0,0,0,0,0],"split_type":[0,0,0,0,0,0,0,0,0,0,0,0,0,0,0,0,0,0,0,0,0,0,0,0,0],"sum_hessian":[5.0901956E2,1.9007031E2,3.1894925E2,2.8843523E1,1.6122679E2,1.5708372E2,1.6186554E2,1.6980064E1,1.1863459E1,1.1207422E2,4.915257E1,1.0302655E1,1.4678107E2,8.8021805E1,7.3843735E1,8.588639E1,2.6187828E1,3.803452E1,1.1118052E1,8.027666E1,6.650441E1,4.6862053E1,4.115975E1,6.0276188E1,1.3567546E1],"tree_param":{"num_deleted":"0","num_feature":"46","num_nodes":"25","size_leaf_vector":"1"}},{"base_weights":[-2.8052466E-2,-6.24835E-1,2.6634473E-2,-1.0057436E0,-2.8678838E-3,5.089502E-1,-5.2345008E-2,-2.3650903E-2,-7.9382285E-2,5.949178E-2,2.77152E-1,-1.5545593E-1,1.7896616E-1,-1.3020106E-2,2.8000716E-2,1.7527471E-3,-2.0897973E-2,2.6681542E-3,3.5389718E-2],"categories":[],"categories_nodes":[],"categories_segments":[],"categories_sizes":[],"default_left":[0,0,0,0,0,0,0,0,0,0,0,0,0,0,0,0,0,0,0],"id":11,"left_children":[1,3,5,7,-1,9,11,-1,-1,-1,13,15,17,-1,-1,-1,-1,-1,-1],"loss_changes":[1.6511759E1,9.122107E0,1.7700123E1,7.1076164E0,0E0,9.9884205E0,9.558075E0,0E0,0E0,0E0,7.760069E0,1.3863058E1,8.176393E0,0E0,0E0,0E0,0E0,0E0,0E0],"parents":[2147483647,0,0,1,1,2,2,3,3,5,5,6,6,10,10,11,11,12,12],"right_children":[2,4,6,8,-1,10,12,-1,-1,-1,14,16,18,-1,-1,-1,-1,-1,-1],"split_conditions":[1.7738129E-1,5.349149E1,1.6504972E1,-5.745613E1,-2.8678838E-3,-1.3406116E2,5.0125825E-1,-2.3650903E-2,-7.9382285E-2,5.949178E-2,1E0,4.95018E-1,1.710859E3,-1.3020106E-2,2.8000716E-2,1.7527471E-3,-2.0897973E-2,2.6681542E-3,3.5389718E-2],"split_indices":[36,23,41,24,0,23,10,0,0,0,39,10,13,0,0,0,0,0,0],"split_type":[0,0,0,0,0,0,0,0,0,0,0,0,0,0,0,0,0,0,0],"sum_hessian":[5.044238E2,4.146817E1,4.6295563E2,2.4350824E1,1.7117344E1,6.437615E1,3.985795E2,1.3659015E1,1.0691811E1,1.5300196E1,4.907596E1,2.7591403E2,1.2266547E2,1.6947735E1,3.2128223E1,1.603831E2,1.1553092E2,1.0001225E2,2.265321E1],"tree_param":{"num_deleted":"0","num_feature":"46","num_nodes":"19","size_leaf_vector":"1"}},{"base_weights":[1.6897883E-2,-4.5394026E-2,3.972289E-1,4.7402442E-1,-1.0158884E-1,8.399079E-1,1.8116657E-1,-6.894072E-3,6.783137E-1,3.1542203E-1,-1.9028924E-1,2.2759555E-2,5.6245387E-2,-8.9168705E-2,4.0084828E-2,6.0120165E-2,1.6165158E-2,4.149242E-2,2.844694E-3,4.2486183E-2,-1.1409474E-2,-2.2665286E-2,2.0327175E-2],"categories":[],"categories_nodes":[],"categories_segments":[],"categories_sizes":[],"default_left":[0,0,0,0,0,0,0,0,0,0,0,0,0,0,0,0,0,0,0,0,0,0,0],"id":12,"left_children":[1,3,5,7,9,11,13,-1,15,17,19,-1,-1,21,-1,-1,-1,-1,-1,-1,-1,-1,-1],"loss_changes":[1.2069884E1,1.2832916E1,6.7050543E0,5.4609194E0,1.4710186E1,2.0360737E0,8.367381E0,0E0,5.631916E0,9.2418E0,1.30919285E1,0E0,0E0,6.5646176E0,0E0,0E0,0E0,0E0,0E0,0E0,0E0,0E0,0E0],"parents":[2147483647,0,0,1,1,2,2,3,3,4,4,5,5,6,6,8,8,9,9,10,10,13,13],"right_children":[2,4,6,8,10,12,14,-1,16,18,20,-1,-1,22,-1,-1,-1,-1,-1,-1,-1,-1,-1],"split_conditions":[2.12196E2,-7.059947E3,2.7285587E2,5.443823E-1,1.6504972E1,2.539862E2,2.256154E0,-6.894072E-3,1.0674078E0,-6.5136375E1,2.6694264E4,2.2759555E-2,5.6245387E-2,1.9826486E4,4.0084828E-2,6.0120165E-2,1.6165158E-2,4.149242E-2,2.844694E-3,4.2486183E-2,-1.1409474E-2,-2.2665286E-2,2.0327175E-2],"split_indices":[37,12,37,36,33,13,36,0,36,23,21,0,0,6,0,0,0,0,0,0,0,0,0],"split_type":[0,0,0,0,0,0,0,0,0,0,0,0,0,0,0,0,0,0,0,0,0,0,0],"sum_hessian":[5.076985E2,4.3700497E2,7.069352E1,4.1937157E1,3.950678E2,2.2239927E1,4.845359E1,1.0578007E1,3.1359148E1,6.884552E1,3.262223E2,1.0569495E1,1.1670433E1,3.4346684E1,1.4106908E1,1.1699959E1,1.965919E1,2.2287447E1,4.655807E1,1.0717076E1,3.1550522E2,1.9850546E1,1.4496137E1],"tree_param":{"num_deleted":"0","num_feature":"46","num_nodes":"23","size_leaf_vector":"1"}},{"base_weights":[3.757116E-3,-5.7205576E-1,6.2139973E-2,8.608764E-3,-8.800172E-1,2.8734204E-1,-1.0818395E-1,-5.325298E-1,-7.085847E-2,5.2469885E-1,2.5702968E-2,-3.933213E-1,1.1018156E-1,-3.5176098E-3,-4.68814E-2,4.223915E-2,1.175247E-3,-1.4775889E-2,2.60532E-2,-2.7269451E-2,1.6596634E-2,3.903073E-2,-2.9033981E-3],"categories":[],"categories_nodes":[],"categories_segments":[],"categories_sizes":[],"default_left":[0,0,0,0,0,0,0,0,0,0,0,0,0,0,0,0,0,0,0,0,0,0,0],"id":13,"left_children":[1,3,5,-1,7,9,11,13,-1,15,17,19,21,-1,-1,-1,-1,-1,-1,-1,-1,-1,-1],"loss_changes":[1.7297646E1,1.1008079E1,1.7948376E1,0E0,5.529562E0,1.2495424E1,1.664855E1,4.061482E0,0E0,1.6914892E1,1.5566926E1,1.2961197E1,1.716945E1,0E0,0E0,0E0,0E0,0E0,0E0,0E0,0E0,0E0,0E0],"parents":[2147483647,0,0,1,1,2,2,4,4,5,5,6,6,7,7,9,9,10,10,11,11,12,12],"right_children":[2,4,6,-1,8,10,12,14,-1,16,18,20,22,-1,-1,-1,-1,-1,-1,-1,-1,-1,-1],"split_conditions":[2.7624786E2,5.206E-5,6.2093934E4,8.608764E-3,-2.5969805E1,1.1691129E2,7.241359E4,-2.06746E2,-7.085847E-2,2.6828814E1,3.4531563E1,1.3101119E3,8.5588836E4,-3.5176098E-3,-4.68814E-2,4.223915E-2,1.175247E-3,-1.4775889E-2,2.60532E-2,-2.7269451E-2,1.6596634E-2,3.903073E-2,-2.9033981E-3],"split_indices":[26,1,30,0,24,23,19,13,0,33,33,26,21,0,0,0,0,0,0,0,0,0,0],"split_type":[0,0,0,0,0,0,0,0,0,0,0,0,0,0,0,0,0,0,0,0,0,0,0],"sum_hessian":[5.124839E2,4.636834E1,4.6611557E2,1.3700391E1,3.266795E1,2.0042581E2,2.6568976E2,2.104511E1,1.1622837E1,1.045623E2,9.58635E1,1.1488023E2,1.5080952E2,1.037823E1,1.0666881E1,6.3391933E1,4.117037E1,5.839818E1,3.746533E1,9.517286E1,1.9707373E1,2.9524002E1,1.2128552E2],"tree_param":{"num_deleted":"0","num_feature":"46","num_nodes":"23","size_leaf_vector":"1"}},{"base_weights":[-2.9348077E-2,-5.1196074E-1,2.1680668E-2,-5.0010357E-2,-8.654809E-1,6.711948E-1,-1.3482242E-2,1.703733E-2,-2.3490569E-2,-2.879076E-2,-5.635649E-2,6.894862E-2,-7.5655812E-3,-6.337674E-1,6.492128E-2,-4.6395138E-2,1.463887E-2,5.069402E-2,9.965843E-4],"categories":[],"categories_nodes":[],"categories_segments":[],"categories_sizes":[],"default_left":[0,0,0,0,0,0,0,0,0,0,0,0,0,0,0,0,0,0,0],"id":14,"left_children":[1,3,5,7,9,11,13,-1,-1,-1,-1,-1,-1,15,17,-1,-1,-1,-1],"loss_changes":[1.2550166E1,7.9144382E0,1.0547534E1,3.7994425E0,1.4384327E0,1.4015693E1,2.1376804E1,0E0,0E0,0E0,0E0,0E0,0E0,1.3713654E1,1.6646759E1,0E0,0E0,0E0,0E0],"parents":[2147483647,0,0,1,1,2,2,3,3,4,4,5,5,6,6,13,13,14,14],"right_children":[2,4,6,8,10,12,14,-1,-1,-1,-1,-1,-1,16,18,-1,-1,-1,-1],"split_conditions":[6.978759E3,5.099563E3,2.6564473E4,8.5462016E-1,4.965939E-1,2.018399E1,2.9781748E4,1.703733E-2,-2.3490569E-2,-2.879076E-2,-5.635649E-2,6.894862E-2,-7.5655812E-3,5.1089146E1,1.2986826E1,-4.6395138E-2,1.463887E-2,5.069402E-2,9.965843E-4],"split_indices":[7,7,20,36,10,25,29,0,0,0,0,0,0,33,33,0,0,0,0],"split_type":[0,0,0,0,0,0,0,0,0,0,0,0,0,0,0,0,0,0,0],"sum_hessian":[5.081569E2,4.7728073E1,4.604288E2,2.1185764E1,2.6542309E1,2.2717257E1,4.3771155E2,1.106998E1,1.0115785E1,1.41157675E1,1.242654E1,1.1846576E1,1.0870681E1,4.8323044E1,3.8938852E2,3.6678E1,1.1645043E1,1.6650295E1,3.7273822E2],"tree_param":{"num_deleted":"0","num_feature":"46","num_nodes":"19","size_leaf_vector":"1"}},{"base_weights":[5.403233E-4,-9.436682E-2,2.9424223E-1,4.5143694E-1,-1.4828256E-1,-1.9337784E-1,4.5169288E-1,7.924563E-1,-8.196748E-3,1.9994074E-1,-2.4865726E-1,2.5747085E-2,-4.3336675E-2,6.751701E-1,5.4810382E-2,1.5254241E-2,5.985378E-2,2.4361117E-2,-1.0662629E-2,-2.4076873E-2,-4.651909E-3,1.5667891E-2,5.3439856E-2,3.0847281E-2,-1.4849164E-2],"categories":[],"categories_nodes":[],"categories_segments":[],"categories_sizes":[],"default_left":[0,0,0,0,0,0,0,0,0,0,0,0,0,0,0,0,0,0,0,0,0,0,0,0,0],"id":15,"left_children":[1,3,5,7,9,11,13,15,-1,17,19,-1,-1,21,23,-1,-1,-1,-1,-1,-1,-1,-1,-1,-1],"loss_changes":[1.4290284E1,1.1469072E1,9.700052E0,7.4918094E0,1.2401522E1,1.5356023E1,8.38397E0,4.1198425E0,0E0,9.555607E0,9.912676E0,0E0,0E0,8.303253E0,7.1621737E0,0E0,0E0,0E0,0E0,0E0,0E0,0E0,0E0,0E0,0E0],"parents":[2147483647,0,0,1,1,2,2,3,3,4,4,5,5,6,6,7,7,9,9,10,10,13,13,14,14],"right_children":[2,4,6,8,10,12,14,16,-1,18,20,-1,-1,22,24,-1,-1,-1,-1,-1,-1,-1,-1,-1,-1],"split_conditions":[5.0264806E-1,1.446734E1,3.830948E4,3.60259E2,-1.2606062E3,1.4452E-4,3.0419615E1,9.7517496E-1,-8.196748E-3,2.9845485E-1,4.1257504E-2,2.5747085E-2,-4.3336675E-2,5.677242E2,6.3816934E4,1.5254241E-2,5.985378E-2,2.4361117E-2,-1.0662629E-2,-2.4076873E-2,-4.651909E-3,1.5667891E-2,5.3439856E-2,3.0847281E-2,-1.4849164E-2],"split_indices":[10,33,28,8,13,1,33,37,0,3,31,0,0,13,28,0,0,0,0,0,0,0,0,0,0],"split_type":[0,0,0,0,0,0,0,0,0,0,0,0,0,0,0,0,0,0,0,0,0,0,0,0,0],"sum_hessian":[5.106707E2,3.8646628E2,1.24204414E2,3.4081093E1,3.523852E2,3.026046E1,9.3943954E1,2.1743677E1,1.2337418E1,7.862494E1,2.7376025E2,1.4862006E1,1.5398453E1,5.9653168E1,3.4290787E1,1.0658871E1,1.10848055E1,4.627328E1,3.235166E1,1.0881977E2,1.6494048E2,3.2018566E1,2.7634602E1,1.2909242E1,2.1381544E1],"tree_param":{"num_deleted":"0","num_feature":"46","num_nodes":"25","size_leaf_vector":"1"}},{"base_weights":[-1.4668824E-2,4.010412E-2,-5.4180825E-1,-5.1741946E-2,3.643486E-1,-9.9346066E-1,-7.38993E-2,6.1631334E-1,-1.1656338E-1,9.180445E-1,1.7232715E-1,-7.050739E-2,-2.9439611E-2,3.8018648E-2,-4.4432543E-2,2.517936E-3,5.6489974E-2,4.433169E-4,-2.072673E-2,2.597334E-2,6.672337E-2,-3.279179E-2,1.7807385E-2],"categories":[],"categories_nodes":[],"categories_segments":[],"categories_sizes":[],"default_left":[0,0,0,0,0,0,0,0,0,0,0,0,0,0,0,0,0,0,0,0,0,0,0],"id":16,"left_children":[1,3,5,7,9,11,13,15,17,19,21,-1,-1,-1,-1,-1,-1,-1,-1,-1,-1,-1,-1],"loss_changes":[1.4467834E1,1.3544294E1,9.893673E0,1.5435946E1,1.051391E1,3.2027912E0,1.715566E1,9.108897E0,1.2122495E1,3.5583878E0,1.176682E1,0E0,0E0,0E0,0E0,0E0,0E0,0E0,0E0,0E0,0E0,0E0,0E0],"parents":[2147483647,0,0,1,1,2,2,3,3,4,4,5,5,6,6,7,7,8,8,9,9,10,10],"right_children":[2,4,6,8,10,12,14,16,18,20,22,-1,-1,-1,-1,-1,-1,-1,-1,-1,-1,-1,-1],"split_conditions":[9.628881E4,1.2217332E3,1.01288305E5,1.4297387E1,6.615066E4,9.812279E4,1E0,-1.2138491E1,6.3636766E4,6.3115305E4,6.969067E4,-7.050739E-2,-2.9439611E-2,3.8018648E-2,-4.4432543E-2,2.517936E-3,5.6489974E-2,4.433169E-4,-2.072673E-2,2.597334E-2,6.672337E-2,-3.279179E-2,1.7807385E-2],"split_indices":[21,26,20,41,20,21,38,23,21,19,20,0,0,0,0,0,0,0,0,0,0,0,0],"split_type":[0,0,0,0,0,0,0,0,0,0,0,0,0,0,0,0,0,0,0,0,0,0,0],"sum_hessian":[4.9933307E2,4.5316992E2,4.6163147E1,3.53794E2,9.93759E1,2.29181E1,2.3245045E1,3.0539848E1,3.2325418E2,2.4615602E1,7.476029E1,1.0067202E1,1.2850899E1,1.1517915E1,1.1727131E1,1.5050047E1,1.54898E1,2.2817508E2,9.5079094E1,1.3725623E1,1.088998E1,1.3113322E1,6.1646973E1],"tree_param":{"num_deleted":"0","num_feature":"46","num_nodes":"23","size_leaf_vector":"1"}},{"base_weights":[2.7865922E-2,5.6529485E-2,-4.624464E-2,1.3893717E-3,4.9437258E-1,1.2467222E-1,-2.3888731E-1,2.5480703E-1,4.381634E-2,1.8956408E-2,-4.170999E-3,-1.5756048E-2,3.3412173E-2,2.50264E-2,-1.5712356E-2],"categories":[],"categories_nodes":[],"categories_segments":[],"categories_sizes":[],"default_left":[0,0,0,0,0,0,0,0,0,0,0,0,0,0,0],"id":17,"left_children":[1,3,-1,5,7,9,11,13,-1,-1,-1,-1,-1,-1,-1],"loss_changes":[1.3821677E1,1.1839273E1,0E0,1.2961716E1,4.795656E0,1.5343967E1,1.0471772E1,5.067791E0,0E0,0E0,0E0,0E0,0E0,0E0,0E0],"parents":[2147483647,0,0,1,1,3,3,4,4,5,5,6,6,7,7],"right_children":[2,4,-1,6,8,10,12,14,-1,-1,-1,-1,-1,-1,-1],"split_conditions":[1.045279E5,4.5532448E1,-4.624464E-2,2.842781E1,5.067135E-1,1E0,1.7636686E3,6.751922E1,4.381634E-2,1.8956408E-2,-4.170999E-3,-1.5756048E-2,3.3412173E-2,2.50264E-2,-1.5712356E-2],"split_indices":[30,33,0,33,9,38,13,22,0,0,0,0,0,0,0],"split_type":[0,0,0,0,0,0,0,0,0,0,0,0,0,0,0],"sum_hessian":[5.031987E2,4.8941537E2,1.3783301E1,4.355653E2,5.3850086E1,2.8818332E2,1.4738199E2,3.4118027E1,1.973206E1,1.292788E2,1.5890453E2,1.3655847E2,1.0823514E1,2.3912773E1,1.0205255E1],"tree_param":{"num_deleted":"0","num_feature":"46","num_nodes":"15","size_leaf_vector":"1"}},{"base_weights":[1.9027192E-2,-4.6284306E-1,6.515469E-2,-7.672686E-1,1.9986989E-2,4.849327E-2,3.956823E-2,-1.0134788E-2,-5.4569107E-2,-5.4585886E-1,1.0064278E-1,5.885274E-3,-4.5521546E-2,1.6506985E-2,-2.8393657E-3],"categories":[],"categories_nodes":[],"categories_segments":[],"categories_sizes":[],"default_left":[0,0,0,0,0,0,0,0,0,0,0,0,0,0,0],"id":18,"left_children":[1,3,5,7,-1,-1,9,-1,-1,11,13,-1,-1,-1,-1],"loss_changes":[1.1402753E1,1.2076711E1,1.0790964E1,5.903778E0,0E0,0E0,1.6359056E1,0E0,0E0,1.0566109E1,1.4967991E1,0E0,0E0,0E0,0E0],"parents":[2147483647,0,0,1,1,2,2,3,3,6,6,9,9,10,10],"right_children":[2,4,6,8,-1,-1,10,-1,-1,12,14,-1,-1,-1,-1],"split_conditions":[1.8341993E-1,1E0,2.6701135E4,-3.962101E-1,1.9986989E-2,4.849327E-2,2.9309433E2,-1.0134788E-2,-5.4569107E-2,1.9062271E-2,6.2093934E4,5.885274E-3,-4.5521546E-2,1.6506985E-2,-2.8393657E-3],"split_indices":[36,34,21,3,0,0,26,0,0,31,30,0,0,0,0],"split_type":[0,0,0,0,0,0,0,0,0,0,0,0,0,0,0],"sum_hessian":[5.1064606E2,4.3822357E1,4.668237E2,3.247254E1,1.1349817E1,1.1824268E1,4.5499945E2,1.2435883E1,2.003666E1,4.2233612E1,4.1276584E2,1.52159395E1,2.7017673E1,1.6749684E2,2.4526898E2],"tree_param":{"num_deleted":"0","num_feature":"46","num_nodes":"15","size_leaf_vector":"1"}},{"base_weights":[-4.46324E-2,-1.2025179E-1,2.0438616E-1,-4.7834765E-2,-7.876901E-2,1.8686133E-2,4.5580557E-1,2.734037E-1,-1.8444309E-1,2.2812007E-1,-4.2195357E-2,4.956085E-2,7.472246E-2,-2.9039199E-2,2.1880638E-2,-2.4687825E-2,-3.8024427E-3,4.294951E-2,1.0384568E-3,2.5912879E-2,-1.4724145E-2],"categories":[],"categories_nodes":[],"categories_segments":[],"categories_sizes":[],"default_left":[0,0,0,0,0,0,0,0,0,0,0,0,0,0,0,0,0,0,0,0,0],"id":19,"left_children":[1,3,5,-1,7,9,11,13,15,17,-1,-1,19,-1,-1,-1,-1,-1,-1,-1,-1],"loss_changes":[9.490613E0,1.3325993E1,5.475762E0,0E0,1.3785506E1,1.2586532E1,1.009909E1,1.225895E1,9.500509E0,7.3062677E0,0E0,0E0,5.099547E0,0E0,0E0,0E0,0E0,0E0,0E0,0E0,0E0],"parents":[2147483647,0,0,1,1,2,2,4,4,5,5,6,6,7,7,8,8,9,9,12,12],"right_children":[2,4,6,-1,8,10,12,14,16,18,-1,-1,20,-1,-1,-1,-1,-1,-1,-1,-1],"split_conditions":[7.38846E5,-2.486442E3,4.9936354E-1,-4.7834765E-2,1.7933544E1,1.69588E2,6.648207E-2,2.9474064E4,2.248678E1,-5.8186877E-1,-4.2195357E-2,4.956085E-2,6.0866316E4,-2.9039199E-2,2.1880638E-2,-2.4687825E-2,-3.8024427E-3,4.294951E-2,1.0384568E-3,2.5912879E-2,-1.4724145E-2],"split_indices":[14,8,10,0,33,12,31,20,33,3,0,0,19,0,0,0,0,0,0,0,0],"split_type":[0,0,0,0,0,0,0,0,0,0,0,0,0,0,0,0,0,0,0,0,0],"sum_hessian":[5.0169348E2,3.852284E2,1.1646509E2,1.7159904E1,3.6806848E2,6.760552E1,4.8859562E1,8.45863E1,2.8348218E2,5.498978E1,1.2615741E1,1.9650331E1,2.9209232E1,1.3229876E1,7.135643E1,7.264045E1,2.1084172E2,1.2825427E1,4.2164356E1,1.3085546E1,1.6123686E1],"tree_param":{"num_deleted":"0","num_feature":"46","num_nodes":"21","size_leaf_vector":"1"}},{"base_weights":[-1.1165948E-2,3.4183544E-1,-7.697043E-2,4.7271442E-1,-1.4379658E-2,-1.4197196E-1,3.2556581E-1,-8.3451895E-3,6.772349E-1,-2.5398725E-1,1.000522E-1,-1.4423378E-2,4.5472872E-1,1.3761773E-2,4.8160594E-2,5.799721E-3,-1.7670019E-2,-5.027586E-3,2.6711864E-2,5.3083625E-2,1.0309949E-2],"categories":[],"categories_nodes":[],"categories_segments":[],"categories_sizes":[],"default_left":[0,0,0,0,0,0,0,0,0,0,0,0,0,0,0,0,0,0,0,0,0],"id":20,"left_children":[1,3,5,7,-1,9,11,-1,13,15,17,-1,19,-1,-1,-1,-1,-1,-1,-1,-1],"loss_changes":[1.1949992E1,6.795212E0,1.138821E1,8.916872E0,0E0,1.0162066E1,4.9349213E0,0E0,5.620058E0,9.452719E0,1.0420029E1,0E0,7.38822E0,0E0,0E0,0E0,0E0,0E0,0E0,0E0,0E0],"parents":[2147483647,0,0,1,1,2,2,3,3,5,5,6,6,8,8,9,9,10,10,12,12],"right_children":[2,4,6,8,-1,10,12,-1,14,16,18,-1,20,-1,-1,-1,-1,-1,-1,-1,-1],"split_conditions":[1.6504972E1,9.711603E4,4.4116722E1,2.958771E4,-1.4379658E-2,5.013729E-1,1.1806728E0,-8.3451895E-3,-1.4679307E1,-1.5474637E3,1.1806189E3,-1.4423378E-2,1.3573227E0,1.3761773E-2,4.8160594E-2,5.799721E-3,-1.7670019E-2,-5.027586E-3,2.6711864E-2,5.3083625E-2,1.0309949E-2],"split_indices":[33,21,33,21,0,10,27,0,25,13,26,0,27,0,0,0,0,0,0,0,0],"split_type":[0,0,0,0,0,0,0,0,0,0,0,0,0,0,0,0,0,0,0,0,0],"sum_hessian":[5.1230853E2,7.98369E1,4.3247162E2,6.6299934E1,1.3536966E1,3.7290262E2,5.9568993E1,1.610791E1,5.0192024E1,2.5488538E2,1.1801725E2,1.0138371E1,4.9430622E1,2.167949E1,2.8512537E1,5.3946835E1,2.0093854E2,8.1247406E1,3.676984E1,1.3409928E1,3.602069E1],"tree_param":{"num_deleted":"0","num_feature":"46","num_nodes":"21","size_leaf_vector":"1"}},{"base_weights":[-2.3689808E-2,2.9398015E-2,-5.152699E-1,-3.8626432E-2,3.02981E-1,-9.955967E-1,-7.027555E-2,8.995303E-2,-2.5275728E-1,9.041459E-1,9.48777E-2,-6.983172E-2,-2.8577296E-2,2.2414612E-2,-4.0732533E-2,-1.477048E-2,1.07267955E-2,-1.762878E-2,3.860372E-2,5.7868738E-2,2.6659027E-2,-4.7106892E-2,1.5026274E-2],"categories":[],"categories_nodes":[],"categories_segments":[],"categories_sizes":[],"default_left":[0,0,0,0,0,0,0,0,0,0,0,0,0,0,0,0,0,0,0,0,0,0,0],"id":21,"left_children":[1,3,5,7,9,11,13,15,17,19,21,-1,-1,-1,-1,-1,-1,-1,-1,-1,-1,-1,-1],"loss_changes":[1.3194756E1,8.511926E0,1.0462827E1,1.011853E1,1.1306901E1,3.2189598E0,1.0654547E1,1.1098204E1,1.4372398E1,1.5717144E0,1.4947996E1,0E0,0E0,0E0,0E0,0E0,0E0,0E0,0E0,0E0,0E0,0E0,0E0],"parents":[2147483647,0,0,1,1,2,2,3,3,4,4,5,5,6,6,7,7,8,8,9,9,10,10],"right_children":[2,4,6,8,10,12,14,16,18,20,22,-1,-1,-1,-1,-1,-1,-1,-1,-1,-1,-1,-1],"split_conditions":[9.625618E4,1.2591005E3,1.01288305E5,6.370558E4,6.65245E4,-2.8575468E1,1.0508415E5,2.9309433E2,9.859382E2,2.7578242E4,6.969067E4,-6.983172E-2,-2.8577296E-2,2.2414612E-2,-4.0732533E-2,-1.477048E-2,1.07267955E-2,-1.762878E-2,3.860372E-2,5.7868738E-2,2.6659027E-2,-4.7106892E-2,1.5026274E-2],"split_indices":[21,26,20,28,20,37,19,26,13,6,20,0,0,0,0,0,0,0,0,0,0,0,0],"split_type":[0,0,0,0,0,0,0,0,0,0,0,0,0,0,0,0,0,0,0,0,0,0,0],"sum_hessian":[5.0402542E2,4.557475E2,4.8277912E1,3.656821E2,9.006542E1,2.2622196E1,2.5655718E1,2.2884633E2,1.3683577E2,2.2300232E1,6.776519E1,1.0447821E1,1.2174376E1,1.5355849E1,1.0299869E1,5.55736E1,1.7327272E2,1.2528865E2,1.1547116E1,1.1993389E1,1.0306843E1,1.0621758E1,5.714343E1],"tree_param":{"num_deleted":"0","num_feature":"46","num_nodes":"23","size_leaf_vector":"1"}},{"base_weights":[3.9369028E-2,-5.852396E-1,6.730382E-2,-6.601194E-2,1.0213224E-2,3.6579758E-1,1.8618664E-2,5.0068866E-2,2.221905E-1,-4.6142142E-2,3.5700074E-1,2.255405E-2,-1.7349508E-2,5.3949407E-3,-1.1058959E-2,4.4957664E-2,-4.5515164E-3],"categories":[],"categories_nodes":[],"categories_segments":[],"categories_sizes":[],"default_left":[0,0,0,0,0,0,0,0,0,0,0,0,0,0,0,0,0],"id":22,"left_children":[1,3,5,-1,-1,7,9,-1,11,13,15,-1,-1,-1,-1,-1,-1],"loss_changes":[8.833105E0,1.2849299E1,7.0167303E0,0E0,0E0,5.958659E0,9.145522E0,0E0,7.520594E0,9.475761E0,1.636472E1,0E0,0E0,0E0,0E0,0E0,0E0],"parents":[2147483647,0,0,1,1,2,2,5,5,6,6,8,8,9,9,10,10],"right_children":[2,4,6,-1,-1,8,10,-1,12,14,16,-1,-1,-1,-1,-1,-1],"split_conditions":[9.122733E-2,4.4611298E-2,1.6504972E1,-6.601194E-2,1.0213224E-2,-1.6247307E2,2.7531831E0,5.0068866E-2,1.1082301E3,1.0746613E0,6.0467922E1,2.255405E-2,-1.7349508E-2,5.3949407E-3,-1.1058959E-2,4.4957664E-2,-4.5515164E-3],"split_indices":[36,31,33,0,0,23,36,0,26,36,22,0,0,0,0,0,0],"split_type":[0,0,0,0,0,0,0,0,0,0,0,0,0,0,0,0,0],"sum_hessian":[5.0298663E2,2.0678356E1,4.8230826E2,1.0360694E1,1.0317662E1,6.6721054E1,4.1558722E2,1.1196091E1,5.552496E1,3.4955228E2,6.603496E1,3.9748127E1,1.5776835E1,1.8613135E2,1.6342091E2,2.9423424E1,3.6611534E1],"tree_param":{"num_deleted":"0","num_feature":"46","num_nodes":"17","size_leaf_vector":"1"}},{"base_weights":[2.2664778E-2,-5.6020197E-2,3.6374053E-1,2.0459836E-2,-5.622043E-1,5.2956898E-2,2.3132274E-1,-4.6027666E-1,8.8337384E-2,-8.0296344E-1,7.932219E-3,-9.266787E-3,5.410969E-1,-4.61234E-2,2.8243237E-3,2.3732888E-2,-3.316142E-5,-5.8900267E-2,-2.196466E-2,2.0449243E-2,-2.15584E-2,4.3241024E-2,6.1062514E-3],"categories":[],"categories_nodes":[],"categories_segments":[],"categories_sizes":[],"default_left":[0,0,0,0,0,0,0,0,0,0,0,0,0,0,0,0,0,0,0,0,0,0,0],"id":23,"left_children":[1,3,5,7,9,-1,11,13,15,17,-1,19,21,-1,-1,-1,-1,-1,-1,-1,-1,-1,-1],"loss_changes":[1.3671833E1,1.6045856E1,8.547514E0,1.1813504E1,9.568687E0,0E0,6.0783625E0,1.0752126E1,1.0899147E1,5.067114E0,0E0,8.443585E0,4.728283E0,0E0,0E0,0E0,0E0,0E0,0E0,0E0,0E0,0E0,0E0],"parents":[2147483647,0,0,1,1,2,2,3,3,4,4,6,6,7,7,8,8,9,9,11,11,12,12],"right_children":[2,4,6,8,10,-1,12,14,16,18,-1,20,22,-1,-1,-1,-1,-1,-1,-1,-1,-1,-1],"split_conditions":[2.303174E0,1.6575178E0,-2.5302347E2,1.8979295E-1,5.0348496E-1,5.2956898E-2,4.994525E-1,1.2406774E1,1.6504972E1,1E0,7.932219E-3,5.8603863E1,1.1501638E3,-4.61234E-2,2.8243237E-3,2.3732888E-2,-3.316142E-5,-5.8900267E-2,-2.196466E-2,2.0449243E-2,-2.15584E-2,4.3241024E-2,6.1062514E-3],"split_indices":[36,36,25,36,10,0,10,23,41,38,0,22,23,0,0,0,0,0,0,0,0,0,0],"split_type":[0,0,0,0,0,0,0,0,0,0,0,0,0,0,0,0,0,0,0,0,0,0,0],"sum_hessian":[5.0767023E2,4.1318555E2,9.448469E1,3.5978476E2,5.340078E1,1.3994348E1,8.049034E1,4.3799294E1,3.1598547E2,3.994536E1,1.3455423E1,4.5850296E1,3.464005E1,2.2706017E1,2.1093279E1,5.8354763E1,2.576307E2,1.8562847E1,2.1382511E1,2.3040106E1,2.2810188E1,1.894095E1,1.5699098E1],"tree_param":{"num_deleted":"0","num_feature":"46","num_nodes":"23","size_leaf_vector":"1"}},{"base_weights":[-3.44645E-2,-8.560701E-2,3.5706133E-1,5.213649E-1,-1.1881152E-1,-3.6699757E-2,7.698834E-1,-9.662571E-4,5.6553822E-2,-6.075191E-1,-6.472462E-2,1.8524906E-2,-1.979345E-2,1.3622611E-2,5.6401264E-2,-1.0266561E-3,-5.146726E-2,7.888193E-3,-9.827687E-3],"categories":[],"categories_nodes":[],"categories_segments":[],"categories_sizes":[],"default_left":[0,0,0,0,0,0,0,0,0,0,0,0,0,0,0,0,0,0,0],"id":24,"left_children":[1,3,5,7,9,11,13,-1,-1,15,17,-1,-1,-1,-1,-1,-1,-1,-1],"loss_changes":[1.0163163E1,9.098604E0,9.56306E0,7.7498116E0,1.1219256E1,4.6769743E0,4.8021564E0,0E0,0E0,1.0458312E1,1.1311829E1,0E0,0E0,0E0,0E0,0E0,0E0,0E0,0E0],"parents":[2147483647,0,0,1,1,2,2,3,3,4,4,5,5,6,6,9,9,10,10],"right_children":[2,4,6,8,10,12,14,-1,-1,16,18,-1,-1,-1,-1,-1,-1,-1,-1],"split_conditions":[4.463836E1,2.645727E4,8.390066E2,5.102155E1,3.02104E4,5.6336914E2,8.0859E-4,-9.662571E-4,5.6553822E-2,2.1596973E2,6.2093934E4,1.8524906E-2,-1.979345E-2,1.3622611E-2,5.6401264E-2,-1.0266561E-3,-5.146726E-2,7.888193E-3,-9.827687E-3],"split_indices":[33,20,26,22,28,24,2,0,0,26,30,0,0,0,0,0,0,0,0],"split_type":[0,0,0,0,0,0,0,0,0,0,0,0,0,0,0,0,0,0,0],"sum_hessian":[5.050324E2,4.4737592E2,5.7656494E1,2.2441841E1,4.2493408E2,2.9975826E1,2.768067E1,1.2407351E1,1.0034491E1,4.1323074E1,3.8361102E2,1.4033831E1,1.5941996E1,1.2324139E1,1.535653E1,1.7717382E1,2.360569E1,1.4265497E2,2.4095604E2],"tree_param":{"num_deleted":"0","num_feature":"46","num_nodes":"19","size_leaf_vector":"1"}},{"base_weights":[-2.618958E-3,-5.7368505E-1,4.6970338E-2,-9.949154E-1,-1.976675E-3,4.7435418E-2,2.1077933E-2,-7.229879E-2,-2.30658E-2,-5.970342E-1,8.216653E-2,1.6353874E-3,-4.8813995E-2,1.2221506E-2,-3.049354E-3],"categories":[],"categories_nodes":[],"categories_segments":[],"categories_sizes":[],"default_left":[0,0,0,0,0,0,0,0,0,0,0,0,0,0,0],"id":25,"left_children":[1,3,5,7,-1,-1,9,-1,-1,11,13,-1,-1,-1,-1],"loss_changes":[1.4457378E1,9.138353E0,1.0948546E1,4.811901E0,0E0,0E0,1.7331318E1,0E0,0E0,9.892295E0,9.710652E0,0E0,0E0,0E0,0E0],"parents":[2147483647,0,0,1,1,2,2,3,3,6,6,9,9,10,10],"right_children":[2,4,6,8,-1,-1,10,-1,-1,12,14,-1,-1,-1,-1],"split_conditions":[1.8341993E-1,1.8096355E1,2.6701135E4,6.4080634E2,-1.976675E-3,4.7435418E-2,2.9309433E2,-7.229879E-2,-2.30658E-2,1.9062271E-2,6.360616E4,1.6353874E-3,-4.8813995E-2,1.2221506E-2,-3.049354E-3],"split_indices":[36,23,21,26,0,0,26,0,0,31,20,0,0,0,0],"split_type":[0,0,0,0,0,0,0,0,0,0,0,0,0,0,0],"sum_hessian":[5.0857138E2,3.9789555E1,4.6878183E2,2.1763952E1,1.8025602E1,1.2090023E1,4.566918E2,1.086757E1,1.0896383E1,4.028664E1,4.1640515E2,1.54858885E1,2.480075E1,1.9484373E2,2.2156143E2],"tree_param":{"num_deleted":"0","num_feature":"46","num_nodes":"15","size_leaf_vector":"1"}},{"base_weights":[5.027748E-3,2.9819284E-2,-4.1521754E-2,7.3970584E-3,4.340268E-2,4.2834055E-2,-6.8640494E-1,-2.0085047E-3,2.2595258E-2,-5.416275E-2,-1.3599731E-2],"categories":[],"categories_nodes":[],"categories_segments":[],"categories_sizes":[],"default_left":[0,0,0,0,0,0,0,0,0,0,0],"id":26,"left_children":[1,3,-1,5,-1,7,9,-1,-1,-1,-1],"loss_changes":[1.0350203E1,9.111322E0,0E0,1.1670591E1,0E0,1.5345809E1,3.4990005E0,0E0,0E0,0E0,0E0],"parents":[2147483647,0,0,1,1,3,3,5,5,6,6],"right_children":[2,4,-1,6,-1,8,10,-1,-1,-1,-1],"split_conditions":[1.045279E5,1.02511516E5,-4.1521754E-2,9.628881E4,4.340268E-2,1.3101119E3,9.812279E4,-2.0085047E-3,2.2595258E-2,-5.416275E-2,-1.3599731E-2],"split_indices":[30,20,0,21,0,26,21,0,0,0,0],"split_type":[0,0,0,0,0,0,0,0,0,0,0],"sum_hessian":[4.9751468E2,4.8411337E2,1.3401279E1,4.7248358E2,1.16298065E1,4.5041614E2,2.206743E1,3.751888E2,7.5227325E1,1.0448098E1,1.1619333E1],"tree_param":{"num_deleted":"0","num_feature":"46","num_nodes":"11","size_leaf_vector":"1"}},{"base_weights":[1.4907377E-2,-4.3689203E-2,3.744743E-1,1.2202551E-1,-1.9999473E-1,-1.8508409E-1,6.414823E-1,-1.8785862E-2,6.6309786E-1,-2.1075735E-2,-4.9136764E-1,1.666753E-2,-2.9409055E-2,8.026089E-1,4.5285914E-3,6.234877E-3,-1.8042743E-2,6.1544057E-2,1.0675597E-2,6.9040754E-3,-1.36236055E-2,-3.7230495E-2,-9.879614E-4,5.7821956E-2,2.6561756E-2],"categories":[],"categories_nodes":[],"categories_segments":[],"categories_sizes":[],"default_left":[0,0,0,0,0,0,0,0,0,0,0,0,0,0,0,0,0,0,0,0,0,0,0,0,0],"id":27,"left_children":[1,3,5,7,9,11,13,15,17,19,21,-1,-1,23,-1,-1,-1,-1,-1,-1,-1,-1,-1,-1,-1],"loss_changes":[1.0858675E1,1.1509037E1,1.0908062E1,1.6456831E1,1.190442E1,5.23326E0,4.2866974E0,8.498636E0,1.1121729E1,5.745047E0,1.0364466E1,0E0,0E0,3.0219784E0,0E0,0E0,0E0,0E0,0E0,0E0,0E0,0E0,0E0,0E0,0E0],"parents":[2147483647,0,0,1,1,2,2,3,3,4,4,5,5,6,6,7,7,8,8,9,9,10,10,13,13],"right_children":[2,4,6,8,10,12,14,16,18,20,22,-1,-1,24,-1,-1,-1,-1,-1,-1,-1,-1,-1,-1,-1],"split_conditions":[2.7531831E0,1E0,5.182334E4,9.448515E4,6.7939195E4,-2.071321E3,6.819444E1,6.373764E4,9.60758E4,1.0099812E0,9.2828006E-1,1.666753E-2,-2.9409055E-2,6.360616E4,4.5285914E-3,6.234877E-3,-1.8042743E-2,6.1544057E-2,1.0675597E-2,6.9040754E-3,-1.36236055E-2,-3.7230495E-2,-9.879614E-4,5.7821956E-2,2.6561756E-2],"split_indices":[36,38,30,20,30,12,22,21,21,36,32,0,0,20,0,0,0,0,0,0,0,0,0,0,0],"split_type":[0,0,0,0,0,0,0,0,0,0,0,0,0,0,0,0,0,0,0,0,0,0,0,0,0],"sum_hessian":[5.136003E2,4.423857E2,7.121459E1,2.1483621E2,2.2754948E2,2.3103758E1,4.8110832E1,1.7123773E2,4.3598488E1,1.4164438E2,8.5905106E1,1.0181746E1,1.2922011E1,3.6870358E1,1.1240474E1,1.2108372E2,5.015401E1,1.8498663E1,2.5099823E1,8.700983E1,5.4634556E1,5.551567E1,3.0389439E1,1.4588175E1,2.2282185E1],"tree_param":{"num_deleted":"0","num_feature":"46","num_nodes":"25","size_leaf_vector":"1"}},{"base_weights":[8.497389E-3,4.2827117E-1,-3.0926254E-2,5.2348044E-2,1.9828679E-1,-2.3127985E-1,7.007745E-2,4.9310037E-1,-1.6808797E-2,-3.561932E-1,1.5234472E-1,-3.7909478E-2,3.7872326E-1,-3.645323E-3,4.9968086E-2,-2.8119788E-2,-1.9364376E-3,3.5270702E-2,-1.439433E-2,3.09956E-3,-3.0276809E-2,3.576794E-2,-9.790018E-4],"categories":[],"categories_nodes":[],"categories_segments":[],"categories_sizes":[],"default_left":[0,0,0,0,0,0,0,0,0,0,0,0,0,0,0,0,0,0,0,0,0,0,0],"id":28,"left_children":[1,3,5,-1,7,9,11,13,-1,15,17,19,21,-1,-1,-1,-1,-1,-1,-1,-1,-1,-1],"loss_changes":[8.3110075E0,5.927145E0,9.310622E0,0E0,5.312622E0,7.442045E0,1.0217284E1,6.2214403E0,0E0,7.6110945E0,9.593912E0,1.2948802E1,1.0664816E1,0E0,0E0,0E0,0E0,0E0,0E0,0E0,0E0,0E0,0E0],"parents":[2147483647,0,0,1,1,2,2,4,4,5,5,6,6,7,7,9,9,10,10,11,11,12,12],"right_children":[2,4,6,-1,8,10,12,14,-1,16,18,20,22,-1,-1,-1,-1,-1,-1,-1,-1,-1,-1],"split_conditions":[1.446734E1,-6.0008407E-1,4.1257504E-2,5.2348044E-2,1.0107154E3,5.013729E-1,2.2740872E0,6.4440064E0,-1.6808797E-2,7.568272E2,5.0435346E-1,1.7258527E0,6.311552E1,-3.645323E-3,4.9968086E-2,-2.8119788E-2,-1.9364376E-3,3.5270702E-2,-1.439433E-2,3.09956E-3,-3.0276809E-2,3.576794E-2,-9.790018E-4],"split_indices":[33,3,31,0,26,10,36,24,0,26,10,36,22,0,0,0,0,0,0,0,0,0,0],"split_type":[0,0,0,0,0,0,0,0,0,0,0,0,0,0,0,0,0,0,0,0,0,0,0],"sum_hessian":[5.0040536E2,4.211468E1,4.5829068E2,1.0450117E1,3.1664564E1,1.531696E2,3.0512106E2,2.0457466E1,1.1207099E1,1.15600136E2,3.7569466E1,2.2668665E2,7.8434425E1,1.0062948E1,1.0394518E1,6.9612946E1,4.598719E1,1.6383835E1,2.118563E1,1.9351869E2,3.316795E1,4.2076477E1,3.6357952E1],"tree_param":{"num_deleted":"0","num_feature":"46","num_nodes":"23","size_leaf_vector":"1"}},{"base_weights":[1.109151E-2,-4.5968812E-2,3.8398036E-1,5.8864886E-1,-7.917381E-2,-2.154099E-2,6.04404E-1,5.776273E-2,-4.0875855E-3,1.7478527E-1,-1.5235944E-1,8.709322E-1,5.4623447E-3,-2.078736E-3,3.596815E-2,-4.490037E-2,-5.8246194E-3,5.9661042E-2,2.2454096E-2],"categories":[],"categories_nodes":[],"categories_segments":[],"categories_sizes":[],"default_left":[0,0,0,0,0,0,0,0,0,0,0,0,0,0,0,0,0,0,0],"id":29,"left_children":[1,3,5,7,9,-1,11,-1,-1,13,15,17,-1,-1,-1,-1,-1,-1,-1],"loss_changes":[1.0791056E1,9.319163E0,1.23484335E1,8.450252E0,7.8148646E0,0E0,6.950947E0,0E0,0E0,1.1129944E1,8.609348E0,4.1634655E0,0E0,0E0,0E0,0E0,0E0,0E0,0E0],"parents":[2147483647,0,0,1,1,2,2,3,3,4,4,6,6,9,9,10,10,11,11],"right_children":[2,4,6,8,10,-1,12,-1,-1,14,16,18,-1,-1,-1,-1,-1,-1,-1],"split_conditions":[2.7531831E0,2.645727E4,4.458939E4,2.6869537E4,-6.338775E-1,-2.154099E-2,6.663641E1,5.776273E-2,-4.0875855E-3,8.39E-4,8.270549E-2,4.007934E1,5.4623447E-3,-2.078736E-3,3.596815E-2,-4.490037E-2,-5.8246194E-3,5.9661042E-2,2.2454096E-2],"split_indices":[36,20,28,21,3,0,22,0,0,2,36,33,0,0,0,0,0,0,0],"split_type":[0,0,0,0,0,0,0,0,0,0,0,0,0,0,0,0,0,0,0],"sum_hessian":[5.053366E2,4.3903168E2,6.6304924E1,2.0997492E1,4.1803418E2,1.391465E1,5.2390278E1,1.0987719E1,1.0009774E1,9.320797E1,3.248262E2,3.3564575E1,1.8825703E1,6.736687E1,2.5841106E1,1.3804495E1,3.1102173E2,1.7991068E1,1.5573506E1],"tree_param":{"num_deleted":"0","num_feature":"46","num_nodes":"19","size_leaf_vector":"1"}},{"base_weights":[-1.7832225E-2,1.24892116E-1,-1.4554E-1,5.069054E-2,7.321246E-2,-8.7220944E-2,-4.5566883E-2,-4.008375E-1,1.286021E-1,-1.6772538E-1,3.6048576E-1,-4.3762386E-2,1.1355362E-2,-1.9081837E-2,9.683546E-3,1.195209E-2,-1.4821795E-2,-2.4906313E-2,3.4125503E-2],"categories":[],"categories_nodes":[],"categories_segments":[],"categories_sizes":[],"default_left":[0,0,0,0,0,0,0,0,0,0,0,0,0,0,0,0,0,0,0],"id":30,"left_children":[1,3,5,-1,7,9,-1,11,13,15,17,-1,-1,-1,-1,-1,-1,-1,-1],"loss_changes":[9.257414E0,1.0947174E1,1.188886E1,0E0,6.0332575E0,9.075606E0,0E0,7.3711658E0,6.8711987E0,1.1206135E1,1.0968172E1,0E0,0E0,0E0,0E0,0E0,0E0,0E0,0E0],"parents":[2147483647,0,0,1,1,2,2,4,4,5,5,7,7,8,8,9,9,10,10],"right_children":[2,4,6,-1,8,10,-1,12,14,16,18,-1,-1,-1,-1,-1,-1,-1,-1],"split_conditions":[1E0,1.4996757E1,1.0486482E5,5.069054E-2,-2.9746597E2,6.98774E2,-4.5566883E-2,1.0985317E-1,8.629893E3,-6.743957E-1,3.666E-4,-4.3762386E-2,1.1355362E-2,-1.9081837E-2,9.683546E-3,1.195209E-2,-1.4821795E-2,-2.4906313E-2,3.4125503E-2],"split_indices":[38,41,28,0,25,23,0,31,7,3,2,0,0,0,0,0,0,0,0],"split_type":[0,0,0,0,0,0,0,0,0,0,0,0,0,0,0,0,0,0,0],"sum_hessian":[5.058982E2,2.3891374E2,2.6698447E2,1.2103838E1,2.268099E2,2.4912622E2,1.7858225E1,2.3076231E1,2.0373367E2,2.1168706E2,3.743917E1,1.2920789E1,1.0155443E1,2.2492558E1,1.8124112E2,5.0676277E1,1.6101079E2,1.0062556E1,2.7376614E1],"tree_param":{"num_deleted":"0","num_feature":"46","num_nodes":"19","size_leaf_vector":"1"}},{"base_weights":[1.861552E-2,-7.619963E-2,1.5397613E-1,2.3437728E-1,-2.3019505E-1,-3.1091815E-2,2.0181909E-1,-2.3124292E-2,3.721828E-1,-9.3559094E-2,-5.223327E-1,4.520858E-1,3.0198969E-2,4.0378854E-2,5.0204596E-3,-3.9353376E-4,-3.6986865E-2,-4.984801E-2,-9.15009E-3,3.8041744E-2,7.687542E-3,2.1068385E-2,-1.4590646E-2],"categories":[],"categories_nodes":[],"categories_segments":[],"categories_sizes":[],"default_left":[0,0,0,0,0,0,0,0,0,0,0,0,0,0,0,0,0,0,0,0,0,0,0],"id":31,"left_children":[1,3,5,7,9,-1,11,-1,13,15,17,19,21,-1,-1,-1,-1,-1,-1,-1,-1,-1,-1],"loss_changes":[6.547818E0,1.4409719E1,7.9242563E0,9.774433E0,7.980997E0,0E0,8.519052E0,0E0,9.862834E0,7.6507187E0,1.0106909E1,7.3202744E0,1.51022E1,0E0,0E0,0E0,0E0,0E0,0E0,0E0,0E0,0E0,0E0],"parents":[2147483647,0,0,1,1,2,2,3,3,4,4,6,6,8,8,9,9,10,10,11,11,12,12],"right_children":[2,4,6,8,10,-1,12,-1,14,16,18,20,22,-1,-1,-1,-1,-1,-1,-1,-1,-1,-1],"split_conditions":[2.3731815E1,-8.8951E2,2.6617922E4,3.3835632E-1,1.5005952E0,-3.1091815E-2,1.3173598E0,-2.3124292E-2,4.232855E4,9.81489E0,2.2282267E0,5.9726E-4,2.7008947E1,4.0378854E-2,5.0204596E-3,-3.9353376E-4,-3.6986865E-2,-4.984801E-2,-9.15009E-3,3.8041744E-2,7.687542E-3,2.1068385E-2,-1.4590646E-2],"split_indices":[37,8,30,36,36,0,27,0,29,37,36,2,33,0,0,0,0,0,0,0,0,0,0],"split_type":[0,0,0,0,0,0,0,0,0,0,0,0,0,0,0,0,0,0,0,0,0,0,0],"sum_hessian":[5.0826953E2,2.9915765E2,2.0911191E2,9.89911E1,2.0016653E2,1.1449618E1,1.976623E2,1.5954641E1,8.303645E1,1.3727963E2,6.2886913E1,7.9742615E1,1.1791967E2,3.115429E1,5.1882168E1,1.2210033E2,1.5179303E1,2.5408972E1,3.7477943E1,3.8425507E1,4.131711E1,5.310321E1,6.481646E1],"tree_param":{"num_deleted":"0","num_feature":"46","num_nodes":"23","size_leaf_vector":"1"}},{"base_weights":[-8.416269E-3,4.3765794E-2,-2.8975314E-2,-1.0773942E-1,2.3058303E-1,-4.6449727E-1,-4.0519454E-2,1.12190485E-1,5.74251E-1,-5.1901396E-2,-8.547116E-3,2.1184342E-2,-6.6211815E-3,1.9177373E-2,-7.107924E-3,5.743832E-2,1.0292432E-2],"categories":[],"categories_nodes":[],"categories_segments":[],"categories_sizes":[],"default_left":[0,0,0,0,0,0,0,0,0,0,0,0,0,0,0,0,0],"id":32,"left_children":[1,-1,3,5,7,9,11,13,15,-1,-1,-1,-1,-1,-1,-1,-1],"loss_changes":[9.13592E0,0E0,1.0063002E1,9.031244E0,4.5995893E0,9.879982E0,1.3650265E1,6.024776E0,5.9286385E0,0E0,0E0,0E0,0E0,0E0,0E0,0E0,0E0],"parents":[2147483647,0,0,2,2,3,3,4,4,5,5,6,6,7,7,8,8],"right_children":[2,-1,4,6,8,10,12,14,16,-1,-1,-1,-1,-1,-1,-1,-1],"split_conditions":[2.6694264E4,4.3765794E-2,7.38846E5,2.9954025E4,7.1591806E-1,4.7593108E-1,4.20068E4,2.7313774E1,-1.173197E2,-5.1901396E-2,-8.547116E-3,2.1184342E-2,-6.6211815E-3,1.9177373E-2,-7.107924E-3,5.743832E-2,1.0292432E-2],"split_indices":[21,0,14,29,3,36,29,33,25,0,0,0,0,0,0,0,0],"split_type":[0,0,0,0,0,0,0,0,0,0,0,0,0,0,0,0,0],"sum_hessian":[5.0044275E2,1.0432335E1,4.900104E2,3.763809E2,1.1362951E2,5.873665E1,3.1764426E2,8.55011E1,2.8128412E1,1.9026913E1,3.9709736E1,5.189805E1,2.657462E2,4.1121693E1,4.4379406E1,1.0162294E1,1.7966118E1],"tree_param":{"num_deleted":"0","num_feature":"46","num_nodes":"17","size_leaf_vector":"1"}},{"base_weights":[3.814046E-2,1.0689475E-1,-2.3134501E-1,2.4694315E-1,-2.558443E-2,-7.3089004E-1,-2.5882393E-3,1.9136609E-1,5.456124E-2,-3.234719E-1,1.2252967E-1,-8.999182E-3,-5.668216E-2,-2.7012345E-1,3.0042246E-1,-2.4078977E-3,1.842045E-2,-2.8116167E-2,9.567988E-3,1.1207023E-2,-2.692365E-2,-2.7338967E-2,1.8938098E-2,3.8082242E-2,-1.0592684E-3],"categories":[],"categories_nodes":[],"categories_segments":[],"categories_sizes":[],"default_left":[0,0,0,0,0,0,0,0,0,0,0,0,0,0,0,0,0,0,0,0,0,0,0,0,0],"id":33,"left_children":[1,3,5,7,9,11,13,15,-1,17,19,-1,-1,21,23,-1,-1,-1,-1,-1,-1,-1,-1,-1,-1],"loss_changes":[9.412931E0,7.5090423E0,1.1804075E1,9.019452E0,9.248351E0,6.9951687E0,5.9070435E0,7.8940587E0,0E0,8.664608E0,9.532284E0,0E0,0E0,7.1533318E0,5.0849924E0,0E0,0E0,0E0,0E0,0E0,0E0,0E0,0E0,0E0,0E0],"parents":[2147483647,0,0,1,1,2,2,3,3,4,4,5,5,6,6,7,7,9,9,10,10,13,13,14,14],"right_children":[2,4,6,8,10,12,14,16,-1,18,20,-1,-1,22,24,-1,-1,-1,-1,-1,-1,-1,-1,-1,-1],"split_conditions":[7.6954806E-1,6.2093934E4,4.458939E4,5.9342555E4,-1.055111E2,2.4257E-4,2.8222E-4,4.1257504E-2,5.456124E-2,1.7192442E0,1.6926055E3,-8.999182E-3,-5.668216E-2,9.107651E4,-4.184316E2,-2.4078977E-3,1.842045E-2,-2.8116167E-2,9.567988E-3,1.1207023E-2,-2.692365E-2,-2.7338967E-2,1.8938098E-2,3.8082242E-2,-1.0592684E-3],"split_indices":[3,30,28,29,37,1,1,31,0,27,26,0,0,19,13,0,0,0,0,0,0,0,0,0,0],"split_type":[0,0,0,0,0,0,0,0,0,0,0,0,0,0,0,0,0,0,0,0,0,0,0,0,0],"sum_hessian":[5.0569577E2,4.0338327E2,1.02312515E2,1.956698E2,2.0771346E2,3.1446508E1,7.086601E1,1.8473575E2,1.0934056E1,6.858706E1,1.391264E2,1.3891663E1,1.7554846E1,3.7693806E1,3.3172203E1,7.882296E1,1.0591278E2,4.678796E1,2.1799095E1,1.2116202E2,1.7964382E1,2.6536976E1,1.115683E1,1.3065928E1,2.0106276E1],"tree_param":{"num_deleted":"0","num_feature":"46","num_nodes":"25","size_leaf_vector":"1"}},{"base_weights":[5.411849E-3,-4.8483592E-1,5.321465E-2,-9.6218604E-1,3.8573857E-2,3.5564266E-2,2.2466121E-2,-7.072151E-2,-2.31412E-2,1.8828953E-2,-1.6593285E-2,-4.4287494E-1,7.155527E-2,6.490597E-3,-3.590251E-2,3.3406246E-2,1.1609729E-3],"categories":[],"categories_nodes":[],"categories_segments":[],"categories_sizes":[],"default_left":[0,0,0,0,0,0,0,0,0,0,0,0,0,0,0,0,0],"id":34,"left_children":[1,3,5,7,9,-1,11,-1,-1,-1,-1,13,15,-1,-1,-1,-1],"loss_changes":[1.1765651E1,1.1181776E1,9.238235E0,4.622589E0,2.9093678E0,0E0,1.0036114E1,0E0,0E0,0E0,0E0,6.7011185E0,1.1433103E1,0E0,0E0,0E0,0E0],"parents":[2147483647,0,0,1,1,2,2,3,3,4,4,6,6,11,11,12,12],"right_children":[2,4,6,8,10,-1,12,-1,-1,-1,-1,14,16,-1,-1,-1,-1],"split_conditions":[1.8979295E-1,4.987687E-1,2.6827176E4,7.0127E-4,8.7092626E-1,3.5564266E-2,3.034816E4,-7.072151E-2,-2.31412E-2,1.8828953E-2,-1.6593285E-2,1.9062271E-2,1.4297387E1,6.490597E-3,-3.590251E-2,3.3406246E-2,1.1609729E-3],"split_indices":[36,10,21,2,32,0,28,0,0,0,0,31,33,0,0,0,0],"split_type":[0,0,0,0,0,0,0,0,0,0,0,0,0,0,0,0,0],"sum_hessian":[4.9994913E2,4.360545E1,4.563437E2,2.2367744E1,2.1237703E1,1.9382969E1,4.3696072E2,1.0776029E1,1.1591717E1,1.1096343E1,1.014136E1,4.09312E1,3.960295E2,1.3455747E1,2.7475452E1,2.872145E1,3.6730807E2],"tree_param":{"num_deleted":"0","num_feature":"46","num_nodes":"17","size_leaf_vector":"1"}},{"base_weights":[3.801865E-2,6.5318935E-2,-4.6817657E-2,-1.5226657E-2,2.8621608E-1,2.7267454E-2,-5.423371E-2,-3.8540747E-2,6.296061E-1,-1.1996891E-3,3.2340836E-2,2.776883E-2,-1.0684545E-2,5.500267E-2,1.5756324E-2],"categories":[],"categories_nodes":[],"categories_segments":[],"categories_sizes":[],"default_left":[0,0,0,0,0,0,0,0,0,0,0,0,0,0,0],"id":35,"left_children":[1,3,-1,5,7,9,-1,11,13,-1,-1,-1,-1,-1,-1],"loss_changes":[1.3667748E1,8.873949E0,0E0,1.6674143E1,1.4884283E1,1.1233836E1,0E0,7.34073E0,9.244028E0,0E0,0E0,0E0,0E0,0E0,0E0],"parents":[2147483647,0,0,1,1,3,3,4,4,5,5,7,7,8,8],"right_children":[2,4,-1,6,8,10,-1,12,14,-1,-1,-1,-1,-1,-1],"split_conditions":[1.045279E5,7.241359E4,-4.6817657E-2,6.9769836E4,1E0,2.05134E-3,-5.423371E-2,8.593091E4,9.5382375E4,-1.1996891E-3,3.2340836E-2,2.776883E-2,-1.0684545E-2,5.500267E-2,1.5756324E-2],"split_indices":[30,19,0,19,34,2,0,28,19,0,0,0,0,0,0],"split_type":[0,0,0,0,0,0,0,0,0,0,0,0,0,0,0],"sum_hessian":[5.1051385E2,4.9750748E2,1.30063715E1,3.652556E2,1.3225185E2,3.5223422E2,1.3021396E1,6.84263E1,6.382555E1,3.262054E2,2.602882E1,1.5089248E1,5.333705E1,2.4570776E1,3.9254776E1],"tree_param":{"num_deleted":"0","num_feature":"46","num_nodes":"15","size_leaf_vector":"1"}},{"base_weights":[1.28749935E-2,-6.1024356E-1,4.041424E-2,-4.8158288E-2,-9.982569E-3,-6.6468254E-2,1.9592409E-1,-3.2484513E-2,-2.1969551E-2,-4.0551305E-1,2.733503E-1,2.6547158E-2,-3.511697E-3,2.8826736E-4,-4.1956853E-2,2.8912544E-2,5.9372727E-3],"categories":[],"categories_nodes":[],"categories_segments":[],"categories_sizes":[],"default_left":[0,0,0,0,0,0,0,0,0,0,0,0,0,0,0,0,0],"id":36,"left_children":[1,3,5,-1,-1,7,9,-1,11,13,15,-1,-1,-1,-1,-1,-1],"loss_changes":[8.602339E0,2.8824477E0,7.9852467E0,0E0,0E0,7.3824987E0,9.220697E0,0E0,7.131533E0,4.0557766E0,8.129499E0,0E0,0E0,0E0,0E0,0E0,0E0],"parents":[2147483647,0,0,1,1,2,2,5,5,6,6,8,8,9,9,10,10],"right_children":[2,4,6,-1,-1,8,10,-1,12,14,16,-1,-1,-1,-1,-1,-1],"split_conditions":[9.122733E-2,1.2439673E0,4.9936354E-1,-4.8158288E-2,-9.982569E-3,3.350919E-1,-9.756726E-1,-3.2484513E-2,4.8313963E-1,-4.61802E2,7.68825E-1,2.6547158E-2,-3.511697E-3,2.8826736E-4,-4.1956853E-2,2.8912544E-2,5.9372727E-3],"split_indices":[36,27,10,0,0,32,11,0,10,12,36,0,0,0,0,0,0],"split_type":[0,0,0,0,0,0,0,0,0,0,0,0,0,0,0,0,0],"sum_hessian":[4.988583E2,2.0218733E1,4.7863956E2,1.0149227E1,1.0069507E1,2.8401062E2,1.9462895E2,1.9169212E1,2.648414E2,2.1714668E1,1.7291428E2,2.0459412E1,2.4438199E2,1.1650885E1,1.0063783E1,5.7256638E1,1.15657646E2],"tree_param":{"num_deleted":"0","num_feature":"46","num_nodes":"17","size_leaf_vector":"1"}},{"base_weights":[-1.6340056E-2,2.304938E-2,-3.5246208E-1,-3.4200624E-2,4.456088E-1,-7.446124E-1,7.086729E-2,7.95089E-2,-2.1948205E-1,7.30472E-1,-1.4202478E-2,-1.451418E-2,-4.9903687E-2,3.277045E-2,-2.4621041E-2,1.312218E-3,4.218298E-2,-4.5632806E-2,-7.7397423E-3,1.5017794E-2,5.935933E-2],"categories":[],"categories_nodes":[],"categories_segments":[],"categories_sizes":[],"default_left":[0,0,0,0,0,0,0,0,0,0,0,0,0,0,0,0,0,0,0,0,0],"id":37,"left_children":[1,3,5,7,9,11,13,15,17,19,-1,-1,-1,-1,-1,-1,-1,-1,-1,-1,-1],"loss_changes":[6.6100507E0,1.0835641E1,8.746194E0,8.336057E0,1.1315148E1,2.8507347E0,8.915124E0,9.966669E0,6.603847E0,7.2485676E0,0E0,0E0,0E0,0E0,0E0,0E0,0E0,0E0,0E0,0E0,0E0],"parents":[2147483647,0,0,1,1,2,2,3,3,4,4,5,5,6,6,7,7,8,8,9,9],"right_children":[2,4,6,8,10,12,14,16,18,20,-1,-1,-1,-1,-1,-1,-1,-1,-1,-1,-1],"split_conditions":[9.6216945E4,8.930972E4,1.01288305E5,6.2093934E4,9.514006E4,4.1257504E-2,5.9028E-4,5.918105E4,1.5221E-4,2.0524834E-1,-1.4202478E-2,-1.451418E-2,-4.9903687E-2,3.277045E-2,-2.4621041E-2,1.312218E-3,4.218298E-2,-4.5632806E-2,-7.7397423E-3,1.5017794E-2,5.935933E-2],"split_indices":[21,30,20,30,29,31,2,29,2,3,0,0,0,0,0,0,0,0,0,0,0],"split_type":[0,0,0,0,0,0,0,0,0,0,0,0,0,0,0,0,0,0,0,0,0],"sum_hessian":[4.9764786E2,4.4628058E2,5.1367268E1,3.9384058E2,5.2440002E1,2.627164E1,2.5095627E1,2.4441248E2,1.4942812E2,3.7714794E1,1.4725209E1,1.0176166E1,1.6095476E1,1.2235216E1,1.286041E1,2.2945299E2,1.4959501E1,1.1635533E1,1.3779257E2,2.0276663E1,1.7438131E1],"tree_param":{"num_deleted":"0","num_feature":"46","num_nodes":"21","size_leaf_vector":"1"}},{"base_weights":[2.441042E-2,-2.0998155E-1,1.0618461E-1,-3.4506398E-1,3.603934E-1,7.1012414E-1,6.736802E-2,-5.1631738E-2,-2.4887668E-1,3.6615014E-2,-7.988229E-3,6.830227E-2,2.8539316E-3,-3.6985286E-2,1.1821259E-1,1.3399862E-3,-2.361404E-2,2.8684859E-3,2.6478637E-2],"categories":[],"categories_nodes":[],"categories_segments":[],"categories_sizes":[],"default_left":[0,0,0,0,0,0,0,0,0,0,0,0,0,0,0,0,0,0,0],"id":38,"left_children":[1,3,5,7,9,11,13,-1,15,-1,-1,-1,-1,-1,17,-1,-1,-1,-1],"loss_changes":[9.575441E0,1.0082485E1,8.629877E0,6.6878223E0,4.999197E0,9.452619E0,1.4405266E1,0E0,5.7673144E0,0E0,0E0,0E0,0E0,0E0,8.206404E0,0E0,0E0,0E0,0E0],"parents":[2147483647,0,0,1,1,2,2,3,3,4,4,5,5,6,6,8,8,14,14],"right_children":[2,4,6,8,10,12,14,-1,16,-1,-1,-1,-1,-1,18,-1,-1,-1,-1],"split_conditions":[1.1076394E4,1.1815124E2,2.6564473E4,-1.2993234E0,9.209933E4,1.5913586E1,2.7844541E4,-5.1631738E-2,8.5929054E-1,3.6615014E-2,-7.988229E-3,6.830227E-2,2.8539316E-3,-3.6985286E-2,4.5944366E1,1.3399862E-3,-2.361404E-2,2.8684859E-3,2.6478637E-2],"split_indices":[7,37,20,11,29,25,19,0,36,0,0,0,0,0,33,0,0,0,0],"split_type":[0,0,0,0,0,0,0,0,0,0,0,0,0,0,0,0,0,0,0],"sum_hessian":[4.9741077E2,1.2824635E2,3.6916443E2,1.0400886E2,2.4237495E1,2.124973E1,3.479147E2,1.1569751E1,9.24391E1,1.38949375E1,1.0342559E1,1.0056819E1,1.1192909E1,1.9816235E1,3.2809845E2,4.177258E1,5.0666527E1,2.8681595E2,4.128251E1],"tree_param":{"num_deleted":"0","num_feature":"46","num_nodes":"19","size_leaf_vector":"1"}},{"base_weights":[1.7725512E-3,2.161062E-2,-3.908704E-2,-6.45573E-2,2.012119E-1,1.5858993E-2,-3.7430036E-1,1.3739638E-1,4.3098148E-2,-3.5332274E-2,2.844222E-3,6.808062E-3,-2.8681898E-2,3.4778675E-3,4.334036E-2],"categories":[],"categories_nodes":[],"categories_segments":[],"categories_sizes":[],"default_left":[0,0,0,0,0,0,0,0,0,0,0,0,0,0,0],"id":39,"left_children":[1,3,-1,5,7,9,11,13,-1,-1,-1,-1,-1,-1,-1],"loss_changes":[7.545743E0,7.3390813E0,0E0,7.9931326E0,6.3635736E0,7.6143785E0,6.8074083E0,6.9353285E0,0E0,0E0,0E0,0E0,0E0,0E0,0E0],"parents":[2147483647,0,0,1,1,3,3,4,4,5,5,6,6,7,7],"right_children":[2,4,-1,6,8,10,12,14,-1,-1,-1,-1,-1,-1,-1],"split_conditions":[1.078665E5,5.008765E-1,-3.908704E-2,9.56952E1,1.0112311E5,3.2895744E-1,1.1017634E0,5.1089146E1,4.3098148E-2,-3.5332274E-2,2.844222E-3,6.808062E-3,-2.8681898E-2,3.4778675E-3,4.334036E-2],"split_indices":[28,10,0,13,28,32,27,33,0,0,0,0,0,0,0],"split_type":[0,0,0,0,0,0,0,0,0,0,0,0,0,0,0],"sum_hessian":[4.8337625E2,4.723881E2,1.0988153E1,3.196629E2,1.527252E2,2.5452997E2,6.513292E1,1.4037563E2,1.2349577E1,1.2804457E1,2.4172551E2,1.8380714E1,4.675221E1,1.2943303E2,1.094259E1],"tree_param":{"num_deleted":"0","num_feature":"46","num_nodes":"15","size_leaf_vector":"1"}},{"base_weights":[1.3326877E-2,-8.506399E-3,2.5625944E-2,1.5523872E-1,-8.7573506E-2,2.2156885E-1,-1.784738E-2,9.696455E-2,-2.0450808E-1,-2.708061E-3,2.2996282E-2,-1.0813551E-2,1.89531E-2,-2.3946194E-2,-1.9757529E-3],"categories":[],"categories_nodes":[],"categories_segments":[],"categories_sizes":[],"default_left":[0,0,0,0,0,0,0,0,0,0,0,0,0,0,0],"id":40,"left_children":[1,3,-1,5,7,9,-1,11,13,-1,-1,-1,-1,-1,-1],"loss_changes":[5.3966093E0,6.1633368E0,0E0,5.3461475E0,6.945875E0,9.086432E0,0E0,1.1142656E1,8.891112E0,0E0,0E0,0E0,0E0,0E0,0E0],"parents":[2147483647,0,0,1,1,3,3,4,4,5,5,7,7,8,8],"right_children":[2,4,-1,6,8,10,-1,12,14,-1,-1,-1,-1,-1,-1],"split_conditions":[4.133964E3,-4.8265457E-1,2.5625944E-2,1.9989386E0,7.7914315E-1,1.2490795E0,-1.784738E-2,2.1076E-4,8.008654E2,-2.708061E-3,2.2996282E-2,-1.0813551E-2,1.89531E-2,-2.3946194E-2,-1.9757529E-3],"split_indices":[8,11,0,27,36,27,0,1,26,0,0,0,0,0,0],"split_type":[0,0,0,0,0,0,0,0,0,0,0,0,0,0,0],"sum_hessian":[4.9374738E2,4.7399893E2,1.9748442E1,1.5403488E2,3.1996405E2,1.3687628E2,1.715861E1,1.24173225E2,1.9579082E2,6.382109E1,7.305519E1,5.8949825E1,6.5223404E1,7.2802795E1,1.2298802E2],"tree_param":{"num_deleted":"0","num_feature":"46","num_nodes":"15","size_leaf_vector":"1"}},{"base_weights":[-1.7102942E-2,-3.4163613E-2,1.1546576E-2,4.9162444E-1,-2.7965637E-2,7.5068736E-1,-6.70547E-3,3.6265567E-2,-4.8168696E-2,5.493862E-2,9.761381E-3,-2.939494E-2,3.404593E-4],"categories":[],"categories_nodes":[],"categories_segments":[],"categories_sizes":[],"default_left":[0,0,0,0,0,0,0,0,0,0,0,0,0],"id":41,"left_children":[1,-1,3,5,7,9,-1,-1,11,-1,-1,-1,-1],"loss_changes":[9.427458E0,0E0,9.008451E0,5.954731E0,6.716889E0,4.752736E0,0E0,0E0,1.2720078E1,0E0,0E0,0E0,0E0],"parents":[2147483647,0,0,2,2,3,3,4,4,5,5,8,8],"right_children":[2,-1,4,6,8,10,-1,-1,12,-1,-1,-1,-1],"split_conditions":[9.122733E-2,-3.4163613E-2,1.4297387E1,1.1082301E3,2.6694264E4,5.057255E-1,-6.70547E-3,3.6265567E-2,9.104836E-1,5.493862E-2,9.761381E-3,-2.939494E-2,3.404593E-4],"split_indices":[36,0,41,26,21,9,0,0,27,0,0,0,0],"split_type":[0,0,0,0,0,0,0,0,0,0,0,0,0],"sum_hessian":[4.9254767E2,1.9367107E1,4.7318054E2,3.511287E1,4.380677E2,2.4690819E1,1.042205E1,1.0530588E1,4.275371E2,1.4577523E1,1.01132965E1,3.8627636E1,3.8890945E2],"tree_param":{"num_deleted":"0","num_feature":"46","num_nodes":"13","size_leaf_vector":"1"}},{"base_weights":[-1.5790628E-3,-4.4035424E-2,3.0705717E-1,-2.7602317E-3,-5.5472517E-1,-1.6139096E-2,4.459956E-1,-5.477487E-2,5.6938255E-1,-5.214237E-2,-9.425104E-4,7.194999E-1,5.692646E-2,4.2741455E-2,-4.224443E-3,4.806587E-2,-1.0744475E-2,1.6114715E-2,5.0556928E-2,-1.7047035E-2,2.2917202E-2],"categories":[],"categories_nodes":[],"categories_segments":[],"categories_sizes":[],"default_left":[0,0,0,0,0,0,0,0,0,0,0,0,0,0,0,0,0,0,0,0,0],"id":42,"left_children":[1,3,5,7,9,-1,11,13,15,-1,-1,17,19,-1,-1,-1,-1,-1,-1,-1,-1],"loss_changes":[6.5135655E0,9.2086525E0,5.404214E0,1.2091984E1,8.5256E0,0E0,5.2442455E0,1.0137705E1,1.0615001E1,0E0,0E0,3.0426598E0,3.6041276E0,0E0,0E0,0E0,0E0,0E0,0E0,0E0,0E0],"parents":[2147483647,0,0,1,1,2,2,3,3,4,4,6,6,7,7,8,8,11,11,12,12],"right_children":[2,4,6,8,10,-1,12,14,16,-1,-1,18,20,-1,-1,-1,-1,-1,-1,-1,-1],"split_conditions":[4.4116722E1,6.751922E1,1.1846716E0,2.5256236E0,2.326147E2,-1.6139096E-2,3.5602417E0,2.6694264E4,5.884225E1,-5.214237E-2,-9.425104E-4,2.6669E-4,5.3351348E4,4.2741455E-2,-4.224443E-3,4.806587E-2,-1.0744475E-2,1.6114715E-2,5.0556928E-2,-1.7047035E-2,2.2917202E-2],"split_indices":[33,22,27,36,25,0,36,21,22,0,0,1,28,0,0,0,0,0,0,0,0],"split_type":[0,0,0,0,0,0,0,0,0,0,0,0,0,0,0,0,0,0,0,0,0],"sum_hessian":[4.9505133E2,4.359402E2,5.9111122E1,4.042714E2,3.1668798E1,1.0443805E1,4.8667316E1,3.7141003E2,3.2861362E1,1.6077723E1,1.5591076E1,2.807918E1,2.0588137E1,1.0870607E1,3.6053943E2,2.17608E1,1.1100562E1,1.2779241E1,1.529994E1,1.0415458E1,1.0172678E1],"tree_param":{"num_deleted":"0","num_feature":"46","num_nodes":"21","size_leaf_vector":"1"}},{"base_weights":[-8.282081E-3,4.2665017E-1,-4.6768524E-2,5.3487133E-2,1.6051829E-1,-3.320669E-1,1.2025415E-2,3.0979676E-2,-1.5396996E-2,1.6375473E-1,-6.458627E-1,3.49712E-1,-6.49982E-2,-1.0753221E-2,3.709073E-2,-6.169697E-3,-4.5495156E-2,2.73552E-2,-6.4308955E-3,1.3276588E-5,-2.6470587E-2],"categories":[],"categories_nodes":[],"categories_segments":[],"categories_sizes":[],"default_left":[0,0,0,0,0,0,0,0,0,0,0,0,0,0,0,0,0,0,0,0,0],"id":43,"left_children":[1,3,5,-1,7,9,11,-1,-1,13,15,17,19,-1,-1,-1,-1,-1,-1,-1,-1],"loss_changes":[8.390243E0,6.802543E0,7.724935E0,0E0,6.642294E0,1.2348019E1,9.974429E0,0E0,0E0,7.0124483E0,6.5632324E0,6.79475E0,9.468599E0,0E0,0E0,0E0,0E0,0E0,0E0,0E0,0E0],"parents":[2147483647,0,0,1,1,2,2,4,4,5,5,6,6,9,9,10,10,11,11,12,12],"right_children":[2,4,6,-1,8,10,12,-1,-1,14,16,18,20,-1,-1,-1,-1,-1,-1,-1,-1],"split_conditions":[1.4297387E1,1.0329612E0,2.74787E5,5.3487133E-2,6.82076E4,-4.6800435E-1,5.759623E-1,3.0979676E-2,-1.5396996E-2,3.0662031E1,3.712431E-1,8.0983336E4,4.1501E-4,-1.0753221E-2,3.709073E-2,-6.169697E-3,-4.5495156E-2,2.73552E-2,-6.4308955E-3,1.3276588E-5,-2.6470587E-2],"split_indices":[33,27,14,0,20,11,32,0,0,33,32,29,1,0,0,0,0,0,0,0,0],"split_type":[0,0,0,0,0,0,0,0,0,0,0,0,0,0,0,0,0,0,0,0,0],"sum_hessian":[4.990472E2,3.974999E1,4.592972E2,1.0751062E1,2.8998926E1,7.768444E1,3.8161276E2,1.4483197E1,1.4515729E1,3.0294668E1,4.7389774E1,7.021893E1,3.1139383E2,1.8680655E1,1.1614014E1,1.6401909E1,3.0987865E1,4.960479E1,2.0614143E1,2.73902E2,3.7491844E1],"tree_param":{"num_deleted":"0","num_feature":"46","num_nodes":"21","size_leaf_vector":"1"}},{"base_weights":[5.246844E-3,2.6873602E-2,-1.8468326E-2,-5.016001E-1,3.546518E-2,1.647838E-2,-7.600914E-1,1.8283853E-1,-1.0805256E-1,5.5948114E-3,-5.596143E-2,3.7440848E-2,2.9515566E-3,-1.7396752E-2,8.422482E-3],"categories":[],"categories_nodes":[],"categories_segments":[],"categories_sizes":[],"default_left":[0,0,0,0,0,0,0,0,0,0,0,0,0,0,0],"id":44,"left_children":[1,-1,3,5,7,-1,9,11,13,-1,-1,-1,-1,-1,-1],"loss_changes":[6.171986E0,0E0,1.2221534E1,1.0369663E1,8.950623E0,0E0,1.1470629E1,1.4579737E1,1.4289392E1,0E0,0E0,0E0,0E0,0E0,0E0],"parents":[2147483647,0,0,2,2,3,3,4,4,6,6,7,7,8,8],"right_children":[2,-1,4,6,8,-1,10,12,14,-1,-1,-1,-1,-1,-1],"split_conditions":[2.6869537E4,2.6873602E-2,3.034816E4,-1.6879498E1,5.2581158E1,1.647838E-2,2.0419344E2,4.2604598E4,5.0186723E-1,5.5948114E-3,-5.596143E-2,3.7440848E-2,2.9515566E-3,-1.7396752E-2,8.422482E-3],"split_indices":[21,0,28,25,22,0,26,21,10,0,0,0,0,0,0],"split_type":[0,0,0,0,0,0,0,0,0,0,0,0,0,0,0],"sum_hessian":[4.8720728E2,1.985905E1,4.6734824E2,4.60988E1,4.2124945E2,1.0870432E1,3.5228367E1,2.0769783E2,2.135516E2,1.0477456E1,2.4750912E1,3.637291E1,1.7132492E2,1.1420954E2,9.934207E1],"tree_param":{"num_deleted":"0","num_feature":"46","num_nodes":"15","size_leaf_vector":"1"}},{"base_weights":[1.656473E-2,4.8622376E-1,-2.0399326E-2,1.9808312E-1,4.422994E-2,1.1711489E-1,-1.0885163E-1,3.5198364E-2,-1.886617E-2,4.430118E-2,2.3501763E-2,-2.4361749E-1,1.474932E-1,-2.1248013E-2,7.837084E-3,-1.7906236E-2,1.3915427E-2,2.5445713E-2,-9.012689E-3],"categories":[],"categories_nodes":[],"categories_segments":[],"categories_sizes":[],"default_left":[0,0,0,0,0,0,0,0,0,0,0,0,0,0,0,0,0,0,0],"id":45,"left_children":[1,3,5,7,-1,9,11,-1,-1,-1,13,15,17,-1,-1,-1,-1,-1,-1],"loss_changes":[8.587763E0,3.967556E0,5.595897E0,6.7369514E0,0E0,1.2946845E1,9.703907E0,0E0,0E0,0E0,9.724538E0,1.1084406E1,1.1588077E1,0E0,0E0,0E0,0E0,0E0,0E0],"parents":[2147483647,0,0,1,1,2,2,3,3,5,5,6,6,10,10,11,11,12,12],"right_children":[2,4,6,8,-1,10,12,-1,-1,-1,14,16,18,-1,-1,-1,-1,-1,-1],"split_conditions":[4.8481494E-1,1.6019942E0,7.753656E-1,4.1785E4,4.422994E-2,-2.5094847E2,2.1233582E0,3.5198364E-2,-1.886617E-2,4.430118E-2,1.8341993E-1,6.44508E1,6.0813915E1,-2.1248013E-2,7.837084E-3,-1.7906236E-2,1.3915427E-2,2.5445713E-2,-9.012689E-3],"split_indices":[10,27,36,21,0,24,36,0,0,0,36,22,22,0,0,0,0,0,0],"split_type":[0,0,0,0,0,0,0,0,0,0,0,0,0,0,0,0,0,0,0],"sum_hessian":[4.9310107E2,3.5090694E1,4.5801038E2,2.1231438E1,1.3859257E1,1.7915668E2,2.788537E2,1.1179369E1,1.005207E1,1.8525913E1,1.6063075E2,1.8280101E2,9.605269E1,3.629128E1,1.2433948E2,1.501688E2,3.263223E1,4.5416805E1,5.0635883E1],"tree_param":{"num_deleted":"0","num_feature":"46","num_nodes":"19","size_leaf_vector":"1"}},{"base_weights":[-5.1491903E-3,-4.0742267E-2,4.5334366E-1,3.0124044E-2,-2.4814588E-1,-7.7227727E-3,8.0128026E-1,-4.9690598E-1,7.936997E-2,-4.0714276E-1,2.3180644E-1,5.811265E-2,2.0818902E-2,-9.394532E-3,-4.8229735E-2,3.1171272E-2,1.8274345E-3,1.9209241E-2,-2.9859385E-2,2.9275263E-2,-1.88616E-2],"categories":[],"categories_nodes":[],"categories_segments":[],"categories_sizes":[],"default_left":[0,0,0,0,0,0,0,0,0,0,0,0,0,0,0,0,0,0,0,0,0],"id":46,"left_children":[1,3,5,7,9,-1,11,13,15,17,19,-1,-1,-1,-1,-1,-1,-1,-1,-1,-1],"loss_changes":[8.076149E0,6.7553477E0,7.663231E0,8.943679E0,9.024819E0,0E0,2.6886396E0,4.075759E0,7.30699E0,1.3503965E1,6.631302E0,0E0,0E0,0E0,0E0,0E0,0E0,0E0,0E0,0E0,0E0],"parents":[2147483647,0,0,1,1,2,2,3,3,4,4,6,6,7,7,8,8,9,9,10,10],"right_children":[2,4,6,8,10,-1,12,14,16,18,20,-1,-1,-1,-1,-1,-1,-1,-1,-1,-1],"split_conditions":[1.6599417E3,5.821811E-1,1.8086157E2,6.616161E3,1.0636495E0,-7.7227727E-3,1.3370194E0,4.8818168E-1,1.3975137E1,5.514E-5,2.7407434E1,5.811265E-2,2.0818902E-2,-9.394532E-3,-4.8229735E-2,3.1171272E-2,1.8274345E-3,1.9209241E-2,-2.9859385E-2,2.9275263E-2,-1.88616E-2],"split_indices":[13,11,24,6,32,0,27,9,33,1,33,0,0,0,0,0,0,0,0,0,0],"split_type":[0,0,0,0,0,0,0,0,0,0,0,0,0,0,0,0,0,0,0,0,0],"sum_hessian":[4.9275537E2,4.5810367E2,3.4651726E1,3.4207663E2,1.1602705E2,1.281744E1,2.1834286E1,2.8455498E1,3.1362112E2,8.726869E1,2.8758354E1,1.0225191E1,1.1609095E1,1.7978397E1,1.04771E1,2.1893957E1,2.9172717E2,1.6701948E1,7.056674E1,1.8217302E1,1.0541052E1],"tree_param":{"num_deleted":"0","num_feature":"46","num_nodes":"21","size_leaf_vector":"1"}},{"base_weights":[1.6288575E-2,4.072231E-1,-2.0111432E-2,6.819143E-2,3.725499E-2,-4.1114247E-1,2.5436707E-2,2.3139356E-2,-1.72518E-2,-5.1473927E-2,-4.771331E-2,-2.683886E-1,8.651123E-2,-2.3152135E-2,2.5620108E-2,-1.9321414E-2,1.771701E-2,2.0083336E-2,1.46368E-3],"categories":[],"categories_nodes":[],"categories_segments":[],"categories_sizes":[],"default_left":[0,0,0,0,0,0,0,0,0,0,0,0,0,0,0,0,0,0,0],"id":47,"left_children":[1,3,5,7,-1,9,11,-1,-1,-1,13,15,17,-1,-1,-1,-1,-1,-1],"loss_changes":[7.0149994E0,4.7590656E0,8.050354E0,3.7566357E0,0E0,1.0547262E1,7.2955976E0,0E0,0E0,0E0,7.389967E0,5.281198E0,6.054138E0,0E0,0E0,0E0,0E0,0E0,0E0],"parents":[2147483647,0,0,1,1,2,2,3,3,5,5,6,6,10,10,11,11,12,12],"right_children":[2,4,6,8,-1,10,12,-1,-1,-1,14,16,18,-1,-1,-1,-1,-1,-1],"split_conditions":[-7.059947E3,-2.4882517E3,-3.58945E3,3.597251E-2,3.725499E-2,9.181E-5,2.51755E5,2.3139356E-2,-1.72518E-2,-5.1473927E-2,1.579878E0,5.274678E-1,1.660527E1,-2.3152135E-2,2.5620108E-2,-1.9321414E-2,1.771701E-2,2.0083336E-2,1.46368E-3],"split_indices":[12,13,12,3,0,0,14,0,0,0,27,9,33,0,0,0,0,0,0],"split_type":[0,0,0,0,0,0,0,0,0,0,0,0,0,0,0,0,0,0,0],"sum_hessian":[4.9139633E2,4.098898E1,4.5040735E2,2.1059406E1,1.9929573E1,4.6153423E1,4.0425394E2,1.0711211E1,1.0348194E1,1.640662E1,2.9746801E1,6.8983696E1,3.3527023E2,1.7180588E1,1.2566214E1,5.8310307E1,1.0673392E1,5.0606857E1,2.8466336E2],"tree_param":{"num_deleted":"0","num_feature":"46","num_nodes":"19","size_leaf_vector":"1"}},{"base_weights":[-7.4984934E-3,5.4015785E-1,-3.5483416E-2,4.6692505E-3,5.1235657E-2,-4.495025E-1,2.6941717E-2,-6.029663E-1,1.3018757E-2,5.1204264E-1,-2.829793E-2,-5.2719037E-3,-4.5509975E-2,4.9889144E-2,-7.663513E-3,-2.622191E-2,2.3256696E-3],"categories":[],"categories_nodes":[],"categories_segments":[],"categories_sizes":[],"default_left":[0,0,0,0,0,0,0,0,0,0,0,0,0,0,0,0,0],"id":48,"left_children":[1,3,5,-1,-1,7,9,11,-1,13,15,-1,-1,-1,-1,-1,-1],"loss_changes":[7.6428013E0,5.152838E0,1.2267471E1,0E0,0E0,6.9315166E0,1.1081513E1,7.76597E0,0E0,1.3814466E1,1.382165E1,0E0,0E0,0E0,0E0,0E0,0E0],"parents":[2147483647,0,0,1,1,2,2,5,5,6,6,7,7,9,9,10,10],"right_children":[2,4,6,-1,-1,8,10,12,-1,14,16,-1,-1,-1,-1,-1,-1],"split_conditions":[2.6511639E4,6.276E-5,3.0013941E4,4.6692505E-3,5.1235657E-2,2.3478854E2,4.1707625E4,8.270081E-1,1.3018757E-2,5.7822037E1,4.7332855E4,-5.2719037E-3,-4.5509975E-2,4.9889144E-2,-7.663513E-3,-2.622191E-2,2.3256696E-3],"split_indices":[20,1,29,0,0,24,19,27,0,22,21,0,0,0,0,0,0],"split_type":[0,0,0,0,0,0,0,0,0,0,0,0,0,0,0,0,0],"sum_hessian":[4.9642755E2,2.3244188E1,4.7318335E2,1.2714138E1,1.053005E1,6.118546E1,4.119979E2,5.043323E1,1.0752228E1,4.1273624E1,3.7072427E2,1.9766644E1,3.0666588E1,2.3567467E1,1.770616E1,4.7788197E1,3.2293607E2],"tree_param":{"num_deleted":"0","num_feature":"46","num_nodes":"17","size_leaf_vector":"1"}},{"base_weights":[1.6266583E-2,-2.6298031E-2,3.2843876E-1,3.1637004E-1,-7.007277E-2,-1.4768536E-2,4.6959135E-1,1.208796E-1,4.5539126E-2,-3.7274417E-2,-3.3547442E-2,4.867463E-2,2.4978852E-1,3.4365606E-2,-8.505721E-3,3.9376873E-3,-1.3340841E-2,-2.024851E-3,4.265851E-2],"categories":[],"categories_nodes":[],"categories_segments":[],"categories_sizes":[],"default_left":[0,0,0,0,0,0,0,0,0,0,0,0,0,0,0,0,0,0,0],"id":49,"left_children":[1,3,5,7,9,-1,11,13,-1,15,-1,-1,17,-1,-1,-1,-1,-1,-1],"loss_changes":[6.6105995E0,6.59472E0,5.394677E0,5.6784887E0,7.648187E0,0E0,5.191018E0,6.4857903E0,0E0,9.882176E0,0E0,0E0,6.253692E0,0E0,0E0,0E0,0E0,0E0,0E0],"parents":[2147483647,0,0,1,1,2,2,3,3,4,4,6,6,7,7,9,9,12,12],"right_children":[2,4,6,8,10,-1,12,14,-1,16,-1,-1,18,-1,-1,-1,-1,-1,-1],"split_conditions":[4.4116722E1,4.869784E-1,1.1806728E0,9.2283E-4,9.85628E4,-1.4768536E-2,1.3813651E0,-4.5623264E2,4.5539126E-2,2.8332867E1,-3.3547442E-2,4.867463E-2,9.9028E-4,3.4365606E-2,-8.505721E-3,3.9376873E-3,-1.3340841E-2,-2.024851E-3,4.265851E-2],"split_indices":[33,10,27,2,21,0,27,24,0,33,0,0,2,0,0,0,0,0,0],"split_type":[0,0,0,0,0,0,0,0,0,0,0,0,0,0,0,0,0,0,0],"sum_hessian":[4.9585556E2,4.371641E2,5.869148E1,4.8814857E1,3.8834924E2,1.0628286E1,4.806319E1,3.7639374E1,1.1175481E1,3.6925574E2,1.9093504E1,1.3556281E1,3.4506912E1,1.2311859E1,2.5327517E1,2.4571143E2,1.235443E2,2.392806E1,1.0578851E1],"tree_param":{"num_deleted":"0","num_feature":"46","num_nodes":"19","size_leaf_vector":"1"}},{"base_weights":[-1.405575E-3,1.8910553E-1,-5.927108E-2,-2.3574013E-1,3.7593982E-1,-1.813486E-2,-4.71457E-1,-4.743628E-2,8.948194E-2,9.875131E-1,1.0707582E-1,-6.815275E-2,6.611672E-1,-3.6832638E-2,-5.621764E-2,2.891154E-2,-1.3532573E-2,6.330037E-2,2.693888E-2,4.1837957E-2,-6.9806487E-3,-6.617099E-3,1.7226193E-2,6.282929E-2,-8.991275E-4,-1.773678E-2,1.4414019E-2],"categories":[],"categories_nodes":[],"categories_segments":[],"categories_sizes":[],"default_left":[0,0,0,0,0,0,0,0,0,0,0,0,0,0,0,0,0,0,0,0,0,0,0,0,0,0,0],"id":50,"left_children":[1,3,5,7,9,11,13,-1,15,17,19,21,23,25,-1,-1,-1,-1,-1,-1,-1,-1,-1,-1,-1,-1,-1],"loss_changes":[5.423161E0,9.185997E0,6.389068E0,8.344887E0,1.3046928E1,1.1737089E1,9.662981E0,0E0,4.6232505E0,2.3553314E0,1.03202505E1,8.559818E0,9.603646E0,2.3311207E0,0E0,0E0,0E0,0E0,0E0,0E0,0E0,0E0,0E0,0E0,0E0,0E0,0E0],"parents":[2147483647,0,0,1,1,2,2,3,3,4,4,5,5,6,6,8,8,9,9,10,10,11,11,12,12,13,13],"right_children":[2,4,6,8,10,12,14,-1,16,18,20,22,24,26,-1,-1,-1,-1,-1,-1,-1,-1,-1,-1,-1,-1,-1],"split_conditions":[4.9112943E-1,5.4848E-4,9.598236E4,5.342751E-1,4.20068E4,9.448515E4,6.5485E-4,-4.743628E-2,1.042658E0,-6.475996E1,-6.892141E-1,4.463836E1,1.0357119E0,1.00025914E5,-5.621764E-2,2.891154E-2,-1.3532573E-2,6.330037E-2,2.693888E-2,4.1837957E-2,-6.9806487E-3,-6.617099E-3,1.7226193E-2,6.282929E-2,-8.991275E-4,-1.773678E-2,1.4414019E-2],"split_indices":[10,2,21,36,29,20,2,0,36,37,3,33,36,20,0,0,0,0,0,0,0,0,0,0,0,0,0],"split_type":[0,0,0,0,0,0,0,0,0,0,0,0,0,0,0,0,0,0,0,0,0,0,0,0,0,0,0],"sum_hessian":[4.8992365E2,1.136115E2,3.7631216E2,3.4622063E1,7.898944E1,3.4311337E2,3.319877E1,1.0244923E1,2.4377138E1,2.3305202E1,5.568424E1,3.204201E2,2.2693275E1,2.0565195E1,1.2633574E1,1.0084937E1,1.4292202E1,1.3256606E1,1.0048595E1,1.3464751E1,4.2219486E1,2.7787735E2,4.2542747E1,1.1638996E1,1.1054279E1,1.0351828E1,1.0213368E1],"tree_param":{"num_deleted":"0","num_feature":"46","num_nodes":"27","size_leaf_vector":"1"}},{"base_weights":[5.63886E-2,3.8470265E-2,3.4937974E-2,-4.4460556E-1,7.5937E-2,-1.3489987E-1,-5.1032018E-2,-3.6799278E-2,9.675746E-2,1.5970854E-2,-3.326766E-2,1.738215E-2,1.159123E-3],"categories":[],"categories_nodes":[],"categories_segments":[],"categories_sizes":[],"default_left":[0,0,0,0,0,0,0,0,0,0,0,0,0],"id":51,"left_children":[1,-1,3,5,7,9,-1,-1,11,-1,-1,-1,-1],"loss_changes":[7.4750094E0,0E0,9.416168E0,6.5937905E0,7.5173664E0,6.4039392E0,0E0,0E0,7.935765E0,0E0,0E0,0E0,0E0],"parents":[2147483647,0,0,2,2,3,3,4,4,5,5,8,8],"right_children":[2,-1,4,6,8,10,-1,-1,12,-1,-1,-1,-1],"split_conditions":[2.6701135E4,3.8470265E-2,2.7624786E2,-3.149353E1,2.8473136E-1,-2.06746E2,-5.1032018E-2,-3.6799278E-2,-6.508894E-1,1.5970854E-2,-3.326766E-2,1.738215E-2,1.159123E-3],"split_indices":[21,0,26,24,32,13,0,0,3,0,0,0,0],"split_type":[0,0,0,0,0,0,0,0,0,0,0,0,0],"sum_hessian":[4.894909E2,1.3277557E1,4.7621335E2,3.6732212E1,4.3948114E2,2.4691168E1,1.2041044E1,1.0129211E1,4.2935193E2,1.3514368E1,1.1176801E1,9.651559E1,3.3283636E2],"tree_param":{"num_deleted":"0","num_feature":"46","num_nodes":"13","size_leaf_vector":"1"}},{"base_weights":[7.3684556E-3,-3.7881857E-1,4.448537E-2,1.2017276E-2,-6.716308E-1,2.0873873E-2,4.0404413E-2,-5.000015E-2,-1.2985602E-2,3.9404342E-1,-1.5855325E-2,3.517705E-2,6.283944E-3,2.0679699E-3,-1.3065683E-2],"categories":[],"categories_nodes":[],"categories_segments":[],"categories_sizes":[],"default_left":[0,0,0,0,0,0,0,0,0,0,0,0,0,0,0],"id":52,"left_children":[1,3,5,-1,7,9,-1,-1,-1,11,13,-1,-1,-1,-1],"loss_changes":[7.1020827E0,8.03824E0,8.129835E0,0E0,3.7657785E0,6.027668E0,0E0,0E0,0E0,3.1844215E0,5.6412053E0,0E0,0E0,0E0,0E0],"parents":[2147483647,0,0,1,1,2,2,4,4,5,5,9,9,10,10],"right_children":[2,4,6,-1,8,10,-1,-1,-1,12,14,-1,-1,-1,-1],"split_conditions":[2.7199274E2,5.356E-5,4.837139E3,1.2017276E-2,2.8804645E4,-7.059947E3,4.0404413E-2,-5.000015E-2,-1.2985602E-2,6.523138E-2,8.327458E-1,3.517705E-2,6.283944E-3,2.0679699E-3,-1.3065683E-2],"split_indices":[26,1,8,0,29,12,0,0,0,31,3,0,0,0,0],"split_type":[0,0,0,0,0,0,0,0,0,0,0,0,0,0,0],"sum_hessian":[4.9329297E2,4.2446598E1,4.5084637E2,1.3686046E1,2.8760551E1,4.3832034E2,1.2526044E1,1.5208787E1,1.35517645E1,3.8404217E1,3.999161E2,1.7082197E1,2.132202E1,3.249937E2,7.49224E1],"tree_param":{"num_deleted":"0","num_feature":"46","num_nodes":"15","size_leaf_vector":"1"}},{"base_weights":[-3.0547092E-2,-5.372593E-1,-6.5353718E-3,-4.7451816E-2,-4.203642E-3,-4.6609753E-1,1.60107E-2,-4.536478E-2,-7.5707457E-4,1.01856865E-1,-1.4426361E-1,1.6304114E-3,2.8313432E-2,-1.3301501E-2,1.0813842E-2],"categories":[],"categories_nodes":[],"categories_segments":[],"categories_sizes":[],"default_left":[0,0,0,0,0,0,0,0,0,0,0,0,0,0,0],"id":53,"left_children":[1,3,5,-1,-1,7,9,-1,-1,11,13,-1,-1,-1,-1],"loss_changes":[5.992021E0,4.078331E0,4.8926854E0,0E0,0E0,4.379828E0,6.2117734E0,0E0,0E0,9.433016E0,6.9726515E0,0E0,0E0,0E0,0E0],"parents":[2147483647,0,0,1,1,2,2,5,5,6,6,9,9,10,10],"right_children":[2,4,6,-1,-1,8,10,-1,-1,12,14,-1,-1,-1,-1],"split_conditions":[1.0133555E-1,1.2533466E0,-4.0223962E2,-4.7451816E-2,-4.203642E-3,2.4423848E4,5.7822037E1,-4.536478E-2,-7.5707457E-4,2.1716895E0,4.4116722E1,1.6304114E-3,2.8313432E-2,-1.3301501E-2,1.0813842E-2],"split_indices":[36,27,37,0,0,7,22,0,0,36,41,0,0,0,0],"split_type":[0,0,0,0,0,0,0,0,0,0,0,0,0,0,0],"sum_hessian":[4.917687E2,2.1282188E1,4.7048654E2,1.0577266E1,1.0704923E1,2.108255E1,4.49404E2,1.0145068E1,1.0937482E1,2.928904E2,1.5651355E2,2.5581583E2,3.7074596E1,1.1719505E2,3.9318504E1],"tree_param":{"num_deleted":"0","num_feature":"46","num_nodes":"15","size_leaf_vector":"1"}},{"base_weights":[4.771316E-2,7.0685364E-2,-3.792632E-2,-1.3541195E-2,2.4938953E-1,4.3582465E-2,-3.7892973E-1,1.9340056E-1,4.654288E-2,-3.43651E-5,3.672456E-2,1.5857633E-2,-3.8386043E-2,1.3512445E-2,-1.0028478E-2],"categories":[],"categories_nodes":[],"categories_segments":[],"categories_sizes":[],"default_left":[0,0,0,0,0,0,0,0,0,0,0,0,0,0,0],"id":54,"left_children":[1,3,-1,5,7,9,11,13,-1,-1,-1,-1,-1,-1,-1],"loss_changes":[9.209437E0,7.2517166E0,0E0,6.8678594E0,5.7078066E0,8.710509E0,1.2281834E1,4.4097376E0,0E0,0E0,0E0,0E0,0E0,0E0,0E0],"parents":[2147483647,0,0,1,1,3,3,4,4,5,5,6,6,7,7],"right_children":[2,4,-1,6,8,10,12,14,-1,-1,-1,-1,-1,-1,-1],"split_conditions":[1.045279E5,5.008765E-1,-3.792632E-2,6.1438095E1,1.01775305E5,6.98774E2,1.4783112E4,8.5588836E4,4.654288E-2,-3.43651E-5,3.672456E-2,1.5857633E-2,-3.8386043E-2,1.3512445E-2,-1.0028478E-2],"split_indices":[30,10,0,22,28,23,6,21,0,0,0,0,0,0,0],"split_type":[0,0,0,0,0,0,0,0,0,0,0,0,0,0,0],"sum_hessian":[4.9334534E2,4.805649E2,1.2780423E1,3.2725012E2,1.5331479E2,2.8376755E2,4.348258E1,1.4286119E2,1.0453584E1,2.6761896E2,1.61486E1,1.5649084E1,2.7833492E1,1.1980576E2,2.3055431E1],"tree_param":{"num_deleted":"0","num_feature":"46","num_nodes":"15","size_leaf_vector":"1"}},{"base_weights":[-3.7975147E-2,-1.3629562E-1,1.6910425E-1,-4.2383033E-1,-3.7022356E-2,6.9145136E-2,5.0555384E-1,4.6963353E-2,-6.185424E-1,4.4979873E-1,-1.6202554E-1,2.4238813E-1,-2.8928968E-1,7.824149E-1,2.7165017E-3,2.6381895E-2,-1.53193725E-2,-1.678348E-2,-5.2642006E-2,-1.6884163E-2,3.8083047E-2,-2.2483447E-3,-4.015535E-2,2.4062583E-2,-6.629053E-3,-4.7085367E-2,7.6673417E-3,1.7650288E-2,5.6341775E-2],"categories":[],"categories_nodes":[],"categories_segments":[],"categories_sizes":[],"default_left":[0,0,0,0,0,0,0,0,0,0,0,0,0,0,0,0,0,0,0,0,0,0,0,0,0,0,0,0,0],"id":55,"left_children":[1,3,5,7,9,11,13,15,17,19,21,23,25,27,-1,-1,-1,-1,-1,-1,-1,-1,-1,-1,-1,-1,-1,-1,-1],"loss_changes":[9.7223625E0,9.220538E0,5.1380095E0,7.632865E0,1.477674E1,7.5056486E0,4.33899E0,4.4415073E0,6.864105E0,1.2446034E1,1.4446865E1,7.342783E0,1.1543522E1,2.8058739E0,0E0,0E0,0E0,0E0,0E0,0E0,0E0,0E0,0E0,0E0,0E0,0E0,0E0,0E0,0E0],"parents":[2147483647,0,0,1,1,2,2,3,3,4,4,5,5,6,6,7,7,8,8,9,9,10,10,11,11,12,12,13,13],"right_children":[2,4,6,8,10,12,14,16,18,20,22,24,26,28,-1,-1,-1,-1,-1,-1,-1,-1,-1,-1,-1,-1,-1,-1,-1],"split_conditions":[5.008765E-1,1.0958457E4,4.504748E3,4.9002615E-1,1.38696E4,5.886658E2,3.0243511E1,-6.510525E-1,5.236584E-1,4.598E-5,6.1637547E1,5.290553E-1,3.6004E-4,1.0810208E2,2.7165017E-3,2.6381895E-2,-1.53193725E-2,-1.678348E-2,-5.2642006E-2,-1.6884163E-2,3.8083047E-2,-2.2483447E-3,-4.015535E-2,2.4062583E-2,-6.629053E-3,-4.7085367E-2,7.6673417E-3,1.7650288E-2,5.6341775E-2],"split_indices":[10,7,12,10,6,23,33,11,32,0,22,11,2,37,0,0,0,0,0,0,0,0,0,0,0,0,0,0,0],"split_type":[0,0,0,0,0,0,0,0,0,0,0,0,0,0,0,0,0,0,0,0,0,0,0,0,0,0,0,0,0],"sum_hessian":[4.753874E2,3.225729E2,1.528145E2,8.1948425E1,2.4062448E2,1.1874184E2,3.4072662E1,2.419828E1,5.775015E1,4.8631657E1,1.9199281E2,8.026901E1,3.847282E1,2.0661335E1,1.3411329E1,1.0043094E1,1.4155188E1,3.604544E1,2.170471E1,1.3772351E1,3.4859306E1,1.6325357E2,2.8739239E1,4.886042E1,3.1408594E1,1.5095514E1,2.3377308E1,1.0097332E1,1.0564003E1],"tree_param":{"num_deleted":"0","num_feature":"46","num_nodes":"29","size_leaf_vector":"1"}},{"base_weights":[2.004496E-2,4.9731156E-1,-3.099737E-3,6.476039E-4,4.5671757E-2,-4.017615E-1,3.2084096E-2,-6.871872E-3,-4.352262E-2,4.3753538E-1,-2.8494662E-3,1.3726405E-2,-1.4260537E-2,7.90093E-3,4.5078166E-2,1.4603617E-2,-2.444411E-3],"categories":[],"categories_nodes":[],"categories_segments":[],"categories_sizes":[],"default_left":[0,0,0,0,0,0,0,0,0,0,0,0,0,0,0,0,0],"id":56,"left_children":[1,3,5,-1,-1,7,9,11,-1,13,15,-1,-1,-1,-1,-1,-1],"loss_changes":[5.3914685E0,4.5380917E0,6.554408E0,0E0,0E0,7.00775E0,6.0842648E0,1.7681462E0,0E0,4.277133E0,5.396532E0,0E0,0E0,0E0,0E0,0E0,0E0],"parents":[2147483647,0,0,1,1,2,2,5,5,6,6,7,7,9,9,10,10],"right_children":[2,4,6,-1,-1,8,10,12,-1,14,16,-1,-1,-1,-1,-1,-1],"split_conditions":[-2.6634143E3,-2.606942E2,-2.486442E3,6.476039E-4,4.5671757E-2,-4.1191998E0,-1.693518E3,4.6726787E-1,-4.352262E-2,2.1996607E4,1.6036228E1,1.3726405E-2,-1.4260537E-2,7.90093E-3,4.5078166E-2,1.4603617E-2,-2.444411E-3],"split_indices":[13,25,8,0,0,37,8,9,0,6,33,0,0,0,0,0,0],"split_type":[0,0,0,0,0,0,0,0,0,0,0,0,0,0,0,0,0],"sum_hessian":[4.8694443E2,2.1574282E1,4.6537015E2,1.04462185E1,1.1128064E1,3.6895447E1,4.284747E2,2.0574945E1,1.6320503E1,3.3074585E1,3.9540012E2,1.0238021E1,1.0336925E1,2.147763E1,1.1596955E1,5.2667953E1,3.4273215E2],"tree_param":{"num_deleted":"0","num_feature":"46","num_nodes":"17","size_leaf_vector":"1"}},{"base_weights":[9.0674264E-4,3.8034648E-2,-2.0016564E-2,-3.6934274E-1,1.6915021E-2,-5.893144E-1,1.3029332E-2,5.9092496E-2,-3.8748822E-1,-4.3216985E-2,-7.296684E-4,5.3560064E-4,1.9493435E-2,-4.076561E-2,2.2979355E-3],"categories":[],"categories_nodes":[],"categories_segments":[],"categories_sizes":[],"default_left":[0,0,0,0,0,0,0,0,0,0,0,0,0,0,0],"id":57,"left_children":[1,-1,3,5,7,9,-1,11,13,-1,-1,-1,-1,-1,-1],"loss_changes":[7.8007956E0,0E0,6.1677485E0,6.487202E0,7.4064765E0,5.390704E0,0E0,6.2829337E0,7.643479E0,0E0,0E0,0E0,0E0,0E0,0E0],"parents":[2147483647,0,0,2,2,3,3,4,4,5,5,7,7,8,8],"right_children":[2,-1,4,6,8,10,-1,12,14,-1,-1,-1,-1,-1,-1],"split_conditions":[4.8112205E-1,3.8034648E-2,-1.2504004E0,6.3268274E-1,9.625618E4,3.5309074E1,1.3029332E-2,4.4116722E1,1.0044711E5,-4.3216985E-2,-7.296684E-4,5.3560064E-4,1.9493435E-2,-4.076561E-2,2.2979355E-3],"split_indices":[10,0,11,3,21,25,0,41,19,0,0,0,0,0,0],"split_type":[0,0,0,0,0,0,0,0,0,0,0,0,0,0,0],"sum_hessian":[4.8874338E2,1.2150945E1,4.7659244E2,4.4708237E1,4.3188422E2,3.3184628E1,1.152361E1,3.9186798E2,4.0016228E1,2.2103401E1,1.1081225E1,3.4276617E2,4.91018E1,1.9695364E1,2.0320862E1],"tree_param":{"num_deleted":"0","num_feature":"46","num_nodes":"15","size_leaf_vector":"1"}}]},"name":"gbtree"},"learner_model_param":{"base_score":"[5E-1]","boost_from_average":"1","num_class":"0","num_feature":"46","num_target":"1"},"objective":{"name":"binary:logistic","reg_loss_param":{"scale_pos_weight":"1.39154017"}}},"version":[3,2,0]}