{"learner":{"attributes":{"best_iteration":"6","best_score":"0.6934449448393969","scikit_learn":"{\"_estimator_type\": \"classifier\"}"},"feature_names":[],"feature_types":[],"gradient_booster":{"model":{"cats":{"enc":[],"feature_segments":[],"sorted_idx":[]},"gbtree_model_param":{"num_parallel_tree":"1","num_trees":"37"},"iteration_indptr":[0,1,2,3,4,5,6,7,8,9,10,11,12,13,14,15,16,17,18,19,20,21,22,23,24,25,26,27,28,29,30,31,32,33,34,35,36,37],"tree_info":[0,0,0,0,0,0,0,0,0,0,0,0,0,0,0,0,0,0,0,0,0,0,0,0,0,0,0,0,0,0,0,0,0,0,0,0,0],"trees":[{"base_weights":[-1.7175129E-2,4.258118E-2,-6.3984513E-1,6.9848675E-1,7.4044107E-3,4.707885E-3,-8.297152E-1,6.634059E-2,-5.9602647E-3,-2.2783138E-1,1.5596557E-1,-7.136057E-2,-4.1108486E-1,-2.2033256E-2,1.2806541E-2,1.1637009E-2,-2.590164E-2,-1.1444136E-3,-4.369913E-2],"categories":[],"categories_nodes":[],"categories_segments":[],"categories_sizes":[],"default_left":[0,0,0,0,0,0,0,0,0,0,0,0,0,0,0,0,0,0,0],"id":0,"left_children":[1,3,5,7,9,-1,11,-1,-1,13,15,-1,17,-1,-1,-1,-1,-1,-1],"loss_changes":[2.0926367E1,1.1841041E1,6.941204E0,1.357977E1,1.7100378E1,0E0,9.225039E0,0E0,0E0,1.9623981E1,1.5638452E1,0E0,4.3771977E0,0E0,0E0,0E0,0E0,0E0,0E0],"parents":[2147483647,0,0,1,1,2,2,3,3,4,4,6,6,9,9,10,10,12,12],"right_children":[2,4,6,8,10,-1,12,-1,-1,14,16,-1,18,-1,-1,-1,-1,-1,-1],"split_conditions":[4.668513E1,8.270549E-2,1.1806728E0,1.2152643E0,7.7914315E-1,4.707885E-3,3.4375548E0,6.634059E-2,-5.9602647E-3,1E0,2.8081007E0,-7.136057E-2,1.7410146E0,-2.2033256E-2,1.2806541E-2,1.1637009E-2,-2.590164E-2,-1.1444136E-3,-4.369913E-2],"split_indices":[3,4,5,5,4,0,4,0,0,10,4,0,5,0,0,0,0,0,0],"split_type":[0,0,0,0,0,0,0,0,0,0,0,0,0,0,0,0,0,0,0],"sum_hessian":[5.606766E2,5.124313E2,4.824531E1,2.5123438E1,4.8730783E2,1.001875E1,3.8226562E1,1.3854688E1,1.126875E1,1.8842188E2,2.9888593E2,1.475625E1,2.3470312E1,1.3093124E2,5.7490627E1,2.6890936E2,2.9976562E1,1.33359375E1,1.0134375E1],"tree_param":{"num_deleted":"0","num_feature":"18","num_nodes":"19","size_leaf_vector":"1"}},{"base_weights":[2.2441713E-2,9.5797676E-1,-2.072014E-2,7.302832E-2,1.1048042E-2,-2.2236295E-1,9.136052E-2,-8.6567837E-1,-1.0308609E-1,2.3907751E-1,-3.04911E-1,-5.4294955E-2,-2.0053124E-2,-8.587093E-3,4.2118818E-2,-1.9509029E-2,1.7849414E-2,-2.9487422E-2,-2.0060262E-3],"categories":[],"categories_nodes":[],"categories_segments":[],"categories_sizes":[],"default_left":[0,0,0,0,0,0,0,0,0,0,0,0,0,0,0,0,0,0,0],"id":1,"left_children":[1,3,5,-1,-1,7,9,11,13,15,17,-1,-1,-1,-1,-1,-1,-1,-1],"loss_changes":[2.2649847E1,8.84029E0,1.2149801E1,0E0,0E0,1.464582E1,2.030679E1,2.6238365E0,1.0733728E1,1.8863659E1,7.0888853E0,0E0,0E0,0E0,0E0,0E0,0E0,0E0,0E0],"parents":[2147483647,0,0,1,1,2,2,5,5,6,6,7,7,8,8,9,9,10,10],"right_children":[2,4,6,-1,-1,8,10,12,14,16,18,-1,-1,-1,-1,-1,-1,-1,-1],"split_conditions":[8.270549E-2,1.2356033E0,7.7914315E-1,7.302832E-2,1.1048042E-2,1.446734E1,2.2740872E0,4.0032808E-2,2.0617337E0,4.118852E1,6.061696E1,-5.4294955E-2,-2.0053124E-2,-8.587093E-3,4.2118818E-2,-1.9509029E-2,1.7849414E-2,-2.9487422E-2,-2.0060262E-3],"split_indices":[4,5,4,0,0,3,4,7,5,0,0,0,0,0,0,0,0,0,0],"split_type":[0,0,0,0,0,0,0,0,0,0,0,0,0,0,0,0,0,0,0],"sum_hessian":[5.5943384E2,2.373706E1,5.356968E2,1.3529338E1,1.0207723E1,1.9103119E2,3.4466562E2,2.8900372E1,1.6213081E2,2.513626E2,9.330303E1,1.869977E1,1.0200601E1,1.5191751E2,1.0213301E1,3.930314E1,2.1205945E2,4.4358723E1,4.894431E1],"tree_param":{"num_deleted":"0","num_feature":"18","num_nodes":"19","size_leaf_vector":"1"}},{"base_weights":[-1.061137E-2,2.8378166E-2,-4.1155058E-1,-4.5455188E-1,6.450734E-2,-6.791327E-1,1.074842E-2,5.5408496E-3,-7.065775E-1,9.781441E-2,-5.0761503E-1,-5.8201402E-2,-4.188278E-1,-4.9916737E-2,-1.4206099E-2,-3.5481268E-4,1.6541874E-2,-4.4654418E-2,-9.672187E-3,9.0912817E-4,-4.430268E-2],"categories":[],"categories_nodes":[],"categories_segments":[],"categories_sizes":[],"default_left":[0,0,0,0,0,0,0,0,0,0,0,0,0,0,0,0,0,0,0,0,0],"id":2,"left_children":[1,3,5,7,9,11,-1,-1,13,15,17,-1,19,-1,-1,-1,-1,-1,-1,-1,-1],"loss_changes":[8.626422E0,8.808671E0,8.344711E0,5.0864377E0,8.987324E0,3.8682852E0,0E0,0E0,2.7294788E0,1.0858195E1,2.9716792E0,0E0,4.9199743E0,0E0,0E0,0E0,0E0,0E0,0E0,0E0,0E0],"parents":[2147483647,0,0,1,1,2,2,3,3,4,4,5,5,8,8,9,9,10,10,12,12],"right_children":[2,4,6,8,10,12,-1,-1,14,16,18,-1,20,-1,-1,-1,-1,-1,-1,-1,-1],"split_conditions":[4.668513E1,8.190228E-1,9.57178E1,1E0,1.2443898E-1,5.255766E1,1.074842E-2,5.5408496E-3,1.7073551E-2,6.852469E-2,1.8610197E1,-5.8201402E-2,-6.12952E1,-4.9916737E-2,-1.4206099E-2,-3.5481268E-4,1.6541874E-2,-4.4654418E-2,-9.672187E-3,9.0912817E-4,-4.430268E-2],"split_indices":[3,5,1,8,7,3,0,0,7,7,1,0,1,0,0,0,0,0,0,0,0],"split_type":[0,0,0,0,0,0,0,0,0,0,0,0,0,0,0,0,0,0,0,0,0],"sum_hessian":[5.5008136E2,5.021762E2,4.790516E1,3.414791E1,4.680283E2,3.3509495E1,1.4395663E1,1.0701513E1,2.34464E1,4.4306363E2,2.4964666E1,1.0492433E1,2.3017063E1,1.3062188E1,1.0384211E1,3.061842E2,1.3687943E2,1.0382792E1,1.4581875E1,1.2389692E1,1.0627371E1],"tree_param":{"num_deleted":"0","num_feature":"18","num_nodes":"21","size_leaf_vector":"1"}},{"base_weights":[2.21696E-2,9.370656E-2,-5.541259E-1,-2.0976834E-2,2.9407158E-1,-7.8848493E-1,-1.00618154E-1,-3.7414196E-1,2.1598026E-1,-4.549221E-1,3.974018E-1,-1.0257759E0,-4.4026296E-3,3.3987656E-2,-4.0331658E-2,1.0131816E-2,-2.9339844E-2,3.1047806E-2,1.9543413E-3,4.6559665E-3,-4.452084E-2,-2.0160215E-2,2.398411E-2,-3.456156E-2,-7.003724E-2],"categories":[],"categories_nodes":[],"categories_segments":[],"categories_sizes":[],"default_left":[0,0,0,0,0,0,0,0,0,0,0,0,0,0,0,0,0,0,0,0,0,0,0,0,0],"id":3,"left_children":[1,3,5,7,9,11,13,15,17,19,21,23,-1,-1,-1,-1,-1,-1,-1,-1,-1,-1,-1,-1,-1],"loss_changes":[2.3494047E1,1.1649035E1,6.609562E0,2.7125734E1,1.4460618E1,6.7816696E0,1.2993418E1,1.6080402E1,1.3876419E1,5.532909E0,1.0909426E1,2.894123E0,0E0,0E0,0E0,0E0,0E0,0E0,0E0,0E0,0E0,0E0,0E0,0E0,0E0],"parents":[2147483647,0,0,1,1,2,2,3,3,4,4,5,5,6,6,7,7,8,8,9,9,10,10,11,11],"right_children":[2,4,6,8,10,12,14,16,18,20,22,24,-1,-1,-1,-1,-1,-1,-1,-1,-1,-1,-1,-1,-1],"split_conditions":[4.3141514E1,2.7763824E1,9.1498024E1,1E0,1.012679E0,1E0,1.0856747E-1,1.0708123E0,-5.2496204E1,-9.243094E0,3.3701256E1,-6.12952E1,-4.4026296E-3,3.3987656E-2,-4.0331658E-2,1.0131816E-2,-2.9339844E-2,3.1047806E-2,1.9543413E-3,4.6559665E-3,-4.452084E-2,-2.0160215E-2,2.398411E-2,-3.456156E-2,-7.003724E-2],"split_indices":[3,3,2,8,5,10,7,5,1,2,0,1,0,0,0,0,0,0,0,0,0,0,0,0,0],"split_type":[0,0,0,0,0,0,0,0,0,0,0,0,0,0,0,0,0,0,0,0,0,0,0,0,0],"sum_hessian":[5.6761884E2,5.056844E2,6.1934437E1,3.2217538E2,1.8350899E2,4.034614E1,2.1588295E1,1.2913353E2,1.9304187E2,2.183493E1,1.6167406E2,2.9789595E1,1.0556544E1,1.027184E1,1.1316456E1,3.4798256E1,9.4335266E1,5.792328E1,1.3511859E2,1.0016278E1,1.1818652E1,1.4703676E1,1.4697038E2,1.7246141E1,1.2543455E1],"tree_param":{"num_deleted":"0","num_feature":"18","num_nodes":"25","size_leaf_vector":"1"}},{"base_weights":[-1.576574E-2,1.9967396E-2,-5.608063E-2,7.4237496E-1,-1.3940792E-2,6.1441403E-2,1.2109313E-2,-2.3031491E-1,1.0436243E-1,-1.5208878E-2,2.333607E-2,1.0525561E-2,-1.056183E-2],"categories":[],"categories_nodes":[],"categories_segments":[],"categories_sizes":[],"default_left":[0,0,0,0,0,0,0,0,0,0,0,0,0],"id":4,"left_children":[1,3,-1,5,7,-1,-1,9,11,-1,-1,-1,-1],"loss_changes":[2.2142803E1,1.3317611E1,0E0,5.6331053E0,1.3331754E1,0E0,0E0,9.61935E0,1.1327342E1,0E0,0E0,0E0,0E0],"parents":[2147483647,0,0,1,1,3,3,4,4,7,7,8,8],"right_children":[2,4,-1,6,8,-1,-1,10,12,-1,-1,-1,-1],"split_conditions":[1.520002E-1,8.270549E-2,-5.608063E-2,1.1964715E0,7.7914315E-1,6.1441403E-2,1.2109313E-2,6.3328114E1,2.2740872E0,-1.5208878E-2,2.333607E-2,1.0525561E-2,-1.056183E-2],"split_indices":[7,4,0,5,4,0,0,0,4,0,0,0,0],"split_type":[0,0,0,0,0,0,0,0,0,0,0,0,0],"sum_hessian":[5.587924E2,5.4225256E2,1.653982E1,2.3374279E1,5.188783E2,1.1111339E1,1.226294E1,1.830807E2,3.357976E2,1.6604868E2,1.7032019E1,2.5153061E2,8.4267006E1],"tree_param":{"num_deleted":"0","num_feature":"18","num_nodes":"13","size_leaf_vector":"1"}},{"base_weights":[7.4899015E-3,6.615237E-2,-4.4973013E-1,5.3239465E-1,1.8392282E-2,-5.4110635E-2,-2.8323632E-1,4.6903674E-2,2.1658778E-1,-6.973673E-2,3.0630255E-1,-8.967551E-3,-3.8421143E-2,3.2728806E-2,-3.973014E-3,-1.6647717E-2,7.7788056E-5,-1.4939697E-3,4.0412407E-2,-1.5577345E-2,3.2319527E-2],"categories":[],"categories_nodes":[],"categories_segments":[],"categories_sizes":[],"default_left":[0,0,0,0,0,0,0,0,0,0,0,0,0,0,0,0,0,0,0,0,0],"id":5,"left_children":[1,3,5,7,9,-1,11,-1,13,15,17,19,-1,-1,-1,-1,-1,-1,-1,-1,-1],"loss_changes":[1.528354E1,1.1233511E1,6.517002E0,5.802883E0,1.1668539E1,0E0,6.9992843E0,0E0,3.6385493E0,6.6109943E0,1.8208992E1,7.0719347E0,0E0,0E0,0E0,0E0,0E0,0E0,0E0,0E0,0E0],"parents":[2147483647,0,0,1,1,2,2,3,3,4,4,6,6,8,8,9,9,10,10,11,11],"right_children":[2,4,6,8,10,-1,12,-1,14,16,18,20,-1,-1,-1,-1,-1,-1,-1,-1,-1],"split_conditions":[4.3141514E1,3.7689567E-1,-1.524334E2,4.673598E1,6.0467922E1,-5.4110635E-2,1.0856747E-1,4.6903674E-2,1.161646E0,5.8467543E-1,3.087189E1,1.0059251E2,-3.8421143E-2,3.2728806E-2,-3.973014E-3,-1.6647717E-2,7.7788056E-5,-1.4939697E-3,4.0412407E-2,-1.5577345E-2,3.2319527E-2],"split_indices":[3,6,1,0,0,0,7,0,5,6,3,1,0,0,0,0,0,0,0,0,0],"split_type":[0,0,0,0,0,0,0,0,0,0,0,0,0,0,0,0,0,0,0,0,0],"sum_hessian":[5.6771173E2,5.0391367E2,6.3798065E1,4.5879803E1,4.5803387E2,1.2148372E1,5.1649693E1,1.9219912E1,2.6659891E1,3.512687E2,1.0676517E2,3.364765E1,1.8002039E1,1.02639065E1,1.6395985E1,7.408194E1,2.7718677E2,6.450375E1,4.2261414E1,2.337843E1,1.0269224E1],"tree_param":{"num_deleted":"0","num_feature":"18","num_nodes":"21","size_leaf_vector":"1"}},{"base_weights":[-3.979752E-3,4.7514163E-2,-4.7949326E-1,4.127282E-1,-6.0144886E-3,-8.408244E-1,1.0815828E-2,7.2827464E-1,1.7643033E-1,-3.0544516E-1,6.668069E-2,-4.1378635E-1,-6.94845E-2,1.2798254E-2,5.6683045E-2,-1.5897242E-2,3.889337E-2,-3.8686097E-2,-5.687442E-3,2.5602022E-2,8.061084E-4,-3.7356447E-2,-2.5627513E-3],"categories":[],"categories_nodes":[],"categories_segments":[],"categories_sizes":[],"default_left":[0,0,0,0,0,0,0,0,0,0,0,0,0,0,0,0,0,0,0,0,0,0,0],"id":6,"left_children":[1,3,5,7,9,11,-1,13,15,17,19,21,-1,-1,-1,-1,-1,-1,-1,-1,-1,-1,-1],"loss_changes":[1.3738999E1,9.901146E0,1.3965576E1,4.6987762E0,9.654511E0,7.930773E0,0E0,4.956442E0,1.1646788E1,7.689535E0,8.029279E0,2.600277E0,0E0,0E0,0E0,0E0,0E0,0E0,0E0,0E0,0E0,0E0,0E0],"parents":[2147483647,0,0,1,1,2,2,3,3,4,4,5,5,7,7,8,8,9,9,10,10,11,11],"right_children":[2,4,6,8,10,12,-1,14,16,18,20,22,-1,-1,-1,-1,-1,-1,-1,-1,-1,-1,-1],"split_conditions":[4.507688E1,4.0908986E-1,9.1498024E1,-2.3899878E1,1.7544685E1,-5.2496204E1,1.0815828E-2,5.9520192E-2,1E0,1E0,1.92823E1,-1.4397139E2,-6.94845E-2,1.2798254E-2,5.6683045E-2,-1.5897242E-2,3.889337E-2,-3.8686097E-2,-5.687442E-3,2.5602022E-2,8.061084E-4,-3.7356447E-2,-2.5627513E-3],"split_indices":[3,6,2,2,3,1,0,7,10,8,3,1,0,0,0,0,0,0,0,0,0,0,0],"split_type":[0,0,0,0,0,0,0,0,0,0,0,0,0,0,0,0,0,0,0,0,0,0,0],"sum_hessian":[5.591645E2,5.0534064E2,5.3823853E1,6.3740826E1,4.4159982E2,3.528966E1,1.8534187E1,2.6402092E1,3.7338734E1,8.564153E1,3.5595828E2,2.0833956E1,1.4455707E1,1.2947989E1,1.3454102E1,2.0752089E1,1.6586645E1,2.3993616E1,6.1647915E1,3.535914E1,3.2059915E2,1.0301239E1,1.0532717E1],"tree_param":{"num_deleted":"0","num_feature":"18","num_nodes":"23","size_leaf_vector":"1"}},{"base_weights":[9.05071E-3,-3.5855097E-1,6.795474E-2,-5.835793E-2,-1.5475349E-1,1.3573977E-1,-3.886613E-1,-5.7874113E-1,1.7102829E-1,6.362869E-1,7.275341E-2,-1.7747043E-1,-6.396734E-2,-4.0241266E-3,-4.271762E-2,3.176464E-2,-1.3342123E-2,5.2066673E-2,1.4007635E-2,1.8648378E-3,3.5160664E-2,-3.36934E-2,2.1931881E-2],"categories":[],"categories_nodes":[],"categories_segments":[],"categories_sizes":[],"default_left":[0,0,0,0,0,0,0,0,0,0,0,0,0,0,0,0,0,0,0,0,0,0,0],"id":7,"left_children":[1,3,5,-1,7,9,11,13,15,17,19,21,-1,-1,-1,-1,-1,-1,-1,-1,-1,-1,-1],"loss_changes":[1.2275622E1,1.2722641E1,1.5172478E1,0E0,8.896485E0,1.338736E1,1.1699238E1,3.7629738E0,7.6482162E0,6.5595036E0,8.459256E0,1.6324818E1,0E0,0E0,0E0,0E0,0E0,0E0,0E0,0E0,0E0,0E0,0E0],"parents":[2147483647,0,0,1,1,2,2,4,4,5,5,6,6,7,7,8,8,9,9,10,10,11,11],"right_children":[2,4,6,-1,8,10,12,14,16,18,20,22,-1,-1,-1,-1,-1,-1,-1,-1,-1,-1,-1],"split_conditions":[1.6504972E1,4.596231E1,2.7531831E0,-5.835793E-2,4.1933873E-1,4.0351686E-1,2.336392E0,9.508267E-1,5.1810524E1,4.580793E1,2.4571197E0,3.5602417E0,-6.396734E-2,-4.0241266E-3,-4.271762E-2,3.176464E-2,-1.3342123E-2,5.2066673E-2,1.4007635E-2,1.8648378E-3,3.5160664E-2,-3.36934E-2,2.1931881E-2],"split_indices":[3,0,4,0,4,6,5,5,0,0,5,4,0,0,0,0,0,0,0,0,0,0,0],"split_type":[0,0,0,0,0,0,0,0,0,0,0,0,0,0,0,0,0,0,0,0,0,0,0],"sum_hessian":[5.6479376E2,7.730021E1,4.8749353E2,1.4609E1,6.2691208E1,4.2509113E2,6.240241E1,2.690253E1,3.5788677E1,4.6495274E1,3.7859586E2,5.1411465E1,1.0990946E1,1.0041397E1,1.6861134E1,1.7151964E1,1.8636713E1,2.0853601E1,2.5641672E1,3.5944034E2,1.9155533E1,2.8419863E1,2.29916E1],"tree_param":{"num_deleted":"0","num_feature":"18","num_nodes":"23","size_leaf_vector":"1"}},{"base_weights":[-1.0967338E-2,4.9374074E-1,-5.9689004E-2,8.7814033E-1,-6.057133E-2,-1.3389527E-2,-5.048549E-1,5.7935864E-2,1.5818551E-2,-1.0646737E-2,4.940311E-3,-2.067553E-1,9.478859E-2,-6.973755E-1,9.777869E-3,1.8542258E-2,-1.4889385E-2,9.081814E-3,-1.6705496E-2,-5.268062E-2,-1.8836854E-2],"categories":[],"categories_nodes":[],"categories_segments":[],"categories_sizes":[],"default_left":[0,0,0,0,0,0,0,0,0,0,0,0,0,0,0,0,0,0,0,0,0],"id":8,"left_children":[1,3,5,7,9,11,13,-1,-1,-1,-1,15,17,19,-1,-1,-1,-1,-1,-1,-1],"loss_changes":[1.37797E1,1.0565419E1,1.0522126E1,4.2354584E0,5.3434277E-1,9.720128E0,6.622012E0,0E0,0E0,0E0,0E0,8.874563E0,1.116313E1,3.9374237E0,0E0,0E0,0E0,0E0,0E0,0E0,0E0],"parents":[2147483647,0,0,1,1,2,2,3,3,4,4,5,5,6,6,11,11,12,12,13,13],"right_children":[2,4,6,8,10,12,14,-1,-1,-1,-1,16,18,20,-1,-1,-1,-1,-1,-1,-1],"split_conditions":[1.7738129E-1,1.2459985E0,4.668513E1,4.975903E1,1.9955769E1,7.7914315E-1,1E0,5.7935864E-2,1.5818551E-2,-1.0646737E-2,4.940311E-3,-2.1607664E2,1.9264566E0,3.0408263E0,9.777869E-3,1.8542258E-2,-1.4889385E-2,9.081814E-3,-1.6705496E-2,-5.268062E-2,-1.8836854E-2],"split_indices":[4,5,13,0,13,4,10,0,0,0,0,1,5,4,0,0,0,0,0,0,0],"split_type":[0,0,0,0,0,0,0,0,0,0,0,0,0,0,0,0,0,0,0,0,0],"sum_hessian":[5.5817474E2,4.8335285E1,5.0983945E2,2.819716E1,2.0138124E1,4.6274207E2,4.7097404E1,1.8096302E1,1.0100858E1,1.0123815E1,1.0014309E1,1.6568065E2,2.970614E2,3.694638E1,1.0151021E1,2.2138453E1,1.4354219E2,2.4751797E2,4.9543434E1,1.6418762E1,2.0527618E1],"tree_param":{"num_deleted":"0","num_feature":"18","num_nodes":"21","size_leaf_vector":"1"}},{"base_weights":[-3.2072684E-3,2.8521685E-2,-4.175796E-2,-1.371142E-1,1.3304862E-1,3.5998082E-1,-3.0909967E-1,-5.516874E-2,2.7349582E-1,-1.4754775E-2,2.9205743E-2,2.0933023E-2,-1.949331E-2,1.1106977E-2,-3.2194186E-2,-6.0345232E-3,2.1137536E-2],"categories":[],"categories_nodes":[],"categories_segments":[],"categories_sizes":[],"default_left":[0,0,0,0,0,0,0,0,0,0,0,0,0,0,0,0,0],"id":9,"left_children":[1,3,-1,5,7,9,11,13,15,-1,-1,-1,-1,-1,-1,-1,-1],"loss_changes":[1.4661442E1,9.282906E0,0E0,1.785368E1,8.701092E0,8.072594E0,9.257638E0,2.320209E1,1.1131826E1,0E0,0E0,0E0,0E0,0E0,0E0,0E0,0E0],"parents":[2147483647,0,0,1,1,3,3,4,4,5,5,6,6,7,7,8,8],"right_children":[2,4,-1,6,8,10,12,14,16,-1,-1,-1,-1,-1,-1,-1,-1],"split_conditions":[1.4748463E-1,7.7914315E-1,-4.175796E-2,1.8979295E-1,1.2915201E0,1.6504972E1,-2.716177E2,1.1806728E0,-1.173197E2,-1.4754775E-2,2.9205743E-2,2.0933023E-2,-1.949331E-2,1.1106977E-2,-3.2194186E-2,-6.0345232E-3,2.1137536E-2],"split_indices":[7,4,0,4,5,3,1,5,1,0,0,0,0,0,0,0,0],"split_type":[0,0,0,0,0,0,0,0,0,0,0,0,0,0,0,0,0],"sum_hessian":[5.5351917E2,5.341148E2,1.9404335E1,2.0653026E2,3.2758456E2,5.280711E1,1.5372314E2,1.4024516E2,1.8733939E2,1.3381222E1,3.9425888E1,1.4938021E1,1.3878513E2,9.576071E1,4.448445E1,5.15049E1,1.3583449E2],"tree_param":{"num_deleted":"0","num_feature":"18","num_nodes":"17","size_leaf_vector":"1"}},{"base_weights":[-2.9602367E-2,6.2548155E-1,-6.083904E-2,5.8223527E-2,5.084392E-3,-6.665372E-1,-2.438347E-2,2.801753E-3,-6.476218E-2,-1.8620701E-1,1.1385289E-1,-4.477727E-2,-3.8517143E-3,1.1474769E-2,-1.4576149E-2],"categories":[],"categories_nodes":[],"categories_segments":[],"categories_sizes":[],"default_left":[0,0,0,0,0,0,0,0,0,0,0,0,0,0,0],"id":10,"left_children":[1,3,5,-1,-1,7,9,-1,-1,11,13,-1,-1,-1,-1],"loss_changes":[1.142362E1,7.056033E0,1.1730765E1,0E0,0E0,1.3775563E1,1.1269481E1,0E0,0E0,1.7899635E1,1.2808502E1,0E0,0E0,0E0,0E0],"parents":[2147483647,0,0,1,1,2,2,5,5,6,6,9,9,10,10],"right_children":[2,4,6,-1,-1,8,10,-1,-1,12,14,-1,-1,-1,-1],"split_conditions":[8.270549E-2,1.161646E0,8.190228E-1,5.8223527E-2,5.084392E-3,4.0033033E-1,1E0,2.801753E-3,-6.476218E-2,1.8421597E1,2.1046543E0,-4.477727E-2,-3.8517143E-3,1.1474769E-2,-1.4576149E-2],"split_indices":[4,5,5,0,0,4,8,0,0,13,4,0,0,0,0],"split_type":[0,0,0,0,0,0,0,0,0,0,0,0,0,0,0],"sum_hessian":[5.554075E2,2.4412552E1,5.3099493E2,1.14289255E1,1.2983626E1,2.9163795E1,5.0183112E2,1.3992773E1,1.5171022E1,2.3103166E2,2.7079947E2,2.9854189E1,2.0117747E2,2.1103181E2,5.9767647E1],"tree_param":{"num_deleted":"0","num_feature":"18","num_nodes":"15","size_leaf_vector":"1"}},{"base_weights":[-4.354231E-3,4.8820361E-1,-5.6110237E-2,8.014316E-1,7.180992E-2,-2.5100157E-1,3.8139272E-2,6.418755E-2,1.8658547E-2,-1.4785558E-2,1.9492822E-2,-4.4577777E-1,1.8274014E-1,9.075212E-2,-5.9173644E-1,-5.1400762E-2,-1.0887237E-2,-1.0603207E-2,2.9720372E-2,8.723817E-3,-1.684273E-2,-6.752262E-2,4.0600575E-3],"categories":[],"categories_nodes":[],"categories_segments":[],"categories_sizes":[],"default_left":[0,0,0,0,0,0,0,0,0,0,0,0,0,0,0,0,0,0,0,0,0,0,0],"id":11,"left_children":[1,3,5,7,9,11,13,-1,-1,-1,-1,15,17,19,21,-1,-1,-1,-1,-1,-1,-1,-1],"loss_changes":[1.4186807E1,6.844055E0,9.25828E0,5.7384605E0,2.8990245E0,1.39584465E1,1.13295355E1,0E0,0E0,0E0,0E0,1.4864862E1,8.514542E0,1.1332161E1,1.3569765E1,0E0,0E0,0E0,0E0,0E0,0E0,0E0,0E0],"parents":[2147483647,0,0,1,1,2,2,3,3,4,4,5,5,6,6,11,11,12,12,13,13,14,14],"right_children":[2,4,6,8,10,12,14,-1,-1,-1,-1,16,18,20,22,-1,-1,-1,-1,-1,-1,-1,-1],"split_conditions":[1.7738129E-1,1.2459985E0,7.8853005E-1,-1.8001413E1,5.8099095E-2,1E0,7.266726E1,6.418755E-2,1.8658547E-2,-1.4785558E-2,1.9492822E-2,5.958562E-1,4.765046E1,2.7531831E0,1.4024589E0,-5.1400762E-2,-1.0887237E-2,-1.0603207E-2,2.9720372E-2,8.723817E-3,-1.684273E-2,-6.752262E-2,4.0600575E-3],"split_indices":[4,5,4,1,7,10,0,0,0,0,0,6,0,4,5,0,0,0,0,0,0,0,0],"split_type":[0,0,0,0,0,0,0,0,0,0,0,0,0,0,0,0,0,0,0,0,0,0,0],"sum_hessian":[5.5442737E2,5.1915817E1,5.0251157E2,2.9100534E1,2.2815283E1,1.6325856E2,3.3925302E2,1.2746956E1,1.6353579E1,1.0616979E1,1.2198304E1,1.12645966E2,5.0612587E1,3.1389E2,2.536298E1,3.0714457E1,8.193151E1,2.6082941E1,2.4529648E1,2.629894E2,5.090063E1,1.1448431E1,1.3914548E1],"tree_param":{"num_deleted":"0","num_feature":"18","num_nodes":"23","size_leaf_vector":"1"}},{"base_weights":[-3.412554E-2,-1.7748189E-1,8.657384E-2,-5.4616936E-2,-1.3298604E-1,2.0152737E-1,-3.3639628E-1,1.2789476E-2,-4.0856048E-1,4.7207072E-2,7.071658E-1,-7.313901E-1,1.1481197E-1,6.0876198E-2,-5.7041524E-3,-2.8787846E-2,1.3858614E-2,1.8242775E-2,-4.0641474E-3,5.2652724E-2,9.399551E-3,-8.162217E-3,-5.0736755E-2,3.3286437E-2,-1.5209476E-2],"categories":[],"categories_nodes":[],"categories_segments":[],"categories_sizes":[],"default_left":[0,0,0,0,0,0,0,0,0,0,0,0,0,0,0,0,0,0,0,0,0,0,0,0,0],"id":12,"left_children":[1,3,5,-1,7,9,11,13,15,17,19,21,23,-1,-1,-1,-1,-1,-1,-1,-1,-1,-1,-1,-1],"loss_changes":[9.607548E0,1.0183278E1,1.4733993E1,0E0,9.770932E0,1.8522486E1,1.1639011E1,2.4588717E1,9.805878E0,7.5097017E0,9.774797E0,5.4214134E0,7.387915E0,0E0,0E0,0E0,0E0,0E0,0E0,0E0,0E0,0E0,0E0,0E0,0E0],"parents":[2147483647,0,0,1,1,2,2,4,4,5,5,6,6,7,7,8,8,9,9,10,10,11,11,12,12],"right_children":[2,4,6,-1,8,10,12,14,16,18,20,22,24,-1,-1,-1,-1,-1,-1,-1,-1,-1,-1,-1,-1],"split_conditions":[1E0,1.5162209E1,2.0017898E0,-5.4616936E-2,1.5457246E0,1.5847727E0,6.061696E1,-2.4418114E2,3.0831354E2,-5.5253273E1,1.9264566E0,1.277429E0,3.6990288E1,6.0876198E-2,-5.7041524E-3,-2.8787846E-2,1.3858614E-2,1.8242775E-2,-4.0641474E-3,5.2652724E-2,9.399551E-3,-8.162217E-3,-5.0736755E-2,3.3286437E-2,-1.5209476E-2],"split_indices":[8,13,4,0,5,5,0,1,1,1,5,5,13,0,0,0,0,0,0,0,0,0,0,0,0],"split_type":[0,0,0,0,0,0,0,0,0,0,0,0,0,0,0,0,0,0,0,0,0,0,0,0,0],"sum_hessian":[5.533645E2,2.5272682E2,3.0063766E2,1.0629518E1,2.420973E2,2.3680347E2,6.3834187E1,1.5896196E2,8.3135345E1,1.8226863E2,5.4534832E1,3.3706287E1,3.0127901E1,1.4326489E1,1.4463547E2,6.6967575E1,1.6167767E1,5.1964443E1,1.303042E2,3.2112362E1,2.242247E1,1.1740698E1,2.1965588E1,1.2760776E1,1.7367126E1],"tree_param":{"num_deleted":"0","num_feature":"18","num_nodes":"25","size_leaf_vector":"1"}},{"base_weights":[1.6239196E-2,6.2015064E-2,-4.5929563E-1,9.232382E-2,-4.4575495E-1,-2.1893999E-1,-4.911134E-2,-3.1016856E-3,2.64634E-1,-5.705903E-2,9.231331E-4,-3.4380134E-2,1.1106709E-2,-1.3964415E-2,9.094775E-3,-2.7225142E-2,1.618348E-2],"categories":[],"categories_nodes":[],"categories_segments":[],"categories_sizes":[],"default_left":[0,0,0,0,0,0,0,0,0,0,0,0,0,0,0,0,0],"id":13,"left_children":[1,3,5,7,9,11,-1,13,15,-1,-1,-1,-1,-1,-1,-1,-1],"loss_changes":[1.2299407E1,7.968405E0,6.021432E0,8.006969E0,9.443062E0,7.4457426E0,0E0,1.6112381E1,8.46656E0,0E0,0E0,0E0,0E0,0E0,0E0,0E0,0E0],"parents":[2147483647,0,0,1,1,2,2,3,3,4,4,5,5,7,7,8,8],"right_children":[2,4,6,8,10,12,-1,14,16,-1,-1,-1,-1,-1,-1,-1,-1],"split_conditions":[4.668513E1,1.2443898E-1,1.022093E0,2.7763824E1,-2.2690332E1,5.3825695E1,-4.911134E-2,1E0,2.37981E-2,-5.705903E-2,9.231331E-4,-3.4380134E-2,1.1106709E-2,-1.3964415E-2,9.094775E-3,-2.7225142E-2,1.618348E-2],"split_indices":[3,7,6,3,1,3,0,8,7,0,0,0,0,0,0,0,0],"split_type":[0,0,0,0,0,0,0,0,0,0,0,0,0,0,0,0,0],"sum_hessian":[5.627134E2,5.1409515E2,4.861817E1,4.8590945E2,2.8185722E1,3.4280468E1,1.4337705E1,3.1335513E2,1.725543E2,1.0699278E1,1.7486444E1,1.6349453E1,1.7931015E1,1.25493416E2,1.8786174E2,1.1174487E1,1.6137982E2],"tree_param":{"num_deleted":"0","num_feature":"18","num_nodes":"17","size_leaf_vector":"1"}},{"base_weights":[3.3183705E-2,6.0811676E-2,-6.392879E-1,-2.3692949E-1,1.1506537E-1,-1.5380797E-2,-4.6067473E-2,-7.956523E-1,-1.670657E-2,-1.2698281E-1,1.7609522E-1,-1.3853929E-2,-5.799502E-2,-1.170388E-2,3.5102945E-2,1.5976017E-2,-2.3452392E-2,5.691056E-3,3.0684298E-2],"categories":[],"categories_nodes":[],"categories_segments":[],"categories_sizes":[],"default_left":[0,0,0,0,0,0,0,0,0,0,0,0,0,0,0,0,0,0,0],"id":14,"left_children":[1,3,5,7,9,-1,-1,11,13,15,17,-1,-1,-1,-1,-1,-1,-1,-1],"loss_changes":[1.0490823E1,8.770855E0,1.8016071E0,1.0292274E1,6.795753E0,0E0,0E0,4.1473303E0,9.710154E0,1.4340694E1,9.920526E0,0E0,0E0,0E0,0E0,0E0,0E0,0E0,0E0],"parents":[2147483647,0,0,1,1,2,2,3,3,4,4,7,7,8,8,9,9,10,10],"right_children":[2,4,6,8,10,-1,-1,12,14,16,18,-1,-1,-1,-1,-1,-1,-1,-1],"split_conditions":[1.4748463E-1,1.6718317E1,5.996147E1,1E0,4.1640316E1,-1.5380797E-2,-4.6067473E-2,4.480796E-2,4.9533308E-2,-1.9521523E2,1.0245492E-1,-1.3853929E-2,-5.799502E-2,-1.170388E-2,3.5102945E-2,1.5976017E-2,-2.3452392E-2,5.691056E-3,3.0684298E-2],"split_indices":[7,3,0,8,0,0,0,7,7,1,7,0,0,0,0,0,0,0,0],"split_type":[0,0,0,0,0,0,0,0,0,0,0,0,0,0,0,0,0,0,0],"sum_hessian":[5.6156696E2,5.402796E2,2.1287397E1,8.275544E1,4.5752414E2,1.0744132E1,1.0543265E1,2.2657824E1,6.0097614E1,9.191256E1,3.656116E2,1.0074962E1,1.2582862E1,4.6660694E1,1.3436921E1,3.989841E1,5.2014145E1,3.2116614E2,4.4445457E1],"tree_param":{"num_deleted":"0","num_feature":"18","num_nodes":"19","size_leaf_vector":"1"}},{"base_weights":[-8.03107E-4,-4.3902718E-2,1.8409956E-2,5.7126063E-1,-8.902358E-3,5.586905E-2,-4.398202E-3,-1.05168045E-1,1.6743508E-1,-1.5100273E-2,2.0840275E-3,1.4703314E-2,-6.255746E-3],"categories":[],"categories_nodes":[],"categories_segments":[],"categories_sizes":[],"default_left":[0,0,0,0,0,0,0,0,0,0,0,0,0],"id":15,"left_children":[1,-1,3,5,7,-1,-1,9,11,-1,-1,-1,-1],"loss_changes":[9.468909E0,0E0,8.306822E0,9.422034E0,8.9279E0,0E0,0E0,9.844816E0,6.9179316E0,0E0,0E0,0E0,0E0],"parents":[2147483647,0,0,2,2,3,3,4,4,7,7,8,8],"right_children":[2,-1,4,6,8,-1,-1,10,12,-1,-1,-1,-1],"split_conditions":[-4.858445E2,-4.3902718E-2,9.122733E-2,1.2079706E0,6.852469E-2,5.586905E-2,-4.398202E-3,7.8853005E-1,1.9328957E2,-1.5100273E-2,2.0840275E-3,1.4703314E-2,-6.255746E-3],"split_indices":[1,0,4,5,7,0,0,4,1,0,0,0,0],"split_type":[0,0,0,0,0,0,0,0,0,0,0,0,0],"sum_hessian":[5.5983777E2,1.1040437E1,5.4879736E2,2.4898136E1,5.238992E2,1.323713E1,1.1661006E1,3.3915317E2,1.8474603E2,1.4446037E2,1.946928E2,1.2893216E2,5.5813873E1],"tree_param":{"num_deleted":"0","num_feature":"18","num_nodes":"13","size_leaf_vector":"1"}},{"base_weights":[1.3896534E-2,-2.3061983E-1,6.1318744E-2,-4.655863E-2,-2.97073E-2,2.9994306E-1,-1.2773847E-2,-2.4211846E-1,3.8949057E-1,1.7196171E-1,5.0054193E-2,-2.4933743E-1,8.926817E-2,-4.7954112E-2,5.168187E-3,4.9288206E-2,-1.0058788E-2,1.9154407E-2,-1.2400149E-2,-5.774596E-3,-4.5521405E-2,8.894968E-3,-1.3497506E-2],"categories":[],"categories_nodes":[],"categories_segments":[],"categories_sizes":[],"default_left":[0,0,0,0,0,0,0,0,0,0,0,0,0,0,0,0,0,0,0,0,0,0,0],"id":16,"left_children":[1,3,5,-1,7,9,11,13,15,17,-1,19,21,-1,-1,-1,-1,-1,-1,-1,-1,-1,-1],"loss_changes":[6.4040875E0,1.2601179E1,8.178235E0,0E0,6.3950257E0,9.661256E0,8.561828E0,1.1884771E1,8.714609E0,8.418699E0,0E0,9.351376E0,7.940255E0,0E0,0E0,0E0,0E0,0E0,0E0,0E0,0E0,0E0,0E0],"parents":[2147483647,0,0,1,1,2,2,4,4,5,5,6,6,7,7,8,8,9,9,11,11,12,12],"right_children":[2,4,6,-1,8,10,12,14,16,18,-1,20,22,-1,-1,-1,-1,-1,-1,-1,-1,-1,-1],"split_conditions":[1.7164566E1,4.596231E1,2.166309E1,-4.655863E-2,1E0,2.110089E1,2.7008947E1,1E0,3.0595042E-2,1.9886444E1,5.0054193E-2,1.7151224E2,4.668513E1,-4.7954112E-2,5.168187E-3,4.9288206E-2,-1.0058788E-2,1.9154407E-2,-1.2400149E-2,-5.774596E-3,-4.5521405E-2,8.894968E-3,-1.3497506E-2],"split_indices":[3,0,3,0,10,3,3,9,7,3,0,1,3,0,0,0,0,0,0,0,0,0,0],"split_type":[0,0,0,0,0,0,0,0,0,0,0,0,0,0,0,0,0,0,0,0,0,0,0],"sum_hessian":[5.500709E2,8.872546E1,4.613455E2,1.8964453E1,6.9761E1,1.0858521E2,3.5276028E2,4.6580624E1,2.3180378E1,9.28773E1,1.5707915E1,1.0587266E2,2.4688762E2,1.4569377E1,3.2011246E1,1.1202565E1,1.1977813E1,6.1864384E1,3.1012917E1,8.9023506E1,1.684915E1,1.9843245E2,4.845517E1],"tree_param":{"num_deleted":"0","num_feature":"18","num_nodes":"23","size_leaf_vector":"1"}},{"base_weights":[9.121413E-3,5.5275306E-2,-4.722255E-1,8.427094E-2,-3.0511549E-2,-9.7194624E-1,4.680119E-2,-1.6089624E-2,2.790123E-1,-2.759133E-2,-6.180626E-2,2.174822E-2,-2.0357925E-2,8.0530345E-4,-3.636137E-2,1.8505622E-2,-1.4484333E-2],"categories":[],"categories_nodes":[],"categories_segments":[],"categories_sizes":[],"default_left":[0,0,0,0,0,0,0,0,0,0,0,0,0,0,0,0,0],"id":17,"left_children":[1,3,5,7,-1,9,11,13,15,-1,-1,-1,-1,-1,-1,-1,-1],"loss_changes":[1.2315632E1,9.809362E0,1.2626347E1,9.49217E0,0E0,2.065731E0,4.5378366E0,7.3679614E0,8.663296E0,0E0,0E0,0E0,0E0,0E0,0E0,0E0,0E0],"parents":[2147483647,0,0,1,1,2,2,3,3,5,5,6,6,7,7,8,8],"right_children":[2,4,6,8,-1,10,12,14,16,-1,-1,-1,-1,-1,-1,-1,-1],"split_conditions":[4.668513E1,2.934933E0,3.5602417E0,6.5404266E-2,-3.0511549E-2,2.303174E0,4.4004993E0,2.1046543E0,1.2443898E-1,-2.759133E-2,-6.180626E-2,2.174822E-2,-2.0357925E-2,8.0530345E-4,-3.636137E-2,1.8505622E-2,-1.4484333E-2],"split_indices":[13,4,4,7,0,4,4,4,7,0,0,0,0,0,0,0,0],"split_type":[0,0,0,0,0,0,0,0,0,0,0,0,0,0,0,0,0],"sum_hessian":[5.521829E2,5.0467715E2,4.750575E1,4.8444366E2,2.0233488E1,2.375842E1,2.3747326E1,3.202957E2,1.64148E2,1.0364599E1,1.3393823E1,1.282393E1,1.0923397E1,3.0735785E2,1.2937813E1,1.4178464E2,2.2363348E1],"tree_param":{"num_deleted":"0","num_feature":"18","num_nodes":"17","size_leaf_vector":"1"}},{"base_weights":[-1.066019E-2,1.3322492E-2,-3.9938923E-2,3.842922E-1,-2.5764221E-2,6.820545E-1,-3.8972933E-2,-6.646317E-1,9.403015E-3,6.1292417E-2,1.1608595E-2,-2.5909772E-2,2.0125212E-2,-6.0645163E-2,-1.1366979E-2,3.6948543E-2,-5.146134E-4],"categories":[],"categories_nodes":[],"categories_segments":[],"categories_sizes":[],"default_left":[0,0,0,0,0,0,0,0,0,0,0,0,0,0,0,0,0],"id":18,"left_children":[1,3,-1,5,7,9,11,13,15,-1,-1,-1,-1,-1,-1,-1,-1],"loss_changes":[1.0606735E1,7.912867E0,0E0,6.5822234E0,1.1105433E1,7.1987276E0,4.953314E0,5.907277E0,6.7499676E0,0E0,0E0,0E0,0E0,0E0,0E0,0E0,0E0],"parents":[2147483647,0,0,1,1,3,3,4,4,5,5,6,6,7,7,8,8],"right_children":[2,4,-1,6,8,10,12,14,16,-1,-1,-1,-1,-1,-1,-1,-1],"split_conditions":[1.5466407E-1,1.7738129E-1,-3.9938923E-2,1.2439673E0,2.6552612E-1,-2.2690332E1,5.8099095E-2,4.0032808E-2,1.2185726E1,6.1292417E-2,1.1608595E-2,-2.5909772E-2,2.0125212E-2,-6.0645163E-2,-1.1366979E-2,3.6948543E-2,-5.146134E-4],"split_indices":[7,4,0,5,4,1,7,7,3,0,0,0,0,0,0,0,0],"split_type":[0,0,0,0,0,0,0,0,0,0,0,0,0,0,0,0,0],"sum_hessian":[5.596046E2,5.4403265E2,1.5571985E1,5.1015522E1,4.9301712E2,2.958875E1,2.1426771E1,2.4788908E1,4.682282E2,1.2615273E1,1.6973478E1,1.0190849E1,1.1235922E1,1.0211804E1,1.4577103E1,1.1347964E1,4.5688025E2],"tree_param":{"num_deleted":"0","num_feature":"18","num_nodes":"17","size_leaf_vector":"1"}},{"base_weights":[2.5814332E-2,5.493752E-1,-2.0821542E-3,5.519357E-2,4.659134E-3,-3.5498333E-1,6.587079E-2,-4.525619E-2,-1.7755054E-1,3.8052815E-1,-6.8820314E-3,-4.409989E-2,1.0757933E-4,4.0048834E-2,1.1954614E-2,-4.1960586E-2,9.948768E-4],"categories":[],"categories_nodes":[],"categories_segments":[],"categories_sizes":[],"default_left":[0,0,0,0,0,0,0,0,0,0,0,0,0,0,0,0,0],"id":19,"left_children":[1,3,5,-1,-1,7,9,-1,11,13,15,-1,-1,-1,-1,-1,-1],"loss_changes":[8.126573E0,7.0170107E0,1.2713472E1,0E0,0E0,8.194983E0,1.0180029E1,0E0,8.352954E0,4.774338E0,8.087097E0,0E0,0E0,0E0,0E0,0E0,0E0],"parents":[2147483647,0,0,1,1,2,2,5,5,6,6,8,8,9,9,10,10],"right_children":[2,4,6,-1,-1,8,10,-1,12,14,16,-1,-1,-1,-1,-1,-1],"split_conditions":[8.270549E-2,4.0032808E-2,1.723764E1,5.519357E-2,4.659134E-3,4.596231E1,4.793278E-1,-4.525619E-2,2.6552612E-1,2.166309E1,5.043685E-1,-4.409989E-2,1.0757933E-4,4.0048834E-2,1.1954614E-2,-4.1960586E-2,9.948768E-4],"split_indices":[4,7,3,0,0,0,6,0,4,3,6,0,0,0,0,0,0],"split_type":[0,0,0,0,0,0,0,0,0,0,0,0,0,0,0,0,0],"sum_hessian":[5.5532635E2,2.7146572E1,5.281798E2,1.1612264E1,1.5534308E1,8.46002E1,4.435796E2,1.9631231E1,6.496896E1,8.2506584E1,3.61073E2,1.2410535E1,5.255843E1,1.9594515E1,6.2912075E1,1.0309453E1,3.5076355E2],"tree_param":{"num_deleted":"0","num_feature":"18","num_nodes":"17","size_leaf_vector":"1"}},{"base_weights":[-2.5890248E-2,3.87376E-1,-6.713416E-2,7.457E-1,-1.05300926E-1,-2.3298532E-1,1.4751636E-2,5.5056978E-2,1.5702149E-2,4.323709E-3,-1.3594203E-2,-3.816597E-1,7.469311E-2,5.5729274E-2,-5.4477507E-1,-4.2503055E-2,-5.7180854E-3,4.6994925E-2,-6.764974E-3,5.4082177E-3,-2.3253232E-2,-4.939938E-3,-4.952978E-2],"categories":[],"categories_nodes":[],"categories_segments":[],"categories_sizes":[],"default_left":[0,0,0,0,0,0,0,0,0,0,0,0,0,0,0,0,0,0,0,0,0,0,0],"id":20,"left_children":[1,3,5,7,9,11,13,-1,-1,-1,-1,15,17,19,21,-1,-1,-1,-1,-1,-1,-1,-1],"loss_changes":[9.6176195E0,9.119402E0,6.9638996E0,4.222109E0,7.4038136E-1,7.7805214E0,7.9188743E0,0E0,0E0,0E0,0E0,1.4228401E1,1.0310019E1,8.829348E0,4.5885744E0,0E0,0E0,0E0,0E0,0E0,0E0,0E0,0E0],"parents":[2147483647,0,0,1,1,2,2,3,3,4,4,5,5,6,6,11,11,12,12,13,13,14,14],"right_children":[2,4,6,8,10,12,14,-1,-1,-1,-1,16,18,20,22,-1,-1,-1,-1,-1,-1,-1,-1],"split_conditions":[1.7738129E-1,1.2439673E0,7.7914315E-1,1E0,9.506093E-1,1E0,2.4571197E0,5.5056978E-2,1.5702149E-2,4.323709E-3,-1.3594203E-2,6.832932E-1,4.5554048E-1,7.266726E1,2.5920072E0,-4.2503055E-2,-5.7180854E-3,4.6994925E-2,-6.764974E-3,5.4082177E-3,-2.3253232E-2,-4.939938E-3,-4.952978E-2],"split_indices":[4,5,4,11,6,10,5,0,0,0,0,6,6,0,4,0,0,0,0,0,0,0,0],"split_type":[0,0,0,0,0,0,0,0,0,0,0,0,0,0,0,0,0,0,0,0,0,0,0],"sum_hessian":[5.6173236E2,5.021209E1,5.1152026E2,2.8772371E1,2.1439718E1,1.6846556E2,3.430547E2,1.4928682E1,1.3843689E1,1.01898155E1,1.1249903E1,1.1341935E2,5.5046207E1,3.2048404E2,2.257065E1,4.0415962E1,7.300339E1,1.0071997E1,4.4974213E1,2.9188818E2,2.859586E1,1.1894052E1,1.0676598E1],"tree_param":{"num_deleted":"0","num_feature":"18","num_nodes":"23","size_leaf_vector":"1"}},{"base_weights":[-2.3788696E-2,5.319314E-1,-5.6229535E-2,4.714408E-2,9.466821E-3,-5.538743E-1,-1.8375563E-2,-1.029968E0,4.4166883E-3,-1.7016073E-1,1.1888593E-1,-3.8553227E-2,-5.9933346E-2,-4.325542E-2,-4.8575504E-3,1.3186983E-2,-1.6637748E-2],"categories":[],"categories_nodes":[],"categories_segments":[],"categories_sizes":[],"default_left":[0,0,0,0,0,0,0,0,0,0,0,0,0,0,0,0,0],"id":21,"left_children":[1,3,5,-1,-1,7,9,11,-1,13,15,-1,-1,-1,-1,-1,-1],"loss_changes":[1.0026921E1,4.141078E0,9.876762E0,0E0,0E0,1.1424119E1,1.0203563E1,8.91304E-3,0E0,1.1713571E1,1.6918037E1,0E0,0E0,0E0,0E0,0E0,0E0],"parents":[2147483647,0,0,1,1,2,2,5,5,6,6,7,7,9,9,10,10],"right_children":[2,4,6,-1,-1,8,10,12,-1,14,16,-1,-1,-1,-1,-1,-1],"split_conditions":[1.0133555E-1,1.1964715E0,1.446734E1,4.714408E-2,9.466821E-3,1.7384254E1,1E0,-3.205479E1,4.4166883E-3,1.8176886E1,1.9583684E0,-3.8553227E-2,-5.9933346E-2,-4.325542E-2,-4.8575504E-3,1.3186983E-2,-1.6637748E-2],"split_indices":[4,5,3,0,0,1,8,2,0,3,4,0,0,0,0,0,0],"split_type":[0,0,0,0,0,0,0,0,0,0,0,0,0,0,0,0,0],"sum_hessian":[5.535261E2,2.9681269E1,5.2384485E2,1.2697801E1,1.6983467E1,3.6066544E1,4.877783E2,2.0365225E1,1.570132E1,2.3152068E2,2.5625763E2,1.0232299E1,1.0132926E1,2.097924E1,2.1054144E2,1.943426E2,6.191501E1],"tree_param":{"num_deleted":"0","num_feature":"18","num_nodes":"17","size_leaf_vector":"1"}},{"base_weights":[9.438134E-3,5.023579E-1,-1.791437E-2,4.955098E-2,5.190811E-3,-5.969346E-1,9.78283E-3,-5.6229543E-2,2.7405273E-3,-2.8732157E-1,7.121034E-2,4.9004597E-3,-3.4864884E-2,-2.1638615E-2,5.6854966E-3],"categories":[],"categories_nodes":[],"categories_segments":[],"categories_sizes":[],"default_left":[0,0,0,0,0,0,0,0,0,0,0,0,0,0,0],"id":22,"left_children":[1,3,5,-1,-1,7,9,-1,-1,11,13,-1,-1,-1,-1],"loss_changes":[7.475936E0,5.574272E0,8.436135E0,0E0,0E0,8.319795E0,9.194135E0,0E0,0E0,1.370472E1,8.988183E0,0E0,0E0,0E0,0E0],"parents":[2147483647,0,0,1,1,2,2,5,5,6,6,9,9,10,10],"right_children":[2,4,6,-1,-1,8,10,-1,-1,12,14,-1,-1,-1,-1],"split_conditions":[1.0133555E-1,4.0032808E-2,1.9807354E-2,4.955098E-2,5.190811E-3,1.2754346E1,4.118852E1,-5.6229543E-2,2.7405273E-3,-1.6740453E2,1.4297387E1,4.9004597E-3,-3.4864884E-2,-2.1638615E-2,5.6854966E-3],"split_indices":[4,7,7,0,0,1,0,0,0,1,3,0,0,0,0],"split_type":[0,0,0,0,0,0,0,0,0,0,0,0,0,0,0],"sum_hessian":[5.528206E2,2.8150688E1,5.246699E2,1.1977801E1,1.6172888E1,2.3013432E1,5.016565E2,1.2316458E1,1.0696975E1,8.531909E1,4.163374E2,4.4373756E1,4.0945335E1,3.166415E1,3.8467325E2],"tree_param":{"num_deleted":"0","num_feature":"18","num_nodes":"15","size_leaf_vector":"1"}},{"base_weights":[-5.9959176E-3,2.9740116E-1,-4.9657065E-2,4.627247E-1,-2.0267714E-2,-3.740263E-1,1.9613963E-2,5.1157404E-2,6.975538E-1,-5.656106E-2,-1.413126E-1,7.167144E-2,-4.1906396E-1,3.198686E-2,-2.912496E-2,2.6648445E-2,5.0094943E-2,-3.4067575E-2,3.6801316E-3,5.127832E-3,-2.3275984E-2,-5.6836307E-2,3.3218344E-3],"categories":[],"categories_nodes":[],"categories_segments":[],"categories_sizes":[],"default_left":[0,0,0,0,0,0,0,0,0,0,0,0,0,0,0,0,0,0,0,0,0,0,0],"id":23,"left_children":[1,3,5,7,-1,9,11,13,15,-1,17,19,21,-1,-1,-1,-1,-1,-1,-1,-1,-1,-1],"loss_changes":[7.407963E0,8.361692E0,1.0989503E1,5.5142307E0,0E0,1.500471E1,9.249148E0,8.55559E0,1.2934895E0,0E0,7.822989E0,6.049304E0,1.504768E1,0E0,0E0,0E0,0E0,0E0,0E0,0E0,0E0,0E0,0E0],"parents":[2147483647,0,0,1,1,2,2,3,3,5,5,6,6,7,7,8,8,10,10,11,11,12,12],"right_children":[2,4,6,8,-1,10,12,14,16,-1,18,20,22,-1,-1,-1,-1,-1,-1,-1,-1,-1,-1],"split_conditions":[4.0908986E-1,2.1233582E0,5.759623E-1,7.386093E-1,-2.0267714E-2,1.888986E1,2.7531831E0,1E0,5.405416E1,-5.656106E-2,8.041475E-1,7.266726E1,6.1919624E1,3.198686E-2,-2.912496E-2,2.6648445E-2,5.0094943E-2,-3.4067575E-2,3.6801316E-3,5.127832E-3,-2.3275984E-2,-5.6836307E-2,3.3218344E-3],"split_indices":[6,4,6,4,0,3,4,11,0,0,4,0,0,0,0,0,0,0,0,0,0,0,0],"split_type":[0,0,0,0,0,0,0,0,0,0,0,0,0,0,0,0,0,0,0,0,0,0,0],"sum_hessian":[5.5711743E2,6.935622E1,4.877612E2,5.6424004E1,1.2932215E1,8.505981E1,4.027014E2,2.0940691E1,3.5483315E1,1.9088707E1,6.59711E1,3.6073047E2,4.1970913E1,1.0851523E1,1.0089168E1,2.4814972E1,1.0668343E1,1.8162373E1,4.780873E1,3.4188336E2,1.8847109E1,1.6394854E1,2.557606E1],"tree_param":{"num_deleted":"0","num_feature":"18","num_nodes":"23","size_leaf_vector":"1"}},{"base_weights":[2.670779E-2,3.916196E-2,1.0378092E-2,4.6459172E-2,-2.8625277E-1,-3.724859E-2,2.1661155E-1,2.9443746E-2,-4.99047E-1,-5.102585E-3,8.003711E-3,1.7621992E-2,-1.8694814E-2,-5.6847163E-2,-3.384913E-3],"categories":[],"categories_nodes":[],"categories_segments":[],"categories_sizes":[],"default_left":[0,0,0,0,0,0,0,0,0,0,0,0,0,0,0],"id":24,"left_children":[1,-1,3,5,7,9,11,-1,13,-1,-1,-1,-1,-1,-1],"loss_changes":[6.9206533E0,0E0,5.9000278E0,7.004736E0,1.142749E1,4.237459E0,1.3135495E1,0E0,1.3304933E1,0E0,0E0,0E0,0E0,0E0,0E0],"parents":[2147483647,0,0,2,2,3,3,4,4,5,5,6,6,8,8],"right_children":[2,-1,4,6,8,10,12,-1,14,-1,-1,-1,-1,-1,-1],"split_conditions":[2.6811126E-1,3.916196E-2,4.3688377E1,6.719795E-2,1.1757383E0,6.13536E1,1E0,2.9443746E-2,9.5202856E-2,-5.102585E-3,8.003711E-3,1.7621992E-2,-1.8694814E-2,-5.6847163E-2,-3.384913E-3],"split_indices":[6,0,3,7,5,2,16,0,7,0,0,0,0,0,0],"split_type":[0,0,0,0,0,0,0,0,0,0,0,0,0,0,0],"sum_hessian":[5.5985645E2,1.0836847E1,5.490196E2,4.9023288E2,5.878674E1,3.2910718E2,1.6112569E2,1.1152822E1,4.763392E1,2.4810832E2,8.099885E1,1.313222E2,2.9803495E1,1.8556305E1,2.9077612E1],"tree_param":{"num_deleted":"0","num_feature":"18","num_nodes":"15","size_leaf_vector":"1"}},{"base_weights":[1.56747E-2,-3.487926E-2,3.0724747E-2,3.5626065E-2,1.20847E-2,-3.850367E-2,2.4492314E-1,2.7850678E-3,-2.0481797E-2,2.3627926E-2,-7.740547E-3],"categories":[],"categories_nodes":[],"categories_segments":[],"categories_sizes":[],"default_left":[0,0,0,0,0,0,0,0,0,0,0],"id":25,"left_children":[1,-1,3,-1,5,7,9,-1,-1,-1,-1],"loss_changes":[6.0636845E0,0E0,7.00918E0,0E0,6.3526697E0,1.5520607E1,8.831861E0,0E0,0E0,0E0,0E0],"parents":[2147483647,0,0,2,2,4,4,5,5,6,6],"right_children":[2,-1,4,-1,6,8,10,-1,-1,-1,-1],"split_conditions":[-4.858445E2,-3.487926E-2,-4.0223962E2,3.5626065E-2,1.4150434E0,1.0030234E0,1.4267659E0,2.7850678E-3,-2.0481797E-2,2.3627926E-2,-7.740547E-3],"split_indices":[1,0,2,0,6,6,5,0,0,0,0],"split_type":[0,0,0,0,0,0,0,0,0,0,0],"sum_hessian":[5.618765E2,1.067366E1,5.512029E2,1.3677993E1,5.375249E2,4.4226865E2,9.525624E1,3.534116E2,8.885704E1,6.057729E1,3.467895E1],"tree_param":{"num_deleted":"0","num_feature":"18","num_nodes":"11","size_leaf_vector":"1"}},{"base_weights":[2.8347617E-3,2.851548E-1,-4.1733112E-2,4.5532045E-1,-1.8010395E-2,-3.3321992E-1,1.742457E-2,1.7958865E-1,4.9689975E-2,3.0761918E-2,-5.296382E-1,2.4435748E-1,-6.7337565E-2,-6.583412E-3,4.0116243E-2,2.09098E-2,-1.3884077E-2,-4.0217858E-2,3.4822044E-3,2.2883983E-2,4.6592164E-3,-9.0383915E-3,4.3150964E-3],"categories":[],"categories_nodes":[],"categories_segments":[],"categories_sizes":[],"default_left":[0,0,0,0,0,0,0,0,0,0,0,0,0,0,0,0,0,0,0,0,0,0,0],"id":26,"left_children":[1,3,5,7,-1,9,11,13,-1,15,17,19,21,-1,-1,-1,-1,-1,-1,-1,-1,-1,-1],"loss_changes":[6.926489E0,8.406169E0,8.205037E0,8.70542E0,0E0,5.7550497E0,7.637898E0,8.012356E0,0E0,3.5911872E0,8.648421E0,3.4390435E0,5.05659E0,0E0,0E0,0E0,0E0,0E0,0E0,0E0,0E0,0E0,0E0],"parents":[2147483647,0,0,1,1,2,2,3,3,5,5,6,6,7,7,9,9,10,10,11,11,12,12],"right_children":[2,4,6,8,-1,10,12,14,-1,16,18,20,22,-1,-1,-1,-1,-1,-1,-1,-1,-1,-1],"split_conditions":[4.2057905E-1,7.933584E-2,5.759623E-1,5.9280787E-2,-1.8010395E-2,-3.2288963E1,7.727905E-1,1E0,4.9689975E-2,5.3977795E-2,7.745279E-2,2.2241837E1,1.2953061E0,-6.583412E-3,4.0116243E-2,2.09098E-2,-1.3884077E-2,-4.0217858E-2,3.4822044E-3,2.2883983E-2,4.6592164E-3,-9.0383915E-3,4.3150964E-3],"split_indices":[6,7,6,7,0,1,6,10,0,7,7,3,6,0,0,0,0,0,0,0,0,0,0],"split_type":[0,0,0,0,0,0,0,0,0,0,0,0,0,0,0,0,0,0,0,0,0,0,0],"sum_hessian":[5.485443E2,7.4052505E1,4.7449182E2,5.8833965E1,1.5218541E1,7.927054E1,3.9522128E2,3.9791813E1,1.9042152E1,2.807965E1,5.1190884E1,1.0696418E2,2.882571E2,2.7056807E1,1.2735006E1,1.2288415E1,1.5791235E1,3.486576E1,1.6325125E1,4.352211E1,6.344207E1,1.6572655E2,1.2253056E2],"tree_param":{"num_deleted":"0","num_feature":"18","num_nodes":"23","size_leaf_vector":"1"}},{"base_weights":[-2.3925709E-2,-5.395756E-4,-3.765175E-2,-1.426838E-1,9.039486E-2,1.6200434E-1,-2.599E-1,1.7556056E-1,-3.1239617E-1,2.9209886E-2,-8.961962E-3,-4.881009E-2,-8.639412E-3,1.0959758E-2,-2.9907456E-2,-3.5342579E-3,-6.1330553E-2],"categories":[],"categories_nodes":[],"categories_segments":[],"categories_sizes":[],"default_left":[0,0,0,0,0,0,0,0,0,0,0,0,0,0,0,0,0],"id":27,"left_children":[1,3,-1,5,7,9,11,13,15,-1,-1,-1,-1,-1,-1,-1,-1],"loss_changes":[9.624452E0,7.09535E0,0E0,7.69071E0,1.1538817E1,8.765588E0,9.505868E0,9.482157E0,1.290427E1,0E0,0E0,0E0,0E0,0E0,0E0,0E0,0E0],"parents":[2147483647,0,0,1,1,3,3,4,4,5,5,6,6,7,7,8,8],"right_children":[2,4,-1,6,8,10,12,14,16,-1,-1,-1,-1,-1,-1,-1,-1],"split_conditions":[7.694719E1,7.7914315E-1,-3.765175E-2,2.1313997E-1,2.8081007E0,-2.1528025E1,2.1316335E-2,4.7158867E1,2.336392E0,2.9209886E-2,-8.961962E-3,-4.881009E-2,-8.639412E-3,1.0959758E-2,-2.9907456E-2,-3.5342579E-3,-6.1330553E-2],"split_indices":[0,4,0,4,4,1,7,3,5,0,0,0,0,0,0,0,0],"split_type":[0,0,0,0,0,0,0,0,0,0,0,0,0,0,0,0,0],"sum_hessian":[5.634732E2,5.4693115E2,1.6542042E1,2.1316034E2,3.337708E2,5.9115433E1,1.540449E2,2.759817E2,5.778913E1,2.6105375E1,3.301006E1,1.5595998E1,1.3844891E2,2.619266E2,1.4055078E1,4.655712E1,1.123201E1],"tree_param":{"num_deleted":"0","num_feature":"18","num_nodes":"17","size_leaf_vector":"1"}},{"base_weights":[-2.2976061E-2,-7.276923E-2,1.8022792E-1,2.765749E-1,-1.2860636E-1,4.9073406E-2,8.626492E-2,6.129839E-1,3.6446083E-2,-4.051419E-1,-6.3248515E-2,2.6974776E-1,-3.0844226E-1,1.3385104E-2,4.8997294E-2,-2.724345E-2,1.9126326E-2,-2.9046748E-2,7.182158E-3,-9.872715E-3,1.9329902E-3,2.8291274E-2,-1.8204584E-4,-3.2807548E-2,9.424492E-3],"categories":[],"categories_nodes":[],"categories_segments":[],"categories_sizes":[],"default_left":[0,0,0,0,0,0,0,0,0,0,0,0,0,0,0,0,0,0,0,0,0,0,0,0,0],"id":28,"left_children":[1,3,5,7,9,-1,11,13,15,17,19,21,23,-1,-1,-1,-1,-1,-1,-1,-1,-1,-1,-1,-1],"loss_changes":[5.581623E0,8.671903E0,8.091739E0,4.9320683E0,6.886022E0,0E0,7.2023067E0,2.9662724E0,7.6219273E0,7.1181107E0,4.254167E0,5.477063E0,5.5943327E0,0E0,0E0,0E0,0E0,0E0,0E0,0E0,0E0,0E0,0E0,0E0,0E0],"parents":[2147483647,0,0,1,1,2,2,3,3,4,4,6,6,7,7,8,8,9,9,10,10,11,11,12,12],"right_children":[2,4,6,8,10,-1,12,14,16,18,20,22,24,-1,-1,-1,-1,-1,-1,-1,-1,-1,-1,-1,-1],"split_conditions":[6.3328114E1,4.0908986E-1,1.9570032E1,4.6329235E1,5.8467543E-1,4.9073406E-2,7.266726E1,6.666998E-1,5.2389896E1,1.8545854E0,1E0,8.197372E1,1.4473374E0,1.3385104E-2,4.8997294E-2,-2.724345E-2,1.9126326E-2,-2.9046748E-2,7.182158E-3,-9.872715E-3,1.9329902E-3,2.8291274E-2,-1.8204584E-4,-3.2807548E-2,9.424492E-3],"split_indices":[0,6,3,0,6,0,0,1,0,5,8,1,5,0,0,0,0,0,0,0,0,0,0,0,0],"split_type":[0,0,0,0,0,0,0,0,0,0,0,0,0,0,0,0,0,0,0,0,0,0,0,0,0],"sum_hessian":[5.4934735E2,4.4174414E2,1.0760324E2,6.033099E1,3.8141315E2,1.0302933E1,9.730031E1,2.4481232E1,3.584976E1,7.191879E1,3.0949435E2,6.6639145E1,3.0661161E1,1.3504289E1,1.0976943E1,1.3163867E1,2.2685892E1,5.442589E1,1.74929E1,1.3317503E2,1.7631932E2,3.147851E1,3.5160637E1,1.7850544E1,1.2810618E1],"tree_param":{"num_deleted":"0","num_feature":"18","num_nodes":"25","size_leaf_vector":"1"}},{"base_weights":[4.2879772E-3,-2.1905753E-1,5.2475635E-2,4.8118215E-2,-6.2430954E-1,1.00651026E-1,-2.4270844E-1,-2.892325E-1,5.738253E-1,-5.6635845E-2,-4.106782E-1,-4.4111293E-2,2.3030029E-1,-5.25676E-1,2.0606054E-1,1.1907931E-2,-3.7746012E-2,4.561623E-2,7.509575E-3,-1.0274069E-3,-4.2686824E-2,-3.5043817E-2,6.1260504E-3,4.5732777E-3,2.6866166E-2,-5.546772E-2,-4.482815E-3,3.311392E-2,-8.987866E-3],"categories":[],"categories_nodes":[],"categories_segments":[],"categories_sizes":[],"default_left":[0,0,0,0,0,0,0,0,0,0,0,0,0,0,0,0,0,0,0,0,0,0,0,0,0,0,0,0,0],"id":29,"left_children":[1,3,5,7,9,11,13,15,17,-1,19,21,23,25,27,-1,-1,-1,-1,-1,-1,-1,-1,-1,-1,-1,-1,-1,-1],"loss_changes":[6.023315E0,1.0784138E1,6.569696E0,1.0946524E1,3.8288622E0,7.4498305E0,8.346132E0,9.436923E0,3.318297E0,0E0,5.0654645E0,2.0673527E1,8.871247E0,1.0097323E1,4.6610894E0,0E0,0E0,0E0,0E0,0E0,0E0,0E0,0E0,0E0,0E0,0E0,0E0,0E0,0E0],"parents":[2147483647,0,0,1,1,2,2,3,3,4,4,5,5,6,6,7,7,8,8,10,10,11,11,12,12,13,13,14,14],"right_children":[2,4,6,8,10,12,14,16,18,-1,20,22,24,26,28,-1,-1,-1,-1,-1,-1,-1,-1,-1,-1,-1,-1,-1,-1],"split_conditions":[1.012679E0,9.104836E-1,2.7531831E0,8.3924705E-1,4.596231E1,1E0,5.255766E1,4.0476194E-1,8.796758E-1,-5.6635845E-2,3.6688686E1,2.0432112E1,1.5847727E0,5.8603863E1,1.5375037E0,1.1907931E-2,-3.7746012E-2,4.561623E-2,7.509575E-3,-1.0274069E-3,-4.2686824E-2,-3.5043817E-2,6.1260504E-3,4.5732777E-3,2.6866166E-2,-5.546772E-2,-4.482815E-3,3.311392E-2,-8.987866E-3],"split_indices":[5,5,4,5,0,8,3,4,5,0,1,3,5,0,5,0,0,0,0,0,0,0,0,0,0,0,0,0,0],"split_type":[0,0,0,0,0,0,0,0,0,0,0,0,0,0,0,0,0,0,0,0,0,0,0,0,0,0,0,0,0],"sum_hessian":[5.575897E2,9.832343E1,4.5926627E2,5.978769E1,3.853574E1,3.9539502E2,6.3871254E1,3.6691967E1,2.3095724E1,1.0128759E1,2.8406982E1,1.8712115E2,2.0827386E2,3.9066696E1,2.4804558E1,1.74352E1,1.9256765E1,1.2196608E1,1.08991165E1,1.566219E1,1.2744791E1,3.7219193E1,1.4990196E2,1.4431364E2,6.3960224E1,1.6044472E1,2.3022226E1,1.103704E1,1.3767518E1],"tree_param":{"num_deleted":"0","num_feature":"18","num_nodes":"29","size_leaf_vector":"1"}},{"base_weights":[4.77935E-2,8.8438764E-2,-3.7509558E-1,1.19102016E-1,-5.352727E-1,-6.3164103E-1,1.08179515E-2,6.907084E-1,7.657151E-2,3.8658325E-3,-4.92119E-2,-1.4370565E-2,-5.112028E-2,4.168419E-2,1.8336684E-2,-2.6671512E-3,1.2866902E-2],"categories":[],"categories_nodes":[],"categories_segments":[],"categories_sizes":[],"default_left":[0,0,0,0,0,0,0,0,0,0,0,0,0,0,0,0,0],"id":30,"left_children":[1,3,5,7,9,11,-1,13,15,-1,-1,-1,-1,-1,-1,-1,-1],"loss_changes":[9.724953E0,9.917383E0,7.6676755E0,1.1905481E1,6.7661586E0,4.3969393E0,0E0,1.2663956E0,1.0791958E1,0E0,0E0,0E0,0E0,0E0,0E0,0E0,0E0],"parents":[2147483647,0,0,1,1,2,2,3,3,4,4,5,5,7,7,8,8],"right_children":[2,4,6,8,10,12,-1,14,16,-1,-1,-1,-1,-1,-1,-1,-1],"split_conditions":[4.5944366E1,1.2443898E-1,9.760393E1,-3.1349432E2,1.4872645E0,-7.2136246E1,1.08179515E-2,8.619775E-2,1.0746613E0,3.8658325E-3,-4.92119E-2,-1.4370565E-2,-5.112028E-2,4.168419E-2,1.8336684E-2,-2.6671512E-3,1.2866902E-2],"split_indices":[3,7,2,2,4,2,0,7,4,0,0,0,0,0,0,0,0],"split_type":[0,0,0,0,0,0,0,0,0,0,0,0,0,0,0,0,0],"sum_hessian":[5.6285455E2,5.1422186E2,4.8632687E1,4.9089713E2,2.3324715E1,3.387245E1,1.4760236E1,3.2940422E1,4.579567E2,1.0214864E1,1.3109852E1,1.8931208E1,1.4941243E1,2.1762825E1,1.1177597E1,2.6686746E2,1.9108923E2],"tree_param":{"num_deleted":"0","num_feature":"18","num_nodes":"17","size_leaf_vector":"1"}},{"base_weights":[-3.0453098E-3,1.40374135E-2,-3.9454794E-1,-6.153736E-2,1.2091513E-1,-1.1380768E-2,-2.72771E-2,4.67481E-1,-1.2029461E-1,-7.1533215E-1,2.0840104E-1,4.4045686E-3,4.5920007E-2,3.0056175E-4,-1.626085E-2,-5.1748313E-2,-1.7083496E-2,1.5696133E-2,-9.3745915E-3],"categories":[],"categories_nodes":[],"categories_segments":[],"categories_sizes":[],"default_left":[0,0,0,0,0,0,0,0,0,0,0,0,0,0,0,0,0,0,0],"id":31,"left_children":[1,3,5,7,9,-1,-1,11,13,15,17,-1,-1,-1,-1,-1,-1,-1,-1],"loss_changes":[3.7595282E0,4.359514E0,4.6822166E-1,9.887575E0,1.6501717E1,0E0,0E0,5.363077E0,7.3905888E0,2.2016888E0,8.544429E0,0E0,0E0,0E0,0E0,0E0,0E0,0E0,0E0],"parents":[2147483647,0,0,1,1,2,2,3,3,4,4,7,7,8,8,9,9,10,10],"right_children":[2,4,6,8,10,-1,-1,12,14,16,18,-1,-1,-1,-1,-1,-1,-1,-1],"split_conditions":[4.0333505E2,2.8209488E1,7.970619E-1,3.7689567E-1,1.0027599E0,-1.1380768E-2,-2.72771E-2,5.2389896E1,2.166309E1,7.292846E-1,4.668513E1,4.4045686E-3,4.5920007E-2,3.0056175E-4,-1.626085E-2,-5.1748313E-2,-1.7083496E-2,1.5696133E-2,-9.3745915E-3],"split_indices":[2,3,6,6,5,0,0,0,3,6,3,0,0,0,0,0,0,0,0],"split_type":[0,0,0,0,0,0,0,0,0,0,0,0,0,0,0,0,0,0,0],"sum_hessian":[5.6030804E2,5.378057E2,2.2502329E1,3.1528638E2,2.2251933E2,1.1877982E1,1.0624347E1,3.082237E1,2.8446402E2,2.0394917E1,2.0212442E2,1.7387999E1,1.3434373E1,1.765911E2,1.0787293E2,1.0038285E1,1.0356631E1,1.5975125E2,4.237317E1],"tree_param":{"num_deleted":"0","num_feature":"18","num_nodes":"19","size_leaf_vector":"1"}},{"base_weights":[-2.0377526E-2,1.9299916E-3,-3.8969677E-2,4.0785063E-2,-3.256329E-1,3.8017434E-1,-5.626956E-3,-7.510618E-1,-8.649974E-3,2.6244361E-2,-8.724566E-3,-2.4419025E-2,2.280983E-3,-5.64949E-2,-1.0786298E-2,-3.8654726E-2,1.7726738E-2],"categories":[],"categories_nodes":[],"categories_segments":[],"categories_sizes":[],"default_left":[0,0,0,0,0,0,0,0,0,0,0,0,0,0,0,0,0],"id":32,"left_children":[1,3,-1,5,7,9,11,13,15,-1,-1,-1,-1,-1,-1,-1,-1],"loss_changes":[9.351715E0,6.8537893E0,0E0,7.584336E0,7.6941504E0,4.740819E0,1.0522563E1,4.698509E0,9.6398535E0,0E0,0E0,0E0,0E0,0E0,0E0,0E0,0E0],"parents":[2147483647,0,0,1,1,3,3,4,4,5,5,6,6,7,7,8,8],"right_children":[2,4,-1,6,8,10,12,14,16,-1,-1,-1,-1,-1,-1,-1,-1],"split_conditions":[7.694719E1,2.7531831E0,-3.8969677E-2,4.0908986E-1,3.3044426E0,5.682303E1,5.103016E-1,4.007934E1,-1.5394113E2,2.6244361E-2,-8.724566E-3,-2.4419025E-2,2.280983E-3,-5.64949E-2,-1.0786298E-2,-3.8654726E-2,1.7726738E-2],"split_indices":[0,4,0,6,4,0,6,3,1,0,0,0,0,0,0,0,0],"split_type":[0,0,0,0,0,0,0,0,0,0,0,0,0,0,0,0,0],"sum_hessian":[5.5122894E2,5.3645984E2,1.4769123E1,4.803561E2,5.6103706E1,5.692188E1,4.2343423E2,2.336956E1,3.2734146E1,4.5186386E1,1.173549E1,3.9817287E1,3.8361694E2,1.3034749E1,1.0334812E1,1.0179438E1,2.2554708E1],"tree_param":{"num_deleted":"0","num_feature":"18","num_nodes":"17","size_leaf_vector":"1"}},{"base_weights":[-8.569753E-3,3.1606477E-2,-2.874203E-1,5.02203E-1,8.426197E-3,2.5141397E-2,-4.6341455E-1,5.220681E-2,-5.5982056E-3,-2.4872892E-1,6.1829817E-2,-8.137877E-1,-1.05383776E-1,-3.9315607E-2,-3.7358233E-3,-2.6570022E-4,1.46657005E-2,-1.9453801E-2,-5.9316766E-2,2.089254E-2,-2.1568982E-2],"categories":[],"categories_nodes":[],"categories_segments":[],"categories_sizes":[],"default_left":[0,0,0,0,0,0,0,0,0,0,0,0,0,0,0,0,0,0,0,0,0],"id":33,"left_children":[1,3,5,7,9,-1,11,-1,-1,13,15,17,19,-1,-1,-1,-1,-1,-1,-1,-1],"loss_changes":[6.250591E0,5.3176255E0,1.0004616E1,7.7340536E0,6.4146233E0,0E0,7.18781E0,0E0,0E0,7.4556384E0,6.0111117E0,4.151617E0,5.2678432E0,0E0,0E0,0E0,0E0,0E0,0E0,0E0,0E0],"parents":[2147483647,0,0,1,1,2,2,3,3,4,4,6,6,9,9,10,10,11,11,12,12],"right_children":[2,4,6,8,10,-1,12,-1,-1,14,16,18,20,-1,-1,-1,-1,-1,-1,-1,-1],"split_conditions":[2.12196E2,8.270549E-2,2.0882132E1,1.1964715E0,1.7164566E1,2.5141397E-2,3.129414E1,5.220681E-2,-5.5982056E-3,4.596231E1,6.13536E1,1E0,3.5874435E1,-3.9315607E-2,-3.7358233E-3,-2.6570022E-4,1.46657005E-2,-1.9453801E-2,-5.9316766E-2,2.089254E-2,-2.1568982E-2],"split_indices":[2,4,13,5,13,0,13,0,0,0,2,11,13,0,0,0,0,0,0,0,0],"split_type":[0,0,0,0,0,0,0,0,0,0,0,0,0,0,0,0,0,0,0,0,0],"sum_hessian":[5.5612E2,4.8686072E2,6.925926E1,2.1885485E1,4.6497525E2,1.2276834E1,5.6982433E1,1.12545395E1,1.0630945E1,7.93281E1,3.8564713E2,2.8155838E1,2.8826595E1,1.8538303E1,6.0789803E1,2.9969522E2,8.595192E1,1.4112113E1,1.4043725E1,1.0957562E1,1.7869032E1],"tree_param":{"num_deleted":"0","num_feature":"18","num_nodes":"21","size_leaf_vector":"1"}},{"base_weights":[-1.6766377E-2,-1.317702E-1,7.9967484E-2,2.0141459E-1,-2.1166427E-1,-4.2859498E-1,1.3898687E-1,-1.695656E-1,5.510938E-1,1.11000024E-1,-3.1682408E-1,1.498908E-2,-4.164758E-2,4.3496937E-1,3.3984512E-2,-4.9182497E-2,2.7737154E-2,4.89526E-2,8.572578E-3,-5.906417E-3,3.5989404E-2,-1.4476922E-3,-2.6349062E-2,3.2308705E-2,-3.0420253E-3,-2.2000428E-2,4.2956695E-3],"categories":[],"categories_nodes":[],"categories_segments":[],"categories_sizes":[],"default_left":[0,0,0,0,0,0,0,0,0,0,0,0,0,0,0,0,0,0,0,0,0,0,0,0,0,0,0],"id":34,"left_children":[1,3,5,7,9,11,13,15,17,19,21,-1,-1,23,25,-1,-1,-1,-1,-1,-1,-1,-1,-1,-1,-1,-1],"loss_changes":[6.1470165E0,6.7609253E0,9.070772E0,6.492217E0,6.959071E0,9.516376E0,8.36904E0,1.5109239E1,3.9958282E0,7.184811E0,9.311026E0,0E0,0E0,7.4276276E0,4.9656296E0,0E0,0E0,0E0,0E0,0E0,0E0,0E0,0E0,0E0,0E0,0E0,0E0],"parents":[2147483647,0,0,1,1,2,2,3,3,4,4,5,5,6,6,7,7,8,8,9,9,10,10,13,13,14,14],"right_children":[2,4,6,8,10,12,14,16,18,20,22,-1,-1,24,26,-1,-1,-1,-1,-1,-1,-1,-1,-1,-1,-1,-1],"split_conditions":[5.045813E1,4.793278E-1,2.5720725E-2,5.5900935E-2,3.181639E-2,5.3336033E1,4.0305726E-2,1E0,2.6079475E1,3.040695E1,-1.4489487E2,1.498908E-2,-4.164758E-2,1E0,5.3498325E1,-4.9182497E-2,2.7737154E-2,4.89526E-2,8.572578E-3,-5.906417E-3,3.5989404E-2,-1.4476922E-3,-2.6349062E-2,3.2308705E-2,-3.0420253E-3,-2.2000428E-2,4.2956695E-3],"split_indices":[0,6,7,7,7,0,7,10,13,2,2,0,0,15,0,0,0,0,0,0,0,0,0,0,0,0,0],"split_type":[0,0,0,0,0,0,0,0,0,0,0,0,0,0,0,0,0,0,0,0,0,0,0,0,0,0,0],"sum_hessian":[5.5060535E2,2.5138249E2,2.9922287E2,4.8326004E1,2.0305649E2,3.0463228E1,2.6875964E2,2.3698732E1,2.4627274E1,4.9897938E1,1.5315855E2,1.096691E1,1.9496319E1,6.955482E1,1.9920482E2,1.0989296E1,1.2709435E1,1.0834744E1,1.3792529E1,3.6838913E1,1.3059028E1,6.5109825E1,8.804873E1,4.856421E1,2.0990614E1,1.8931332E1,1.8027348E2],"tree_param":{"num_deleted":"0","num_feature":"18","num_nodes":"27","size_leaf_vector":"1"}},{"base_weights":[-1.0589686E-2,2.5966272E-1,-3.963214E-2,3.4020644E-2,2.98977E-2,-2.0423917E-1,3.5679035E-2,-2.9551825E-2,3.004881E-1,-4.414785E-1,8.996068E-4,1.0254255E-1,-2.5162637E-1,2.3120597E-2,2.13912E-3,1.886663E-2,-2.934937E-2,1.2915956E-2,-2.5010735E-2,-1.4486872E-2,9.039358E-3,-2.421503E-2,1.0355233E-2],"categories":[],"categories_nodes":[],"categories_segments":[],"categories_sizes":[],"default_left":[0,0,0,0,0,0,0,0,0,0,0,0,0,0,0,0,0,0,0,0,0,0,0],"id":35,"left_children":[1,3,5,-1,7,9,11,-1,13,15,17,19,21,-1,-1,-1,-1,-1,-1,-1,-1,-1,-1],"loss_changes":[4.4235353E0,5.267154E0,6.3121367E0,0E0,6.2971764E0,7.777215E0,6.7454004E0,0E0,1.0664287E0,9.050391E0,1.1312438E1,8.783709E0,7.1796823E0,0E0,0E0,0E0,0E0,0E0,0E0,0E0,0E0,0E0,0E0],"parents":[2147483647,0,0,1,1,2,2,4,4,5,5,6,6,8,8,9,9,10,10,11,11,12,12],"right_children":[2,4,6,-1,8,10,12,-1,14,16,18,20,22,-1,-1,-1,-1,-1,-1,-1,-1,-1,-1],"split_conditions":[1.8979295E-1,4.5112427E1,7.7914315E-1,3.4020644E-2,3.670035E-2,1E0,1.8684028E0,-2.9551825E-2,1.4222108E0,-2.7367935E2,2.0667305E1,4.3184307E1,3.9779747E1,2.3120597E-2,2.13912E-3,1.886663E-2,-2.934937E-2,1.2915956E-2,-2.5010735E-2,-1.4486872E-2,9.039358E-3,-2.421503E-2,1.0355233E-2],"split_indices":[4,0,4,0,7,8,5,0,5,1,3,0,3,0,0,0,0,0,0,0,0,0,0],"split_type":[0,0,0,0,0,0,0,0,0,0,0,0,0,0,0,0,0,0,0,0,0,0,0],"sum_hessian":[5.612832E2,5.3694283E1,5.0758893E2,1.8272316E1,3.5421967E1,1.5879657E2,3.4879236E2,1.0391635E1,2.503033E1,7.3102615E1,8.5693954E1,2.8346555E2,6.532679E1,1.4883969E1,1.0146361E1,1.0790253E1,6.2312366E1,5.693255E1,2.8761408E1,4.6688656E1,2.367769E2,4.3305798E1,2.202099E1],"tree_param":{"num_deleted":"0","num_feature":"18","num_nodes":"23","size_leaf_vector":"1"}},{"base_weights":[-4.2023897E-2,7.107555E-2,-1.03533596E-1,8.450871E-3,3.7979934E-2,-4.154799E-1,2.8645193E-2,-2.6126978E-1,1.5592694E-1,-2.890698E-1,-5.6596708E-2,6.802967E-2,-3.5024066E-2,-2.7408486E-2,4.6654553E-3,2.6276875E-2,-5.6771957E-3,-2.114284E-2,3.326381E-2,-2.2478737E-3,1.8048795E-2],"categories":[],"categories_nodes":[],"categories_segments":[],"categories_sizes":[],"default_left":[0,0,0,0,0,0,0,0,0,0,0,0,0,0,0,0,0,0,0,0,0],"id":36,"left_children":[1,3,5,7,-1,9,11,13,15,17,-1,19,-1,-1,-1,-1,-1,-1,-1,-1,-1],"loss_changes":[3.8162117E0,8.335461E0,1.465131E1,7.134855E0,0E0,9.248556E0,7.235694E0,6.502543E0,1.1606014E1,1.1927817E1,0E0,7.906936E0,0E0,0E0,0E0,0E0,0E0,0E0,0E0,0E0,0E0],"parents":[2147483647,0,0,1,1,2,2,3,3,5,5,6,6,7,7,8,8,9,9,11,11],"right_children":[2,4,6,8,-1,10,12,14,16,18,-1,20,-1,-1,-1,-1,-1,-1,-1,-1,-1],"split_conditions":[2.166309E1,2.110089E1,2.7008947E1,1E0,3.7979934E-2,1.9945326E2,2.621671E0,1.8280766E1,-1.287641E1,1.1679099E2,-5.6596708E-2,1.6367309E0,-3.5024066E-2,-2.7408486E-2,4.6654553E-3,2.6276875E-2,-5.6771957E-3,-2.114284E-2,3.326381E-2,-2.2478737E-3,1.8048795E-2],"split_indices":[3,3,3,8,0,1,5,3,1,1,0,5,0,0,0,0,0,0,0,0,0],"split_type":[0,0,0,0,0,0,0,0,0,0,0,0,0,0,0,0,0,0,0,0,0],"sum_hessian":[5.465076E2,1.9246387E2,3.5404376E2,1.7734564E2,1.5118216E1,1.0473124E2,2.4931252E2,6.2417667E1,1.14927986E2,9.021697E1,1.4514273E1,2.3739603E2,1.1916482E1,3.419972E1,2.8217949E1,4.8059097E1,6.686889E1,7.9613144E1,1.0603823E1,1.7193033E2,6.54657E1],"tree_param":{"num_deleted":"0","num_feature":"18","num_nodes":"21","size_leaf_vector":"1"}}]},"name":"gbtree"},"learner_model_param":{"base_score":"[5E-1]","boost_from_average":"1","num_class":"0","num_feature":"18","num_target":"1"},"objective":{"name":"binary:logistic","reg_loss_param":{"scale_pos_weight":"1.75625002"}}},"version":[3,2,0]}