{"learner":{"attributes":{"best_iteration":"0","best_score":"0.6970032735808455","scikit_learn":"{\"_estimator_type\": \"classifier\"}"},"feature_names":[],"feature_types":[],"gradient_booster":{"model":{"cats":{"enc":[],"feature_segments":[],"sorted_idx":[]},"gbtree_model_param":{"num_parallel_tree":"1","num_trees":"31"},"iteration_indptr":[0,1,2,3,4,5,6,7,8,9,10,11,12,13,14,15,16,17,18,19,20,21,22,23,24,25,26,27,28,29,30,31],"tree_info":[0,0,0,0,0,0,0,0,0,0,0,0,0,0,0,0,0,0,0,0,0,0,0,0,0,0,0,0,0,0,0],"trees":[{"base_weights":[-1.7175129E-2,-1.16121925E-1,6.3599914E-1,-5.540306E-2,-6.740656E-1,6.634059E-2,4.54949E-1,-1.2136096E-1,6.33195E-1,-1.0843708E-1,-6.998354E-2,3.13407E-2,7.7444947E-1,-1.5404007E-2,1.6430346E-3,5.7395305E-2,1.8115733E-2,-2.339728E-2,1.780822E-2,2.5809145E-2,-3.545929E-2,1.1275417E-2,5.401308E-2],"categories":[],"categories_nodes":[],"categories_segments":[],"categories_sizes":[],"default_left":[0,0,0,0,0,0,0,0,0,0,0,0,0,0,0,0,0,0,0,0,0,0,0],"id":0,"left_children":[1,3,5,7,9,-1,11,13,15,17,-1,19,21,-1,-1,-1,-1,-1,-1,-1,-1,-1,-1],"loss_changes":[3.637473E1,1.6516308E1,8.657539E0,2.0141027E1,1.949402E1,0E0,8.122322E0,1.164336E1,4.9905233E0,4.8405843E0,0E0,1.0032059E1,5.509449E0,0E0,0E0,0E0,0E0,0E0,0E0,0E0,0E0,0E0,0E0],"parents":[2147483647,0,0,1,1,2,2,3,3,4,4,6,6,7,7,8,8,9,9,11,11,12,12],"right_children":[2,4,6,8,10,-1,12,14,16,18,-1,20,22,-1,-1,-1,-1,-1,-1,-1,-1,-1,-1],"split_conditions":[9.598236E4,4.668513E1,4.4358718E-1,1.4001302E0,8.008654E2,6.634059E-2,-1.8584471E2,6.091252E4,5.816215E2,8.861E-4,-6.998354E-2,1.8991E-4,9.764244E4,-1.5404007E-2,1.6430346E-3,5.7395305E-2,1.8115733E-2,-2.339728E-2,1.780822E-2,2.5809145E-2,-3.545929E-2,1.1275417E-2,5.401308E-2],"split_indices":[21,33,32,3,26,0,24,21,26,2,0,1,21,0,0,0,0,0,0,0,0,0,0],"split_type":[0,0,0,0,0,0,0,0,0,0,0,0,0,0,0,0,0,0,0,0,0,0,0],"sum_hessian":[5.606766E2,4.876297E2,7.3046875E1,4.407625E2,4.6867188E1,1.3854688E1,5.919219E1,4.0298593E2,3.777656E1,2.6982813E1,1.9884375E1,2.5921875E1,3.3270313E1,1.8183594E2,2.2115E2,1.1909375E1,2.5867188E1,1.5207812E1,1.1775E1,1.5848437E1,1.0073438E1,1.2525E1,2.0745314E1],"tree_param":{"num_deleted":"0","num_feature":"46","num_nodes":"23","size_leaf_vector":"1"}},{"base_weights":[2.2249172E-2,-5.641133E-2,6.1498E-1,4.306239E-2,-9.678108E-2,8.9699984E-1,4.5169475E-3,-9.234496E-1,-4.1613642E-2,5.4016876E-1,7.2007544E-2,-1.688535E-2,1.8075308E-2,-6.663708E-2,-9.602924E-3,-1.5218745E-2,3.7025705E-3,5.8285486E-2,2.2690273E-3],"categories":[],"categories_nodes":[],"categories_segments":[],"categories_sizes":[],"default_left":[0,0,0,0,0,0,0,0,0,0,0,0,0,0,0,0,0,0,0],"id":1,"left_children":[1,3,5,-1,7,9,11,13,15,17,-1,-1,-1,-1,-1,-1,-1,-1,-1],"loss_changes":[2.616408E1,1.8446093E1,1.1314491E1,0E0,2.1655521E1,7.9366302E0,2.7829018E0,8.638359E0,1.3607244E1,8.841306E0,0E0,0E0,0E0,0E0,0E0,0E0,0E0,0E0,0E0],"parents":[2147483647,0,0,1,1,2,2,4,4,5,5,6,6,7,7,8,8,9,9],"right_children":[2,4,6,-1,8,10,12,14,16,18,-1,-1,-1,-1,-1,-1,-1,-1,-1],"split_conditions":[9.628881E4,8.270549E-2,1.5544123E4,4.306239E-2,1.4297387E1,6.5485E-4,1.1164157E0,1E0,4.273265E4,4.8447248E-1,7.2007544E-2,-1.688535E-2,1.8075308E-2,-6.663708E-2,-9.602924E-3,-1.5218745E-2,3.7025705E-3,5.8285486E-2,2.2690273E-3],"split_indices":[21,36,6,0,33,2,36,35,19,36,0,0,0,0,0,0,0,0,0],"split_type":[0,0,0,0,0,0,0,0,0,0,0,0,0,0,0,0,0,0,0],"sum_hessian":[5.594218E2,4.9467853E2,6.474329E1,1.9988092E1,4.7469043E2,4.3963696E1,2.0779596E1,2.8711885E1,4.4597855E2,2.773638E1,1.6227316E1,1.0636776E1,1.0142819E1,1.7882504E1,1.0829383E1,1.3581355E2,3.1016498E2,1.1650784E1,1.6085596E1],"tree_param":{"num_deleted":"0","num_feature":"46","num_nodes":"19","size_leaf_vector":"1"}},{"base_weights":[-1.0520428E-2,-8.965518E-2,5.4369235E-1,3.8994815E-2,-1.25793E-1,2.4477807E-1,9.361729E-1,-5.8317137E-1,-4.598969E-2,6.093806E-2,-3.4543836E-1,6.141376E-2,2.8535638E-2,-4.6478298E-2,-2.0415206E-3,-6.164576E-3,2.4490109E-2,-4.8882592E-2,8.668747E-3],"categories":[],"categories_nodes":[],"categories_segments":[],"categories_sizes":[],"default_left":[0,0,0,0,0,0,0,0,0,0,0,0,0,0,0,0,0,0,0],"id":2,"left_children":[1,3,5,-1,7,9,11,13,15,-1,17,-1,-1,-1,-1,-1,-1,-1,-1],"loss_changes":[2.421826E1,1.5278679E1,7.8656425E0,0E0,1.6934088E1,2.3715635E1,2.4456787E0,1.291464E1,1.6492105E1,0E0,8.701193E0,0E0,0E0,0E0,0E0,0E0,0E0,0E0,0E0],"parents":[2147483647,0,0,1,1,2,2,4,4,5,5,6,6,7,7,8,8,10,10],"right_children":[2,4,6,-1,8,10,12,14,16,-1,18,-1,-1,-1,-1,-1,-1,-1,-1],"split_conditions":[9.598236E4,7.526435E-2,6.4722285E-2,3.8994815E-2,-1.2606062E3,5.3095305E-1,1.4904493E4,6.3945625E4,1.36952E-3,6.093806E-2,-2.613056E2,6.141376E-2,2.8535638E-2,-4.6478298E-2,-2.0415206E-3,-6.164576E-3,2.4490109E-2,-4.8882592E-2,8.668747E-3],"split_indices":[21,36,31,0,13,36,7,21,2,0,13,0,0,0,0,0,0,0,0],"split_type":[0,0,0,0,0,0,0,0,0,0,0,0,0,0,0,0,0,0,0],"sum_hessian":[5.5009204E2,4.8209326E2,6.799875E1,1.8414743E1,4.6367853E2,3.95222E1,2.8476547E1,6.794668E1,3.9573184E2,1.4511005E1,2.5011198E1,1.4514559E1,1.3961988E1,4.1028004E1,2.6918673E1,3.4650888E2,4.9222973E1,1.0874902E1,1.4136295E1],"tree_param":{"num_deleted":"0","num_feature":"46","num_nodes":"19","size_leaf_vector":"1"}},{"base_weights":[2.3523772E-2,9.726999E-2,-5.7008624E-1,-9.745399E-2,2.819475E-1,-8.1474537E-1,-9.646435E-2,-2.42349E-2,-4.8460465E-2,5.2532846E-1,2.7039776E-2,-1.051456E0,-5.6816847E-3,3.4395084E-2,-4.030047E-2,-5.5626296E-3,3.349499E-2,3.523642E-2,-6.30602E-3,4.49425E-2,-3.4466758E-3,-7.825233E-2,-3.0463336E-2],"categories":[],"categories_nodes":[],"categories_segments":[],"categories_sizes":[],"default_left":[0,0,0,0,0,0,0,0,0,0,0,0,0,0,0,0,0,0,0,0,0,0,0],"id":3,"left_children":[1,3,5,7,9,11,13,15,-1,17,19,21,-1,-1,-1,-1,-1,-1,-1,-1,-1,-1,-1],"loss_changes":[2.4941637E1,1.82424E1,7.2176476E0,1.5761158E1,1.6129858E1,6.748686E0,1.3122095E1,1.3916243E1,0E0,1.5640324E1,1.0784772E1,6.045273E0,0E0,0E0,0E0,0E0,0E0,0E0,0E0,0E0,0E0,0E0,0E0],"parents":[2147483647,0,0,1,1,2,2,3,3,4,4,5,5,6,6,7,7,9,9,10,10,11,11],"right_children":[2,4,6,8,10,12,14,16,-1,18,20,22,-1,-1,-1,-1,-1,-1,-1,-1,-1,-1,-1],"split_conditions":[4.3141514E1,6.360616E4,9.1498024E1,2.3495433E0,7.970619E-1,1E0,1.0856747E-1,1.09716E-3,-4.8460465E-2,5.0247425E-1,6.5728555E4,2.6347778E0,-5.6816847E-3,3.4395084E-2,-4.030047E-2,-5.5626296E-3,3.349499E-2,3.523642E-2,-6.30602E-3,4.49425E-2,-3.4466758E-3,-7.825233E-2,-3.0463336E-2],"split_indices":[33,20,37,36,32,44,31,2,0,10,30,36,0,0,0,0,0,0,0,0,0,0,0],"split_type":[0,0,0,0,0,0,0,0,0,0,0,0,0,0,0,0,0,0,0,0,0,0,0],"sum_hessian":[5.6748285E2,5.0551688E2,6.196597E1,2.4629533E2,2.5922153E2,4.0384354E1,2.1581614E1,2.281599E2,1.8135443E1,1.320663E2,1.2715522E2,2.9817589E1,1.0566766E1,1.0264849E1,1.1316765E1,2.0348985E2,2.4670048E1,1.0348594E2,2.8580366E1,1.1780144E1,1.1537508E2,1.2620228E1,1.7197361E1],"tree_param":{"num_deleted":"0","num_feature":"46","num_nodes":"23","size_leaf_vector":"1"}},{"base_weights":[-1.3420048E-2,2.2695415E-2,-5.653397E-2,-1.9563003E-1,1.7771137E-1,-1.0879432E-1,-5.9460517E-2,2.3185423E-1,-4.482649E-2,-4.307637E-2,1.9882245E-3,1.0688631E-3,2.7540628E-2],"categories":[],"categories_nodes":[],"categories_segments":[],"categories_sizes":[],"default_left":[0,0,0,0,0,0,0,0,0,0,0,0,0],"id":4,"left_children":[1,3,-1,5,7,9,-1,11,-1,-1,-1,-1,-1],"loss_changes":[2.2608377E1,1.8416136E1,0E0,1.9368368E1,1.8711376E1,2.3397257E1,0E0,2.037425E1,0E0,0E0,0E0,0E0,0E0],"parents":[2147483647,0,0,1,1,3,3,4,4,5,5,7,7],"right_children":[2,4,-1,6,8,10,-1,12,-1,-1,-1,-1,-1],"split_conditions":[1.520002E-1,6.098753E4,-5.653397E-2,5.769821E4,4.5944366E1,-1.2053427E3,-5.9460517E-2,2.9565454E2,-4.482649E-2,-4.307637E-2,1.9882245E-3,1.0688631E-3,2.7540628E-2],"split_indices":[31,21,0,29,33,13,0,24,0,0,0,0,0],"split_type":[0,0,0,0,0,0,0,0,0,0,0,0,0],"sum_hessian":[5.586661E2,5.4212164E2,1.6544422E1,2.2498682E2,3.1713486E2,2.079244E2,1.7062426E1,3.0266443E2,1.4470428E1,3.348086E1,1.7444353E2,1.8298303E2,1.1968139E2],"tree_param":{"num_deleted":"0","num_feature":"46","num_nodes":"13","size_leaf_vector":"1"}},{"base_weights":[9.975189E-3,8.152943E-1,-3.333405E-2,6.881891E-2,2.4029908E-3,-2.2441131E-1,1.6527712E-1,-7.465412E-1,-1.2759677E-1,2.1924716E-1,-4.5793507E-2,-5.8124114E-2,1.7722353E-2,-4.69943E-2,-2.3522377E-3,4.3539178E-2,6.5249833E-3],"categories":[],"categories_nodes":[],"categories_segments":[],"categories_sizes":[],"default_left":[0,0,0,0,0,0,0,0,0,0,0,0,0,0,0,0,0],"id":5,"left_children":[1,3,5,-1,-1,7,9,11,13,15,-1,-1,-1,-1,-1,-1,-1],"loss_changes":[1.9856157E1,1.2440998E1,2.0548126E1,0E0,0E0,1.3850704E1,1.5697763E1,2.0079714E1,1.5262717E1,1.4559771E1,0E0,0E0,0E0,0E0,0E0,0E0,0E0],"parents":[2147483647,0,0,1,1,2,2,5,5,6,6,7,7,8,8,9,9],"right_children":[2,4,6,-1,-1,8,10,12,14,16,-1,-1,-1,-1,-1,-1,-1],"split_conditions":[8.270549E-2,1.2152643E0,6.360616E4,6.881891E-2,2.4029908E-3,-1.2606062E3,4.5944366E1,1E0,4.1022778E1,6.5728555E4,-4.5793507E-2,-5.8124114E-2,1.7722353E-2,-4.69943E-2,-2.3522377E-3,4.3539178E-2,6.5249833E-3],"split_indices":[36,27,20,0,0,13,33,44,22,30,0,0,0,0,0,0,0],"split_type":[0,0,0,0,0,0,0,0,0,0,0,0,0,0,0,0,0],"sum_hessian":[5.675279E2,2.8053762E1,5.394741E2,1.5745225E1,1.23085375E1,2.7488574E2,2.645884E2,4.1947567E1,2.3293819E2,2.5276765E2,1.1820755E1,3.0405031E1,1.1542536E1,2.0053179E1,2.12885E2,2.924616E1,2.2352148E2],"tree_param":{"num_deleted":"0","num_feature":"46","num_nodes":"17","size_leaf_vector":"1"}},{"base_weights":[-4.5358096E-3,-8.803481E-2,6.096463E-1,-2.7099045E-2,-5.687046E-1,2.8579882E-1,1.0823753E0,-4.7844326E-1,4.7287233E-2,-9.0432304E-1,2.2101947E-3,5.648745E-2,-2.73809E-2,2.6546145E-2,7.006353E-2,-4.3399982E-2,7.4386136E-3,-4.0516853E-2,4.386557E-3,-2.5351647E-2,-7.048746E-2,-1.8874487E-2,2.3152297E-2],"categories":[],"categories_nodes":[],"categories_segments":[],"categories_sizes":[],"default_left":[0,0,0,0,0,0,0,0,0,0,0,0,0,0,0,0,0,0,0,0,0,0,0],"id":6,"left_children":[1,3,5,7,9,11,13,15,17,19,-1,-1,21,-1,-1,-1,-1,-1,-1,-1,-1,-1,-1],"loss_changes":[2.8765095E1,1.44458065E1,9.967751E0,1.4769152E1,1.14562645E1,1.0919695E1,3.99234E0,1.53357935E1,1.3181938E1,6.495611E0,0E0,0E0,5.5016074E0,0E0,0E0,0E0,0E0,0E0,0E0,0E0,0E0,0E0,0E0],"parents":[2147483647,0,0,1,1,2,2,3,3,4,4,5,5,6,6,7,7,8,8,9,9,12,12],"right_children":[2,4,6,8,10,12,14,16,18,20,-1,-1,22,-1,-1,-1,-1,-1,-1,-1,-1,-1,-1],"split_conditions":[9.6216945E4,4.4116722E1,6.4722285E-2,1.6504972E1,9.1498024E1,6.028036E3,-1.6057024E2,9.56952E1,2.6523156E4,-5.2496204E1,2.2101947E-3,5.648745E-2,1.0277239E0,2.6546145E-2,7.006353E-2,-4.3399982E-2,7.4386136E-3,-4.0516853E-2,4.386557E-3,-2.5351647E-2,-7.048746E-2,-1.8874487E-2,2.3152297E-2],"split_indices":[21,41,31,41,37,6,25,13,19,25,0,0,32,0,0,0,0,0,0,0,0,0,0],"split_type":[0,0,0,0,0,0,0,0,0,0,0,0,0,0,0,0,0,0,0,0,0,0,0],"sum_hessian":[5.588559E2,4.9272577E2,6.613015E1,4.3822696E2,5.4498795E1,4.0197227E1,2.5932924E1,6.123673E1,3.7699023E2,3.490819E1,1.9590603E1,1.0173782E1,3.0023445E1,1.0478233E1,1.5454691E1,3.7538258E1,2.3698473E1,1.6120226E1,3.6087E2,2.0666485E1,1.4241705E1,1.7652124E1,1.2371321E1],"tree_param":{"num_deleted":"0","num_feature":"46","num_nodes":"23","size_leaf_vector":"1"}},{"base_weights":[9.436412E-3,1.5093623E-1,-2.2620155E-1,-4.7546368E-2,1.9270752E-1,-6.9269097E-1,-7.6936945E-2,5.2609617E-1,5.1932644E-2,-6.007876E-3,-8.6765033E-1,-4.0721595E-1,1.9722714E-1,1.093994E-2,4.0714785E-2,-2.5105977E-3,2.7198697E-2,-5.7144325E-2,-1.03582125E-2,-3.7729587E-2,1.2345792E-3,1.7408153E-2,-3.8875066E-2],"categories":[],"categories_nodes":[],"categories_segments":[],"categories_sizes":[],"default_left":[0,0,0,0,0,0,0,0,0,0,0,0,0,0,0,0,0,0,0,0,0,0,0],"id":7,"left_children":[1,3,5,-1,7,9,11,13,15,-1,17,19,21,-1,-1,-1,-1,-1,-1,-1,-1,-1,-1],"loss_changes":[1.8883997E1,1.6468508E1,1.4743924E1,0E0,1.6011162E1,5.043461E0,1.4760498E1,8.797516E0,1.2159184E1,0E0,6.8894997E0,1.1100379E1,1.3402733E1,0E0,0E0,0E0,0E0,0E0,0E0,0E0,0E0,0E0,0E0],"parents":[2147483647,0,0,1,1,2,2,4,4,5,5,6,6,7,7,8,8,10,10,11,11,12,12],"right_children":[2,4,6,-1,8,10,12,14,16,-1,18,20,22,-1,-1,-1,-1,-1,-1,-1,-1,-1,-1],"split_conditions":[4.994525E-1,2.645727E4,5.8828616E-1,-4.7546368E-2,1.0958457E4,6.218692E3,6.989E-5,4.9358985E-1,1.35917E2,-6.007876E-3,1.6733236E0,1E0,4.3802703E4,1.093994E-2,4.0714785E-2,-2.5105977E-3,2.7198697E-2,-5.7144325E-2,-1.03582125E-2,-3.7729587E-2,1.2345792E-3,1.7408153E-2,-3.8875066E-2],"split_indices":[10,20,32,0,7,7,0,10,13,0,27,38,7,0,0,0,0,0,0,0,0,0,0],"split_type":[0,0,0,0,0,0,0,0,0,0,0,0,0,0,0,0,0,0,0,0,0,0,0],"sum_hessian":[5.643363E2,3.5282532E2,2.11511E2,1.2091982E1,3.4073334E2,5.038973E1,1.6112126E2,1.0034803E2,2.4038531E2,1.2189108E1,3.820062E1,7.286147E1,8.8259796E1,4.9416306E1,5.0931725E1,1.9980502E2,4.0580284E1,2.6448635E1,1.1751985E1,3.9968437E1,3.2893036E1,7.6982E1,1.127779E1],"tree_param":{"num_deleted":"0","num_feature":"46","num_nodes":"23","size_leaf_vector":"1"}},{"base_weights":[-1.1221295E-2,-8.074455E-2,5.5250853E-1,-1.6187694E-2,-5.5491656E-1,8.439479E-2,9.237324E-1,-9.2567414E-2,3.895011E-1,-8.0055296E-1,1.272917E-2,-2.6347047E-2,3.5899263E-2,6.631036E-2,1.9361803E-2,-6.1949464E-3,4.53416E-2,-8.929055E-3,2.974443E-2,-6.715016E-2,-2.7368275E-2],"categories":[],"categories_nodes":[],"categories_segments":[],"categories_sizes":[],"default_left":[0,0,0,0,0,0,0,0,0,0,0,0,0,0,0,0,0,0,0,0,0],"id":8,"left_children":[1,3,5,7,9,11,13,15,17,19,-1,-1,-1,-1,-1,-1,-1,-1,-1,-1,-1],"loss_changes":[2.1942862E1,1.5243528E1,1.0603981E1,1.3657359E1,1.2070404E1,1.1335155E1,6.8673115E0,1.1721485E1,8.255113E0,5.586235E0,0E0,0E0,0E0,0E0,0E0,0E0,0E0,0E0,0E0,0E0,0E0],"parents":[2147483647,0,0,1,1,2,2,3,3,4,4,5,5,6,6,7,7,8,8,9,9],"right_children":[2,4,6,8,10,12,14,16,18,20,-1,-1,-1,-1,-1,-1,-1,-1,-1,-1,-1],"split_conditions":[9.628881E4,4.3141514E1,-1.386826E2,9.4175416E-1,1E0,1.0275956E0,1.1983241E4,1.3762903E3,4.4412872E1,-1.0730857E2,1.272917E-2,-2.6347047E-2,3.5899263E-2,6.631036E-2,1.9361803E-2,-6.1949464E-3,4.53416E-2,-8.929055E-3,2.974443E-2,-6.715016E-2,-2.7368275E-2],"split_indices":[21,33,24,3,35,36,7,24,22,25,0,0,0,0,0,0,0,0,0,0,0],"split_type":[0,0,0,0,0,0,0,0,0,0,0,0,0,0,0,0,0,0,0,0,0],"sum_hessian":[5.5773804E2,4.972681E2,6.0469948E1,4.3858978E2,5.8678326E1,2.7287598E1,3.318235E1,3.6974844E2,6.884135E1,4.5026455E1,1.3651871E1,1.3973368E1,1.3314229E1,1.8118235E1,1.5064117E1,3.5935846E2,1.0389981E1,1.8314817E1,5.0526527E1,1.295856E1,3.2067894E1],"tree_param":{"num_deleted":"0","num_feature":"46","num_nodes":"21","size_leaf_vector":"1"}},{"base_weights":[-1.8978133E-3,-5.5445656E-2,4.414823E-1,-4.452154E-1,1.1606553E-2,7.630475E-1,2.853832E-2,-2.2601831E-1,-7.1541145E-2,-6.4264095E-1,6.3284256E-2,1.867317E-2,6.1362177E-2,-2.3924569E-2,3.783247E-2,-2.8742343E-2,3.6297332E-2,-5.9883714E-2,1.2058926E-2,7.290279E-3,-1.9115074E-2],"categories":[],"categories_nodes":[],"categories_segments":[],"categories_sizes":[],"default_left":[0,0,0,0,0,0,0,0,0,0,0,0,0,0,0,0,0,0,0,0,0],"id":9,"left_children":[1,3,5,7,9,11,13,15,-1,17,19,-1,-1,-1,-1,-1,-1,-1,-1,-1,-1],"loss_changes":[1.3176486E1,1.2945867E1,7.9195585E0,1.5383609E1,1.4357393E1,5.615015E0,1.0411332E1,2.0562029E1,0E0,1.5539199E1,1.4519647E1,0E0,0E0,0E0,0E0,0E0,0E0,0E0,0E0,0E0,0E0],"parents":[2147483647,0,0,1,1,2,2,3,3,4,4,5,5,6,6,7,7,9,9,10,10],"right_children":[2,4,6,8,10,12,14,16,-1,18,20,-1,-1,-1,-1,-1,-1,-1,-1,-1,-1],"split_conditions":[9.628881E4,-1.2606062E3,1.01288305E5,6.67259E4,1.446734E1,-8.4620445E1,1.0488566E5,6.3945625E4,-7.1541145E-2,1E0,2.12196E2,1.867317E-2,6.1362177E-2,-2.3924569E-2,3.783247E-2,-2.8742343E-2,3.6297332E-2,-5.9883714E-2,1.2058926E-2,7.290279E-3,-1.9115074E-2],"split_indices":[21,13,20,21,33,24,30,21,0,35,37,0,0,0,0,0,0,0,0,0,0],"split_type":[0,0,0,0,0,0,0,0,0,0,0,0,0,0,0,0,0,0,0,0,0],"sum_hessian":[5.5295416E2,4.9414972E2,5.8804436E1,7.170336E1,4.2244638E2,3.258344E1,2.6220999E1,5.9663612E1,1.2039746E1,3.0088306E1,3.9235806E2,1.8696573E1,1.3886866E1,1.5659283E1,1.0561716E1,4.3953773E1,1.5709837E1,1.82637E1,1.1824605E1,3.3161633E2,6.0741726E1],"tree_param":{"num_deleted":"0","num_feature":"46","num_nodes":"21","size_leaf_vector":"1"}},{"base_weights":[-2.9102394E-2,-2.3033418E-1,1.8405108E-1,-3.7772596E-1,2.703431E-1,3.236008E-1,-3.3622465E-1,-5.4698E-1,-5.583526E-2,8.249715E-1,-1.21440396E-1,3.8348672E-1,-3.7091106E-2,-6.8167853E-1,2.1254066E-2,-1.3162578E-3,-3.99899E-2,-1.9860068E-2,3.829849E-2,6.947316E-2,1.9660179E-2,-2.2557942E-2,2.867637E-2,3.133538E-2,6.107963E-3,-4.4042073E-2,-7.0903013E-3],"categories":[],"categories_nodes":[],"categories_segments":[],"categories_sizes":[],"default_left":[0,0,0,0,0,0,0,0,0,0,0,0,0,0,0,0,0,0,0,0,0,0,0,0,0,0,0],"id":10,"left_children":[1,3,5,7,9,11,13,15,17,19,21,23,-1,25,-1,-1,-1,-1,-1,-1,-1,-1,-1,-1,-1,-1,-1],"loss_changes":[2.3877655E1,2.1228466E1,1.974147E1,1.2041922E1,1.4374786E1,1.3921036E1,1.5459383E1,1.9080338E1,2.2039022E1,6.1130447E0,9.280058E0,1.2826916E1,0E0,4.1824875E0,0E0,0E0,0E0,0E0,0E0,0E0,0E0,0E0,0E0,0E0,0E0,0E0,0E0],"parents":[2147483647,0,0,1,1,2,2,3,3,4,4,5,5,6,6,7,7,8,8,9,9,10,10,11,11,13,13],"right_children":[2,4,6,8,10,12,14,16,18,20,22,24,-1,26,-1,-1,-1,-1,-1,-1,-1,-1,-1,-1,-1,-1,-1],"split_conditions":[6.360616E4,7.5327265E-1,5.0247425E-1,9E-4,3.870372E-2,4.668513E1,3.087189E1,2.8426898E4,5.686915E1,-6.91677E2,4.436855E-1,8.082308E-1,-3.7091106E-2,1.2243731E0,2.1254066E-2,-1.3162578E-3,-3.99899E-2,-1.9860068E-2,3.829849E-2,6.947316E-2,1.9660179E-2,-2.2557942E-2,2.867637E-2,3.133538E-2,6.107963E-3,-4.4042073E-2,-7.0903013E-3],"split_indices":[20,3,10,2,31,33,33,28,37,8,11,32,0,36,0,0,0,0,0,0,0,0,0,0,0,0,0],"split_type":[0,0,0,0,0,0,0,0,0,0,0,0,0,0,0,0,0,0,0,0,0,0,0,0,0,0,0],"sum_hessian":[5.5468787E2,2.8528156E2,2.6940634E2,2.2058907E2,6.46925E1,2.1272635E2,5.6679993E1,1.4411327E2,7.647579E1,2.6322857E1,3.8369644E1,2.0201161E2,1.07147255E1,3.9060364E1,1.7619627E1,4.7465878E1,9.664739E1,5.439681E1,2.2078985E1,1.0446745E1,1.5876112E1,2.6261187E1,1.2108458E1,1.0390641E2,9.810521E1,2.8072603E1,1.0987761E1],"tree_param":{"num_deleted":"0","num_feature":"46","num_nodes":"27","size_leaf_vector":"1"}},{"base_weights":[-3.8326383E-3,-6.31204E-2,4.755328E-1,3.6455125E-1,-1.12752445E-1,-1.3908386E-2,7.5030375E-1,5.177712E-2,1.2142163E-1,-5.7862455E-1,-5.5656657E-2,9.5891905E-1,3.943724E-3,-8.167116E-3,4.121998E-2,2.8074328E-2,-4.5102254E-2,8.2443375E-4,-2.3679262E-2,2.1923078E-2,6.6631444E-2],"categories":[],"categories_nodes":[],"categories_segments":[],"categories_sizes":[],"default_left":[0,0,0,0,0,0,0,0,0,0,0,0,0,0,0,0,0,0,0,0,0],"id":11,"left_children":[1,3,5,7,9,-1,11,-1,13,15,17,19,-1,-1,-1,-1,-1,-1,-1,-1,-1],"loss_changes":[1.5785945E1,1.053215E1,1.2869797E1,8.297127E0,1.1767765E1,0E0,6.237837E0,0E0,7.947994E0,1.8326117E1,1.1956666E1,6.0868874E0,0E0,0E0,0E0,0E0,0E0,0E0,0E0,0E0,0E0],"parents":[2147483647,0,0,1,1,2,2,3,3,4,4,6,6,8,8,9,9,10,10,11,11],"right_children":[2,4,6,8,10,-1,12,-1,14,16,18,20,-1,-1,-1,-1,-1,-1,-1,-1,-1],"split_conditions":[9.628881E4,-2.486442E3,4.8808762E-1,2.971615E4,1.6036228E1,-1.3908386E-2,5.032181E-1,5.177712E-2,6.666998E-1,2.961295E4,2.12196E2,-7.274171E1,3.943724E-3,-8.167116E-3,4.121998E-2,2.8074328E-2,-4.5102254E-2,8.2443375E-4,-2.3679262E-2,2.1923078E-2,6.6631444E-2],"split_indices":[21,8,10,29,41,0,10,0,25,28,37,23,0,0,0,0,0,0,0,0,0],"split_type":[0,0,0,0,0,0,0,0,0,0,0,0,0,0,0,0,0,0,0,0,0],"sum_hessian":[5.53386E2,4.932494E2,6.01366E1,5.063036E1,4.4261905E2,1.6063057E1,4.4073544E1,1.259935E1,3.803101E1,4.732634E1,3.952927E2,3.32992E1,1.0774344E1,2.7613081E1,1.0417929E1,1.029581E1,3.703053E1,3.3791956E2,5.7373146E1,1.4825423E1,1.8473776E1],"tree_param":{"num_deleted":"0","num_feature":"46","num_nodes":"21","size_leaf_vector":"1"}},{"base_weights":[-3.2813374E-2,-9.930112E-2,4.5923465E-1,-8.549061E-1,-5.6793794E-2,9.223607E-1,1.5728374E-1,-2.2631334E-2,-6.264544E-2,3.833377E-2,-3.0864182E-1,6.6053495E-2,1.5105656E-2,-1.8151036E-2,4.7608522E-1,-1.8985815E-2,7.7694403E-3,-4.085159E-2,-7.813732E-3,-6.3298717E-3,5.2939434E-2],"categories":[],"categories_nodes":[],"categories_segments":[],"categories_sizes":[],"default_left":[0,0,0,0,0,0,0,0,0,0,0,0,0,0,0,0,0,0,0,0,0],"id":12,"left_children":[1,3,5,7,9,11,13,-1,-1,15,17,-1,-1,-1,19,-1,-1,-1,-1,-1,-1],"loss_changes":[1.8146156E1,1.5633028E1,9.089987E0,3.584875E0,1.1111558E1,5.995552E0,7.003758E0,0E0,0E0,1.6558573E1,9.720153E0,0E0,0E0,0E0,9.253629E0,0E0,0E0,0E0,0E0,0E0,0E0],"parents":[2147483647,0,0,1,1,2,2,3,3,4,4,5,5,6,6,9,9,10,10,14,14],"right_children":[2,4,6,8,10,12,14,-1,-1,16,18,-1,-1,-1,20,-1,-1,-1,-1,-1,-1],"split_conditions":[9.6216945E4,-9.1299286E2,9.820311E4,6.5337188E4,5.0186723E-1,9.794094E4,4.9002615E-1,-2.2631334E-2,-6.264544E-2,-1.1006156E3,5.8828616E-1,6.6053495E-2,1.5105656E-2,-1.8151036E-2,5.7233E-4,-1.8985815E-2,7.7694403E-3,-4.085159E-2,-7.813732E-3,-6.3298717E-3,5.2939434E-2],"split_indices":[21,23,20,19,10,21,10,0,0,13,32,0,0,0,2,0,0,0,0,0,0],"split_type":[0,0,0,0,0,0,0,0,0,0,0,0,0,0,0,0,0,0,0,0,0],"sum_hessian":[5.522772E2,4.8723764E2,6.503956E1,2.4932293E1,4.6230536E2,2.485808E1,4.0181477E1,1.34624405E1,1.1469853E1,3.361741E2,1.2613126E2,1.444354E1,1.0414539E1,1.5213449E1,2.4968029E1,7.304772E1,2.6312637E2,2.8079302E1,9.8051956E1,1.2658376E1,1.2309653E1],"tree_param":{"num_deleted":"0","num_feature":"46","num_nodes":"21","size_leaf_vector":"1"}},{"base_weights":[1.4446103E-2,7.7594256E-1,-1.9631283E-2,5.618879E-2,1.6977957E-2,-4.9812187E-2,3.8619217E-2,5.066688E-3,-4.624316E-1,-1.1372091E-2,8.21257E-3,3.7048333E-3,-3.991832E-2],"categories":[],"categories_nodes":[],"categories_segments":[],"categories_sizes":[],"default_left":[0,0,0,0,0,0,0,0,0,0,0,0,0],"id":13,"left_children":[1,3,5,-1,-1,7,-1,9,11,-1,-1,-1,-1],"loss_changes":[1.4617052E1,3.280612E0,1.2936162E1,0E0,0E0,1.17931385E1,0E0,1.7083725E1,1.107805E1,0E0,0E0,0E0,0E0],"parents":[2147483647,0,0,1,1,2,2,5,5,7,7,8,8],"right_children":[2,4,6,-1,-1,8,-1,10,12,-1,-1,-1,-1],"split_conditions":[7.526435E-2,-2.6757372E1,1.045279E5,5.618879E-2,1.6977957E-2,4.3688377E1,3.8619217E-2,7.7914315E-1,3.8603316E4,-1.1372091E-2,8.21257E-3,3.7048333E-3,-3.991832E-2],"split_indices":[36,23,30,0,0,33,0,36,21,0,0,0,0],"split_type":[0,0,0,0,0,0,0,0,0,0,0,0,0],"sum_hessian":[5.6169464E2,2.3126982E1,5.385677E2,1.1992656E1,1.1134326E1,5.197008E2,1.8866848E1,4.5956573E2,6.0135075E1,1.8659395E2,2.729718E2,2.3454632E1,3.6680443E1],"tree_param":{"num_deleted":"0","num_feature":"46","num_nodes":"13","size_leaf_vector":"1"}},{"base_weights":[3.312353E-2,-3.4889564E-2,4.5161858E-1,2.4185467E-3,-8.09233E-1,6.230696E-2,3.0880815E-1,-2.3386502E-1,1.5545826E-1,-6.1577827E-2,-1.4727143E-2,4.3465342E-2,6.454905E-2,-2.3459816E-2,8.681224E-3,-7.751727E-3,1.5425767E-2,-3.307894E-2,4.4112694E-2],"categories":[],"categories_nodes":[],"categories_segments":[],"categories_sizes":[],"default_left":[0,0,0,0,0,0,0,0,0,0,0,0,0,0,0,0,0,0,0],"id":14,"left_children":[1,3,5,7,9,-1,11,13,15,-1,-1,-1,17,-1,-1,-1,-1,-1,-1],"loss_changes":[1.5995729E1,1.39805765E1,8.52887E0,1.6765203E1,4.4724073E0,0E0,9.242434E0,1.7558622E1,1.341947E1,0E0,0E0,0E0,2.9312283E1,0E0,0E0,0E0,0E0,0E0,0E0],"parents":[2147483647,0,0,1,1,2,2,3,3,4,4,6,6,7,7,8,8,12,12],"right_children":[2,4,6,8,10,-1,12,14,16,-1,-1,-1,18,-1,-1,-1,-1,-1,-1],"split_conditions":[9.598236E4,1.4449814E-1,9.594799E4,7.7914315E-1,-7.84039E2,6.230696E-2,5.3095305E-1,3.5871E-1,1.5003E-4,-6.1577827E-2,-1.4727143E-2,4.3465342E-2,6.4722285E-2,-2.3459816E-2,8.681224E-3,-7.751727E-3,1.5425767E-2,-3.307894E-2,4.4112694E-2],"split_indices":[21,31,30,36,12,0,36,3,1,0,0,0,31,0,0,0,0,0,0],"split_type":[0,0,0,0,0,0,0,0,0,0,0,0,0,0,0,0,0,0,0],"sum_hessian":[5.604269E2,4.8286856E2,7.755834E1,4.6162424E2,2.1244324E1,1.0639582E1,6.6918755E1,1.81253E2,2.8037125E2,1.0904193E1,1.0340132E1,1.953441E1,4.7384346E1,1.148018E2,6.64512E1,9.257003E1,1.8780121E2,2.5198673E1,2.2185675E1],"tree_param":{"num_deleted":"0","num_feature":"46","num_nodes":"19","size_leaf_vector":"1"}},{"base_weights":[-1.0344804E-3,6.027275E-2,-3.472385E-1,6.3182515E-1,-2.6526926E-3,-6.883712E-2,-1.5315165E-1,6.56021E-4,8.6129063E-1,-1.7163338E-1,1.7961568E-1,-3.4403625E-1,2.0804586E-2,1.4567273E-2,5.888E-2,-1.649065E-2,1.6577972E-2,5.443999E-2,5.8361264E-3,4.656102E-3,-4.4598006E-2],"categories":[],"categories_nodes":[],"categories_segments":[],"categories_sizes":[],"default_left":[0,0,0,0,0,0,0,0,0,0,0,0,0,0,0,0,0,0,0,0,0],"id":15,"left_children":[1,3,5,7,9,-1,11,-1,13,15,17,19,-1,-1,-1,-1,-1,-1,-1,-1,-1],"loss_changes":[1.1900105E1,1.7133156E1,1.6643066E1,6.696213E0,1.3277514E1,0E0,7.9768844E0,0E0,5.867195E0,1.7914017E1,1.173225E1,1.3146311E1,0E0,0E0,0E0,0E0,0E0,0E0,0E0,0E0,0E0],"parents":[2147483647,0,0,1,1,2,2,3,3,4,4,6,6,8,8,9,9,10,10,11,11],"right_children":[2,4,6,8,10,-1,12,-1,14,16,18,20,-1,-1,-1,-1,-1,-1,-1,-1,-1],"split_conditions":[5.048913E-1,6.617239E3,9.354336E3,-3.402564E2,6.360616E4,-6.883712E-2,8.7548267E2,6.56021E-4,4.826537E3,6.13536E1,6.452427E4,1.8086157E2,2.0804586E-2,1.4567273E-2,5.888E-2,-1.649065E-2,1.6577972E-2,5.443999E-2,5.8361264E-3,4.656102E-3,-4.4598006E-2],"split_indices":[10,7,6,13,20,0,24,0,7,37,20,24,0,0,0,0,0,0,0,0,0],"split_type":[0,0,0,0,0,0,0,0,0,0,0,0,0,0,0,0,0,0,0,0,0],"sum_hessian":[5.586834E2,4.7533505E2,8.334837E1,4.624554E1,4.290895E2,1.2254238E1,7.109414E1,1.2797361E1,3.3448177E1,2.2269122E2,2.063983E2,5.3537132E1,1.7557005E1,1.2623493E1,2.0824684E1,1.696926E2,5.2998627E1,1.2298541E1,1.9409976E2,3.0240194E1,2.329694E1],"tree_param":{"num_deleted":"0","num_feature":"46","num_nodes":"21","size_leaf_vector":"1"}},{"base_weights":[1.4546274E-2,-8.311333E-2,3.3982047E-1,-1.9493887E-2,-7.3826134E-1,5.909006E-1,1.2091693E-2,-6.826966E-2,7.6752864E-2,-6.983739E-2,-2.7514076E-1,7.7720064E-1,-4.7810846E-3,-2.0234972E-2,2.4501838E-1,-2.0562222E-2,1.8284653E-3,-6.0683098E-2,3.2487992E-2,1.6528463E-2,4.9863096E-2,-4.2016488E-3,4.573154E-2],"categories":[],"categories_nodes":[],"categories_segments":[],"categories_sizes":[],"default_left":[0,0,0,0,0,0,0,0,0,0,0,0,0,0,0,0,0,0,0,0,0,0,0],"id":16,"left_children":[1,3,5,7,9,11,13,15,-1,-1,17,19,-1,-1,21,-1,-1,-1,-1,-1,-1,-1,-1],"loss_changes":[1.7488237E1,1.763829E1,1.0452593E1,2.9453955E1,1.1039469E1,9.277008E0,5.5514107E0,1.3543887E1,0E0,0E0,2.0959911E1,5.2435913E0,0E0,0E0,8.152249E0,0E0,0E0,0E0,0E0,0E0,0E0,0E0,0E0],"parents":[2147483647,0,0,1,1,2,2,3,3,4,4,5,5,6,6,7,7,10,10,11,11,14,14],"right_children":[2,4,6,8,10,12,14,16,-1,-1,18,20,-1,-1,22,-1,-1,-1,-1,-1,-1,-1,-1],"split_conditions":[8.6791586E4,6.969067E4,8.660726E-1,6.996536E4,4.4825E-4,5.032181E-1,4.736E-5,4.9187317E-1,7.6752864E-2,-6.983739E-2,7.934267E4,-3.1473477E2,-4.7810846E-3,-2.0234972E-2,1.1992969E2,-2.0562222E-2,1.8284653E-3,-6.0683098E-2,3.2487992E-2,1.6528463E-2,4.9863096E-2,-4.2016488E-3,4.573154E-2],"split_indices":[21,20,32,19,2,10,0,10,0,0,21,23,0,0,25,0,0,0,0,0,0,0,0],"split_type":[0,0,0,0,0,0,0,0,0,0,0,0,0,0,0,0,0,0,0,0,0,0,0],"sum_hessian":[5.486415E2,4.225273E2,1.2611417E2,3.8606726E2,3.6460064E1,7.0952736E1,5.5161438E1,3.7524948E2,1.0817786E1,1.4222252E1,2.2237812E1,5.5704296E1,1.5248438E1,1.9511236E1,3.56502E1,8.716651E1,2.8808295E2,1.088267E1,1.1355142E1,1.9212732E1,3.649156E1,2.4490122E1,1.1160079E1],"tree_param":{"num_deleted":"0","num_feature":"46","num_nodes":"23","size_leaf_vector":"1"}},{"base_weights":[1.0997317E-2,8.581387E-2,-3.4767807E-1,2.8848846E-3,5.2306247E-1,-5.1353384E-2,-2.2532113E-1,-5.0540996E-1,8.3274245E-2,3.230086E-1,6.0343057E-2,-5.303286E-1,7.9558685E-2,-3.7083924E-2,1.5620837E-2,-7.321139E-3,1.33954575E-2,-1.2285593E-2,3.0164717E-2,-4.4968203E-2,-1.807026E-3,2.2563394E-2,-3.6002547E-2],"categories":[],"categories_nodes":[],"categories_segments":[],"categories_sizes":[],"default_left":[0,0,0,0,0,0,0,0,0,0,0,0,0,0,0,0,0,0,0,0,0,0,0],"id":17,"left_children":[1,3,5,7,9,-1,11,13,15,17,-1,19,21,-1,-1,-1,-1,-1,-1,-1,-1,-1,-1],"loss_changes":[1.4831435E1,1.6576303E1,7.6986256E0,1.5786209E1,9.58004E0,0E0,7.6783957E0,1.0425921E1,1.4184974E1,9.353883E0,0E0,7.4777718E0,1.2789588E1,0E0,0E0,0E0,0E0,0E0,0E0,0E0,0E0,0E0,0E0],"parents":[2147483647,0,0,1,1,2,2,3,3,4,4,6,6,7,7,8,8,9,9,11,11,12,12],"right_children":[2,4,6,8,10,-1,12,14,16,18,-1,20,22,-1,-1,-1,-1,-1,-1,-1,-1,-1,-1],"split_conditions":[2.2740872E0,5.0474194E2,2.9423655E1,5.206E-5,3.801527E1,-5.1353384E-2,6.5181855E4,1E0,1E0,1.3041624E0,6.0343057E-2,3.5602417E0,4.668513E1,-3.7083924E-2,1.5620837E-2,-7.321139E-3,1.33954575E-2,-1.2285593E-2,3.0164717E-2,-4.4968203E-2,-1.807026E-3,2.2563394E-2,-3.6002547E-2],"split_indices":[36,24,33,1,33,0,28,44,38,27,0,36,33,0,0,0,0,0,0,0,0,0,0],"split_type":[0,0,0,0,0,0,0,0,0,0,0,0,0,0,0,0,0,0,0,0,0,0,0],"sum_hessian":[5.505811E2,4.5618552E2,9.439557E1,3.8430453E2,7.1880974E1,1.3277564E1,8.111801E1,5.1757763E1,3.3254678E2,5.6750328E1,1.5130645E1,4.0180862E1,4.0937145E1,4.022884E1,1.1528922E1,1.4828197E2,1.8426482E2,1.877593E1,3.7974396E1,2.2533821E1,1.764704E1,2.8243444E1,1.2693702E1],"tree_param":{"num_deleted":"0","num_feature":"46","num_nodes":"23","size_leaf_vector":"1"}},{"base_weights":[-7.286365E-3,-6.54965E-2,3.8652003E-1,-3.4310084E-2,-6.7624974E-1,5.352172E-2,2.0894475E-1,-9.417079E-2,3.3649102E-1,-5.566002E-2,-4.6701953E-3,4.084832E-2,-4.004796E-2,-1.3844113E-2,3.4240992E-3,-1.5997505E-2,2.7917815E-2,-3.7185144E-2,3.4493774E-2],"categories":[],"categories_nodes":[],"categories_segments":[],"categories_sizes":[],"default_left":[0,0,0,0,0,0,0,0,0,0,0,0,0,0,0,0,0,0,0],"id":18,"left_children":[1,3,5,7,9,-1,11,13,15,-1,-1,-1,17,-1,-1,-1,-1,-1,-1],"loss_changes":[1.2838797E1,9.268758E0,8.536005E0,1.0357283E1,5.918194E0,0E0,8.889662E0,1.19453945E1,9.627718E0,0E0,0E0,0E0,2.2320665E1,0E0,0E0,0E0,0E0,0E0,0E0],"parents":[2147483647,0,0,1,1,2,2,3,3,4,4,6,6,7,7,8,8,12,12],"right_children":[2,4,6,8,10,-1,12,14,16,-1,-1,-1,18,-1,-1,-1,-1,-1,-1],"split_conditions":[9.598236E4,1.4449814E-1,4.4358718E-1,1.1054661E0,6.25072E1,5.352172E-2,5.443823E-1,6.098753E4,4.482214E1,-5.566002E-2,-4.6701953E-3,4.084832E-2,6.2623434E-2,-1.3844113E-2,3.4240992E-3,-1.5997505E-2,2.7917815E-2,-3.7185144E-2,3.4493774E-2],"split_indices":[21,31,32,3,13,0,36,21,22,0,0,0,31,0,0,0,0,0,0],"split_type":[0,0,0,0,0,0,0,0,0,0,0,0,0,0,0,0,0,0,0],"sum_hessian":[5.579665E2,4.8683856E2,7.1127914E1,4.6419205E2,2.2646502E1,1.362489E1,5.750302E1,4.0031308E2,6.387897E1,1.2423128E1,1.0223372E1,1.604391E1,4.1459114E1,1.8820073E2,2.1211235E2,1.6024525E1,4.7854446E1,2.1099789E1,2.0359325E1],"tree_param":{"num_deleted":"0","num_feature":"46","num_nodes":"19","size_leaf_vector":"1"}},{"base_weights":[3.0168729E-2,-2.7056682E-1,9.198589E-2,-5.2003186E-2,-8.139877E-2,3.5512573E-1,-2.7584147E-2,-5.703927E-1,1.115153E-1,-3.3247273E-2,4.3824002E-1,-5.9458405E-1,3.1173112E-2,5.569318E-4,-5.4823216E-2,-6.6736513E-3,3.2684226E-2,2.5506547E-2,-2.0256728E-2,-4.7291756E-2,-1.8707645E-4,-4.0195774E-2,3.3888742E-3],"categories":[],"categories_nodes":[],"categories_segments":[],"categories_sizes":[],"default_left":[0,0,0,0,0,0,0,0,0,0,0,0,0,0,0,0,0,0,0,0,0,0,0],"id":19,"left_children":[1,3,5,-1,7,9,11,13,15,-1,17,19,21,-1,-1,-1,-1,-1,-1,-1,-1,-1,-1],"loss_changes":[1.0332884E1,1.3713997E1,1.4504426E1,0E0,7.343723E0,1.2500248E1,1.0602052E1,6.7414804E0,7.549054E0,0E0,8.316399E0,6.1973686E0,8.882427E0,0E0,0E0,0E0,0E0,0E0,0E0,0E0,0E0,0E0,0E0],"parents":[2147483647,0,0,1,1,2,2,4,4,5,5,6,6,7,7,8,8,10,10,11,11,12,12],"right_children":[2,4,6,-1,8,10,12,14,16,-1,18,20,22,-1,-1,-1,-1,-1,-1,-1,-1,-1,-1],"split_conditions":[1.723764E1,-6.743957E-1,1.1983241E4,-5.2003186E-2,1E0,2.1596973E2,1.3643757E4,2.9845485E-1,4.214561E-2,-3.3247273E-2,4.507688E1,3.352778E2,-4.7620258E2,5.569318E-4,-5.4823216E-2,-6.6736513E-3,3.2684226E-2,2.5506547E-2,-2.0256728E-2,-4.7291756E-2,-1.8707645E-4,-4.0195774E-2,3.3888742E-3],"split_indices":[33,3,7,0,38,26,7,3,31,0,33,23,25,0,0,0,0,0,0,0,0,0,0],"split_type":[0,0,0,0,0,0,0,0,0,0,0,0,0,0,0,0,0,0,0,0,0,0,0],"sum_hessian":[5.53473E2,9.3794304E1,4.5967868E2,1.7620329E1,7.617397E1,1.430019E2,3.166768E2,2.0996311E1,5.517766E1,1.0246396E1,1.3275552E2,2.8878984E1,2.877978E2,1.0437401E1,1.0558911E1,3.8523834E1,1.665383E1,1.2269213E2,1.0063386E1,1.7734905E1,1.1144079E1,1.1205031E1,2.7659277E2],"tree_param":{"num_deleted":"0","num_feature":"46","num_nodes":"23","size_leaf_vector":"1"}},{"base_weights":[-2.3395328E-2,-7.937386E-2,3.659291E-1,4.1351255E-2,-1.0251688E-1,4.5045763E-2,1.43819E-1,-5.680379E-1,-3.569736E-2,-2.5677932E-2,4.4373438E-1,3.178906E-4,-4.526979E-2,1.6517859E-3,-2.4066862E-2,3.8973435E-3,4.7053672E-2],"categories":[],"categories_nodes":[],"categories_segments":[],"categories_sizes":[],"default_left":[0,0,0,0,0,0,0,0,0,0,0,0,0,0,0,0,0],"id":20,"left_children":[1,3,5,-1,7,-1,9,11,13,-1,15,-1,-1,-1,-1,-1,-1],"loss_changes":[1.22498865E1,1.0386057E1,8.267768E0,0E0,1.49025345E1,0E0,1.0307949E1,1.1661503E1,1.2898716E1,0E0,6.4113026E0,0E0,0E0,0E0,0E0,0E0,0E0],"parents":[2147483647,0,0,1,1,2,2,4,4,6,6,7,7,8,8,10,10],"right_children":[2,4,6,-1,8,-1,10,12,14,-1,16,-1,-1,-1,-1,-1,-1],"split_conditions":[9.598236E4,2.6363016E4,9.442495E4,4.1351255E-2,1.6504972E1,4.5045763E-2,-1.8584471E2,-6.38917E2,4.3141514E1,-2.5677932E-2,2.2961E-4,3.178906E-4,-4.526979E-2,1.6517859E-3,-2.4066862E-2,3.8973435E-3,4.7053672E-2],"split_indices":[21,28,29,0,33,0,24,8,33,0,1,0,0,0,0,0,0],"split_type":[0,0,0,0,0,0,0,0,0,0,0,0,0,0,0,0,0],"sum_hessian":[5.5974835E2,4.9007907E2,6.966929E1,1.1336798E1,4.7874225E2,1.9542358E1,5.0126926E1,5.9150314E1,4.1959195E2,1.5481355E1,3.4645573E1,2.224924E1,3.6901073E1,3.6432614E2,5.5265816E1,2.0629517E1,1.4016058E1],"tree_param":{"num_deleted":"0","num_feature":"46","num_nodes":"17","size_leaf_vector":"1"}},{"base_weights":[-2.400908E-2,-8.581721E-2,4.8982266E-1,-1.2369845E-1,3.6887547E-1,6.946753E-1,2.0722144E-3,-9.785763E-2,-3.9246887E-2,7.519238E-1,-1.543118E-2,5.024455E-3,1.0415605E0,-1.0237369E-2,3.6985655E-3,2.1829506E-2,4.7803015E-2,6.1956733E-2,3.4215223E-2],"categories":[],"categories_nodes":[],"categories_segments":[],"categories_sizes":[],"default_left":[0,0,0,0,0,0,0,0,0,0,0,0,0,0,0,0,0,0,0],"id":21,"left_children":[1,3,5,7,9,11,-1,13,-1,15,-1,-1,17,-1,-1,-1,-1,-1,-1],"loss_changes":[1.757918E1,8.550223E0,5.430848E0,7.7239304E0,1.0151547E1,8.291639E0,0E0,8.105778E0,0E0,1.1731234E0,0E0,0E0,9.5998573E-1,0E0,0E0,0E0,0E0,0E0,0E0],"parents":[2147483647,0,0,1,1,2,2,3,3,4,4,5,5,7,7,9,9,12,12],"right_children":[2,4,6,8,10,12,-1,14,-1,16,-1,-1,18,-1,-1,-1,-1,-1,-1],"split_conditions":[9.628881E4,1.4418612E0,1.5544123E4,4.0333505E2,3.9461374E2,1E0,2.0722144E-3,9.4494775E2,-3.9246887E-2,4.8047913E1,-1.543118E-2,5.024455E-3,1.0090127E5,-1.0237369E-2,3.6985655E-3,2.1829506E-2,4.7803015E-2,6.1956733E-2,3.4215223E-2],"split_indices":[21,3,6,37,23,38,0,26,0,22,0,0,29,0,0,0,0,0,0],"split_type":[0,0,0,0,0,0,0,0,0,0,0,0,0,0,0,0,0,0,0],"sum_hessian":[5.5119476E2,4.9275494E2,5.8439846E1,4.5553174E2,3.722319E1,3.9736122E1,1.8703726E1,4.3950418E2,1.602756E1,2.370875E1,1.35144415E1,1.5122389E1,2.4613731E1,2.7083444E2,1.6866975E2,1.0550264E1,1.3158485E1,1.4259367E1,1.0354365E1],"tree_param":{"num_deleted":"0","num_feature":"46","num_nodes":"19","size_leaf_vector":"1"}},{"base_weights":[8.935775E-3,6.302262E-1,-2.6212143E-2,5.6110483E-2,4.350809E-3,-4.9161565E-2,5.1083036E-2,-4.471353E-1,9.064125E-3,-5.2542605E-2,-7.5923353E-3,-2.0431805E-2,4.341886E-3],"categories":[],"categories_nodes":[],"categories_segments":[],"categories_sizes":[],"default_left":[0,0,0,0,0,0,0,0,0,0,0,0,0],"id":22,"left_children":[1,3,5,-1,-1,7,-1,9,11,-1,-1,-1,-1],"loss_changes":[1.2064874E1,7.808116E0,1.2631143E1,0E0,0E0,1.1889096E1,0E0,1.1513991E1,1.4602769E1,0E0,0E0,0E0,0E0],"parents":[2147483647,0,0,1,1,2,2,5,5,7,7,8,8],"right_children":[2,4,6,-1,-1,8,-1,10,12,-1,-1,-1,-1],"split_conditions":[1.0133555E-1,1.2152643E0,1.05335664E5,5.6110483E-2,4.350809E-3,1.6504972E1,5.1083036E-2,4.0476194E-1,-1.2606062E3,-5.2542605E-2,-7.5923353E-3,-2.0431805E-2,4.341886E-3],"split_indices":[36,27,19,0,0,33,0,36,13,0,0,0,0],"split_type":[0,0,0,0,0,0,0,0,0,0,0,0,0],"sum_hessian":[5.507387E2,2.8581877E1,5.2215686E2,1.443881E1,1.4143066E1,5.1189883E2,1.0257992E1,6.448222E1,4.4741663E2,2.0339481E1,4.4142746E1,6.956237E1,3.7785425E2],"tree_param":{"num_deleted":"0","num_feature":"46","num_nodes":"13","size_leaf_vector":"1"}},{"base_weights":[-2.3630168E-3,1.7982706E-2,-4.894778E-2,6.784024E-2,-3.4756815E-1,1.0678529E-2,5.3409714E-1,-7.011601E-2,-1.1702273E-1,-2.1207158E-3,3.192271E-2,-1.7677834E-2,4.2013444E-2,2.9180754E-2,-1.8699845E-2],"categories":[],"categories_nodes":[],"categories_segments":[],"categories_sizes":[],"default_left":[0,0,0,0,0,0,0,0,0,0,0,0,0,0,0],"id":23,"left_children":[1,3,-1,5,7,9,11,-1,13,-1,-1,-1,-1,-1,-1],"loss_changes":[1.1061546E1,9.964893E0,0E0,1.2809476E1,1.5795044E1,1.4337225E1,1.4562683E1,0E0,1.0111601E1,0E0,0E0,0E0,0E0,0E0,0E0],"parents":[2147483647,0,0,1,1,3,3,4,4,5,5,6,6,8,8],"right_children":[2,4,-1,6,8,10,12,-1,14,-1,-1,-1,-1,-1,-1],"split_conditions":[5.1305735E-1,2.7531831E0,-4.894778E-2,3.8791E-4,-1.3746556E3,8.2657666E2,-1.3163727E2,-7.011601E-2,4.3667527E4,-2.1207158E-3,3.192271E-2,-1.7677834E-2,4.2013444E-2,2.9180754E-2,-1.8699845E-2],"split_indices":[10,36,0,1,13,24,25,0,19,0,0,0,0,0,0],"split_type":[0,0,0,0,0,0,0,0,0,0,0,0,0,0,0],"sum_hessian":[5.5482434E2,5.444629E2,1.0361415E1,4.7983286E2,6.463006E1,4.2834225E2,5.1490585E1,1.0681098E1,5.394896E1,3.9580066E2,3.2541595E1,1.3165723E1,3.8324863E1,1.4136048E1,3.9812912E1],"tree_param":{"num_deleted":"0","num_feature":"46","num_nodes":"15","size_leaf_vector":"1"}},{"base_weights":[2.951488E-2,-2.894213E-1,7.837368E-2,1.4561102E-3,-7.1863294E-1,4.51852E-1,3.5882752E-2,-2.4952942E-1,3.6971446E-2,-5.617982E-2,-1.8528117E-2,7.191322E-1,-3.199794E-3,8.1591815E-2,-3.7724802E-1,-3.650413E-2,1.8429607E-2,1.1389109E-2,5.8628477E-2,-1.05629726E-4,2.155283E-2,6.69963E-3,-4.836263E-2],"categories":[],"categories_nodes":[],"categories_segments":[],"categories_sizes":[],"default_left":[0,0,0,0,0,0,0,0,0,0,0,0,0,0,0,0,0,0,0,0,0,0,0],"id":24,"left_children":[1,3,5,7,9,11,13,15,-1,-1,-1,17,-1,19,21,-1,-1,-1,-1,-1,-1,-1,-1],"loss_changes":[8.730087E0,9.295107E0,7.6858387E0,8.587966E0,3.822609E0,6.8695936E0,8.280139E0,1.05476885E1,0E0,0E0,0E0,7.0141945E0,0E0,1.1530539E1,1.3309843E1,0E0,0E0,0E0,0E0,0E0,0E0,0E0,0E0],"parents":[2147483647,0,0,1,1,2,2,3,3,4,4,5,5,6,6,7,7,11,11,13,13,14,14],"right_children":[2,4,6,8,10,12,14,16,-1,-1,-1,18,-1,20,22,-1,-1,-1,-1,-1,-1,-1,-1],"split_conditions":[-1.3746556E3,3.998197E1,-1.2252749E0,-3.2674518E0,1.398596E0,3.827787E1,4.4116722E1,1E0,3.6971446E-2,-5.617982E-2,-1.8528117E-2,6.65245E4,-3.199794E-3,6.3328114E1,7.781662E2,-3.650413E-2,1.8429607E-2,1.1389109E-2,5.8628477E-2,-1.05629726E-4,2.155283E-2,6.69963E-3,-4.836263E-2],"split_indices":[13,22,11,24,27,25,33,44,0,0,0,20,0,22,26,0,0,0,0,0,0,0,0],"split_type":[0,0,0,0,0,0,0,0,0,0,0,0,0,0,0,0,0,0,0,0,0,0,0],"sum_hessian":[5.577817E2,7.344303E1,4.8433865E2,4.437001E1,2.907302E1,4.849069E1,4.3584796E2,3.3603344E1,1.0766668E1,1.2408385E1,1.6664637E1,3.1681324E1,1.6809364E1,3.931519E2,4.269608E1,1.8803555E1,1.4799789E1,1.5926032E1,1.5755292E1,3.179822E2,7.51697E1,2.3288996E1,1.9407084E1],"tree_param":{"num_deleted":"0","num_feature":"46","num_nodes":"23","size_leaf_vector":"1"}},{"base_weights":[2.3871113E-2,6.175612E-1,-1.14693595E-2,5.842004E-2,1.461416E-3,-3.6236506E-2,1.00428695E-2,5.6274205E-2,-3.055893E-1,2.5535442E-4,2.4942294E-2,-4.8962396E-2,-4.520916E-3],"categories":[],"categories_nodes":[],"categories_segments":[],"categories_sizes":[],"default_left":[0,0,0,0,0,0,0,0,0,0,0,0,0],"id":25,"left_children":[1,3,5,-1,-1,-1,7,9,11,-1,-1,-1,-1],"loss_changes":[1.1781042E1,1.0189131E1,8.149002E0,0E0,0E0,0E0,7.547741E0,1.020999E1,9.49105E0,0E0,0E0,0E0,0E0],"parents":[2147483647,0,0,1,1,2,2,6,6,7,7,8,8],"right_children":[2,4,6,-1,-1,-1,8,10,12,-1,-1,-1,-1],"split_conditions":[1.0133555E-1,1.2113675E0,2.6724459E4,5.842004E-2,1.461416E-3,-3.6236506E-2,2.7531831E0,3.8791E-4,-1.5394113E2,2.5535442E-4,2.4942294E-2,-4.8962396E-2,-4.520916E-3],"split_indices":[36,27,21,0,0,0,36,1,25,0,0,0,0],"split_type":[0,0,0,0,0,0,0,0,0,0,0,0,0],"sum_hessian":[5.601647E2,3.0545834E1,5.2961884E2,1.5266391E1,1.5279443E1,1.45487995E1,5.1507007E2,4.4998193E2,6.5088135E1,4.0425613E2,4.5725796E1,1.4897119E1,5.0191017E1],"tree_param":{"num_deleted":"0","num_feature":"46","num_nodes":"13","size_leaf_vector":"1"}},{"base_weights":[5.89982E-3,-2.9600205E-2,4.5784652E-1,3.853081E-1,-6.9805495E-2,8.9301765E-1,-5.6293327E-3,-4.713344E-3,6.991028E-1,-1.4989004E-1,1.6734011E-1,6.0478147E-2,2.6908724E-2,5.563227E-2,4.6724738E-3,-4.8684604E-3,-3.6787223E-2,2.0535326E-2,-7.7449842E-3],"categories":[],"categories_nodes":[],"categories_segments":[],"categories_sizes":[],"default_left":[0,0,0,0,0,0,0,0,0,0,0,0,0,0,0,0,0,0,0],"id":26,"left_children":[1,3,5,7,9,11,-1,-1,13,15,17,-1,-1,-1,-1,-1,-1,-1,-1],"loss_changes":[8.788843E0,8.501992E0,1.0003696E1,6.8432007E0,8.837572E0,1.9035206E0,0E0,0E0,6.744138E0,1.0617844E1,9.287147E0,0E0,0E0,0E0,0E0,0E0,0E0,0E0,0E0],"parents":[2147483647,0,0,1,1,2,2,3,3,4,4,5,5,8,8,9,9,10,10],"right_children":[2,4,6,8,10,12,-1,-1,14,16,18,-1,-1,-1,-1,-1,-1,-1,-1],"split_conditions":[1.4418612E0,6.357853E3,5.7418555E-2,6.65288E4,5.336372E2,-2.0191675E-1,-5.6293327E-3,-4.713344E-3,4.912353E1,3.6615997E2,1.7859121E4,6.0478147E-2,2.6908724E-2,5.563227E-2,4.6724738E-3,-4.8684604E-3,-3.6787223E-2,2.0535326E-2,-7.7449842E-3],"split_indices":[3,7,31,21,23,11,0,0,22,23,7,0,0,0,0,0,0,0,0],"split_type":[0,0,0,0,0,0,0,0,0,0,0,0,0,0,0,0,0,0,0],"sum_hessian":[5.459475E2,5.070534E2,3.8894104E1,4.403544E1,4.6301797E2,2.1742054E1,1.715205E1,1.7693665E1,2.6341772E1,3.4640442E2,1.1661354E2,1.0218079E1,1.1523974E1,1.5156057E1,1.1185716E1,3.1897507E2,2.7429363E1,6.62812E1,5.0332336E1],"tree_param":{"num_deleted":"0","num_feature":"46","num_nodes":"19","size_leaf_vector":"1"}},{"base_weights":[-2.2249242E-2,9.870221E-2,-2.2567447E-1,-2.2827363E-1,1.9368164E-1,-4.891965E-2,-1.7894363E-1,-6.738049E-1,1.7564283E-1,-4.4965085E-1,2.5612974E-1,5.2792948E-2,-2.5208983E-1,-5.854034E-2,-1.3180125E-2,2.3549935E-2,-3.5014372E-2,-4.7597155E-2,1.1863544E-2,2.5992468E-2,6.24607E-3,-2.5404284E-2,-4.368869E-3],"categories":[],"categories_nodes":[],"categories_segments":[],"categories_sizes":[],"default_left":[0,0,0,0,0,0,0,0,0,0,0,0,0,0,0,0,0,0,0,0,0,0,0],"id":27,"left_children":[1,3,5,7,9,-1,11,13,15,17,19,-1,21,-1,-1,-1,-1,-1,-1,-1,-1,-1,-1],"loss_changes":[1.3849128E1,1.101062E1,7.2062654E0,1.4504773E1,1.1130078E1,0E0,1.8222267E1,7.4833946E0,1.1382803E1,8.721353E0,8.604712E0,0E0,7.90351E0,0E0,0E0,0E0,0E0,0E0,0E0,0E0,0E0,0E0,0E0],"parents":[2147483647,0,0,1,1,2,2,3,3,4,4,6,6,7,7,8,8,9,9,10,10,12,12],"right_children":[2,4,6,8,10,-1,12,14,16,18,20,-1,22,-1,-1,-1,-1,-1,-1,-1,-1,-1,-1],"split_conditions":[4.9936354E-1,-1.2409514E3,2.6827176E4,6.5675706E-2,1.4297387E1,-4.891965E-2,2.5711291E4,1.0636495E0,1.2443898E-1,5.0325127E1,1.0241053E4,5.2792948E-2,5.8858097E1,-5.854034E-2,-1.3180125E-2,2.3549935E-2,-3.5014372E-2,-4.7597155E-2,1.1863544E-2,2.5992468E-2,6.24607E-3,-2.5404284E-2,-4.368869E-3],"split_indices":[10,13,21,31,33,0,29,32,31,22,6,0,37,0,0,0,0,0,0,0,0,0,0],"split_type":[0,0,0,0,0,0,0,0,0,0,0,0,0,0,0,0,0,0,0,0,0,0,0],"sum_hessian":[5.6096265E2,3.5211743E2,2.0884525E2,7.89435E1,2.7317395E2,1.1042416E1,1.9780283E2,3.7220287E1,4.1723206E1,2.362206E1,2.4955188E2,1.0310658E1,1.8749217E2,1.59911585E1,2.1229128E1,3.1547844E1,1.0175363E1,1.3421879E1,1.0200182E1,8.1925446E1,1.6762643E2,7.258931E1,1.14902855E2],"tree_param":{"num_deleted":"0","num_feature":"46","num_nodes":"23","size_leaf_vector":"1"}},{"base_weights":[-2.2159616E-2,4.8898283E-2,-2.5257698E-1,-6.4634717E-1,9.271029E-2,-7.9961234E-1,-1.0879169E-1,-5.697378E-2,-2.6716434E-3,3.9509838E-3,4.0163803E-1,2.1631147E-3,-7.356546E-2,-2.7061096E-1,4.0528366E-1,-9.0618115E-3,1.2813163E-2,5.6816496E-2,6.765812E-3,1.6068204E-3,-3.434583E-2,-6.4968513E-3,4.197785E-2],"categories":[],"categories_nodes":[],"categories_segments":[],"categories_sizes":[],"default_left":[0,0,0,0,0,0,0,0,0,0,0,0,0,0,0,0,0,0,0,0,0,0,0],"id":28,"left_children":[1,3,5,7,9,11,13,-1,-1,15,17,-1,-1,19,21,-1,-1,-1,-1,-1,-1,-1,-1],"loss_changes":[8.980757E0,1.28375635E1,1.0080724E1,7.24666E0,1.0842963E1,1.5207268E1,8.721276E0,0E0,0E0,1.4448713E1,1.7115597E1,0E0,0E0,1.0021206E1,5.962836E0,0E0,0E0,0E0,0E0,0E0,0E0,0E0,0E0],"parents":[2147483647,0,0,1,1,2,2,3,3,4,4,5,5,6,6,9,9,10,10,13,13,14,14],"right_children":[2,4,6,8,10,12,14,-1,-1,16,18,-1,-1,20,22,-1,-1,-1,-1,-1,-1,-1,-1],"split_conditions":[5.0258094E-1,-1.572993E0,4.82E-5,6.4950508E4,6.13536E1,-1.0049956E0,7.985588E2,-5.697378E-2,-2.6716434E-3,1.3586972E2,4.5143625E4,2.1631147E-3,-7.356546E-2,2.5847815E2,5.066134E-1,-9.0618115E-3,1.2813163E-2,5.6816496E-2,6.765812E-3,1.6068204E-3,-3.434583E-2,-6.4968513E-3,4.197785E-2],"split_indices":[10,3,1,20,37,3,24,0,0,24,19,0,0,23,10,0,0,0,0,0,0,0,0],"split_type":[0,0,0,0,0,0,0,0,0,0,0,0,0,0,0,0,0,0,0,0,0,0,0],"sum_hessian":[5.4675665E2,4.1848788E2,1.2826875E2,2.3993069E1,3.944948E2,2.5748123E1,1.0252064E2,1.2595519E1,1.139755E1,3.0723474E2,8.7260086E1,1.1833953E1,1.391417E1,7.833588E1,2.4184761E1,1.7734917E2,1.2988556E2,2.2346601E1,6.491348E1,4.58879E1,3.244797E1,1.1147189E1,1.3037573E1],"tree_param":{"num_deleted":"0","num_feature":"46","num_nodes":"23","size_leaf_vector":"1"}},{"base_weights":[9.252458E-3,-4.5879778E-1,3.8130235E-2,-4.524053E-2,-1.9395903E-3,-5.865651E-3,3.62584E-1,2.0874437E-2,-3.627176E-2,5.2636098E-2,1.705985E-1,4.586844E-3,-1.2109468E-2,-1.5450289E-2,4.0088713E-2],"categories":[],"categories_nodes":[],"categories_segments":[],"categories_sizes":[],"default_left":[0,0,0,0,0,0,0,0,0,0,0,0,0,0,0],"id":29,"left_children":[1,3,5,-1,-1,7,9,11,-1,-1,13,-1,-1,-1,-1],"loss_changes":[7.5295477E0,6.0295553E0,7.4878116E0,0E0,0E0,8.919477E0,8.11921E0,8.357913E0,0E0,0E0,1.544276E1,0E0,0E0,0E0,0E0],"parents":[2147483647,0,0,1,1,2,2,5,5,6,6,7,7,10,10],"right_children":[2,4,6,-1,-1,8,10,12,-1,-1,14,-1,-1,-1,-1],"split_conditions":[-1.6252075E0,6.299047E-2,9.598236E4,-4.524053E-2,-1.9395903E-3,9.3294336E4,9.8453E4,2.1046543E0,-3.627176E-2,5.2636098E-2,2.2961E-4,4.586844E-3,-1.2109468E-2,-1.5450289E-2,4.0088713E-2],"split_indices":[3,31,21,0,0,21,28,36,0,0,1,0,0,0,0],"split_type":[0,0,0,0,0,0,0,0,0,0,0,0,0,0,0],"sum_hessian":[5.5477936E2,3.1374516E1,5.2340485E2,1.4656357E1,1.6718159E1,4.6177072E2,6.1634132E1,4.461618E2,1.5608932E1,1.2438305E1,4.9195827E1,3.5199493E2,9.416686E1,2.8244461E1,2.0951366E1],"tree_param":{"num_deleted":"0","num_feature":"46","num_nodes":"15","size_leaf_vector":"1"}},{"base_weights":[4.9963236E-2,9.992551E-2,-3.2193696E-1,1.3069905E-1,-3.0275831E-2,-7.7142304E-1,4.544776E-2,-3.052237E-2,2.699823E-1,-7.3989205E-2,-9.296725E-3,2.688388E-2,-2.2927414E-1,1.1624169E-2,-1.687406E-2,2.5271159E-3,2.7127659E-2,-4.0895432E-2,2.0954497E-2],"categories":[],"categories_nodes":[],"categories_segments":[],"categories_sizes":[],"default_left":[0,0,0,0,0,0,0,0,0,0,0,0,0,0,0,0,0,0,0],"id":30,"left_children":[1,3,5,7,-1,9,11,13,15,-1,-1,-1,17,-1,-1,-1,-1,-1,-1],"loss_changes":[1.0460385E1,1.0836489E1,1.1050327E1,1.0688844E1,0E0,1.2190163E1,5.2144055E0,1.7948826E1,1.5241692E1,0E0,0E0,0E0,9.832175E0,0E0,0E0,0E0,0E0,0E0,0E0],"parents":[2147483647,0,0,1,1,2,2,3,3,5,5,6,6,7,7,8,8,12,12],"right_children":[2,4,6,8,-1,10,12,14,16,-1,-1,-1,18,-1,-1,-1,-1,-1,-1],"split_conditions":[2.7531831E0,4.463836E1,6.0467922E1,8.041475E-1,-3.0275831E-2,4.007934E1,-1.761608E3,6.0214E-4,7.7929E-4,-7.3989205E-2,-9.296725E-3,2.688388E-2,3.5602417E0,1.1624169E-2,-1.687406E-2,2.5271159E-3,2.7127659E-2,-4.0895432E-2,2.0954497E-2],"split_indices":[36,41,22,36,0,41,12,2,2,0,0,0,36,0,0,0,0,0,0],"split_type":[0,0,0,0,0,0,0,0,0,0,0,0,0,0,0,0,0,0,0],"sum_hessian":[5.6023065E2,4.9452576E2,6.570488E1,4.7463544E2,1.9890322E1,2.9055918E1,3.664896E1,2.2035439E2,2.5428105E2,1.24571E1,1.6598818E1,1.278479E1,2.3864172E1,1.1880422E2,1.0155016E2,1.415268E2,1.1275426E2,1.2371176E1,1.1492996E1],"tree_param":{"num_deleted":"0","num_feature":"46","num_nodes":"19","size_leaf_vector":"1"}}]},"name":"gbtree"},"learner_model_param":{"base_score":"[5E-1]","boost_from_average":"1","num_class":"0","num_feature":"46","num_target":"1"},"objective":{"name":"binary:logistic","reg_loss_param":{"scale_pos_weight":"1.75625002"}}},"version":[3,2,0]}