{"learner":{"attributes":{"best_iteration":"3","best_score":"0.6930182619260089","scikit_learn":"{\"_estimator_type\": \"classifier\"}"},"feature_names":[],"feature_types":[],"gradient_booster":{"model":{"cats":{"enc":[],"feature_segments":[],"sorted_idx":[]},"gbtree_model_param":{"num_parallel_tree":"1","num_trees":"34"},"iteration_indptr":[0,1,2,3,4,5,6,7,8,9,10,11,12,13,14,15,16,17,18,19,20,21,22,23,24,25,26,27,28,29,30,31,32,33,34],"tree_info":[0,0,0,0,0,0,0,0,0,0,0,0,0,0,0,0,0,0,0,0,0,0,0,0,0,0,0,0,0,0,0,0,0,0],"trees":[{"base_weights":[-8.777456E-3,2.9012345E-2,-5.460093E-1,5.050545E-3,5.684287E-2,-3.6065266E-3,-7.345582E-1,-1.342994E-1,1.7393225E-1,-6.1647415E-2,-1.8556135E-2,2.25266E-2,-1.0595883E-2,1.4521743E-2,-4.3194894E-2],"categories":[],"categories_nodes":[],"categories_segments":[],"categories_sizes":[],"default_left":[0,0,0,0,0,0,0,0,0,0,0,0,0,0,0],"id":0,"left_children":[1,3,5,7,-1,-1,9,11,13,-1,-1,-1,-1,-1,-1],"loss_changes":[1.189108E1,1.4526613E1,3.3862152E0,1.26575365E1,0E0,0E0,4.5103025E0,1.3473435E1,2.9649593E1,0E0,0E0,0E0,0E0,0E0,0E0],"parents":[2147483647,0,0,1,1,2,2,3,3,6,6,7,7,8,8],"right_children":[2,4,6,8,-1,-1,10,12,14,-1,-1,-1,-1,-1,-1],"split_conditions":[6.993684E1,2.2351248E1,6.529734E0,1E0,5.684287E-2,-3.6065266E-3,1.1919152E1,-1.2459632E1,4.038302E1,-6.1647415E-2,-1.8556135E-2,2.25266E-2,-1.0595883E-2,1.4521743E-2,-4.3194894E-2],"split_indices":[0,1,1,11,0,0,1,1,3,0,0,0,0,0,0],"split_type":[0,0,0,0,0,0,0,0,0,0,0,0,0,0,0],"sum_hessian":[5.8393286E2,5.464413E2,3.749161E1,5.358557E2,1.058557E1,1.1064877E1,2.6426733E1,2.937103E2,2.4214542E2,1.0135346E1,1.6291388E1,3.385067E1,2.5985962E2,2.1835403E2,2.3791388E1],"tree_param":{"num_deleted":"0","num_feature":"18","num_nodes":"15","size_leaf_vector":"1"}},{"base_weights":[9.632037E-3,1.312957E-1,-1.6788864E-1,-1.3735926E-1,3.4023762E-1,-5.3283233E-2,-9.403913E-2,-4.3577656E-1,5.5427045E-1,5.181983E-2,2.592905E-1,4.0488314E-2,-1.5229562E-1,2.5866216E-2,-2.8865207E-2,4.558532E-2,-2.5138205E-2,7.7191005E-3,3.714549E-2,-5.0067615E-2,-1.8042455E-3],"categories":[],"categories_nodes":[],"categories_segments":[],"categories_sizes":[],"default_left":[0,0,0,0,0,0,0,0,0,0,0,0,0,0,0,0,0,0,0,0,0],"id":1,"left_children":[1,3,5,7,9,-1,11,13,15,-1,17,-1,19,-1,-1,-1,-1,-1,-1,-1,-1],"loss_changes":[1.259427E1,1.9466232E1,1.5623114E1,3.162629E1,1.0713797E1,0E0,1.1718718E1,1.470327E1,1.794183E1,0E0,8.810949E0,0E0,2.0460579E1,0E0,0E0,0E0,0E0,0E0,0E0,0E0,0E0],"parents":[2147483647,0,0,1,1,2,2,3,3,4,4,6,6,7,7,8,8,10,10,12,12],"right_children":[2,4,6,8,10,-1,12,14,16,-1,18,-1,20,-1,-1,-1,-1,-1,-1,-1,-1],"split_conditions":[1.6286447E0,4.8176308E1,1.7591708E0,2.7138464E1,-3.5911071E0,-5.3283233E-2,3.2358978E-2,-1.2127187E1,5.189954E-2,5.181983E-2,1.2323833E0,4.0488314E-2,4.8064455E-2,2.5866216E-2,-2.8865207E-2,4.558532E-2,-2.5138205E-2,7.7191005E-3,3.714549E-2,-5.0067615E-2,-1.8042455E-3],"split_indices":[4,0,4,3,1,0,7,1,2,0,4,0,7,0,0,0,0,0,0,0,0],"split_type":[0,0,0,0,0,0,0,0,0,0,0,0,0,0,0,0,0,0,0,0,0],"sum_hessian":[5.811064E2,3.4495334E2,2.3615309E2,1.5106212E2,1.938912E2,1.6928308E1,2.1922478E2,1.0578781E2,4.5274307E1,1.8967154E1,1.7492406E2,1.2493749E1,2.0673103E2,1.3334293E1,9.2453514E1,3.393626E1,1.1338049E1,1.448269E2,3.0097155E1,2.3971823E1,1.8275922E2],"tree_param":{"num_deleted":"0","num_feature":"18","num_nodes":"21","size_leaf_vector":"1"}},{"base_weights":[2.5082558E-2,4.0980938E-1,-2.4498597E-2,6.2229913E-1,-3.3757027E-2,-5.510055E-2,5.356754E-1,2.4564724E-1,9.761748E-1,3.2473423E-2,-8.0270216E-2,-1.0556762E-2,5.4439347E-2,3.3035208E-2,-4.868463E-3,6.1992455E-2,2.3404106E-2,1.7723258E-3,-1.3914393E-2],"categories":[],"categories_nodes":[],"categories_segments":[],"categories_sizes":[],"default_left":[0,0,0,0,0,0,0,0,0,0,0,0,0,0,0,0,0,0,0],"id":2,"left_children":[1,3,5,7,-1,9,11,13,15,-1,17,-1,-1,-1,-1,-1,-1,-1,-1],"loss_changes":[1.1008447E1,1.560809E1,8.801322E0,7.1724186E0,0E0,8.672563E0,1.1217205E1,4.089827E0,3.2158356E0,0E0,1.0784608E1,0E0,0E0,0E0,0E0,0E0,0E0,0E0,0E0],"parents":[2147483647,0,0,1,1,2,2,3,3,5,5,6,6,7,7,8,8,10,10],"right_children":[2,4,6,8,-1,10,12,14,16,-1,18,-1,-1,-1,-1,-1,-1,-1,-1],"split_conditions":[-1.2127187E1,3.062892E0,3.2383373E0,9.8415114E-2,-3.3757027E-2,7.3624533E-1,4.157286E1,2.098288E1,1.434102E-1,3.2473423E-2,1E0,-1.0556762E-2,5.4439347E-2,3.3035208E-2,-4.868463E-3,6.1992455E-2,2.3404106E-2,1.7723258E-3,-1.3914393E-2],"split_indices":[1,5,5,7,0,5,0,3,7,0,10,0,0,0,0,0,0,0,0],"split_type":[0,0,0,0,0,0,0,0,0,0,0,0,0,0,0,0,0,0,0],"sum_hessian":[5.755814E2,6.4879684E1,5.1070175E2,5.4610523E1,1.0269162E1,4.8510254E2,2.5599209E1,2.7274614E1,2.7335909E1,1.5876329E1,4.6922623E2,1.1155433E1,1.4443777E1,1.192227E1,1.5352345E1,1.7048435E1,1.0287474E1,2.9667657E2,1.7254964E2],"tree_param":{"num_deleted":"0","num_feature":"18","num_nodes":"19","size_leaf_vector":"1"}},{"base_weights":[-1.259821E-3,-1.3988706E-1,1.2437926E-1,7.422185E-2,-4.0143818E-1,2.2524802E-1,-5.8743E-1,-2.9974032E-2,3.7369143E-2,-5.497928E-1,3.2034007E-1,2.8551185E-1,-3.6870596E-1,-3.8112078E-3,-5.089974E-2,3.1056687E-2,-6.07181E-3,-2.0979349E-2,-5.5731595E-2,4.5246664E-3,2.5554512E-2,5.395848E-3,3.200581E-2,-3.7513345E-2,-7.661321E-4],"categories":[],"categories_nodes":[],"categories_segments":[],"categories_sizes":[],"default_left":[0,0,0,0,0,0,0,0,0,0,0,0,0,0,0,0,0,0,0,0,0,0,0,0,0],"id":3,"left_children":[1,3,5,7,9,11,13,15,-1,17,19,21,23,-1,-1,-1,-1,-1,-1,-1,-1,-1,-1,-1,-1],"loss_changes":[1.0309133E1,1.5788349E1,2.242607E1,1.0934713E1,1.3756214E1,9.865728E0,8.466135E0,8.155745E0,0E0,7.2963715E0,9.2947054E-1,1.5557114E1,3.4342701E0,0E0,0E0,0E0,0E0,0E0,0E0,0E0,0E0,0E0,0E0,0E0,0E0],"parents":[2147483647,0,0,1,1,2,2,3,3,4,4,5,5,6,6,7,7,9,9,10,10,11,11,12,12],"right_children":[2,4,6,8,10,12,14,16,-1,18,20,22,24,-1,-1,-1,-1,-1,-1,-1,-1,-1,-1,-1,-1],"split_conditions":[6.033928E-2,1.44344E0,4.6015427E1,1.3729012E0,5.962255E0,6.937725E1,1E0,7.3624533E-1,3.7369143E-2,2.5322511E0,8.1827444E-1,5.4961884E1,1.049712E-1,-3.8112078E-3,-5.089974E-2,3.1056687E-2,-6.07181E-3,-2.0979349E-2,-5.5731595E-2,4.5246664E-3,2.5554512E-2,5.395848E-3,3.200581E-2,-3.7513345E-2,-7.661321E-4],"split_indices":[7,5,3,5,2,0,11,5,0,2,6,0,7,0,0,0,0,0,0,0,0,0,0,0,0],"split_type":[0,0,0,0,0,0,0,0,0,0,0,0,0,0,0,0,0,0,0,0,0,0,0,0,0],"sum_hessian":[5.8990155E2,2.804006E2,3.0950092E2,1.5457767E2,1.2582294E2,2.716847E2,3.7816223E1,1.3468568E2,1.9891981E1,1.04568214E2,2.1254725E1,2.471297E2,2.4554996E1,1.7827188E1,1.9989035E1,1.5875912E1,1.18809784E2,8.639533E1,1.8172882E1,1.0308174E1,1.0946551E1,1.6553159E2,8.1598114E1,1.1266763E1,1.3288235E1],"tree_param":{"num_deleted":"0","num_feature":"18","num_nodes":"25","size_leaf_vector":"1"}},{"base_weights":[2.0150507E-3,1.0751124E-1,-1.6113544E-1,5.103846E-2,4.883952E-2,3.2459248E-2,-2.2312681E-1,-7.842E-2,4.2507932E-1,-8.5126024E-1,-1.2406716E-1,3.1803858E-2,-6.3297204E-3,2.8327448E-2,-1.0570719E-2,-5.663223E-2,-1.5506844E-2,-4.182267E-2,-2.7715156E-3],"categories":[],"categories_nodes":[],"categories_segments":[],"categories_sizes":[],"default_left":[0,0,0,0,0,0,0,0,0,0,0,0,0,0,0,0,0,0,0],"id":4,"left_children":[1,3,5,7,-1,-1,9,11,13,15,17,-1,-1,-1,-1,-1,-1,-1,-1],"loss_changes":[1.0091662E1,1.7429644E1,1.171104E1,1.6274345E1,0E0,0E0,1.3249405E1,8.685898E0,7.8989983E0,4.0745792E0,9.075932E0,0E0,0E0,0E0,0E0,0E0,0E0,0E0,0E0],"parents":[2147483647,0,0,1,1,2,2,3,3,6,6,7,7,8,8,9,9,10,10],"right_children":[2,4,6,8,-1,-1,10,12,14,16,18,-1,-1,-1,-1,-1,-1,-1,-1],"split_conditions":[1.6286447E0,1E0,3.2358978E-2,7.284781E-2,4.883952E-2,3.2459248E-2,4.8064455E-2,7.3624533E-1,1.0506163E1,1.6567589E0,1.7926328E0,3.1803858E-2,-6.3297204E-3,2.8327448E-2,-1.0570719E-2,-5.663223E-2,-1.5506844E-2,-4.182267E-2,-2.7715156E-3],"split_indices":[4,15,7,7,0,0,7,5,1,1,4,0,0,0,0,0,0,0,0],"split_type":[0,0,0,0,0,0,0,0,0,0,0,0,0,0,0,0,0,0,0],"sum_hessian":[5.843174E2,3.55066E2,2.2925136E2,3.344004E2,2.0665628E1,1.5618746E1,2.1363261E2,2.4900734E2,8.539304E1,2.806706E1,1.8556555E2,1.49577875E1,2.3404955E2,6.995455E1,1.5438488E1,1.7746002E1,1.0321059E1,1.5324539E1,1.7024101E2],"tree_param":{"num_deleted":"0","num_feature":"18","num_nodes":"19","size_leaf_vector":"1"}},{"base_weights":[-2.4640923E-2,2.6575426E-2,-3.7119782E-1,-1.1620785E-1,1.785924E-1,-3.1158904E-2,-8.6474866E-1,-3.1514713E-1,2.8752083E-1,2.5365153E-1,-5.0702614E-1,3.0859625E-2,-2.714505E-1,-6.515427E-2,-1.7781718E-2,4.7138426E-2,-2.0192489E-2,2.1340277E-2,-5.160163E-3,-6.4352393E-4,2.7526904E-2,-6.97883E-3,-4.5112293E-2,-4.558978E-2,1.7187951E-2],"categories":[],"categories_nodes":[],"categories_segments":[],"categories_sizes":[],"default_left":[0,0,0,0,0,0,0,0,0,0,0,0,0,0,0,0,0,0,0,0,0,0,0,0,0],"id":5,"left_children":[1,3,5,7,9,11,13,15,17,19,21,-1,23,-1,-1,-1,-1,-1,-1,-1,-1,-1,-1,-1,-1],"loss_changes":[1.0476993E1,1.1193009E1,1.272745E1,2.1457235E1,1.297831E1,7.339313E0,6.4465256E0,2.0318968E1,4.8515563E0,1.7867722E1,3.5005417E0,0E0,1.3818206E1,0E0,0E0,0E0,0E0,0E0,0E0,0E0,0E0,0E0,0E0,0E0,0E0],"parents":[2147483647,0,0,1,1,2,2,3,3,4,4,5,5,6,6,7,7,8,8,9,9,10,10,12,12],"right_children":[2,4,6,8,10,12,14,16,18,20,22,-1,24,-1,-1,-1,-1,-1,-1,-1,-1,-1,-1,-1,-1],"split_conditions":[4.1199745E1,1E0,5.6866493E1,7.840644E-2,2.2470481E0,1.626028E0,8.963128E-1,7.3624533E-1,1.467284E-1,5.8625463E-2,1.0090764E-1,3.0859625E-2,1.5212254E-1,-6.515427E-2,-1.7781718E-2,4.7138426E-2,-2.0192489E-2,2.1340277E-2,-5.160163E-3,-6.4352393E-4,2.7526904E-2,-6.97883E-3,-4.5112293E-2,-4.558978E-2,1.7187951E-2],"split_indices":[3,11,0,7,5,5,6,5,7,7,7,0,7,0,0,0,0,0,0,0,0,0,0,0,0],"split_type":[0,0,0,0,0,0,0,0,0,0,0,0,0,0,0,0,0,0,0,0,0,0,0,0,0],"sum_hessian":[5.8871796E2,5.1372046E2,7.4997505E1,2.6502704E2,2.486934E2,4.5033894E1,2.9963614E1,1.7768921E2,8.733781E1,2.2472171E2,2.3971704E1,1.1753162E1,3.328073E1,1.526299E1,1.4700624E1,1.1070281E1,1.6661894E2,6.431763E1,2.3020187E1,1.1892057E2,1.0580113E2,1.3123496E1,1.0848209E1,1.6071016E1,1.7209715E1],"tree_param":{"num_deleted":"0","num_feature":"18","num_nodes":"25","size_leaf_vector":"1"}},{"base_weights":[-2.344985E-2,-2.1385401E-1,6.7969956E-2,-3.0532053E-1,2.2584009E-1,1.4222239E-1,-2.7088624E-1,-2.2123788E-1,-5.6655593E-2,4.279028E-2,-1.818589E-2,-4.0738013E-2,4.3268132E-1,3.339198E-1,-5.6255406E-1,-1.6903872E-2,2.481619E-2,-2.1865178E-2,1.2303443E-2,2.9728463E-2,-1.7186496E-2,4.1878864E-2,-6.4912573E-3,-6.8191074E-2,-1.5252349E-2],"categories":[],"categories_nodes":[],"categories_segments":[],"categories_sizes":[],"default_left":[0,0,0,0,0,0,0,0,0,0,0,0,0,0,0,0,0,0,0,0,0,0,0,0,0],"id":6,"left_children":[1,3,5,7,9,11,13,15,-1,-1,-1,17,19,21,23,-1,-1,-1,-1,-1,-1,-1,-1,-1,-1],"loss_changes":[1.0118369E1,7.651247E0,9.924821E0,1.0641656E1,1.2582536E1,1.718023E1,1.2706873E1,1.2182452E1,0E0,0E0,0E0,2.2747963E1,1.5902874E1,5.6483173E0,9.539779E0,0E0,0E0,0E0,0E0,0E0,0E0,0E0,0E0,0E0,0E0],"parents":[2147483647,0,0,1,1,2,2,3,3,4,4,5,5,6,6,7,7,11,11,12,12,13,13,14,14],"right_children":[2,4,6,8,10,12,14,16,-1,-1,-1,18,20,22,24,-1,-1,-1,-1,-1,-1,-1,-1,-1,-1],"split_conditions":[4.8064455E-2,3.9162455E0,6.4377396E1,2.6571102E0,3.9447602E-2,1E0,2.7138464E1,5.7534256E1,-5.6655593E-2,4.279028E-2,-1.818589E-2,7.840644E-2,1.0426136E-1,9.994663E-1,6.4335996E-1,-1.6903872E-2,2.481619E-2,-2.1865178E-2,1.2303443E-2,2.9728463E-2,-1.7186496E-2,4.1878864E-2,-6.4912573E-3,-6.8191074E-2,-1.5252349E-2],"split_indices":[7,1,0,1,7,11,3,0,0,0,0,7,7,6,6,0,0,0,0,0,0,0,0,0,0],"split_type":[0,0,0,0,0,0,0,0,0,0,0,0,0,0,0,0,0,0,0,0,0,0,0,0,0],"sum_hessian":[5.794562E2,1.8753316E2,3.9192303E2,1.5549269E2,3.2040462E1,3.219545E2,6.996853E1,1.4230533E2,1.3187358E1,1.5271097E1,1.6769365E1,1.9805757E2,1.23896935E2,2.2717136E1,4.7251396E1,1.22833405E2,1.9471933E1,8.290322E1,1.1515434E2,1.0271437E2,2.1182558E1,1.0503513E1,1.2213622E1,1.0447226E1,3.6804173E1],"tree_param":{"num_deleted":"0","num_feature":"18","num_nodes":"25","size_leaf_vector":"1"}},{"base_weights":[2.8915852E-2,4.9191928E-1,-1.6565893E-2,5.0920416E-2,2.2200772E-1,9.4563074E-2,-1.9454601E-1,-2.0266267E-2,5.200682E-1,-1.6823873E-1,2.8641123E-1,-2.7120662E-1,3.4256828E-1,4.6473134E-2,-1.8707098E-3,-1.8271416E-2,1.9002128E-2,-4.014483E-3,2.3064444E-2,-4.173078E-2,-1.0588709E-2,3.8407676E-2,-1.375555E-2],"categories":[],"categories_nodes":[],"categories_segments":[],"categories_sizes":[],"default_left":[0,0,0,0,0,0,0,0,0,0,0,0,0,0,0,0,0,0,0,0,0,0,0],"id":7,"left_children":[1,3,5,-1,7,9,11,-1,13,15,17,19,21,-1,-1,-1,-1,-1,-1,-1,-1,-1,-1],"loss_changes":[1.2444834E1,7.285301E0,1.0673769E1,0E0,6.983771E0,1.6803238E1,8.632946E0,0E0,5.7390447E0,1.5367983E1,1.2379249E1,5.919449E0,7.137271E0,0E0,0E0,0E0,0E0,0E0,0E0,0E0,0E0,0E0,0E0],"parents":[2147483647,0,0,1,1,2,2,4,4,5,5,6,6,8,8,9,9,10,10,11,11,12,12],"right_children":[2,4,6,-1,8,10,12,-1,14,16,18,20,22,-1,-1,-1,-1,-1,-1,-1,-1,-1,-1],"split_conditions":[-1.4670797E1,1.1009179E0,1.6137446E0,5.0920416E-2,2.8862827E1,4.8577076E1,3.1796463E0,-2.0266267E-2,1.2127715E0,2.662901E1,4.0915275E-1,1.7591708E0,5.2763457E0,4.6473134E-2,-1.8707098E-3,-1.8271416E-2,1.9002128E-2,-4.014483E-3,2.3064444E-2,-4.173078E-2,-1.0588709E-2,3.8407676E-2,-1.375555E-2],"split_indices":[2,4,4,0,3,0,5,0,6,3,4,4,4,0,0,0,0,0,0,0,0,0,0],"split_type":[0,0,0,0,0,0,0,0,0,0,0,0,0,0,0,0,0,0,0,0,0,0,0],"sum_hessian":[5.8958624E2,5.1857903E1,5.3772833E2,1.6635536E1,3.5222366E1,3.3132257E2,2.0640575E2,1.1228879E1,2.3993486E1,1.3985977E2,1.9146281E2,1.8105887E2,2.534689E1,1.3449456E1,1.0544031E1,1.0310979E2,3.674998E1,6.199868E1,1.2946414E2,1.6032312E1,1.6502655E2,1.4862745E1,1.0484145E1],"tree_param":{"num_deleted":"0","num_feature":"18","num_nodes":"23","size_leaf_vector":"1"}},{"base_weights":[5.2444306E-3,2.7139703E-2,-3.2880407E-2,3.826973E-2,6.386335E-3,1.0725747E-1,-1.0449823E-1,1.8783478E-3,2.583929E-2,-2.0673009E-2,2.8489681E-3],"categories":[],"categories_nodes":[],"categories_segments":[],"categories_sizes":[],"default_left":[0,0,0,0,0,0,0,0,0,0,0],"id":8,"left_children":[1,3,-1,-1,5,7,9,-1,-1,-1,-1],"loss_changes":[8.481172E0,8.6586075E0,0E0,0E0,6.1742005E0,8.229361E0,1.31437435E1,0E0,0E0,0E0,0E0],"parents":[2147483647,0,0,1,1,4,4,5,5,6,6],"right_children":[2,4,-1,-1,6,8,10,-1,-1,-1,-1],"split_conditions":[2.7156773E0,4.7540322E-2,-3.2880407E-2,3.826973E-2,6.547662E-1,-1.22836E-1,5.047856E1,1.8783478E-3,2.583929E-2,-2.0673009E-2,2.8489681E-3],"split_indices":[6,4,0,0,2,1,0,0,0,0,0],"split_type":[0,0,0,0,0,0,0,0,0,0,0],"sum_hessian":[5.8214124E2,5.6445526E2,1.7685968E1,1.4452684E1,5.5000256E2,2.8802258E2,2.6198E2,2.4706978E2,4.0952785E1,8.938857E1,1.7259143E2],"tree_param":{"num_deleted":"0","num_feature":"18","num_nodes":"11","size_leaf_vector":"1"}},{"base_weights":[-2.4403531E-2,-8.51066E-3,-3.9953787E-2,-2.5866324E-2,4.2578723E-2,-4.604157E-2,2.4654914E-2,6.522334E-4,-1.5772222E-2],"categories":[],"categories_nodes":[],"categories_segments":[],"categories_sizes":[],"default_left":[0,0,0,0,0,0,0,0,0],"id":9,"left_children":[1,3,-1,5,-1,7,-1,-1,-1],"loss_changes":[7.094067E0,8.473455E0,0E0,5.843553E0,0E0,8.537007E0,0E0,0E0,0E0],"parents":[2147483647,0,0,1,1,3,3,5,5],"right_children":[2,4,-1,6,-1,8,-1,-1,-1],"split_conditions":[2.4582621E-1,2.4890327E1,-3.9953787E-2,1.7551076E-1,4.2578723E-2,2.6378593E0,2.4654914E-2,6.522334E-4,-1.5772222E-2],"split_indices":[7,2,0,7,0,4,0,0,0],"split_type":[0,0,0,0,0,0,0,0,0],"sum_hessian":[5.757546E2,5.651708E2,1.0583836E1,5.549425E2,1.0228263E1,5.350531E2,1.9889418E1,4.3959204E2,9.546106E1],"tree_param":{"num_deleted":"0","num_feature":"18","num_nodes":"9","size_leaf_vector":"1"}},{"base_weights":[2.7724363E-2,3.5801228E-2,8.134754E-3,1.2552121E-1,-1.2608628E-1,-1.5050098E-1,2.056098E-1,-3.7454084E-1,-5.9924843E-3,-3.0726463E-2,9.78044E-3,2.1068454E-2,-8.819485E-4,-3.7466466E-2,3.9426214E-4,-3.2412303E-3,3.3202283E-2],"categories":[],"categories_nodes":[],"categories_segments":[],"categories_sizes":[],"default_left":[0,0,0,0,0,0,0,0,0,0,0,0,0,0,0,0,0],"id":10,"left_children":[1,-1,3,5,7,9,11,13,15,-1,-1,-1,-1,-1,-1,-1,-1],"loss_changes":[7.843104E0,0E0,8.949562E0,6.7286344E0,7.905901E0,1.11563835E1,1.1339489E1,1.2382047E1,7.126365E0,0E0,0E0,0E0,0E0,0E0,0E0,0E0,0E0],"parents":[2147483647,0,0,2,2,3,3,4,4,5,5,6,6,7,7,8,8],"right_children":[2,-1,4,6,8,10,12,14,16,-1,-1,-1,-1,-1,-1,-1,-1],"split_conditions":[4.7540322E-2,3.5801228E-2,7.933919E-1,1.7148657E1,5.0302647E1,4.7890614E1,1.6286447E0,1.8759189E0,2.669424E0,-3.0726463E-2,9.78044E-3,2.1068454E-2,-8.819485E-4,-3.7466466E-2,3.9426214E-4,-3.2412303E-3,3.3202283E-2],"split_indices":[4,0,2,13,0,0,4,4,5,0,0,0,0,0,0,0,0],"split_type":[0,0,0,0,0,0,0,0,0,0,0,0,0,0,0,0,0],"sum_hessian":[5.811123E2,1.5097446E1,5.660149E2,3.019775E2,2.6403738E2,6.771639E1,2.3426111E2,8.534784E1,1.7868954E2,2.859869E1,3.9117702E1,1.1867751E2,1.15583595E2,4.2619804E1,4.2728035E1,1.6509663E2,1.3592915E1],"tree_param":{"num_deleted":"0","num_feature":"18","num_nodes":"17","size_leaf_vector":"1"}},{"base_weights":[1.0524963E-2,1.2827528E-1,-1.3238445E-1,1.48559045E-2,3.9122787E-1,-4.4176787E-1,3.931799E-3,1.3200805E-1,-2.5336576E-1,5.485396E-1,-1.1400155E-1,-2.0949E-1,-7.2035885E-1,-2.1341392E-1,2.3405346E-1,-2.4764111E-2,1.189844E-2,3.0333115E-2,-2.1911977E-2,-9.734657E-3,3.4791093E-2,-2.2326984E-2,1.1891723E-2,1.3694651E-2,-2.8334389E-2,-1.4939335E-2,-5.2977722E-2,1.1965788E-2,-2.38681E-2,2.7220441E-2,-1.4829414E-2],"categories":[],"categories_nodes":[],"categories_segments":[],"categories_sizes":[],"default_left":[0,0,0,0,0,0,0,0,0,0,0,0,0,0,0,0,0,0,0,0,0,0,0,0,0,0,0,0,0,0,0],"id":11,"left_children":[1,3,5,7,9,11,13,15,17,19,21,23,25,27,29,-1,-1,-1,-1,-1,-1,-1,-1,-1,-1,-1,-1,-1,-1,-1,-1],"loss_changes":[9.763937E0,9.480375E0,1.1057657E1,7.048937E0,7.677497E0,5.038028E0,9.201038E0,1.0490108E1,1.1111528E1,8.152079E0,2.8647022E0,7.948925E0,4.838215E0,1.1420662E1,1.4875743E1,0E0,0E0,0E0,0E0,0E0,0E0,0E0,0E0,0E0,0E0,0E0,0E0,0E0,0E0,0E0,0E0],"parents":[2147483647,0,0,1,1,2,2,3,3,4,4,5,5,6,6,7,7,8,8,9,9,10,10,11,11,12,12,13,13,14,14],"right_children":[2,4,6,8,10,12,14,16,18,20,22,24,26,28,30,-1,-1,-1,-1,-1,-1,-1,-1,-1,-1,-1,-1,-1,-1,-1,-1],"split_conditions":[8.377478E-1,8.3205655E-2,5.000565E1,1E0,-5.2004447E0,4.498432E1,7.941348E0,4.1096626E1,8.090266E-1,-2.7731293E1,3.6794487E1,5.208727E-2,1.0391095E0,2.6571102E0,6.764078E1,-2.4764111E-2,1.189844E-2,3.0333115E-2,-2.1911977E-2,-9.734657E-3,3.4791093E-2,-2.2326984E-2,1.1891723E-2,1.3694651E-2,-2.8334389E-2,-1.4939335E-2,-5.2977722E-2,1.1965788E-2,-2.38681E-2,2.7220441E-2,-1.4829414E-2],"split_indices":[2,7,0,10,2,0,1,0,5,1,3,7,4,1,0,0,0,0,0,0,0,0,0,0,0,0,0,0,0,0,0],"split_type":[0,0,0,0,0,0,0,0,0,0,0,0,0,0,0,0,0,0,0,0,0,0,0,0,0,0,0,0,0,0,0],"sum_hessian":[5.782234E2,3.1707315E2,2.6115024E2,2.2226155E2,9.481159E1,7.918688E1,1.8196335E2,1.5504837E2,6.721319E1,7.223445E1,2.2577143E1,4.4138203E1,3.504868E1,9.361669E1,8.834666E1,2.1874804E1,1.3317357E2,1.1488319E1,5.5724873E1,1.189361E1,6.034084E1,1.1468505E1,1.1108638E1,1.8855263E1,2.528294E1,1.6465391E1,1.8583288E1,3.451283E1,5.9103863E1,5.572749E1,3.2619167E1],"tree_param":{"num_deleted":"0","num_feature":"18","num_nodes":"31","size_leaf_vector":"1"}},{"base_weights":[-1.6478734E-2,-1.5500355E-1,9.67991E-2,3.260864E-2,-1.9881062E-1,2.0378336E-1,-3.119666E-1,-5.2663445E-2,-1.5134421E-1,7.9460934E-2,4.8518538E-1,3.4639353E-1,-6.244341E-1,2.1907382E-3,-1.7635932E-2,1.2448189E-2,-2.0666929E-2,3.2212425E-2,-2.4113646E-2,-1.8433905E-4,3.3275764E-2,-5.9630234E-2,-7.837732E-3],"categories":[],"categories_nodes":[],"categories_segments":[],"categories_sizes":[],"default_left":[0,0,0,0,0,0,0,0,0,0,0,0,0,0,0,0,0,0,0,0,0,0,0],"id":12,"left_children":[1,3,5,-1,7,9,11,-1,13,15,17,19,21,-1,-1,-1,-1,-1,-1,-1,-1,-1,-1],"loss_changes":[9.11836E0,9.371649E0,1.4047446E1,0E0,9.926569E0,8.848961E0,1.3942854E1,0E0,9.320135E0,1.4920733E1,1.2259649E1,2.4735854E0,1.193166E1,0E0,0E0,0E0,0E0,0E0,0E0,0E0,0E0,0E0,0E0],"parents":[2147483647,0,0,1,1,2,2,4,4,5,5,6,6,8,8,9,9,10,10,11,11,12,12],"right_children":[2,4,6,-1,8,10,12,-1,14,16,18,20,22,-1,-1,-1,-1,-1,-1,-1,-1,-1,-1],"split_conditions":[5.8625463E-2,6.9306755E-1,6.4377396E1,3.260864E-2,1.7969992E-2,5.336667E1,2.8290583E1,-5.2663445E-2,1.44344E0,1.504441E0,1.2878786E-1,2.2800648E1,1.6579772E0,2.1907382E-3,-1.7635932E-2,1.2448189E-2,-2.0666929E-2,3.2212425E-2,-2.4113646E-2,-1.8433905E-4,3.3275764E-2,-5.9630234E-2,-7.837732E-3],"split_indices":[7,5,0,0,7,0,13,0,5,2,7,13,5,0,0,0,0,0,0,0,0,0,0],"split_type":[0,0,0,0,0,0,0,0,0,0,0,0,0,0,0,0,0,0,0,0,0,0,0],"sum_hessian":[5.791349E2,2.603683E2,3.187666E2,1.2688388E1,2.4767989E2,2.5304091E2,6.57257E1,1.1919701E1,2.3576018E2,1.7639334E2,7.6647575E1,2.111932E1,4.460638E1,1.20125145E2,1.1563504E2,1.316172E2,4.477613E1,6.611197E1,1.0535612E1,1.054251E1,1.057681E1,1.9439651E1,2.5166729E1],"tree_param":{"num_deleted":"0","num_feature":"18","num_nodes":"23","size_leaf_vector":"1"}},{"base_weights":[1.27901165E-2,3.446669E-2,-3.9350662E-2,5.3416975E-2,-2.702917E-2,-3.2678947E-2,2.2002277E-1,-1.247795E-2,6.2980177E-3,2.3181444E-2,3.936832E-3],"categories":[],"categories_nodes":[],"categories_segments":[],"categories_sizes":[],"default_left":[0,0,0,0,0,0,0,0,0,0,0],"id":13,"left_children":[1,3,-1,5,-1,7,9,-1,-1,-1,-1],"loss_changes":[1.0215284E1,6.2742157E0,0E0,7.978655E0,0E0,1.2667404E1,6.484642E0,0E0,0E0,0E0,0E0],"parents":[2147483647,0,0,1,1,3,3,5,5,6,6],"right_children":[2,4,-1,6,-1,8,10,-1,-1,-1,-1],"split_conditions":[2.7156773E0,7.386192E1,-3.9350662E-2,7.7798694E-2,-2.702917E-2,4.899289E1,-6.0781913E0,-1.247795E-2,6.2980177E-3,2.3181444E-2,3.936832E-3],"split_indices":[6,0,0,7,0,0,2,0,0,0,0],"split_type":[0,0,0,0,0,0,0,0,0,0,0],"sum_hessian":[5.866542E2,5.7210565E2,1.4548519E1,5.5473206E2,1.737361E1,3.6626382E2,1.884682E2,1.5448717E2,2.1177667E2,6.834537E1,1.2012283E2],"tree_param":{"num_deleted":"0","num_feature":"18","num_nodes":"11","size_leaf_vector":"1"}},{"base_weights":[-1.438154E-2,-2.0218325E-1,7.269316E-2,-4.489652E-3,-5.323959E-1,1.4142942E-1,-2.2598346E-1,-1.11955956E-1,4.1485645E-2,-6.265527E-1,-1.5745864E-3,-1.458847E-2,3.7867925E-1,2.1177965E-1,-4.1505945E-1,-2.026839E-6,-4.8104297E-2,-2.2673909E-2,-6.04091E-2,-1.7954499E-2,7.959973E-3,2.612528E-2,-1.7580269E-2,-1.1975996E-2,2.9084751E-2,-4.5363616E-2,-5.7462724E-3],"categories":[],"categories_nodes":[],"categories_segments":[],"categories_sizes":[],"default_left":[0,0,0,0,0,0,0,0,0,0,0,0,0,0,0,0,0,0,0,0,0,0,0,0,0,0,0],"id":14,"left_children":[1,3,5,7,9,11,13,15,-1,17,-1,19,21,23,25,-1,-1,-1,-1,-1,-1,-1,-1,-1,-1,-1,-1],"loss_changes":[9.573469E0,1.2102789E1,8.246041E0,1.0581681E1,3.2549858E0,1.2067529E1,6.315299E0,9.945E0,0E0,5.330351E0,0E0,1.1884572E1,1.3766237E1,4.0384674E0,7.707796E0,0E0,0E0,0E0,0E0,0E0,0E0,0E0,0E0,0E0,0E0,0E0,0E0],"parents":[2147483647,0,0,1,1,2,2,3,3,4,4,5,5,6,6,7,7,9,9,11,11,12,12,13,13,14,14],"right_children":[2,4,6,8,10,12,14,16,-1,18,-1,20,22,24,26,-1,-1,-1,-1,-1,-1,-1,-1,-1,-1,-1,-1],"split_conditions":[4.8064455E-2,1.4498028E0,6.4377396E1,4.360378E0,5.8730194E1,1E0,2.6283997E1,2.6571102E0,4.1485645E-2,1.8397368E0,-1.5745864E-3,7.091459E-2,1.0426136E-1,7.840644E-2,1.5513237E0,-2.026839E-6,-4.8104297E-2,-2.2673909E-2,-6.04091E-2,-1.7954499E-2,7.959973E-3,2.612528E-2,-1.7580269E-2,-1.1975996E-2,2.9084751E-2,-4.5363616E-2,-5.7462724E-3],"split_indices":[7,5,0,2,0,11,3,1,0,5,0,7,7,7,5,0,0,0,0,0,0,0,0,0,0,0,0],"split_type":[0,0,0,0,0,0,0,0,0,0,0,0,0,0,0,0,0,0,0,0,0,0,0,0,0,0,0],"sum_hessian":[5.835351E2,1.8443211E2,3.9910297E2,1.1599885E2,6.843326E1,3.2486606E2,7.423692E1,1.03527664E2,1.247118E1,5.7393875E1,1.1039387E1,1.9655078E2,1.2831528E2,2.2356161E1,5.1880764E1,9.2367935E1,1.1159736E1,4.5603405E1,1.1790468E1,6.554803E1,1.3100275E2,1.0743997E2,2.0875309E1,1.0229092E1,1.21270685E1,1.8885723E1,3.299504E1],"tree_param":{"num_deleted":"0","num_feature":"18","num_nodes":"27","size_leaf_vector":"1"}},{"base_weights":[4.573755E-2,7.0626095E-2,-3.9292317E-2,1.3516697E-1,-2.2434221E-1,6.423056E-2,3.605254E-1,3.968997E-3,-4.8865607E-1,9.331658E-3,-1.0448949E-2,2.4821656E-2,-3.0605635E-2,-1.0898424E-2,3.0754153E-2,-3.146679E-2,1.6390559E-3],"categories":[],"categories_nodes":[],"categories_segments":[],"categories_sizes":[],"default_left":[0,0,0,0,0,0,0,0,0,0,0,0,0,0,0,0,0],"id":15,"left_children":[1,3,-1,5,7,9,11,13,15,-1,-1,-1,-1,-1,-1,-1,-1],"loss_changes":[1.2219272E1,1.0911186E1,0E0,7.483368E0,6.2165437E0,1.2023209E1,1.5135821E1,7.76276E0,3.5223694E0,0E0,0E0,0E0,0E0,0E0,0E0,0E0,0E0],"parents":[2147483647,0,0,1,1,3,3,4,4,5,5,6,6,7,7,8,8],"right_children":[2,4,-1,6,8,10,12,14,16,-1,-1,-1,-1,-1,-1,-1,-1],"split_conditions":[2.7156773E0,3.8229233E1,-3.9292317E-2,5.7681965E1,1E0,1.2560976E0,1.2259818E-1,1.7366649E-1,1.4898163E0,9.331658E-3,-1.0448949E-2,2.4821656E-2,-3.0605635E-2,-1.0898424E-2,3.0754153E-2,-3.146679E-2,1.6390559E-3],"split_indices":[6,3,0,0,11,1,7,7,6,0,0,0,0,0,0,0,0],"split_type":[0,0,0,0,0,0,0,0,0,0,0,0,0,0,0,0,0],"sum_hessian":[5.867094E2,5.705485E2,1.6160925E1,4.685653E2,1.0198319E2,3.5736273E2,1.11202576E2,5.5246716E1,4.673648E1,2.4701338E2,1.1034936E2,9.799872E1,1.320386E1,4.100009E1,1.4246623E1,3.6643444E1,1.00930395E1],"tree_param":{"num_deleted":"0","num_feature":"18","num_nodes":"17","size_leaf_vector":"1"}},{"base_weights":[6.641698E-4,-7.99743E-2,1.520653E-1,-3.012381E-1,1.2069065E-1,2.381739E-1,-2.5722015E-1,-1.0151513E0,-1.9912699E-1,2.4675934E-1,-3.3695018E-1,4.4762504E-1,1.0444241E-1,-5.2984476E-1,9.515881E-3,-2.4671683E-2,-7.1740784E-2,-4.360957E-2,-7.232106E-3,-2.4111636E-2,1.5472397E-2,-5.8363434E-2,1.3633604E-5,3.2557007E-2,-4.311867E-3,-7.977561E-3,2.487239E-2,-7.249923E-3,-4.4216137E-2],"categories":[],"categories_nodes":[],"categories_segments":[],"categories_sizes":[],"default_left":[0,0,0,0,0,0,0,0,0,0,0,0,0,0,0,0,0,0,0,0,0,0,0,0,0,0,0,0,0],"id":16,"left_children":[1,3,5,7,9,11,13,15,17,19,21,23,25,27,-1,-1,-1,-1,-1,-1,-1,-1,-1,-1,-1,-1,-1,-1,-1],"loss_changes":[7.0294476E0,1.6716696E1,7.1130543E0,1.284359E1,1.1490822E1,4.598193E0,4.4029284E0,4.1415405E0,5.66096E0,7.2600327E0,1.2076105E1,7.044078E0,1.0715279E1,2.8970647E0,0E0,0E0,0E0,0E0,0E0,0E0,0E0,0E0,0E0,0E0,0E0,0E0,0E0,0E0,0E0],"parents":[2147483647,0,0,1,1,2,2,3,3,4,4,5,5,6,6,7,7,8,8,9,9,10,10,11,11,12,12,13,13],"right_children":[2,4,6,8,10,12,14,16,18,20,22,24,26,28,-1,-1,-1,-1,-1,-1,-1,-1,-1,-1,-1,-1,-1,-1,-1],"split_conditions":[8.100006E-2,1E0,4.519491E1,-4.174844E0,2.7138464E1,-3.650119E0,5.5145412E1,-7.4537477E0,1.2993837E1,2.4611413E-2,5.361977E-1,1.467284E-1,1.1812504E1,7.869181E-1,9.515881E-3,-2.4671683E-2,-7.1740784E-2,-4.360957E-2,-7.232106E-3,-2.4111636E-2,1.5472397E-2,-5.8363434E-2,1.3633604E-5,3.2557007E-2,-4.311867E-3,-7.977561E-3,2.487239E-2,-7.249923E-3,-4.4216137E-2],"split_indices":[7,11,3,1,3,1,3,1,3,7,6,7,1,6,0,0,0,0,0,0,0,0,0,0,0,0,0,0,0],"split_type":[0,0,0,0,0,0,0,0,0,0,0,0,0,0,0,0,0,0,0,0,0,0,0,0,0,0,0,0,0],"sum_hessian":[5.7377484E2,3.7468427E2,1.9909058E2,1.7795761E2,1.9672667E2,1.6483038E2,3.4260197E1,2.1149384E1,1.5680823E2,1.5459923E2,4.2127445E1,6.3316486E1,1.015139E2,2.117637E1,1.3083826E1,1.0398268E1,1.0751116E1,1.0619168E1,1.4618906E2,1.1711877E1,1.4288734E2,1.1456803E1,3.067064E1,4.5682182E1,1.7634306E1,6.1079185E1,4.0434715E1,1.0828852E1,1.0347518E1],"tree_param":{"num_deleted":"0","num_feature":"18","num_nodes":"29","size_leaf_vector":"1"}},{"base_weights":[-3.1453136E-3,-4.2039234E-2,2.9248452E-1,2.7017185E-2,-2.8395653E-1,7.470103E-1,-8.9886494E-2,-1.0205665E-1,3.696925E-1,3.9948832E-2,-4.3794045E-1,1.944368E-2,4.52502E-2,-2.9126132E-1,1.6481495E-2,-1.5306815E-3,-2.2121226E-2,2.2423936E-2,-1.8640904E-2,-5.0325345E-2,-1.2825819E-2,-3.798163E-2,3.5140698E-3],"categories":[],"categories_nodes":[],"categories_segments":[],"categories_sizes":[],"default_left":[0,0,0,0,0,0,0,0,0,0,0,0,0,0,0,0,0,0,0,0,0,0,0],"id":17,"left_children":[1,3,5,7,9,11,13,15,17,-1,19,-1,-1,21,-1,-1,-1,-1,-1,-1,-1,-1,-1],"loss_changes":[6.646308E0,8.540297E0,1.1747537E1,1.7652332E1,1.9277767E1,1.3916092E0,3.25499E0,7.03999E0,6.554147E0,0E0,1.0059341E1,0E0,0E0,4.421639E0,0E0,0E0,0E0,0E0,0E0,0E0,0E0,0E0,0E0],"parents":[2147483647,0,0,1,1,2,2,3,3,4,4,5,5,6,6,7,7,8,8,10,10,13,13],"right_children":[2,4,6,8,10,12,14,16,18,-1,20,-1,-1,22,-1,-1,-1,-1,-1,-1,-1,-1,-1],"split_conditions":[2.7162633E0,2.1848266E0,3.8939064E0,7.5931735E-2,2.0301964E1,1E0,5.1467052E1,6.3061185E-2,1.9701713E0,3.9948832E-2,-6.9305882E0,1.944368E-2,4.52502E-2,1.7551076E-1,1.6481495E-2,-1.5306815E-3,-2.2121226E-2,2.2423936E-2,-1.8640904E-2,-5.0325345E-2,-1.2825819E-2,-3.798163E-2,3.5140698E-3],"split_indices":[5,4,4,7,13,10,0,7,6,0,1,0,0,7,0,0,0,0,0,0,0,0,0],"split_type":[0,0,0,0,0,0,0,0,0,0,0,0,0,0,0,0,0,0,0,0,0,0,0],"sum_hessian":[5.7596075E2,5.0975388E2,6.62069E1,3.9724637E2,1.1250751E2,2.9813665E1,3.6393234E1,2.8906705E2,1.08179306E2,1.3484618E1,9.902289E1,1.0185871E1,1.9627794E1,2.4796314E1,1.1596921E1,2.398191E2,4.9247955E1,9.8159775E1,1.0019526E1,2.2853691E1,7.61692E1,1.0322559E1,1.4473755E1],"tree_param":{"num_deleted":"0","num_feature":"18","num_nodes":"23","size_leaf_vector":"1"}},{"base_weights":[-4.158553E-3,3.1775847E-2,-4.5273608E-1,-8.597332E-2,1.4173311E-1,-8.303329E-1,-4.237119E-2,-6.9355696E-1,-2.9786902E-2,2.590184E-1,-4.609777E-2,-5.4071106E-2,-2.7165568E-2,-2.327907E-2,2.0567229E-2,-7.786618E-3,-5.978155E-2,-4.2179157E-3,2.6548529E-2,1.9750297E-2,-6.158503E-3,-1.6451074E-2,1.6785843E-2],"categories":[],"categories_nodes":[],"categories_segments":[],"categories_sizes":[],"default_left":[0,0,0,0,0,0,0,0,0,0,0,0,0,0,0,0,0,0,0,0,0,0,0],"id":18,"left_children":[1,3,5,7,9,11,13,15,17,19,21,-1,-1,-1,-1,-1,-1,-1,-1,-1,-1,-1,-1],"loss_changes":[9.441915E0,7.035039E0,6.6962976E0,8.942244E0,6.199353E0,1.0390692E0,4.3912344E0,5.8028183E0,7.431043E0,9.042724E0,1.1864853E1,0E0,0E0,0E0,0E0,0E0,0E0,0E0,0E0,0E0,0E0,0E0,0E0],"parents":[2147483647,0,0,1,1,2,2,3,3,4,4,5,5,6,6,7,7,8,8,9,9,10,10],"right_children":[2,4,6,8,10,12,14,16,18,20,22,-1,-1,-1,-1,-1,-1,-1,-1,-1,-1,-1,-1],"split_conditions":[4.6553146E1,5.8625463E-2,1.9537647E0,-8.092539E0,2.1025958E0,1E0,9.38044E-1,2.0095911E1,7.9221487E0,1E0,2.8080509E0,-5.4071106E-2,-2.7165568E-2,-2.327907E-2,2.0567229E-2,-7.786618E-3,-5.978155E-2,-4.2179157E-3,2.6548529E-2,1.9750297E-2,-6.158503E-3,-1.6451074E-2,1.6785843E-2],"split_indices":[3,7,1,2,5,12,6,3,2,10,5,0,0,0,0,0,0,0,0,0,0,0,0],"split_type":[0,0,0,0,0,0,0,0,0,0,0,0,0,0,0,0,0,0,0,0,0,0,0],"sum_hessian":[5.8385736E2,5.4141516E2,4.244222E1,2.6154956E2,2.798656E2,2.157063E1,2.087159E1,2.1179266E1,2.4037029E2,1.720532E2,1.0781239E2,1.0029226E1,1.1541404E1,1.0785293E1,1.0086297E1,1.0858141E1,1.0321125E1,2.1982689E2,2.0543398E1,1.2687569E2,4.5177525E1,6.2005062E1,4.580733E1],"tree_param":{"num_deleted":"0","num_feature":"18","num_nodes":"23","size_leaf_vector":"1"}},{"base_weights":[-2.3001647E-2,6.176765E-2,-1.5156825E-1,8.919996E-3,4.266638E-2,-5.606388E-2,-7.840084E-2,4.330758E-2,-2.7577901E-2,7.1008936E-2,-4.044627E-1,-1.1851994E-2,5.6855385E-3,-7.431215E-4,4.6528842E-2,-9.326715E-3,-4.963275E-2],"categories":[],"categories_nodes":[],"categories_segments":[],"categories_sizes":[],"default_left":[0,0,0,0,0,0,0,0,0,0,0,0,0,0,0,0,0],"id":19,"left_children":[1,3,5,7,-1,-1,9,-1,11,13,15,-1,-1,-1,-1,-1,-1],"loss_changes":[6.294934E0,1.4561686E1,1.619231E1,1.0270232E1,0E0,0E0,1.0475244E1,0E0,9.351883E0,1.0930791E1,8.471323E0,0E0,0E0,0E0,0E0,0E0,0E0],"parents":[2147483647,0,0,1,1,2,2,3,3,6,6,8,8,9,9,10,10],"right_children":[2,4,6,8,-1,-1,10,-1,12,14,16,-1,-1,-1,-1,-1,-1],"split_conditions":[1.6286447E0,1E0,1.7591708E0,-1.7707169E1,4.266638E-2,-5.606388E-2,1E0,4.330758E-2,4.7783768E1,1.7104422E1,6.809797E0,-1.1851994E-2,5.6855385E-3,-7.431215E-4,4.6528842E-2,-9.326715E-3,-4.963275E-2],"split_indices":[4,15,4,2,0,0,15,0,0,1,1,0,0,0,0,0,0],"split_type":[0,0,0,0,0,0,0,0,0,0,0,0,0,0,0,0,0],"sum_hessian":[5.7573737E2,3.472805E2,2.2845688E2,3.2649374E2,2.078674E1,1.50233345E1,2.1343355E2,1.24049635E1,3.1408878E2,1.469017E2,6.6531845E1,1.2624762E2,1.8784117E2,1.3445251E2,1.2449181E1,4.9506542E1,1.7025307E1],"tree_param":{"num_deleted":"0","num_feature":"18","num_nodes":"17","size_leaf_vector":"1"}},{"base_weights":[-1.2538221E-2,6.5058675E-3,-3.2111954E-2,-2.8323868E-2,2.9512107E-1,-9.572352E-3,-4.1023377E-2,-2.6717363E-2,4.820306E-1,2.843388E-2,-1.4830976E-3,3.5034057E-2,-7.023568E-3],"categories":[],"categories_nodes":[],"categories_segments":[],"categories_sizes":[],"default_left":[0,0,0,0,0,0,0,0,0,0,0,0,0],"id":20,"left_children":[1,3,-1,5,7,9,-1,-1,11,-1,-1,-1,-1],"loss_changes":[7.0371313E0,5.740641E0,0E0,7.563881E0,9.791199E0,5.813326E0,0E0,0E0,7.0006447E0,0E0,0E0,0E0,0E0],"parents":[2147483647,0,0,1,1,3,3,4,4,5,5,8,8],"right_children":[2,4,-1,6,8,10,-1,-1,12,-1,-1,-1,-1],"split_conditions":[2.7156773E0,2.7504218E0,-3.2111954E-2,2.5713222E0,3.6245396E1,3.0532336E-1,-4.1023377E-2,-2.6717363E-2,1E0,2.843388E-2,-1.4830976E-3,3.5034057E-2,-7.023568E-3],"split_indices":[6,5,0,5,0,6,0,0,11,0,0,0,0],"split_type":[0,0,0,0,0,0,0,0,0,0,0,0,0],"sum_hessian":[5.854665E2,5.692406E2,1.6225916E1,5.0874744E2,6.0493168E1,4.979716E2,1.0775832E1,1.0782716E1,4.9710453E1,1.5802835E1,4.8216876E2,3.6695698E1,1.3014756E1],"tree_param":{"num_deleted":"0","num_feature":"18","num_nodes":"13","size_leaf_vector":"1"}},{"base_weights":[3.5582613E-2,4.061391E-2,1.3108226E-2,3.3478085E-2,-6.5423585E-3,-3.3124115E-2,1.2620465E-2,5.344483E-3,-5.742743E-3],"categories":[],"categories_nodes":[],"categories_segments":[],"categories_sizes":[],"default_left":[0,0,0,0,0,0,0,0,0],"id":21,"left_children":[1,-1,3,-1,5,-1,7,-1,-1],"loss_changes":[1.0133625E1,0E0,7.3032255E0,0E0,6.9262056E0,0E0,6.45002E0,0E0,0E0],"parents":[2147483647,0,0,2,2,4,4,6,6],"right_children":[2,-1,4,-1,6,-1,8,-1,-1],"split_conditions":[4.7540322E-2,4.061391E-2,7.3624533E-1,3.3478085E-2,1.1710517E1,-3.3124115E-2,1.6286447E0,5.344483E-3,-5.742743E-3],"split_indices":[4,0,5,0,3,0,4,0,0],"split_type":[0,0,0,0,0,0,0,0,0],"sum_hessian":[5.801419E2,1.5326566E1,5.6481537E2,1.5454781E1,5.493606E2,1.4640706E1,5.3471985E2,3.0748978E2,2.2723009E2],"tree_param":{"num_deleted":"0","num_feature":"18","num_nodes":"9","size_leaf_vector":"1"}},{"base_weights":[1.9165425E-3,-1.454813E-1,7.366118E-2,1.3210341E-1,-3.1593347E-1,2.054828E-1,-7.1394205E-2,4.7840974E-1,-1.8203185E-1,-3.9929357E-1,8.873143E-3,5.7150805E-3,4.009092E-1,3.358725E-2,-1.3575225E-1,5.731938E-2,4.79485E-3,-2.5139738E-2,3.2815818E-2,-1.423718E-2,-3.7166137E-2,-1.1806497E-2,2.8960679E-2,2.5697738E-2,-2.4731932E-2,-9.9833645E-3,3.256494E-2],"categories":[],"categories_nodes":[],"categories_segments":[],"categories_sizes":[],"default_left":[0,0,0,0,0,0,0,0,0,0,0,0,0,0,0,0,0,0,0,0,0,0,0,0,0,0,0],"id":22,"left_children":[1,3,5,7,9,11,13,15,17,19,-1,21,23,-1,25,-1,-1,-1,-1,-1,-1,-1,-1,-1,-1,-1,-1],"loss_changes":[6.106802E0,8.987227E0,7.4414153E0,7.9885755E0,4.900713E0,7.9516706E0,8.970726E0,8.78767E0,1.0766352E1,3.7593575E0,0E0,1.425136E1,1.0679106E1,0E0,8.767019E0,0E0,0E0,0E0,0E0,0E0,0E0,0E0,0E0,0E0,0E0,0E0,0E0],"parents":[2147483647,0,0,1,1,2,2,3,3,4,4,5,5,6,6,7,7,8,8,9,9,11,11,12,12,14,14],"right_children":[2,4,6,8,10,12,14,16,18,20,-1,22,24,-1,26,-1,-1,-1,-1,-1,-1,-1,-1,-1,-1,-1,-1],"split_conditions":[4.8064455E-2,2.9328832E-2,1.6286447E0,4.7831813E-1,6.0301697E1,1E0,2.0301964E1,4.6209656E1,1.6784242E0,1.738084E0,8.873143E-3,2.7542807E1,6.937725E1,3.358725E-2,2.1199654E1,5.731938E-2,4.79485E-3,-2.5139738E-2,3.2815818E-2,-1.423718E-2,-3.7166137E-2,-1.1806497E-2,2.8960679E-2,2.5697738E-2,-2.4731932E-2,-9.9833645E-3,3.256494E-2],"split_indices":[7,7,4,4,0,11,3,0,4,4,0,3,0,0,1,0,0,0,0,0,0,0,0,0,0,0,0],"split_type":[0,0,0,0,0,0,0,0,0,0,0,0,0,0,0,0,0,0,0,0,0,0,0,0,0,0,0],"sum_hessian":[5.754618E2,1.8806284E2,3.8739893E2,7.1632645E1,1.164302E2,2.0273938E2,1.8465955E2,3.382292E1,3.780972E1,9.9765396E1,1.66648E1,1.0076508E2,1.019743E2,1.3965298E1,1.7069424E2,1.1588703E1,2.2234219E1,2.763606E1,1.0173659E1,7.621581E1,2.3549585E1,7.129019E1,2.9474895E1,9.092312E1,1.1051184E1,1.5856386E2,1.2130384E1],"tree_param":{"num_deleted":"0","num_feature":"18","num_nodes":"27","size_leaf_vector":"1"}},{"base_weights":[1.9261901E-3,1.9892078E-2,-3.012588E-2,3.8385037E-1,-6.902696E-3,-1.3777594E-3,6.274287E-1,-1.3319889E-1,8.623049E-2,5.002377E-2,1.3202364E-2,-1.4957626E-2,5.4793498E-3,1.1647759E-2,-1.1921037E-2],"categories":[],"categories_nodes":[],"categories_segments":[],"categories_sizes":[],"default_left":[0,0,0,0,0,0,0,0,0,0,0,0,0,0,0],"id":23,"left_children":[1,3,-1,5,7,-1,9,11,13,-1,-1,-1,-1,-1,-1],"loss_changes":[6.3733473E0,5.5599666E0,0E0,3.934855E0,6.2662416E0,0E0,3.0702171E0,9.142212E0,1.4663583E1,0E0,0E0,0E0,0E0,0E0,0E0],"parents":[2147483647,0,0,1,1,3,3,4,4,6,6,7,7,8,8],"right_children":[2,4,-1,6,8,-1,10,12,14,-1,-1,-1,-1,-1,-1],"split_conditions":[2.7156773E0,3.2841255E1,-3.012588E-2,3.3149105E1,4.9335945E1,-1.3777594E-3,2.1355352E0,2.793784E1,2.9456398E1,5.002377E-2,1.3202364E-2,-1.4957626E-2,5.4793498E-3,1.1647759E-2,-1.1921037E-2],"split_indices":[6,0,0,3,0,0,4,3,3,0,0,0,0,0,0],"split_type":[0,0,0,0,0,0,0,0,0,0,0,0,0,0,0],"sum_hessian":[5.847948E2,5.688538E2,1.5940956E1,3.809376E1,5.307601E2,1.4496293E1,2.3597467E1,2.2508978E2,3.056703E2,1.0778769E1,1.2818699E1,1.3356244E2,9.152733E1,2.1071913E2,9.495114E1],"tree_param":{"num_deleted":"0","num_feature":"18","num_nodes":"15","size_leaf_vector":"1"}},{"base_weights":[5.2172888E-2,1.7597985E-1,-8.932151E-2,1.1408725E-1,4.5387644E-1,-1.4286333E-1,3.508913E-2,2.3480959E-1,-1.6672E-1,6.1781454E-1,-7.184653E-3,2.764101E-4,-4.3030939E-1,5.301831E-3,3.5478186E-2,-3.840058E-2,1.372178E-3,1.9395325E-2,4.7154E-2,-1.0314139E-2,1.2459009E-2,5.549421E-3,-3.404553E-2],"categories":[],"categories_nodes":[],"categories_segments":[],"categories_sizes":[],"default_left":[0,0,0,0,0,0,0,0,0,0,0,0,0,0,0,0,0,0,0,0,0,0,0],"id":24,"left_children":[1,3,5,7,9,11,-1,13,15,17,-1,19,21,-1,-1,-1,-1,-1,-1,-1,-1,-1,-1],"loss_changes":[1.020018E1,5.287058E0,1.1620106E1,8.690292E0,5.5947704E0,1.0515128E1,0E0,1.0861076E1,9.047133E0,2.9464588E0,0E0,8.874116E0,1.1599915E1,0E0,0E0,0E0,0E0,0E0,0E0,0E0,0E0,0E0,0E0],"parents":[2147483647,0,0,1,1,2,2,3,3,4,4,5,5,7,7,8,8,9,9,11,11,12,12],"right_children":[2,4,6,8,10,12,-1,14,16,18,-1,20,22,-1,-1,-1,-1,-1,-1,-1,-1,-1,-1],"split_conditions":[7.933919E-1,1.1356816E-1,3.1796463E0,1E0,3.305946E0,2.991835E1,3.508913E-2,1.3808364E0,-5.393516E0,1E0,-7.184653E-3,2.1370144E1,5.8106545E-2,5.301831E-3,3.5478186E-2,-3.840058E-2,1.372178E-3,1.9395325E-2,4.7154E-2,-1.0314139E-2,1.2459009E-2,5.549421E-3,-3.404553E-2],"split_indices":[2,7,5,10,5,3,0,6,2,16,0,3,7,0,0,0,0,0,0,0,0,0,0],"split_type":[0,0,0,0,0,0,0,0,0,0,0,0,0,0,0,0,0,0,0,0,0,0,0],"sum_hessian":[5.803715E2,3.0940222E2,2.709693E2,2.541982E2,5.5204014E1,2.545601E2,1.6409182E1,1.778865E2,7.631169E1,4.3293053E1,1.1910962E1,1.7060356E2,8.395655E1,1.4089365E2,3.6992847E1,1.7905602E1,5.8406094E1,2.6649153E1,1.6643898E1,9.33259E1,7.727766E1,2.6744852E1,5.72117E1],"tree_param":{"num_deleted":"0","num_feature":"18","num_nodes":"23","size_leaf_vector":"1"}},{"base_weights":[-1.3738238E-2,6.856143E-2,-1.7579152E-1,-1.627985E-1,2.087774E-1,-7.937498E-3,-3.4332514E-1,-3.5242057E-1,1.2583949E-1,4.086502E-1,3.2930167E-3,-1.07163005E-1,3.5504963E-2,-4.5719934E-1,2.3486111E-2,-6.615969E-3,-4.6783406E-2,1.7021699E-2,-3.3757616E-2,1.3095153E-2,4.3585308E-2,-3.037968E-2,6.319739E-3,2.038117E-3,-3.2215413E-2,-2.8314827E-2,1.4532414E-2],"categories":[],"categories_nodes":[],"categories_segments":[],"categories_sizes":[],"default_left":[0,0,0,0,0,0,0,0,0,0,0,0,0,0,0,0,0,0,0,0,0,0,0,0,0,0,0],"id":25,"left_children":[1,3,5,7,9,11,13,15,17,19,21,23,-1,25,-1,-1,-1,-1,-1,-1,-1,-1,-1,-1,-1,-1,-1],"loss_changes":[7.8073006E0,1.26320915E1,5.5410643E0,8.095793E0,9.947641E0,7.1651654E0,9.347366E0,1.1307116E1,1.0381933E1,8.115454E0,9.134898E0,7.041366E0,0E0,7.2650986E0,0E0,0E0,0E0,0E0,0E0,0E0,0E0,0E0,0E0,0E0,0E0,0E0,0E0],"parents":[2147483647,0,0,1,1,2,2,3,3,4,4,5,5,6,6,7,7,8,8,9,9,10,10,11,11,13,13],"right_children":[2,4,6,8,10,12,14,16,18,20,22,24,-1,26,-1,-1,-1,-1,-1,-1,-1,-1,-1,-1,-1,-1,-1],"split_conditions":[2.9790812E1,4.8035744E1,6.547662E-1,1.082465E0,2.4586446E0,6.1217815E-2,3.305946E0,1E0,-6.43379E-1,5.7534256E1,3.9162455E0,-3.5911071E0,3.5504963E-2,5.316945E1,2.3486111E-2,-6.615969E-3,-4.6783406E-2,1.7021699E-2,-3.3757616E-2,1.3095153E-2,4.3585308E-2,-3.037968E-2,6.319739E-3,2.038117E-3,-3.2215413E-2,-2.8314827E-2,1.4532414E-2],"split_indices":[3,0,2,6,1,1,5,9,1,0,1,1,0,3,0,0,0,0,0,0,0,0,0,0,0,0,0],"split_type":[0,0,0,0,0,0,0,0,0,0,0,0,0,0,0,0,0,0,0,0,0,0,0,0,0,0,0],"sum_hessian":[5.834859E2,3.8734665E2,1.9613924E2,1.4610637E2,2.412403E2,9.8499115E1,9.764012E1,8.804429E1,5.806208E1,1.2178876E2,1.1945153E2,8.72876E1,1.1211519E1,8.602874E1,1.1611386E1,6.4812675E1,2.3231611E1,4.624699E1,1.1815091E1,9.366953E1,2.8119226E1,1.937388E1,1.0007765E2,6.9164406E1,1.812319E1,7.528832E1,1.0740411E1],"tree_param":{"num_deleted":"0","num_feature":"18","num_nodes":"27","size_leaf_vector":"1"}},{"base_weights":[1.1034292E-3,2.5743095E-2,-4.3195906E-1,-8.2342485E-3,2.8785622E-1,-5.0237128E-3,-4.5065727E-2,1.224511E-2,-3.2822143E-2,-2.3958048E-2,4.854656E-1,6.0965535E-3,-4.2480538E-3,1.2002767E-2,4.4323005E-2],"categories":[],"categories_nodes":[],"categories_segments":[],"categories_sizes":[],"default_left":[0,0,0,0,0,0,0,0,0,0,0,0,0,0,0],"id":26,"left_children":[1,3,5,7,9,-1,-1,11,-1,-1,13,-1,-1,-1,-1],"loss_changes":[6.120407E0,4.8352604E0,4.7135663E0,6.398058E0,9.675404E0,0E0,0E0,4.995989E0,0E0,0E0,4.710971E0,0E0,0E0,0E0,0E0],"parents":[2147483647,0,0,1,1,2,2,3,3,4,4,7,7,10,10],"right_children":[2,4,6,8,10,-1,-1,12,-1,-1,14,-1,-1,-1,-1],"split_conditions":[4.8086414E0,1.2614013E-1,4.272904E0,1.6136408E1,2.8290583E1,-5.0237128E-3,-4.5065727E-2,7.840571E-1,-3.2822143E-2,-2.3958048E-2,1E0,6.0965535E-3,-4.2480538E-3,1.2002767E-2,4.4323005E-2],"split_indices":[4,7,2,1,3,0,0,6,0,0,16,0,0,0,0],"split_type":[0,0,0,0,0,0,0,0,0,0,0,0,0,0,0],"sum_hessian":[5.7153906E2,5.416611E2,2.9877974E1,4.8036115E2,6.129994E1,1.8222385E1,1.1655588E1,4.666006E2,1.3760566E1,1.2265775E1,4.9034164E1,2.1910808E2,2.4749252E2,3.1409855E1,1.7624311E1],"tree_param":{"num_deleted":"0","num_feature":"18","num_nodes":"15","size_leaf_vector":"1"}},{"base_weights":[3.4494124E-2,1.4076588E-1,-9.397601E-2,2.8960446E-1,-1.056813E-1,-3.4538105E-1,1.9667495E-2,2.1401739E-1,4.9505696E-2,-4.8246312E-1,6.983543E-2,-1.2854469E-1,-8.545533E-1,-4.0573288E-2,3.8986094E-2,1.344009E-3,2.2711484E-2,-3.7429508E-2,7.3002405E-3,-2.9196296E-2,1.0757273E-2,-2.8902475E-2,8.606274E-3,-2.8439865E-2,-5.3437453E-2,3.2239263E-3,-2.2126703E-2],"categories":[],"categories_nodes":[],"categories_segments":[],"categories_sizes":[],"default_left":[0,0,0,0,0,0,0,0,0,0,0,0,0,0,0,0,0,0,0,0,0,0,0,0,0,0,0],"id":27,"left_children":[1,3,5,7,9,11,13,15,-1,17,19,21,23,25,-1,-1,-1,-1,-1,-1,-1,-1,-1,-1,-1,-1,-1],"loss_changes":[8.116903E0,1.196081E1,7.701214E0,1.0539244E1,8.180956E0,9.152628E0,8.567071E0,8.28362E0,0E0,6.6786175E0,8.192864E0,8.210608E0,9.149151E-1,7.362444E0,0E0,0E0,0E0,0E0,0E0,0E0,0E0,0E0,0E0,0E0,0E0,0E0,0E0],"parents":[2147483647,0,0,1,1,2,2,3,3,4,4,5,5,6,6,7,7,9,9,10,10,11,11,12,12,13,13],"right_children":[2,4,6,8,10,12,14,16,-1,18,20,22,24,26,-1,-1,-1,-1,-1,-1,-1,-1,-1,-1,-1,-1,-1],"split_conditions":[9.662262E-1,1.6286447E0,5.0302647E1,3.3149105E1,5.7339206E-2,4.700431E1,2.669424E0,4.7783768E1,4.9505696E-2,1.1473635E0,-1.8663885E1,1.8622597E0,1.3444884E0,2.0242581E0,3.8986094E-2,1.344009E-3,2.2711484E-2,-3.7429508E-2,7.3002405E-3,-2.9196296E-2,1.0757273E-2,-2.8902475E-2,8.606274E-3,-2.8439865E-2,-5.3437453E-2,3.2239263E-3,-2.2126703E-2],"split_indices":[2,4,0,3,7,0,5,0,0,6,1,4,4,5,0,0,0,0,0,0,0,0,0,0,0,0,0],"split_type":[0,0,0,0,0,0,0,0,0,0,0,0,0,0,0,0,0,0,0,0,0,0,0,0,0,0,0],"sum_hessian":[5.925564E2,3.2424338E2,2.6831302E2,2.020455E2,1.2219789E2,8.289389E1,1.8541911E2,1.8354587E2,1.8499632E1,3.8277897E1,8.391999E1,5.901443E1,2.387946E1,1.7267941E2,1.27396965E1,1.0379575E2,7.975011E1,2.6756586E1,1.152131E1,1.4711827E1,6.920817E1,2.3283236E1,3.5731197E1,1.1796883E1,1.2082576E1,1.3756628E2,3.511314E1],"tree_param":{"num_deleted":"0","num_feature":"18","num_nodes":"27","size_leaf_vector":"1"}},{"base_weights":[1.0328376E-2,3.148645E-2,-4.3613222E-1,1.2173235E-2,5.02537E-1,5.0764135E-3,-3.9395016E-2,-1.4551067E-1,6.0014516E-2,3.9111555E-2,9.018102E-3,2.7389193E-3,-2.2970527E-2,4.153112E-2,1.6046998E-3],"categories":[],"categories_nodes":[],"categories_segments":[],"categories_sizes":[],"default_left":[0,0,0,0,0,0,0,0,0,0,0,0,0,0,0],"id":28,"left_children":[1,3,5,7,9,-1,-1,11,13,-1,-1,-1,-1,-1,-1],"loss_changes":[5.4478183E0,4.999037E0,5.015572E0,4.0033574E0,1.8092484E0,0E0,0E0,7.792992E0,8.729656E0,0E0,0E0,0E0,0E0,0E0,0E0],"parents":[2147483647,0,0,1,1,2,2,3,3,4,4,7,7,8,8],"right_children":[2,4,6,8,10,-1,-1,12,14,-1,-1,-1,-1,-1,-1],"split_conditions":[2.43492E0,2.0617611E0,-3.0103652E0,1.768911E1,1.6801083E0,5.0764135E-3,-3.9395016E-2,1E0,1.8148779E1,3.9111555E-2,9.018102E-3,2.7389193E-3,-2.2970527E-2,4.153112E-2,1.6046998E-3],"split_indices":[6,6,2,3,5,0,0,10,3,0,0,0,0,0,0],"split_type":[0,0,0,0,0,0,0,0,0,0,0,0,0,0,0],"sum_hessian":[5.74264E2,5.49168E2,2.5095976E1,5.285242E2,2.064381E1,1.0206781E1,1.4889195E1,1.225524E2,4.059718E2,1.0286063E1,1.0357747E1,7.531921E1,4.723319E1,1.3189565E1,3.9278223E2],"tree_param":{"num_deleted":"0","num_feature":"18","num_nodes":"15","size_leaf_vector":"1"}},{"base_weights":[1.2512465E-3,9.111143E-2,-1.2851049E-1,-1.7768711E-1,2.1737319E-1,-2.1224676E-1,1.3254718E-1,-2.767513E-1,3.5920464E-2,6.523002E-1,1.0976993E-1,-1.5725635E-1,-5.0689705E-2,3.1312245E-1,-2.6303997E-2,-2.0500569E-2,2.0855062E-2,1.841545E-2,6.382559E-2,2.6104308E-4,2.157317E-2,-1.5708735E-2,4.9108734E-5,2.7900154E-2,-1.7852962E-3],"categories":[],"categories_nodes":[],"categories_segments":[],"categories_sizes":[],"default_left":[0,0,0,0,0,0,0,0,0,0,0,0,0,0,0,0,0,0,0,0,0,0,0,0,0],"id":29,"left_children":[1,3,5,7,9,11,13,15,-1,17,19,21,-1,23,-1,-1,-1,-1,-1,-1,-1,-1,-1,-1,-1],"loss_changes":[6.789659E0,1.1714607E1,5.236276E0,1.0008222E1,1.0904135E1,7.8085947E0,7.119465E0,9.438021E0,0E0,7.739729E0,6.3615265E0,4.2302165E0,0E0,3.9937978E0,0E0,0E0,0E0,0E0,0E0,0E0,0E0,0E0,0E0,0E0,0E0],"parents":[2147483647,0,0,1,1,2,2,3,3,4,4,5,5,6,6,7,7,9,9,10,10,11,11,13,13],"right_children":[2,4,6,8,10,12,14,16,-1,18,20,22,-1,24,-1,-1,-1,-1,-1,-1,-1,-1,-1,-1,-1],"split_conditions":[1.6137446E0,1.7148657E1,2.7504218E0,1.107548E0,-7.4537477E0,2.5572371E0,6.0105443E0,4.095187E0,3.5920464E-2,4.1748425E1,7.7123795E0,4.4008023E-1,-5.0689705E-2,8.57509E-1,-2.6303997E-2,-2.0500569E-2,2.0855062E-2,1.841545E-2,6.382559E-2,2.6104308E-4,2.157317E-2,-1.5708735E-2,4.9108734E-5,2.7900154E-2,-1.7852962E-3],"split_indices":[4,3,5,4,1,5,4,2,0,0,2,1,0,6,0,0,0,0,0,0,0,0,0,0,0],"split_type":[0,0,0,0,0,0,0,0,0,0,0,0,0,0,0,0,0,0,0,0,0,0,0,0,0],"sum_hessian":[5.802787E2,3.4302872E2,2.3725E2,1.09502235E2,2.3352647E2,1.797733E2,5.7476696E1,9.922409E1,1.0278146E1,4.5312706E1,1.8821378E2,1.693511E2,1.0422195E1,4.5520863E1,1.1955834E1,8.358079E1,1.5643297E1,3.2236454E1,1.3076253E1,1.4281552E2,4.5398243E1,8.453547E1,8.481564E1,2.6393055E1,1.9127808E1],"tree_param":{"num_deleted":"0","num_feature":"18","num_nodes":"25","size_leaf_vector":"1"}},{"base_weights":[-1.4787182E-2,-1.2680161E-1,7.1325E-2,3.609673E-1,-1.8052752E-1,-2.5496984E-2,1.09277E-1,5.6335915E-2,-1.762899E-2,-6.7260556E-2,-1.20924816E-1,2.346562E-1,-1.2877601E-1,-1.4075468E-2,1.0039983E-3,-8.723072E-3,1.8257186E-2,-2.452667E-2,2.4834655E-3],"categories":[],"categories_nodes":[],"categories_segments":[],"categories_sizes":[],"default_left":[0,0,0,0,0,0,0,0,0,0,0,0,0,0,0,0,0,0,0],"id":30,"left_children":[1,3,5,7,9,-1,11,-1,-1,-1,13,15,17,-1,-1,-1,-1,-1,-1],"loss_changes":[5.6468043E0,6.7317395E0,7.3595123E0,1.4370701E1,1.5790983E1,0E0,9.330996E0,0E0,0E0,0E0,4.9810286E0,1.0979131E1,7.0058093E0,0E0,0E0,0E0,0E0,0E0,0E0],"parents":[2147483647,0,0,1,1,2,2,3,3,4,4,6,6,10,10,11,11,12,12],"right_children":[2,4,6,8,10,-1,12,-1,-1,-1,14,16,18,-1,-1,-1,-1,-1,-1],"split_conditions":[4.8035744E1,2.5214858E-2,2.293875E-2,4.5470512E-1,1.3611761E1,-2.5496984E-2,2.7542807E1,5.6335915E-2,-1.762899E-2,-6.7260556E-2,2.793784E1,4.0915275E-1,-3.4231994E-1,-1.4075468E-2,1.0039983E-3,-8.723072E-3,1.8257186E-2,-2.452667E-2,2.4834655E-3],"split_indices":[0,7,7,4,3,0,3,0,0,0,3,4,1,0,0,0,0,0,0],"split_type":[0,0,0,0,0,0,0,0,0,0,0,0,0,0,0,0,0,0,0],"sum_hessian":[5.8347784E2,2.533928E2,3.3008502E2,2.4573679E1,2.2881914E2,1.9468792E1,3.106162E2,1.1573939E1,1.2999741E1,1.0089662E1,2.1872948E2,2.0346718E2,1.0714905E2,1.0179868E2,1.16930786E2,4.9121017E1,1.5434616E2,3.4816853E1,7.23322E1],"tree_param":{"num_deleted":"0","num_feature":"18","num_nodes":"19","size_leaf_vector":"1"}},{"base_weights":[1.0130679E-3,1.8295217E-2,-2.7325094E-2,2.7920175E-2,2.0539444E-3,-2.6454896E-2,2.0199468E-2,1.4545997E-2,-1.835487E-4],"categories":[],"categories_nodes":[],"categories_segments":[],"categories_sizes":[],"default_left":[0,0,0,0,0,0,0,0,0],"id":31,"left_children":[1,3,-1,-1,5,-1,7,-1,-1],"loss_changes":[5.5483084E0,4.9845734E0,0E0,0E0,5.3383603E0,0E0,3.4614494E0,0E0,0E0],"parents":[2147483647,0,0,1,1,4,4,6,6],"right_children":[2,4,-1,-1,6,-1,8,-1,-1],"split_conditions":[2.7156773E0,7.3624533E-1,-2.7325094E-2,2.7920175E-2,8.6128056E-1,-2.6454896E-2,3.3683304E1,1.4545997E-2,-1.835487E-4],"split_indices":[6,5,0,0,5,0,0,0,0],"split_type":[0,0,0,0,0,0,0,0,0],"sum_hessian":[5.843067E2,5.6736456E2,1.6942112E1,1.5588331E1,5.5177625E2,1.7297218E1,5.34479E2,4.240186E1,4.9207715E2],"tree_param":{"num_deleted":"0","num_feature":"18","num_nodes":"9","size_leaf_vector":"1"}},{"base_weights":[-2.3621593E-3,2.9656995E-2,-2.0701697E-2,-4.9182683E-1,4.398353E-3,-5.7215095E-2,-3.2292013E-3,1.3498919E-1,-9.271958E-2,-2.8285787E-2,8.694644E-3,-1.1125394E-2,2.3768658E-3],"categories":[],"categories_nodes":[],"categories_segments":[],"categories_sizes":[],"default_left":[0,0,0,0,0,0,0,0,0,0,0,0,0],"id":32,"left_children":[1,-1,3,5,7,-1,-1,9,11,-1,-1,-1,-1],"loss_changes":[6.3225064E0,0E0,6.6420274E0,7.8459706E0,6.7861958E0,0E0,0E0,6.3189964E0,5.597144E0,0E0,0E0,0E0,0E0],"parents":[2147483647,0,0,2,2,3,3,4,4,7,7,8,8],"right_children":[2,-1,4,6,8,-1,-1,10,12,-1,-1,-1,-1],"split_conditions":[2.9618326E-1,2.9656995E-2,3.6925057E-1,1.3072346E0,7.869181E-1,-5.7215095E-2,-3.2292013E-3,1.3172763E1,5.073342E1,-2.8285787E-2,8.694644E-3,-1.1125394E-2,2.3768658E-3],"split_indices":[6,0,6,4,6,0,0,3,0,0,0,0,0],"split_type":[0,0,0,0,0,0,0,0,0,0,0,0,0],"sum_hessian":[5.7679443E2,1.6296295E1,5.6049817E2,2.741055E1,5.330876E2,1.0182199E1,1.7228352E1,2.2719588E2,3.0589172E2,1.1238305E1,2.1595757E2,1.5857039E2,1.4732135E2],"tree_param":{"num_deleted":"0","num_feature":"18","num_nodes":"13","size_leaf_vector":"1"}},{"base_weights":[2.2781258E-3,9.5812894E-2,-1.12480596E-1,1.8526632E-1,-4.552915E-2,-3.1453985E-1,6.9426365E-2,2.4305275E-2,4.03003E-1,-4.1338667E-1,7.629349E-2,-5.801123E-2,-2.2081792E-1,2.4813391E-1,-2.894187E-1,-1.29015995E-2,1.5690437E-2,8.756603E-3,3.9148692E-2,-3.776483E-2,1.390401E-2,4.5844153E-2,-2.1930821E-3,2.9122567E-2,-1.5300061E-2,-9.021179E-3,2.0109268E-2,-1.3292878E-3,-4.2449735E-2],"categories":[],"categories_nodes":[],"categories_segments":[],"categories_sizes":[],"default_left":[0,0,0,0,0,0,0,0,0,0,0,0,0,0,0,0,0,0,0,0,0,0,0,0,0,0,0,0,0],"id":33,"left_children":[1,3,5,7,9,11,13,15,17,19,21,-1,23,25,27,-1,-1,-1,-1,-1,-1,-1,-1,-1,-1,-1,-1,-1,-1],"loss_changes":[6.266205E0,4.0748E0,9.657605E0,6.900067E0,5.6536975E0,9.601968E0,8.971304E0,9.433646E0,7.113098E0,7.625808E0,9.644429E0,0E0,7.9242945E0,6.224229E0,6.8307276E0,0E0,0E0,0E0,0E0,0E0,0E0,0E0,0E0,0E0,0E0,0E0,0E0,0E0,0E0],"parents":[2147483647,0,0,1,1,2,2,3,3,4,4,5,5,6,6,7,7,8,8,9,9,10,10,12,12,13,13,14,14],"right_children":[2,4,6,8,10,12,14,16,18,20,22,-1,24,26,28,-1,-1,-1,-1,-1,-1,-1,-1,-1,-1,-1,-1,-1,-1],"split_conditions":[9.662262E-1,1.6286447E0,5.516206E1,2.0816889E1,2.104933E0,9.776027E-1,2.9456398E1,4.7890614E1,1E0,-1.8956387E0,2.0095911E1,-5.801123E-2,1.218894E0,1.3321705E0,1.9546454E0,-1.29015995E-2,1.5690437E-2,8.756603E-3,3.9148692E-2,-3.776483E-2,1.390401E-2,4.5844153E-2,-2.1930821E-3,2.9122567E-2,-1.5300061E-2,-9.021179E-3,2.0109268E-2,-1.3292878E-3,-4.2449735E-2],"split_indices":[2,4,0,13,4,5,13,0,11,1,13,0,5,5,5,0,0,0,0,0,0,0,0,0,0,0,0,0,0],"split_type":[0,0,0,0,0,0,0,0,0,0,0,0,0,0,0,0,0,0,0,0,0,0,0,0,0,0,0,0,0],"sum_hessian":[5.8177136E2,3.206163E2,2.611551E2,1.9615913E2,1.2445717E2,1.2337882E2,1.3777628E2,1.1342313E2,8.2736E1,3.0367037E1,9.4090126E1,1.1173859E1,1.1220496E2,9.217897E1,4.55973E1,5.7477295E1,5.594583E1,5.263273E1,3.0103275E1,2.025783E1,1.0109207E1,1.0938061E1,8.315207E1,1.0198317E1,1.02006645E2,2.4328382E1,6.785059E1,3.1737637E1,1.3859664E1],"tree_param":{"num_deleted":"0","num_feature":"18","num_nodes":"29","size_leaf_vector":"1"}}]},"name":"gbtree"},"learner_model_param":{"base_score":"[5E-1]","boost_from_average":"1","num_class":"0","num_feature":"18","num_target":"1"},"objective":{"name":"binary:logistic","reg_loss_param":{"scale_pos_weight":"1.63534677"}}},"version":[3,2,0]}