{"learner":{"attributes":{"best_iteration":"0","best_score":"0.6949688267589795","scikit_learn":"{\"_estimator_type\": \"classifier\"}"},"feature_names":[],"feature_types":[],"gradient_booster":{"model":{"cats":{"enc":[],"feature_segments":[],"sorted_idx":[]},"gbtree_model_param":{"num_parallel_tree":"1","num_trees":"31"},"iteration_indptr":[0,1,2,3,4,5,6,7,8,9,10,11,12,13,14,15,16,17,18,19,20,21,22,23,24,25,26,27,28,29,30,31],"tree_info":[0,0,0,0,0,0,0,0,0,0,0,0,0,0,0,0,0,0,0,0,0,0,0,0,0,0,0,0,0,0,0],"trees":[{"base_weights":[-8.777456E-3,-5.8359753E-2,1.1131352E0,2.5072515E-2,-6.749018E-1,2.7545337E-2,7.2909094E-2,-1.08193755E-1,5.882353E-1,-2.8696492E-1,-1.1857305E0,-9.358148E-3,2.0725438E-2,3.8465712E-2,-1.9557595E-2,-3.026681E-2,2.4687603E-2,-8.440948E-2,-3.961769E-2],"categories":[],"categories_nodes":[],"categories_segments":[],"categories_sizes":[],"default_left":[0,0,0,0,0,0,0,0,0,0,0,0,0,0,0,0,0,0,0],"id":0,"left_children":[1,3,5,7,9,-1,-1,11,13,15,17,-1,-1,-1,-1,-1,-1,-1,-1],"loss_changes":[3.2603027E1,2.8880985E1,4.009014E0,3.722931E1,1.2920898E1,0E0,0E0,1.6641846E1,1.713404E1,1.00805E1,4.3083687E0,0E0,0E0,0E0,0E0,0E0,0E0,0E0,0E0],"parents":[2147483647,0,0,1,1,2,2,3,3,4,4,7,7,8,8,9,9,10,10],"right_children":[2,4,6,8,10,-1,-1,12,14,16,18,-1,-1,-1,-1,-1,-1,-1,-1],"split_conditions":[3.7975613E3,3.5485027E1,-4.8648214E-1,1.2768413E1,3.1994944E0,2.7545337E-2,7.2909094E-2,2.7162633E0,6.937725E1,2.7307266E-1,6.903489E1,-9.358148E-3,2.0725438E-2,3.8465712E-2,-1.9557595E-2,-3.026681E-2,2.4687603E-2,-8.440948E-2,-3.961769E-2],"split_indices":[19,24,3,24,37,0,0,27,22,11,22,0,0,0,0,0,0,0,0],"split_type":[0,0,0,0,0,0,0,0,0,0,0,0,0,0,0,0,0,0,0],"sum_hessian":[5.8393286E2,5.601264E2,2.3806488E1,4.9420807E2,6.591834E1,1.0041388E1,1.37651005E1,4.0029138E2,9.3916664E1,3.8353466E1,2.7564877E1,3.4831097E2,5.1980427E1,7.9442955E1,1.4473714E1,2.7403244E1,1.0950224E1,1.0658836E1,1.690604E1],"tree_param":{"num_deleted":"0","num_feature":"46","num_nodes":"19","size_leaf_vector":"1"}},{"base_weights":[1.0333641E-2,-4.8712455E-2,5.095134E-1,2.2268938E-2,-5.882112E-1,-2.8313844E-2,8.083024E-1,-1.9278786E-1,3.3125004E-1,-6.1701156E-2,-2.4609832E-1,1.37915155E-2,1.1684874E0,-1.5338007E-3,-3.7297934E-2,8.726192E-3,4.0506676E-2,2.6579516E-3,-4.8794877E-2,3.323498E-2,7.432041E-2],"categories":[],"categories_nodes":[],"categories_segments":[],"categories_sizes":[],"default_left":[0,0,0,0,0,0,0,0,0,0,0,0,0,0,0,0,0,0,0,0,0],"id":1,"left_children":[1,3,5,7,9,-1,11,13,15,-1,17,-1,19,-1,-1,-1,-1,-1,-1,-1,-1],"loss_changes":[1.718093E1,1.9980131E1,2.0275694E1,3.0746288E1,1.3098879E1,0E0,9.011087E0,2.4448303E1,1.4108416E1,0E0,8.985184E0,0E0,3.6118813E0,0E0,0E0,0E0,0E0,0E0,0E0,0E0,0E0],"parents":[2147483647,0,0,1,1,2,2,3,3,4,4,6,6,7,7,8,8,10,10,12,12],"right_children":[2,4,6,8,10,-1,12,14,16,-1,18,-1,20,-1,-1,-1,-1,-1,-1,-1,-1],"split_conditions":[3.515009E3,3.5485027E1,3.2904702E3,5.0982697E1,2.8825395E0,-2.8313844E-2,-5.254141E-1,4.9808788E-1,8.213709E-2,-6.1701156E-2,1.434102E-1,1.37915155E-2,1.8209728E0,-1.5338007E-3,-3.7297934E-2,8.726192E-3,4.0506676E-2,2.6579516E-3,-4.8794877E-2,3.323498E-2,7.432041E-2],"split_indices":[30,24,21,22,36,0,3,10,31,0,31,0,27,0,0,0,0,0,0,0,0],"split_type":[0,0,0,0,0,0,0,0,0,0,0,0,0,0,0,0,0,0,0,0,0],"sum_hessian":[5.8106384E2,5.2040906E2,6.065481E1,4.607476E2,5.9661446E1,1.2989796E1,4.7665016E1,2.7188586E2,1.8886174E2,1.9757618E1,3.9903828E1,1.9945219E1,2.7719799E1,2.1108182E2,6.080403E1,1.4332094E2,4.5540802E1,2.8957031E1,1.0946798E1,1.1920673E1,1.5799126E1],"tree_param":{"num_deleted":"0","num_feature":"46","num_nodes":"21","size_leaf_vector":"1"}},{"base_weights":[2.5659142E-2,-5.485022E-2,6.8058723E-1,-6.1713368E-2,-1.767524E-2,-2.705256E-2,9.724703E-1,5.22726E-2,-5.440034E-1,4.8287097E-1,1.4250101E0,-4.5848726E-3,1.7401055E-2,-5.4666366E-2,-5.76574E-3,-1.5839869E-3,5.3585626E-2,8.291425E-2,4.7647607E-2],"categories":[],"categories_nodes":[],"categories_segments":[],"categories_sizes":[],"default_left":[0,0,0,0,0,0,0,0,0,0,0,0,0,0,0,0,0,0,0],"id":2,"left_children":[1,3,5,-1,7,-1,9,11,13,15,17,-1,-1,-1,-1,-1,-1,-1,-1],"loss_changes":[3.0433943E1,2.2527504E1,2.3055597E1,0E0,1.8421389E1,0E0,1.0690376E1,1.8847683E1,1.3695797E1,7.9662595E0,1.3021278E0,0E0,0E0,0E0,0E0,0E0,0E0,0E0,0E0],"parents":[2147483647,0,0,1,1,2,2,4,4,6,6,7,7,8,8,9,9,10,10],"right_children":[2,4,6,-1,8,-1,10,12,14,16,18,-1,-1,-1,-1,-1,-1,-1,-1],"split_conditions":[3.515009E3,1.6110497E3,3.300799E3,-6.1713368E-2,3.5485027E1,-2.705256E-2,1.8270644E0,5.1748533E0,4.8748363E1,-4.4123054E-2,1.0333169E-1,-4.5848726E-3,1.7401055E-2,-5.4666366E-2,-5.76574E-3,-1.5839869E-3,5.3585626E-2,8.291425E-2,4.7647607E-2],"split_indices":[30,20,21,0,24,0,27,24,24,11,31,0,0,0,0,0,0,0,0],"split_type":[0,0,0,0,0,0,0,0,0,0,0,0,0,0,0,0,0,0,0],"sum_hessian":[5.7548126E2,5.1329846E2,6.218279E1,1.470071E1,4.9859778E2,1.182734E1,5.0355446E1,4.4090338E2,5.7694386E1,2.5180204E1,2.5175243E1,2.9700943E2,1.4389394E2,2.4609388E1,3.3085E1,1.39427395E1,1.1237464E1,1.5167235E1,1.0008009E1],"tree_param":{"num_deleted":"0","num_feature":"46","num_nodes":"19","size_leaf_vector":"1"}},{"base_weights":[-5.6418683E-4,-2.7832547E-2,7.13984E-2,3.7429594E-2,-4.9877712E-1,-1.18570596E-1,3.333917E-1,-7.4897367E-1,1.4945546E-2,-1.389354E-2,1.1908605E-2,5.427895E-3,3.1486224E-2,-5.8666408E-2,-2.0051278E-2,3.0636018E-2,-2.701882E-2],"categories":[],"categories_nodes":[],"categories_segments":[],"categories_sizes":[],"default_left":[0,0,0,0,0,0,0,0,0,0,0,0,0,0,0,0,0],"id":3,"left_children":[1,3,-1,5,7,9,11,13,15,-1,-1,-1,-1,-1,-1,-1,-1],"loss_changes":[2.3047123E1,1.7861828E1,0E0,2.3624266E1,9.102133E0,1.9117792E1,1.1696306E1,6.555359E0,8.346361E0,0E0,0E0,0E0,0E0,0E0,0E0,0E0,0E0],"parents":[2147483647,0,0,1,1,3,3,4,4,5,5,6,6,7,7,8,8],"right_children":[2,4,-1,6,8,10,12,14,16,-1,-1,-1,-1,-1,-1,-1,-1],"split_conditions":[3.8901472E3,3.5485027E1,7.13984E-2,7.5931735E-2,2.3165734E-1,6.5806828E0,4.6796577E1,4.970723E1,1.1992155E0,-1.389354E-2,1.1908605E-2,5.427895E-3,3.1486224E-2,-5.8666408E-2,-2.0051278E-2,3.0636018E-2,-2.701882E-2],"split_indices":[19,24,0,31,11,24,22,24,25,0,0,0,0,0,0,0,0],"split_type":[0,0,0,0,0,0,0,0,0,0,0,0,0,0,0,0,0],"sum_hessian":[5.8963354E2,5.7955133E2,1.0082178E1,5.0982217E2,6.9729164E1,3.3424344E2,1.7557872E2,4.658372E1,2.3145445E1,2.3121678E2,1.0302666E2,1.0061011E2,7.496862E1,1.9918798E1,2.6664925E1,1.1096879E1,1.2048566E1],"tree_param":{"num_deleted":"0","num_feature":"46","num_nodes":"17","size_leaf_vector":"1"}},{"base_weights":[1.7647296E-3,-3.607153E-2,5.290347E-2,4.3395266E-2,-5.1127446E-1,-1.1343259E-1,4.2873058E-1,-7.793229E-1,2.714468E-2,-1.4291796E-2,1.1178204E-2,-2.9783694E-2,2.6371956E-2,-7.387476E-2,-2.8607065E-2,3.341429E-2,-3.2645103E-2],"categories":[],"categories_nodes":[],"categories_segments":[],"categories_sizes":[],"default_left":[0,0,0,0,0,0,0,0,0,0,0,0,0,0,0,0,0],"id":4,"left_children":[1,3,-1,5,7,9,11,13,15,-1,-1,-1,-1,-1,-1,-1,-1],"loss_changes":[2.3412222E1,2.1380188E1,0E0,2.9386452E1,1.1726923E1,2.0156681E1,1.4535238E1,6.9922676E0,1.2611634E1,0E0,0E0,0E0,0E0,0E0,0E0,0E0,0E0],"parents":[2147483647,0,0,1,1,3,3,4,4,5,5,6,6,7,7,8,8],"right_children":[2,4,-1,6,8,10,12,14,16,-1,-1,-1,-1,-1,-1,-1,-1],"split_conditions":[3.8185667E3,3.1054983E1,5.290347E-2,5.9557533E0,2.3165734E-1,7.7798694E-2,1.7011549E3,5.606943E1,9.137814E3,-1.4291796E-2,1.1178204E-2,-2.9783694E-2,2.6371956E-2,-7.387476E-2,-2.8607065E-2,3.341429E-2,-3.2645103E-2],"split_indices":[19,24,0,24,11,31,21,22,8,0,0,0,0,0,0,0,0],"split_type":[0,0,0,0,0,0,0,0,0,0,0,0,0,0,0,0,0],"sum_hessian":[5.838395E2,5.645823E2,1.925718E1,4.8447382E2,8.010846E1,3.4483487E2,1.3963895E2,5.318382E1,2.6924644E1,2.2822804E2,1.16606834E2,1.1830151E1,1.2780879E2,1.0767498E1,4.241632E1,1.3867656E1,1.3056989E1],"tree_param":{"num_deleted":"0","num_feature":"46","num_nodes":"17","size_leaf_vector":"1"}},{"base_weights":[-2.4592865E-2,-1.0196552E-1,4.2582157E-1,-6.0080703E-2,-5.8393367E-2,6.2237215E-1,-1.6442041E-1,4.233351E-2,-3.770026E-1,-9.682824E-3,7.799581E-1,2.4035567E-2,-4.065809E-2,-2.5189433E-2,6.9154166E-3,-2.892214E-2,3.4206957E-2,1.6262298E-2,6.2146105E-2],"categories":[],"categories_nodes":[],"categories_segments":[],"categories_sizes":[],"default_left":[0,0,0,0,0,0,0,0,0,0,0,0,0,0,0,0,0,0,0],"id":5,"left_children":[1,3,5,7,-1,9,11,13,15,-1,17,-1,-1,-1,-1,-1,-1,-1,-1],"loss_changes":[2.057091E1,2.2407948E1,1.014247E1,1.5774053E1,0E0,8.526798E0,9.7703085E0,1.9348972E1,2.5763277E1,0E0,1.112981E1,0E0,0E0,0E0,0E0,0E0,0E0,0E0,0E0],"parents":[2147483647,0,0,1,1,2,2,3,3,5,5,6,6,7,7,8,8,10,10],"right_children":[2,4,6,8,-1,10,12,14,16,-1,18,-1,-1,-1,-1,-1,-1,-1,-1],"split_conditions":[3.4155183E3,3.365749E3,4.9128353E1,5.006433E-1,-5.8393367E-2,1.4645357E1,2.0038042E0,-6.29551E4,1.8130254E4,-9.682824E-3,-7.4153535E3,2.4035567E-2,-4.065809E-2,-2.5189433E-2,6.9154166E-3,-2.892214E-2,3.4206957E-2,1.6262298E-2,6.2146105E-2],"split_indices":[19,30,23,10,0,33,27,12,13,0,13,0,0,0,0,0,0,0,0],"split_type":[0,0,0,0,0,0,0,0,0,0,0,0,0,0,0,0,0,0,0],"sum_hessian":[5.8802814E2,5.0248447E2,8.554368E1,4.8450223E2,1.798224E1,6.4132965E1,2.1410711E1,3.6682733E2,1.1767488E2,1.0343299E1,5.3789665E1,1.08650875E1,1.0545625E1,5.4194893E1,3.1263245E2,9.928261E1,1.8392273E1,2.7995592E1,2.5794073E1],"tree_param":{"num_deleted":"0","num_feature":"46","num_nodes":"19","size_leaf_vector":"1"}},{"base_weights":[-2.3127625E-2,-1.0997503E-1,4.5932707E-1,-7.654694E-2,-7.33753E-2,-2.45924E-2,6.7789656E-1,-2.3910733E-1,1.0438689E-1,3.1500986E-1,1.0951533E0,-1.9555114E-2,1.5054694E-2,-5.3534247E-2,8.705252E-3,4.289162E-2,-7.7331546E-3,7.0092194E-2,1.8354792E-2],"categories":[],"categories_nodes":[],"categories_segments":[],"categories_sizes":[],"default_left":[0,0,0,0,0,0,0,0,0,0,0,0,0,0,0,0,0,0,0],"id":6,"left_children":[1,3,5,7,-1,-1,9,11,13,15,17,-1,-1,-1,-1,-1,-1,-1,-1],"loss_changes":[2.4346212E1,2.2223574E1,1.8763512E1,1.4185012E1,0E0,0E0,1.0633614E1,2.0964375E1,1.8908777E1,1.0377355E1,6.925934E0,0E0,0E0,0E0,0E0,0E0,0E0,0E0,0E0],"parents":[2147483647,0,0,1,1,2,2,3,3,6,6,7,7,8,8,9,9,10,10],"right_children":[2,4,6,8,-1,-1,10,12,14,16,18,-1,-1,-1,-1,-1,-1,-1,-1],"split_conditions":[3.4099263E3,3.3766006E3,3.2904702E3,6.470434E-2,-7.33753E-2,-2.45924E-2,1.8618661E0,1.081426E1,-4.0758168E4,1.403654E0,8.679736E1,-1.9555114E-2,1.5054694E-2,-5.3534247E-2,8.705252E-3,4.289162E-2,-7.7331546E-3,7.0092194E-2,1.8354792E-2],"split_indices":[19,30,21,31,0,0,27,24,13,27,26,0,0,0,0,0,0,0,0],"split_type":[0,0,0,0,0,0,0,0,0,0,0,0,0,0,0,0,0,0,0],"sum_hessian":[5.788504E2,4.9120065E2,8.7649734E1,4.804269E2,1.0773737E1,1.6143932E1,7.15058E1,2.5289307E2,2.2753384E2,3.918324E1,3.2322563E1,1.9757729E2,5.5315784E1,1.1939581E1,2.1559427E2,1.7792818E1,2.139042E1,2.209127E1,1.0231291E1],"tree_param":{"num_deleted":"0","num_feature":"46","num_nodes":"19","size_leaf_vector":"1"}},{"base_weights":[2.8501397E-2,-8.5998595E-2,3.2907552E-1,-3.729397E-1,7.3229134E-2,5.954266E-2,6.676359E-1,-2.663281E-1,-5.9619922E-2,2.0110895E-1,-6.1117184E-1,-6.645713E-1,2.9235172E-1,5.133892E-1,6.820872E-2,-2.5561882E-2,1.2491194E-3,-1.0188214E-3,3.6913376E-2,-5.341443E-2,-1.3781348E-2,-5.7148017E-2,-4.548327E-3,-1.107231E-3,2.9172901E-2,6.391544E-2,1.6025169E-2],"categories":[],"categories_nodes":[],"categories_segments":[],"categories_sizes":[],"default_left":[0,0,0,0,0,0,0,0,0,0,0,0,0,0,0,0,0,0,0,0,0,0,0,0,0,0,0],"id":7,"left_children":[1,3,5,7,9,11,13,15,-1,17,19,21,23,25,-1,-1,-1,-1,-1,-1,-1,-1,-1,-1,-1,-1,-1],"loss_changes":[2.032701E1,1.9577646E1,1.4826168E1,1.3037939E1,2.428119E1,1.5669701E1,7.047062E0,9.755662E0,0E0,2.7774319E1,6.4089394E0,6.1083345E0,6.436141E0,8.537258E0,0E0,0E0,0E0,0E0,0E0,0E0,0E0,0E0,0E0,0E0,0E0,0E0,0E0],"parents":[2147483647,0,0,1,1,2,2,3,3,4,4,5,5,6,6,7,7,9,9,10,10,11,11,12,12,13,13],"right_children":[2,4,6,8,10,12,14,16,-1,18,20,22,24,26,-1,-1,-1,-1,-1,-1,-1,-1,-1,-1,-1,-1,-1],"split_conditions":[3.1592915E3,-1.5927821E-1,4.959455E-1,-2.645749E-1,3.2806076E1,4.4512E5,1.7687E-4,4.952987E1,-5.9619922E-2,8.712187E0,1.6651856E0,3.4514072E3,-3.765905E0,-6.837045E1,6.820872E-2,-2.5561882E-2,1.2491194E-3,-1.0188214E-3,3.6913376E-2,-5.341443E-2,-1.3781348E-2,-5.7148017E-2,-4.548327E-3,-1.107231E-3,2.9172901E-2,6.391544E-2,1.6025169E-2],"split_indices":[21,3,9,3,24,14,0,22,0,24,27,21,24,24,0,0,0,0,0,0,0,0,0,0,0,0,0],"split_type":[0,0,0,0,0,0,0,0,0,0,0,0,0,0,0,0,0,0,0,0,0,0,0,0,0,0,0],"sum_hessian":[5.88809E2,4.2690045E2,1.6190855E2,1.5187227E2,2.7502817E2,9.079846E1,7.11101E1,1.355608E2,1.631146E1,2.3232465E2,4.2703533E1,2.1639088E1,6.915937E1,5.9640022E1,1.1470077E1,7.3235535E1,6.2325275E1,1.6517888E2,6.714577E1,1.71526E1,2.5550932E1,1.1257604E1,1.0381485E1,3.3688244E1,3.547113E1,1.0877255E1,4.8762764E1],"tree_param":{"num_deleted":"0","num_feature":"46","num_nodes":"27","size_leaf_vector":"1"}},{"base_weights":[5.914801E-3,-2.336276E-1,1.5694718E-1,-3.3836922E-1,2.396681E-1,1.1868591E-1,5.6410212E-2,-5.3467196E-1,-5.682678E-2,-2.5476012E-2,6.164436E-1,2.627053E-1,-1.3341586E-1,-4.1433E-2,-1.11216325E-2,1.5054886E-2,-2.442287E-2,4.8212018E-2,4.9380916E-3,6.016959E-4,3.642867E-2,2.436991E-2,-1.9383233E-2],"categories":[],"categories_nodes":[],"categories_segments":[],"categories_sizes":[],"default_left":[0,0,0,0,0,0,0,0,0,0,0,0,0,0,0,0,0,0,0,0,0,0,0],"id":8,"left_children":[1,3,5,7,9,11,-1,13,15,-1,17,19,21,-1,-1,-1,-1,-1,-1,-1,-1,-1,-1],"loss_changes":[2.1098938E1,1.1261177E1,1.3156909E1,1.0198168E1,1.2014661E1,1.2568853E1,0E0,9.814386E0,1.2065846E1,0E0,4.952036E0,2.5687317E1,2.010431E1,0E0,0E0,0E0,0E0,0E0,0E0,0E0,0E0,0E0,0E0],"parents":[2147483647,0,0,1,1,2,2,3,3,4,4,5,5,7,7,8,8,10,10,11,11,12,12],"right_children":[2,4,6,8,10,12,-1,14,16,-1,18,20,22,-1,-1,-1,-1,-1,-1,-1,-1,-1,-1],"split_conditions":[-1.5927821E-1,3.4099263E3,3.305946E0,1.27415E3,-3.9271387E4,1.6286447E0,5.6410212E-2,7.091459E-2,2.496E-5,-2.5476012E-2,3.7119705E3,7.0276756E0,7.342E-5,-4.1433E-2,-1.11216325E-2,1.5054886E-2,-2.442287E-2,4.8212018E-2,4.9380916E-3,6.016959E-4,3.642867E-2,2.436991E-2,-1.9383233E-2],"split_indices":[3,19,27,8,12,36,0,31,0,0,19,24,0,0,0,0,0,0,0,0,0,0,0],"split_type":[0,0,0,0,0,0,0,0,0,0,0,0,0,0,0,0,0,0,0,0,0,0,0],"sum_hessian":[5.811739E2,2.2452417E2,3.5664972E2,1.8407332E2,4.0450848E1,3.442122E2,1.2437544E1,1.0792475E2,7.614857E1,1.3417966E1,2.7032883E1,2.1903879E2,1.2517339E2,5.473513E1,5.318962E1,4.17939E1,3.435467E1,1.5653621E1,1.1379262E1,1.4307806E2,7.596072E1,3.610259E1,8.907081E1],"tree_param":{"num_deleted":"0","num_feature":"46","num_nodes":"23","size_leaf_vector":"1"}},{"base_weights":[-2.3077909E-2,-8.290401E-1,1.2404033E-2,-7.047121E-2,-1.615362E-2,6.6573924E-1,-3.0731944E-2,-9.7359E-3,1.1024225E0,-5.7539392E-2,-4.2096176E-3,7.692991E-2,2.9246027E-2,2.1851922E-3,-3.1471718E-2],"categories":[],"categories_nodes":[],"categories_segments":[],"categories_sizes":[],"default_left":[0,0,0,0,0,0,0,0,0,0,0,0,0,0,0],"id":9,"left_children":[1,3,5,-1,-1,7,9,-1,11,-1,13,-1,-1,-1,-1],"loss_changes":[1.6465424E1,6.6742287E0,1.5580843E1,0E0,0E0,1.3080463E1,1.540966E1,0E0,4.260847E0,0E0,1.5242336E1,0E0,0E0,0E0,0E0],"parents":[2147483647,0,0,1,1,2,2,5,5,6,6,8,8,10,10],"right_children":[2,4,6,-1,-1,8,10,-1,12,-1,14,-1,-1,-1,-1],"split_conditions":[1.6239374E3,1.7590143E1,1.6908164E3,-7.047121E-2,-1.615362E-2,-2.2595978E-1,1.7508354E3,-9.7359E-3,1.7073131E3,-5.7539392E-2,4.6015427E1,7.692991E-2,2.9246027E-2,2.1851922E-3,-3.1471718E-2],"split_indices":[20,26,19,0,0,3,20,0,21,0,33,0,0,0,0],"split_type":[0,0,0,0,0,0,0,0,0,0,0,0,0,0,0],"sum_hessian":[5.744128E2,2.3278698E1,5.511341E2,1.0010398E1,1.3268299E1,3.3240578E1,5.1789355E2,1.1377002E1,2.1863577E1,1.09992285E1,5.0689432E2,1.0793321E1,1.1070257E1,4.7167786E2,3.521645E1],"tree_param":{"num_deleted":"0","num_feature":"46","num_nodes":"15","size_leaf_vector":"1"}},{"base_weights":[3.0398991E-2,-5.6943864E-2,6.0530435E-2,5.381505E-2,3.8380593E-2,-5.0037373E-2,6.2014494E-2,1.8763299E-3,4.0055316E-2],"categories":[],"categories_nodes":[],"categories_segments":[],"categories_sizes":[],"default_left":[0,0,0,0,0,0,0,0,0],"id":10,"left_children":[1,-1,3,-1,5,-1,7,-1,-1],"loss_changes":[2.053164E1,0E0,1.2719264E1,0E0,1.3718913E1,0E0,9.827751E0,0E0,0E0],"parents":[2147483647,0,0,2,2,4,4,6,6],"right_children":[2,-1,4,-1,6,-1,8,-1,-1],"split_conditions":[1.6110497E3,-5.6943864E-2,1.1891638E1,5.381505E-2,1.7969992E-2,-5.0037373E-2,3.7084963E3,1.8763299E-3,4.0055316E-2],"split_indices":[20,0,26,0,31,0,29,0,0],"split_type":[0,0,0,0,0,0,0,0,0],"sum_hessian":[5.7979913E2,1.3641266E1,5.661579E2,1.1066509E1,5.550914E2,1.1424818E1,5.4366656E2,5.2724835E2,1.6418236E1],"tree_param":{"num_deleted":"0","num_feature":"46","num_nodes":"9","size_leaf_vector":"1"}},{"base_weights":[1.3540921E-2,-1.4473137E-2,4.20981E-2,-5.2264392E-2,7.0273154E-3,6.0489565E-2,-3.4474307E-1,-2.6569834E-3,2.393496E-2,5.154048E-4,-4.302272E-2],"categories":[],"categories_nodes":[],"categories_segments":[],"categories_sizes":[],"default_left":[0,0,0,0,0,0,0,0,0,0,0],"id":11,"left_children":[1,3,-1,-1,5,7,9,-1,-1,-1,-1],"loss_changes":[1.3422939E1,1.2417412E1,0E0,0E0,1.0354961E1,2.2733458E1,1.3310353E1,0E0,0E0,0E0,0E0],"parents":[2147483647,0,0,1,1,4,4,5,5,6,6],"right_children":[2,4,-1,-1,6,8,10,-1,-1,-1,-1],"split_conditions":[3.8185667E3,1.6037805E3,4.20981E-2,-5.2264392E-2,3.5485027E1,1.081426E1,3.1994944E0,-2.6569834E-3,2.393496E-2,5.154048E-4,-4.302272E-2],"split_indices":[19,20,0,0,24,24,37,0,0,0,0],"split_type":[0,0,0,0,0,0,0,0,0,0,0],"sum_hessian":[5.768645E2,5.589456E2,1.7918892E1,1.04472475E1,5.484984E2,4.768539E2,7.164446E1,3.7565884E2,1.01195076E2,4.301203E1,2.8632435E1],"tree_param":{"num_deleted":"0","num_feature":"46","num_nodes":"11","size_leaf_vector":"1"}},{"base_weights":[-1.5511658E-2,2.3179582E-1,-1.12333916E-1,1.0428673E-2,5.985011E-1,-4.3160993E-1,9.847337E-2,4.759558E-1,-2.8897738E-1,-1.5531946E-2,9.820558E-1,4.6412066E-2,-5.497699E-1,4.4930062E-1,-2.7905664E-1,-4.054186E-2,4.6373103E-2,-2.9485274E-2,2.2438169E-2,-3.0122528E-2,3.4905013E-2,6.745841E-2,7.023886E-3,-3.3866342E-2,2.4988137E-3,-4.1059054E-2,2.8387679E-2,-2.1145737E-2,2.7245743E-2],"categories":[],"categories_nodes":[],"categories_segments":[],"categories_sizes":[],"default_left":[0,0,0,0,0,0,0,0,0,0,0,0,0,0,0,0,0,0,0,0,0,0,0,0,0,0,0,0,0],"id":12,"left_children":[1,3,5,7,9,11,13,15,17,19,21,-1,23,25,27,-1,-1,-1,-1,-1,-1,-1,-1,-1,-1,-1,-1,-1,-1],"loss_changes":[1.3880358E1,1.323492E1,2.8073769E1,1.4456503E1,1.4472042E1,2.7153172E1,3.345767E1,2.4333801E1,1.42736E1,1.0717998E1,1.1488396E1,0E0,1.1752792E1,2.0154854E1,1.4672215E1,0E0,0E0,0E0,0E0,0E0,0E0,0E0,0E0,0E0,0E0,0E0,0E0,0E0,0E0],"parents":[2147483647,0,0,1,1,2,2,3,3,4,4,5,5,6,6,7,7,8,8,9,9,10,10,12,12,13,13,14,14],"right_children":[2,4,6,8,10,12,14,16,18,20,22,-1,24,26,28,-1,-1,-1,-1,-1,-1,-1,-1,-1,-1,-1,-1,-1,-1],"split_conditions":[-1.238879E1,-2.4806866E1,4.990312E0,-4.7900357E0,-5.420657E-1,1.1891638E1,1.6137446E0,-3.329382E4,8.008628E1,3.839578E1,2.5800364E3,4.6412066E-2,3.271967E3,1.7011549E3,3.2904702E3,-4.054186E-2,4.6373103E-2,-2.9485274E-2,2.2438169E-2,-3.0122528E-2,3.4905013E-2,6.745841E-2,7.023886E-3,-3.3866342E-2,2.4988137E-3,-4.1059054E-2,2.8387679E-2,-2.1145737E-2,2.7245743E-2],"split_indices":[24,24,24,37,3,26,36,13,26,26,19,0,28,21,21,0,0,0,0,0,0,0,0,0,0,0,0,0,0],"split_type":[0,0,0,0,0,0,0,0,0,0,0,0,0,0,0,0,0,0,0,0,0,0,0,0,0,0,0,0,0],"sum_hessian":[5.7759247E2,1.6211569E2,4.1547678E2,1.0173205E2,6.0383644E1,1.648132E2,2.5066357E2,3.9588608E1,6.214344E1,2.358535E1,3.6798294E1,1.2627938E1,1.5218526E2,1.2982811E2,1.2083545E2,1.007604E1,2.951257E1,4.429E1,1.785344E1,1.3027131E1,1.0558218E1,2.5201694E1,1.15966015E1,1.2538782E2,2.6797441E1,1.0566224E1,1.1926189E2,1.0328887E2,1.7546583E1],"tree_param":{"num_deleted":"0","num_feature":"46","num_nodes":"29","size_leaf_vector":"1"}},{"base_weights":[1.1040636E-2,-5.2754067E-2,3.819937E-1,-2.4620913E-2,-6.313002E-2,-1.79862E-2,5.528039E-1,7.7911705E-2,-3.454591E-1,2.2886454E-1,8.8981324E-1,-1.0549255E-2,1.2850352E-2,-2.4864368E-2,2.9164342E-2,-2.279254E-2,2.7028171E-2,5.881515E-2,1.3270952E-2],"categories":[],"categories_nodes":[],"categories_segments":[],"categories_sizes":[],"default_left":[0,0,0,0,0,0,0,0,0,0,0,0,0,0,0,0,0,0,0],"id":13,"left_children":[1,3,5,7,-1,-1,9,11,13,15,17,-1,-1,-1,-1,-1,-1,-1,-1],"loss_changes":[1.3882325E1,1.7010921E1,1.1104219E1,1.6157171E1,0E0,0E0,7.477495E0,1.9322283E1,1.7060963E1,8.190409E0,5.7944126E0,0E0,0E0,0E0,0E0,0E0,0E0,0E0,0E0],"parents":[2147483647,0,0,1,1,2,2,3,3,6,6,7,7,8,8,9,9,10,10],"right_children":[2,4,6,8,-1,-1,10,12,14,16,18,-1,-1,-1,-1,-1,-1,-1,-1],"split_conditions":[3.4155183E3,3.3932935E3,3.300799E3,5.007032E-1,-6.313002E-2,-1.79862E-2,-4.014331E-2,-1.02661416E-1,2.0040006E4,-8.740989E0,3.7381135E3,-1.0549255E-2,1.2850352E-2,-2.4864368E-2,2.9164342E-2,-2.279254E-2,2.7028171E-2,5.881515E-2,1.3270952E-2],"split_indices":[19,30,21,10,0,0,11,3,13,23,19,0,0,0,0,0,0,0,0],"split_type":[0,0,0,0,0,0,0,0,0,0,0,0,0,0,0,0,0,0,0],"sum_hessian":[5.847708E2,4.996937E2,8.50771E1,4.893353E2,1.0358405E1,1.5718006E1,6.935909E1,3.714011E2,1.1793421E2,3.6221478E1,3.313762E1,1.4206288E2,2.2933821E2,1.0176291E2,1.61713E1,1.11861515E1,2.5035324E1,2.2109322E1,1.1028296E1],"tree_param":{"num_deleted":"0","num_feature":"46","num_nodes":"19","size_leaf_vector":"1"}},{"base_weights":[-1.5266139E-2,-2.5455686E-1,1.3391617E-1,-5.913491E-1,-6.393794E-2,7.440503E-1,6.766838E-2,-7.756173E-1,2.81094E-2,3.9904016E-1,-1.75885E-1,5.8746237E-2,9.499425E-3,3.3668935E-2,4.938822E-2,4.008299E-3,-5.179996E-2,-1.3036742E-2,4.173649E-2,-1.2780334E-2,2.8115312E-2,-6.4249383E-3,1.1349227E-2],"categories":[],"categories_nodes":[],"categories_segments":[],"categories_sizes":[],"default_left":[0,0,0,0,0,0,0,0,0,0,0,0,0,0,0,0,0,0,0,0,0,0,0],"id":14,"left_children":[1,3,5,7,9,11,13,15,-1,17,19,-1,-1,21,-1,-1,-1,-1,-1,-1,-1,-1,-1],"loss_changes":[2.0824419E1,1.4342613E1,1.4476536E1,1.7618734E1,7.541902E0,8.156471E0,1.0142931E1,1.570853E1,0E0,8.37462E0,7.0164785E0,0E0,0E0,9.896135E0,0E0,0E0,0E0,0E0,0E0,0E0,0E0,0E0,0E0],"parents":[2147483647,0,0,1,1,2,2,3,3,4,4,5,5,6,6,7,7,9,9,10,10,13,13],"right_children":[2,4,6,8,10,12,14,16,-1,18,20,-1,-1,22,-1,-1,-1,-1,-1,-1,-1,-1,-1],"split_conditions":[-1.5927821E-1,-2.6033378E-1,3.510435E1,3.4175898E3,-9.069633E0,1.4018456E0,1.26318E-3,1.0974286E5,2.81094E-2,4.8694444E-1,1.4613152E1,5.8746237E-2,9.499425E-3,4.965745E-1,4.938822E-2,4.008299E-3,-5.179996E-2,-1.3036742E-2,4.173649E-2,-1.2780334E-2,2.8115312E-2,-6.4249383E-3,1.1349227E-2],"split_indices":[3,11,22,29,37,36,1,7,0,10,37,0,0,9,0,0,0,0,0,0,0,0,0],"split_type":[0,0,0,0,0,0,0,0,0,0,0,0,0,0,0,0,0,0,0,0,0,0,0],"sum_hessian":[5.8139575E2,2.2299768E2,3.5839804E2,7.983685E1,1.4316081E2,3.4100967E1,3.242971E2,6.912269E1,1.071417E1,2.737633E1,1.15784485E2,1.8552654E1,1.5548311E1,3.1374033E2,1.055676E1,1.628658E1,5.2836105E1,1.1047858E1,1.6328472E1,1.05089035E2,1.0695453E1,1.7079767E2,1.4294266E2],"tree_param":{"num_deleted":"0","num_feature":"46","num_nodes":"23","size_leaf_vector":"1"}},{"base_weights":[4.350208E-2,-1.746145E-1,1.7972173E-1,-3.201564E-1,2.9940715E-1,2.613518E-1,-1.748829E-1,-1.1184134E-1,-5.9302115E-1,4.0508356E-2,-2.9894507E-2,9.555984E-2,6.729691E-1,-4.507518E-1,3.5487495E-2,-3.615874E-2,2.0299144E-3,4.945873E-3,-4.0946182E-2,-3.5820436E-2,1.8896298E-2,-1.4191622E-2,2.0495398E-2,4.0725708E-2,8.224951E-3,-5.5170145E-2,-6.6043474E-3],"categories":[],"categories_nodes":[],"categories_segments":[],"categories_sizes":[],"default_left":[0,0,0,0,0,0,0,0,0,0,0,0,0,0,0,0,0,0,0,0,0,0,0,0,0,0,0],"id":15,"left_children":[1,3,5,7,9,11,13,15,17,-1,19,21,23,25,-1,-1,-1,-1,-1,-1,-1,-1,-1,-1,-1,-1,-1],"loss_changes":[1.7428598E1,1.56605E1,1.0493202E1,9.772602E0,9.024996E0,1.9984665E1,1.6948267E1,9.291567E0,1.1758028E1,0E0,9.650236E0,2.5232574E1,5.925312E0,1.0783738E1,0E0,0E0,0E0,0E0,0E0,0E0,0E0,0E0,0E0,0E0,0E0,0E0,0E0],"parents":[2147483647,0,0,1,1,2,2,3,3,4,4,5,5,6,6,7,7,8,8,10,10,11,11,12,12,13,13],"right_children":[2,4,6,8,10,12,14,16,18,-1,20,22,24,26,-1,-1,-1,-1,-1,-1,-1,-1,-1,-1,-1,-1,-1],"split_conditions":[-1.5927821E-1,3.3707385E3,3.1054983E1,9.0672994E-1,2.8174E-4,8.712187E0,3.2904702E3,-6.091016E4,2.696E-5,4.0508356E-2,3.515009E3,2.0816889E1,2.7138464E1,2.8825395E0,3.5487495E-2,-3.615874E-2,2.0299144E-3,4.945873E-3,-4.0946182E-2,-3.5820436E-2,1.8896298E-2,-1.4191622E-2,2.0495398E-2,4.0725708E-2,8.224951E-3,-5.5170145E-2,-6.6043474E-3],"split_indices":[3,21,24,37,1,24,21,12,1,0,30,33,33,36,0,0,0,0,0,0,0,0,0,0,0,0,0],"split_type":[0,0,0,0,0,0,0,0,0,0,0,0,0,0,0,0,0,0,0,0,0,0,0,0,0,0,0],"sum_hessian":[5.845329E2,2.246072E2,3.599257E2,1.7209299E2,5.2514214E1,2.9278867E2,6.713704E1,9.838903E1,7.370395E1,2.0012999E1,3.2501217E1,2.0959842E2,8.3190254E1,5.1551414E1,1.5585622E1,1.8889973E1,7.949906E1,1.827864E1,5.5425312E1,1.1830086E1,2.0671131E1,9.501736E1,1.14581055E2,6.46042E1,1.8586048E1,1.6104841E1,3.5446575E1],"tree_param":{"num_deleted":"0","num_feature":"46","num_nodes":"27","size_leaf_vector":"1"}},{"base_weights":[3.092453E-3,-6.0698505E-2,4.3240836E-1,-1.7409298E-1,3.018265E-1,-9.557512E-2,6.552886E-1,3.0315986E-3,-5.1592946E-1,-3.4534654E-1,4.5559973E-1,-2.8831288E-2,2.042162E-2,8.853533E-1,5.859324E-4,7.008397E-3,-3.12342E-2,-1.4156744E-2,-5.237286E-2,-5.9272375E-2,2.7966017E-2,7.103091E-2,1.07601015E-2,6.0087483E-2,2.820691E-2],"categories":[],"categories_nodes":[],"categories_segments":[],"categories_sizes":[],"default_left":[0,0,0,0,0,0,0,0,0,0,0,0,0,0,0,0,0,0,0,0,0,0,0,0,0],"id":16,"left_children":[1,3,5,7,9,11,13,15,17,19,21,-1,-1,23,-1,-1,-1,-1,-1,-1,-1,-1,-1,-1,-1],"loss_changes":[1.569786E1,2.0569231E1,8.788505E0,2.3058569E1,1.2027885E1,5.7835913E0,7.7285614E0,2.176573E1,1.5786465E1,1.850008E1,2.2153315E1,0E0,0E0,3.2338543E0,0E0,0E0,0E0,0E0,0E0,0E0,0E0,0E0,0E0,0E0,0E0],"parents":[2147483647,0,0,1,1,2,2,3,3,4,4,5,5,6,6,7,7,8,8,9,9,10,10,13,13],"right_children":[2,4,6,8,10,12,14,16,18,20,22,-1,-1,24,-1,-1,-1,-1,-1,-1,-1,-1,-1,-1,-1],"split_conditions":[1.0734502E0,3.300799E3,1.0195556E0,4.9808788E-1,6.5429E-4,2.3740283E3,1.2037634E-1,2.8258306E3,6.7884E-4,3.2979956E3,3.3833013E3,-2.8831288E-2,2.042162E-2,4.020958E1,5.859324E-4,7.008397E-3,-3.12342E-2,-1.4156744E-2,-5.237286E-2,-5.9272375E-2,2.7966017E-2,7.103091E-2,1.07601015E-2,6.0087483E-2,2.820691E-2],"split_indices":[3,21,23,10,2,21,31,21,2,30,21,0,0,26,0,0,0,0,0,0,0,0,0,0,0],"split_type":[0,0,0,0,0,0,0,0,0,0,0,0,0,0,0,0,0,0,0,0,0,0,0,0,0],"sum_hessian":[5.712392E2,4.9808817E2,7.315104E1,3.7980762E2,1.1828055E2,2.1883099E1,5.126794E1,2.5082982E2,1.2897781E2,2.2469429E1,9.581111E1,1.1122824E1,1.0760275E1,3.749018E1,1.37777605E1,2.06494E2,4.433582E1,9.076007E1,3.8217743E1,1.1489533E1,1.0979896E1,1.812864E1,7.768248E1,1.750577E1,1.998441E1],"tree_param":{"num_deleted":"0","num_feature":"46","num_nodes":"25","size_leaf_vector":"1"}},{"base_weights":[-6.226363E-4,-2.792458E-2,5.3952307E-2,3.7530597E-2,-3.8841894E-1,-2.7919348E-2,6.649559E-1,-5.5884445E-1,2.1144414E-2,-7.82896E-3,1.2371162E-2,4.98589E-2,-1.7946104E-2,-4.9657848E-2,-1.4335679E-2],"categories":[],"categories_nodes":[],"categories_segments":[],"categories_sizes":[],"default_left":[0,0,0,0,0,0,0,0,0,0,0,0,0,0,0],"id":17,"left_children":[1,3,-1,5,7,9,11,13,-1,-1,-1,-1,-1,-1,-1],"loss_changes":[1.695858E1,1.3254489E1,0E0,1.9556892E1,1.2170487E1,1.5335724E1,1.5659485E1,8.196484E0,0E0,0E0,0E0,0E0,0E0,0E0,0E0],"parents":[2147483647,0,0,1,1,3,3,4,4,5,5,6,6,7,7],"right_children":[2,4,-1,6,8,10,12,14,-1,-1,-1,-1,-1,-1,-1],"split_conditions":[4.0537412E3,2.9507856E1,5.3952307E-2,2.030009E1,3.300799E3,7.5931735E-2,6.937725E1,2.962794E0,2.1144414E-2,-7.82896E-3,1.2371162E-2,4.98589E-2,-1.7946104E-2,-4.9657848E-2,-1.4335679E-2],"split_indices":[28,24,0,23,21,31,22,36,0,0,0,0,0,0,0],"split_type":[0,0,0,0,0,0,0,0,0,0,0,0,0,0,0],"sum_hessian":[5.7329236E2,5.6010297E2,1.3189374E1,4.747908E2,8.5312164E1,4.3080667E2,4.398415E1,7.075942E1,1.4552744E1,2.9390463E2,1.3690204E2,3.3228447E1,1.0755701E1,2.6236776E1,4.4522644E1],"tree_param":{"num_deleted":"0","num_feature":"46","num_nodes":"15","size_leaf_vector":"1"}},{"base_weights":[-2.937531E-3,-1.9613583E-1,1.19375914E-1,-8.490293E-1,-1.24917224E-1,6.227479E-1,6.719201E-2,-1.8672539E-2,-6.162828E-2,-4.264171E-1,4.152045E-2,-4.5703775E-3,5.755934E-2,1.3185218E-1,-4.0087304E-1,1.7114637E-2,-3.7387062E-2,-1.1505637E-2,1.1571181E-2,4.570241E-3,5.3991318E-2,-3.845792E-2,1.3944064E-2],"categories":[],"categories_nodes":[],"categories_segments":[],"categories_sizes":[],"default_left":[0,0,0,0,0,0,0,0,0,0,0,0,0,0,0,0,0,0,0,0,0,0,0],"id":18,"left_children":[1,3,5,7,9,11,13,-1,-1,15,17,-1,-1,19,21,-1,-1,-1,-1,-1,-1,-1,-1],"loss_changes":[1.3776163E1,1.0402284E1,9.335553E0,3.5625181E0,1.0301786E1,1.2714319E1,9.876293E0,0E0,0E0,1.8282993E1,6.9117327E0,0E0,0E0,1.0864933E1,1.0139042E1,0E0,0E0,0E0,0E0,0E0,0E0,0E0,0E0],"parents":[2147483647,0,0,1,1,2,2,3,3,4,4,5,5,6,6,9,9,10,10,13,13,14,14],"right_children":[2,4,6,8,10,12,14,-1,-1,16,18,-1,-1,20,22,-1,-1,-1,-1,-1,-1,-1,-1],"split_conditions":[-1.5927821E-1,1.7631874E3,3.510435E1,-1.7696632E3,-2.6033378E-1,5.8801E-4,4.038302E1,-1.8672539E-2,-6.162828E-2,4.6647298E-1,-1.1363106E1,-4.5703775E-3,5.755934E-2,2.4071928E4,1.0734502E0,1.7114637E-2,-3.7387062E-2,-1.1505637E-2,1.1571181E-2,4.570241E-3,5.3991318E-2,-3.845792E-2,1.3944064E-2],"split_indices":[3,21,22,13,11,2,33,0,0,9,23,0,0,13,3,0,0,0,0,0,0,0,0],"split_type":[0,0,0,0,0,0,0,0,0,0,0,0,0,0,0,0,0,0,0,0,0,0,0],"sum_hessian":[5.809853E2,2.2499475E2,3.559905E2,2.1054756E1,2.0394E2,3.2411522E1,3.23579E2,1.0280639E1,1.0774117E1,7.198251E1,1.3195749E2,1.4135379E1,1.8276144E1,2.8493533E2,3.8643673E1,2.1200024E1,5.0782486E1,5.420794E1,7.774955E1,2.74327E2,1.0608331E1,2.4978827E1,1.3664847E1],"tree_param":{"num_deleted":"0","num_feature":"46","num_nodes":"23","size_leaf_vector":"1"}},{"base_weights":[-1.9767612E-2,4.7156125E-2,-4.0783793E-2,-5.551932E-2,-1.4190235E-2,-3.958275E-2,3.7106376E-2,4.123952E-3,-1.0828797E-2],"categories":[],"categories_nodes":[],"categories_segments":[],"categories_sizes":[],"default_left":[0,0,0,0,0,0,0,0,0],"id":19,"left_children":[1,-1,3,-1,5,7,-1,-1,-1],"loss_changes":[1.1648026E1,0E0,1.5981593E1,0E0,1.0587683E1,1.1529933E1,0E0,0E0,0E0],"parents":[2147483647,0,0,2,2,4,4,5,5],"right_children":[2,-1,4,-1,6,8,-1,-1,-1],"split_conditions":[1.1891638E1,4.7156125E-2,1.7969992E-2,-5.551932E-2,3.8185667E3,1.6286447E0,3.7106376E-2,4.123952E-3,-1.0828797E-2],"split_indices":[26,0,31,0,19,36,0,0,0],"split_type":[0,0,0,0,0,0,0,0,0],"sum_hessian":[5.727006E2,1.1295663E1,5.6140497E2,1.2630917E1,5.4877405E2,5.318649E2,1.6909101E1,3.1509586E2,2.1676907E2],"tree_param":{"num_deleted":"0","num_feature":"46","num_nodes":"9","size_leaf_vector":"1"}},{"base_weights":[-1.4353999E-2,-1.13749124E-1,2.4526545E-1,-6.24407E-2,-5.944728E-1,-2.6341754E-3,5.2012855E-1,-2.501577E-2,-4.3571364E-2,-5.987814E-2,-1.4508952E-1,1.4455065E-1,-3.822627E-2,-7.531967E-3,6.302395E-1,-5.7002227E-3,1.7342722E-2,2.680555E-2,-3.277441E-2,-1.6429571E-2,2.0651245E-2,5.679179E-2,1.8122533E-2],"categories":[],"categories_nodes":[],"categories_segments":[],"categories_sizes":[],"default_left":[0,0,0,0,0,0,0,0,0,0,0,0,0,0,0,0,0,0,0,0,0,0,0],"id":20,"left_children":[1,3,5,7,9,11,13,15,-1,-1,17,19,-1,-1,21,-1,-1,-1,-1,-1,-1,-1,-1],"loss_changes":[1.508374E1,1.0386407E1,1.1029428E1,1.1572901E1,1.0839808E1,9.764859E0,5.763977E0,1.2186372E1,0E0,0E0,8.843287E0,9.407995E0,0E0,0E0,8.541143E0,0E0,0E0,0E0,0E0,0E0,0E0,0E0,0E0],"parents":[2147483647,0,0,1,1,2,2,3,3,4,4,5,5,6,6,7,7,10,10,11,11,14,14],"right_children":[2,4,6,8,10,12,14,16,-1,-1,18,20,-1,-1,22,-1,-1,-1,-1,-1,-1,-1,-1],"split_conditions":[3.1592915E3,2.753635E3,8.847369E-2,2.3705451E0,1.18037E-3,-6.636331E3,4.8545146E-1,2.3674343E3,-4.3571364E-2,-5.987814E-2,3.0994094E3,-8.885509E0,-3.822627E-2,-7.531967E-3,-5.177774E3,-5.7002227E-3,1.7342722E-2,2.680555E-2,-3.277441E-2,-1.6429571E-2,2.0651245E-2,5.679179E-2,1.8122533E-2],"split_indices":[21,30,11,32,2,8,10,29,0,0,20,24,0,0,13,0,0,0,0,0,0,0,0],"split_type":[0,0,0,0,0,0,0,0,0,0,0,0,0,0,0,0,0,0,0,0,0,0,0],"sum_hessian":[5.824488E2,4.2160098E2,1.6084778E2,3.8196332E2,3.9637676E1,8.5092804E1,7.5754974E1,3.6605975E2,1.5903551E1,1.6213552E1,2.3424124E1,7.199486E1,1.3097947E1,1.0630234E1,6.512474E1,2.9593567E2,7.01241E1,1.0011696E1,1.3412428E1,2.5981964E1,4.6012894E1,2.1427397E1,4.3697346E1],"tree_param":{"num_deleted":"0","num_feature":"46","num_nodes":"23","size_leaf_vector":"1"}},{"base_weights":[3.462914E-2,5.1643044E-2,7.3054726E-3,-5.1382013E-2,3.0566514E-2,4.3732643E-2,5.7444633E-3,-1.1627533E-3,3.9311048E-2],"categories":[],"categories_nodes":[],"categories_segments":[],"categories_sizes":[],"default_left":[0,0,0,0,0,0,0,0,0],"id":21,"left_children":[1,-1,3,-1,5,-1,7,-1,-1],"loss_changes":[1.5750891E1,0E0,1.3593882E1,0E0,1.1559516E1,0E0,1.2176841E1,0E0,0E0],"parents":[2147483647,0,0,2,2,4,4,6,6],"right_children":[2,-1,4,-1,6,-1,8,-1,-1],"split_conditions":[1.1891638E1,5.1643044E-2,1.6069564E3,-5.1382013E-2,1.6524725E3,4.3732643E-2,3.8185667E3,-1.1627533E-3,3.9311048E-2],"split_indices":[26,0,20,0,21,0,19,0,0],"split_type":[0,0,0,0,0,0,0,0,0],"sum_hessian":[5.7675366E2,1.4385851E1,5.6236786E2,1.1412592E1,5.5095526E2,1.4761059E1,5.361942E2,5.179205E2,1.8273745E1],"tree_param":{"num_deleted":"0","num_feature":"46","num_nodes":"9","size_leaf_vector":"1"}},{"base_weights":[1.9064043E-3,4.7339197E-2,-2.2677215E-2,-2.6334918E-1,8.6351186E-2,-1.47799E-1,-8.9913154E-1,-4.4889998E-2,1.2794594E-1,-1.8968211E-2,1.0339296E-2,-2.609163E-2,-6.698066E-2,-1.2887026E-2,1.0995875E-2],"categories":[],"categories_nodes":[],"categories_segments":[],"categories_sizes":[],"default_left":[0,0,0,0,0,0,0,0,0,0,0,0,0,0,0],"id":22,"left_children":[1,-1,3,5,7,9,11,-1,13,-1,-1,-1,-1,-1,-1],"loss_changes":[1.3325832E1,0E0,1.4696524E1,1.2693789E1,1.590027E1,1.2307945E1,3.7308426E0,0E0,1.3211703E1,0E0,0E0,0E0,0E0,0E0,0E0],"parents":[2147483647,0,0,2,2,3,3,4,4,5,5,6,6,8,8],"right_children":[2,-1,4,6,8,10,12,-1,14,-1,-1,-1,-1,-1,-1],"split_conditions":[1.1891638E1,4.7339197E-2,4.8064455E-2,1.7054924E0,-4.6792777E4,3.9376962E0,2.6382E-4,-4.4889998E-2,1.8976927E3,-1.8968211E-2,1.0339296E-2,-2.609163E-2,-6.698066E-2,-1.2887026E-2,1.0995875E-2],"split_indices":[26,0,31,27,13,23,1,0,20,0,0,0,0,0,0],"split_type":[0,0,0,0,0,0,0,0,0,0,0,0,0,0,0],"sum_hessian":[5.717601E2,1.3547455E1,5.582126E2,1.7359634E2,3.8461624E2,1.4794125E2,2.5655094E1,1.4761758E1,3.698545E2,8.945312E1,5.8488136E1,1.4995359E1,1.0659736E1,7.086729E1,2.9898718E2],"tree_param":{"num_deleted":"0","num_feature":"46","num_nodes":"15","size_leaf_vector":"1"}},{"base_weights":[1.5891823E-3,-3.8560595E-2,3.691732E-1,-4.4560596E-2,-1.6736895E-2,7.3282963E-1,2.110097E-2,3.504878E-2,-4.6810757E-2,4.873723E-2,1.3455607E-2,-2.7615681E-2,4.5903195E-2,-3.4607816E-3,4.346099E-2],"categories":[],"categories_nodes":[],"categories_segments":[],"categories_sizes":[],"default_left":[0,0,0,0,0,0,0,0,0,0,0,0,0,0,0],"id":23,"left_children":[1,3,5,-1,7,9,11,-1,13,-1,-1,-1,-1,-1,-1],"loss_changes":[8.61193E0,9.774799E0,7.257723E0,0E0,1.1127014E1,2.886716E0,1.6136889E1,0E0,1.0204091E1,0E0,0E0,0E0,0E0,0E0,0E0],"parents":[2147483647,0,0,1,1,2,2,4,4,5,5,6,6,8,8],"right_children":[2,4,6,-1,8,10,12,-1,14,-1,-1,-1,-1,-1,-1],"split_conditions":[3.4514072E3,-4.6792777E4,1E0,-4.4560596E-2,-6.5467705E1,1.6735479E0,5.8212676E0,3.504878E-2,3.8185667E3,4.873723E-2,1.3455607E-2,-2.7615681E-2,4.5903195E-2,-3.4607816E-3,4.346099E-2],"split_indices":[21,13,38,0,24,37,25,0,19,0,0,0,0,0,0],"split_type":[0,0,0,0,0,0,0,0,0,0,0,0,0,0,0],"sum_hessian":[5.8156213E2,5.2510236E2,5.6459793E1,1.2110452E1,5.129919E2,2.7071173E1,2.9388622E1,1.9733906E1,4.9325797E2,1.7066036E1,1.00051365E1,1.8162107E1,1.1226516E1,4.8238394E2,1.0874022E1],"tree_param":{"num_deleted":"0","num_feature":"46","num_nodes":"15","size_leaf_vector":"1"}},{"base_weights":[5.127033E-2,7.711733E-2,-3.7464257E-2,-5.720027E-1,1.0503467E-1,-4.8701238E-2,-5.817728E-3,5.02264E-2,8.271702E-2,-5.2434992E-2,5.355051E-3],"categories":[],"categories_nodes":[],"categories_segments":[],"categories_sizes":[],"default_left":[0,0,0,0,0,0,0,0,0,0,0],"id":24,"left_children":[1,3,-1,5,7,-1,-1,-1,9,-1,-1],"loss_changes":[1.2016014E1,1.0221795E1,0E0,4.150627E0,1.072649E1,0E0,0E0,0E0,1.4638309E1,0E0,0E0],"parents":[2147483647,0,0,1,1,3,3,4,4,8,8],"right_children":[2,4,-1,6,8,-1,-1,-1,10,-1,-1],"split_conditions":[2.7156773E0,1.6239374E3,-3.7464257E-2,2.8862827E1,1.1891638E1,-4.8701238E-2,-5.817728E-3,5.02264E-2,1.7969992E-2,-5.2434992E-2,5.355051E-3],"split_indices":[32,20,0,33,26,0,0,0,31,0,0],"split_type":[0,0,0,0,0,0,0,0,0,0,0],"sum_hessian":[5.7691693E2,5.5974835E2,1.7168552E1,2.2277353E1,5.37471E2,1.1230725E1,1.1046627E1,1.1947007E1,5.25524E2,1.0200773E1,5.1532324E2],"tree_param":{"num_deleted":"0","num_feature":"46","num_nodes":"11","size_leaf_vector":"1"}},{"base_weights":[-8.546066E-3,-5.1602926E-2,1.555048E-2,1.4247142E-1,-1.799754E-1,-3.867012E-2,3.9323857E-1,6.970457E-2,-4.1483626E-1,-1.8508933E-2,1.1830577E-2,2.4544999E-2,-1.8985031E-2,3.3900257E-2,-5.1074913E-3,-3.7228838E-2,-9.763878E-4],"categories":[],"categories_nodes":[],"categories_segments":[],"categories_sizes":[],"default_left":[0,0,0,0,0,0,0,0,0,0,0,0,0,0,0,0,0],"id":25,"left_children":[1,-1,3,5,7,9,11,13,15,-1,-1,-1,-1,-1,-1,-1,-1],"loss_changes":[1.4359041E1,0E0,1.4150225E1,1.571792E1,1.3192171E1,1.8486933E1,1.1137262E1,1.1533145E1,1.50817585E1,0E0,0E0,0E0,0E0,0E0,0E0,0E0,0E0],"parents":[2147483647,0,0,2,2,3,3,4,4,5,5,6,6,7,7,8,8],"right_children":[2,-1,4,6,8,10,12,14,16,-1,-1,-1,-1,-1,-1,-1,-1],"split_conditions":[1.6110497E3,-5.1602926E-2,1.6286447E0,2.108501E1,2.2542E-4,1.0195556E0,2.0242581E0,1.5668938E0,2.9191856E0,-1.8508933E-2,1.1830577E-2,2.4544999E-2,-1.8985031E-2,3.3900257E-2,-5.1074913E-3,-3.7228838E-2,-9.763878E-4],"split_indices":[20,0,36,41,1,23,27,27,36,0,0,0,0,0,0,0,0],"split_type":[0,0,0,0,0,0,0,0,0,0,0,0,0,0,0,0,0],"sum_hessian":[5.8055634E2,1.2391495E1,5.6816486E2,3.4468936E2,2.234755E2,2.0061848E2,1.4407088E2,1.08661224E2,1.1481427E2,9.085791E1,1.09760574E2,1.282334E2,1.583749E1,2.3287373E1,8.5373856E1,6.211689E1,5.269738E1],"tree_param":{"num_deleted":"0","num_feature":"46","num_nodes":"17","size_leaf_vector":"1"}},{"base_weights":[3.3779133E-3,-6.852526E-2,4.8001555E-1,-3.36623E-2,-6.7937964E-1,5.06943E-2,7.437825E-1,-1.3496959E-1,1.8338488E-1,-5.329724E-2,-1.1418469E-2,2.3280403E-2,-2.7601913E-2,6.9843106E-2,1.7160095E-1,-1.0937686E-2,2.258811E-2,1.5901603E-2,-1.5722562E-2,2.914524E-2,-1.3992271E-2],"categories":[],"categories_nodes":[],"categories_segments":[],"categories_sizes":[],"default_left":[0,0,0,0,0,0,0,0,0,0,0,0,0,0,0,0,0,0,0,0,0],"id":26,"left_children":[1,3,5,7,9,11,13,15,17,-1,-1,-1,-1,-1,19,-1,-1,-1,-1,-1,-1],"loss_changes":[1.9544151E1,1.0530663E1,8.427103E0,1.0356159E1,4.412215E0,7.6396513E0,1.7035446E1,1.5874554E1,1.01509695E1,0E0,0E0,0E0,0E0,0E0,4.9502006E0,0E0,0E0,0E0,0E0,0E0,0E0],"parents":[2147483647,0,0,1,1,2,2,3,3,4,4,5,5,6,6,7,7,8,8,14,14],"right_children":[2,4,6,8,10,12,14,16,18,-1,-1,-1,-1,-1,20,-1,-1,-1,-1,-1,-1],"split_conditions":[1.0734502E0,6.937725E1,3.6575725E0,8.100006E-2,3.593218E1,-4.1379876E0,1.4743631E0,3.4155183E3,3.8939064E0,-5.329724E-2,-1.1418469E-2,2.3280403E-2,-2.7601913E-2,6.9843106E-2,4.272904E0,-1.0937686E-2,2.258811E-2,1.5901603E-2,-1.5722562E-2,2.914524E-2,-1.3992271E-2],"split_indices":[3,22,24,31,33,23,36,19,36,0,0,0,0,0,37,0,0,0,0,0,0],"split_type":[0,0,0,0,0,0,0,0,0,0,0,0,0,0,0,0,0,0,0,0,0],"sum_hessian":[5.6831006E2,4.945595E2,7.375055E1,4.6885583E2,2.5703651E1,2.8520786E1,4.5229767E1,3.1991357E2,1.4894228E2,1.3106493E1,1.2597159E1,1.7027065E1,1.149372E1,2.0448666E1,2.47811E1,2.8048767E2,3.9425907E1,1.1751875E2,3.1423521E1,1.2814692E1,1.1966407E1],"tree_param":{"num_deleted":"0","num_feature":"46","num_nodes":"21","size_leaf_vector":"1"}},{"base_weights":[3.540146E-2,1.6140504E-1,-1.1704084E-1,3.1708735E-1,-9.789015E-2,-4.2981565E-1,2.607759E-2,-2.4992728E-1,4.6921304E-1,-5.3587633E-1,1.1246307E-1,-2.0793614E-1,-7.1858115E-2,-4.0767696E-2,4.2678557E-2,-5.1960796E-2,1.3212341E-2,1.6420243E-2,4.7803693E-2,2.5211591E-3,-4.156284E-2,-2.8061057E-2,1.3484891E-2,-3.2637116E-2,7.0873536E-3,-9.901265E-3,1.6871737E-2],"categories":[],"categories_nodes":[],"categories_segments":[],"categories_sizes":[],"default_left":[0,0,0,0,0,0,0,0,0,0,0,0,0,0,0,0,0,0,0,0,0,0,0,0,0,0,0],"id":27,"left_children":[1,3,5,7,9,11,13,15,17,19,21,23,-1,25,-1,-1,-1,-1,-1,-1,-1,-1,-1,-1,-1,-1,-1],"loss_changes":[1.1345307E1,1.3079753E1,1.1981812E1,1.7559723E1,1.1303367E1,1.8477589E1,1.0235233E1,1.789924E1,1.0639942E1,6.9288034E0,8.971428E0,1.0982409E1,0E0,1.0271615E1,0E0,0E0,0E0,0E0,0E0,0E0,0E0,0E0,0E0,0E0,0E0,0E0,0E0],"parents":[2147483647,0,0,1,1,2,2,3,3,4,4,5,5,6,6,7,7,8,8,9,9,10,10,11,11,13,13],"right_children":[2,4,6,8,10,12,14,16,18,20,22,24,-1,26,-1,-1,-1,-1,-1,-1,-1,-1,-1,-1,-1,-1,-1],"split_conditions":[9.662262E-1,1.6286447E0,5.0302647E1,8E-5,5.8625463E-2,2.094638E3,2.669424E0,-5.561587E0,2.7018742E1,1.4677434E0,-3.329382E4,2.9996738E0,-7.1858115E-2,8.1136155E-1,4.2678557E-2,-5.1960796E-2,1.3212341E-2,1.6420243E-2,4.7803693E-2,2.5211591E-3,-4.156284E-2,-2.8061057E-2,1.3484891E-2,-3.2637116E-2,7.0873536E-3,-9.901265E-3,1.6871737E-2],"split_indices":[37,36,22,1,31,13,27,23,33,27,13,25,0,3,0,0,0,0,0,0,0,0,0,0,0,0,0],"split_type":[0,0,0,0,0,0,0,0,0,0,0,0,0,0,0,0,0,0,0,0,0,0,0,0,0,0,0],"sum_hessian":[5.886633E2,3.2224658E2,2.6641678E2,2.0121379E2,1.2103279E2,8.300727E1,1.834095E2,4.2428413E1,1.5878537E2,3.8766907E1,8.2265884E1,6.901283E1,1.3994438E1,1.7058066E2,1.2828847E1,1.6333838E1,2.6094576E1,1.2446312E2,3.4322258E1,1.3265522E1,2.5501387E1,1.5080976E1,6.7184906E1,2.9993567E1,3.9019264E1,1.2081985E2,4.976081E1],"tree_param":{"num_deleted":"0","num_feature":"46","num_nodes":"27","size_leaf_vector":"1"}},{"base_weights":[1.31891295E-2,-1.6526084E-1,1.2950836E-1,-6.2855095E-1,-7.127553E-2,4.6293235E-1,3.9663054E-2,-9.4585353E-1,-6.320258E-3,-2.3065342E-2,-4.181279E-2,1.990024E-1,8.050169E-1,-8.593742E-1,1.2618414E-1,-2.6623605E-2,-6.3575365E-2,3.315228E-2,-4.629354E-3,-3.514852E-2,2.5611056E-2,6.718274E-2,2.1845084E-2,-6.5488495E-2,-1.0795057E-2,-1.5413318E-3,1.9924605E-2],"categories":[],"categories_nodes":[],"categories_segments":[],"categories_sizes":[],"default_left":[0,0,0,0,0,0,0,0,0,0,0,0,0,0,0,0,0,0,0,0,0,0,0,0,0,0,0],"id":28,"left_children":[1,3,5,7,9,11,13,15,-1,17,-1,19,21,23,25,-1,-1,-1,-1,-1,-1,-1,-1,-1,-1,-1,-1],"loss_changes":[1.1892492E1,9.800969E0,1.0370115E1,5.9362335E0,6.9551125E0,6.4773407E0,2.1442556E1,2.437521E0,0E0,8.596199E0,0E0,1.2459384E1,5.696348E0,6.732458E0,1.0746521E1,0E0,0E0,0E0,0E0,0E0,0E0,0E0,0E0,0E0,0E0,0E0,0E0],"parents":[2147483647,0,0,1,1,2,2,3,3,4,4,5,5,6,6,7,7,9,9,11,11,12,12,13,13,14,14],"right_children":[2,4,6,8,10,12,14,16,-1,18,-1,20,22,24,26,-1,-1,-1,-1,-1,-1,-1,-1,-1,-1,-1,-1],"split_conditions":[-1.4233805E-1,1.866992E3,-1.2363952E1,3.2661617E1,6.825107E5,-2.3883936E1,-6.7013273E0,-2.1849751E0,-6.320258E-3,-6.837045E1,-4.181279E-2,-4.3339393E-1,1.7268547E-1,2.1838629E1,5.0103235E-1,-2.6623605E-2,-6.3575365E-2,3.315228E-2,-4.629354E-3,-3.514852E-2,2.5611056E-2,6.718274E-2,2.1845084E-2,-6.5488495E-2,-1.0795057E-2,-1.5413318E-3,1.9924605E-2],"split_indices":[3,28,23,33,6,24,23,24,0,24,0,11,3,33,9,0,0,0,0,0,0,0,0,0,0,0,0],"split_type":[0,0,0,0,0,0,0,0,0,0,0,0,0,0,0,0,0,0,0,0,0,0,0,0,0,0,0],"sum_hessian":[5.7090326E2,2.251188E2,3.4578445E2,3.7007362E1,1.8811143E2,7.251654E1,2.732679E2,2.2136091E1,1.4871271E1,1.7792828E2,1.0183153E1,4.1827175E1,3.0689365E1,2.3205711E1,2.5006221E2,1.0915349E1,1.1220741E1,1.5584769E1,1.623435E2,1.0460328E1,3.1366846E1,1.1383122E1,1.9306242E1,1.3041742E1,1.0163969E1,1.5917174E2,9.0890465E1],"tree_param":{"num_deleted":"0","num_feature":"46","num_nodes":"27","size_leaf_vector":"1"}},{"base_weights":[5.5134725E-3,1.0834723E-1,-1.4309578E-1,-4.526056E-2,6.115069E-1,2.1105212E-1,-2.8502992E-1,-5.7469857E-1,9.515987E-2,8.312133E-1,6.94494E-2,-6.1549712E-2,4.334011E-2,-3.7680316E-1,2.9622752E-2,-4.108374E-2,1.957284E-2,-2.3893223E-3,2.9371072E-2,1.5586776E-2,5.82976E-2,-2.2214394E-2,3.4875486E-2,2.706396E-2,-1.5889542E-2,-2.8695775E-2,-5.663523E-3],"categories":[],"categories_nodes":[],"categories_segments":[],"categories_sizes":[],"default_left":[0,0,0,0,0,0,0,0,0,0,0,0,0,0,0,0,0,0,0,0,0,0,0,0,0,0,0],"id":29,"left_children":[1,3,5,7,9,11,13,15,17,19,21,23,-1,25,-1,-1,-1,-1,-1,-1,-1,-1,-1,-1,-1,-1,-1],"loss_changes":[8.841845E0,2.6454678E1,1.195499E1,1.9598503E1,9.474466E0,1.2258901E1,1.3861721E1,1.3505171E1,1.4709032E1,9.524487E0,8.11048E0,7.766286E0,0E0,7.9312515E0,0E0,0E0,0E0,0E0,0E0,0E0,0E0,0E0,0E0,0E0,0E0,0E0,0E0],"parents":[2147483647,0,0,1,1,2,2,3,3,4,4,5,5,6,6,7,7,8,8,9,9,10,10,11,11,13,13],"right_children":[2,4,6,8,10,12,14,16,18,20,22,24,-1,26,-1,-1,-1,-1,-1,-1,-1,-1,-1,-1,-1,-1,-1],"split_conditions":[1.6137446E0,1.081426E1,3.3534E-4,8.5E-5,3.2736533E3,5.1124176E1,3.65565E3,5.6475307E1,2.7018742E1,1.9503954E3,3.3340024E3,-4.88045E0,4.334011E-2,2.9191856E0,2.9622752E-2,-4.108374E-2,1.957284E-2,-2.3893223E-3,2.9371072E-2,1.5586776E-2,5.82976E-2,-2.2214394E-2,3.4875486E-2,2.706396E-2,-1.5889542E-2,-2.8695775E-2,-5.663523E-3],"split_indices":[36,24,2,1,21,22,20,22,33,29,29,37,0,36,0,0,0,0,0,0,0,0,0,0,0,0,0],"split_type":[0,0,0,0,0,0,0,0,0,0,0,0,0,0,0,0,0,0,0,0,0,0,0,0,0,0,0],"sum_hessian":[5.765627E2,3.409234E2,2.3563928E2,2.6188388E2,7.9039536E1,6.727948E1,1.683598E2,5.4249626E1,2.0763425E2,5.586352E1,2.3176016E1,4.816355E1,1.911593E1,1.5293538E2,1.5424417E1,4.3324276E1,1.0925351E1,1.6160825E2,4.6025997E1,2.2647837E1,3.3215687E1,1.2909213E1,1.0266803E1,1.4034297E1,3.4129253E1,8.681976E1,6.6115616E1],"tree_param":{"num_deleted":"0","num_feature":"46","num_nodes":"27","size_leaf_vector":"1"}},{"base_weights":[-1.2598396E-2,-6.002616E-1,3.7363037E-2,-1.0633768E-1,-1.0240108E0,-4.2449247E-2,2.9068178E-1,1.718154E-2,-2.52832E-2,-3.292674E-2,-6.3941084E-2,-5.2751735E-4,-5.6812115E-2,6.5459347E-1,5.14434E-2,-2.4084572E-3,3.4566116E-2,5.950239E-2,1.7453576E-2,-4.363778E-2,1.5188657E-2],"categories":[],"categories_nodes":[],"categories_segments":[],"categories_sizes":[],"default_left":[0,0,0,0,0,0,0,0,0,0,0,0,0,0,0,0,0,0,0,0,0],"id":30,"left_children":[1,3,5,7,9,11,13,-1,-1,-1,-1,15,-1,17,19,-1,-1,-1,-1,-1,-1],"loss_changes":[1.7062473E1,9.421377E0,1.0845906E1,4.1523128E0,1.4294281E0,1.872303E1,1.1154177E1,0E0,0E0,0E0,0E0,1.3028515E1,0E0,7.909178E0,1.8599297E1,0E0,0E0,0E0,0E0,0E0,0E0],"parents":[2147483647,0,0,1,1,2,2,3,3,4,4,5,5,6,6,11,11,13,13,14,14],"right_children":[2,4,6,8,10,12,14,-1,-1,-1,-1,16,-1,18,20,-1,-1,-1,-1,-1,-1],"split_conditions":[-2.7769297E4,-1.8000523E1,3.1622412E3,2.5143397E0,1E0,3.0994094E3,3.2449321E3,1.718154E-2,-2.52832E-2,-3.292674E-2,-6.3941084E-2,1.34052E-3,-5.6812115E-2,1.9743497E0,3.4155183E3,-2.4084572E-3,3.4566116E-2,5.950239E-2,1.7453576E-2,-4.363778E-2,1.5188657E-2],"split_indices":[13,25,20,27,42,20,29,0,0,0,0,2,0,27,19,0,0,0,0,0,0],"split_type":[0,0,0,0,0,0,0,0,0,0,0,0,0,0,0,0,0,0,0,0,0],"sum_hessian":[5.7937317E2,4.4534058E1,5.348391E2,2.1141901E1,2.3392157E1,4.0733414E2,1.27504974E2,1.00062E1,1.1135701E1,1.1081841E1,1.2310314E1,3.932621E2,1.4072047E1,4.9885975E1,7.7619E1,3.6879666E2,2.4465414E1,1.707151E1,3.2814465E1,1.6119587E1,6.1499413E1],"tree_param":{"num_deleted":"0","num_feature":"46","num_nodes":"21","size_leaf_vector":"1"}}]},"name":"gbtree"},"learner_model_param":{"base_score":"[5E-1]","boost_from_average":"1","num_class":"0","num_feature":"46","num_target":"1"},"objective":{"name":"binary:logistic","reg_loss_param":{"scale_pos_weight":"1.63534677"}}},"version":[3,2,0]}