{"learner":{"attributes":{"best_iteration":"8","best_score":"0.6878877041953625","scikit_learn":"{\"_estimator_type\": \"classifier\"}"},"feature_names":[],"feature_types":[],"gradient_booster":{"model":{"cats":{"enc":[],"feature_segments":[],"sorted_idx":[]},"gbtree_model_param":{"num_parallel_tree":"1","num_trees":"39"},"iteration_indptr":[0,1,2,3,4,5,6,7,8,9,10,11,12,13,14,15,16,17,18,19,20,21,22,23,24,25,26,27,28,29,30,31,32,33,34,35,36,37,38,39],"tree_info":[0,0,0,0,0,0,0,0,0,0,0,0,0,0,0,0,0,0,0,0,0,0,0,0,0,0,0,0,0,0,0,0,0,0,0,0,0,0,0],"trees":[{"base_weights":[-3.2808518E-3,4.7004376E-2,-6.869335E-2,9.352401E-1,-2.165745E-2,1.2367837E0,2.2899507E-2,-1.1490494E0,4.1914385E-2,7.757547E-2,3.753456E-2,-7.663655E-2,-2.2252323E-2,-3.9825164E-2,3.8270243E-3],"categories":[],"categories_nodes":[],"categories_segments":[],"categories_sizes":[],"default_left":[0,0,0,0,0,0,0,0,0,0,0,0,0,0,0],"id":0,"left_children":[1,3,-1,5,7,9,-1,11,13,-1,-1,-1,-1,-1,-1],"loss_changes":[3.925037E1,3.3527752E1,0E0,5.110237E0,3.6669346E1,2.4433708E0,0E0,6.6946106E0,1.4131109E1,0E0,0E0,0E0,0E0,0E0,0E0],"parents":[2147483647,0,0,1,1,3,3,4,4,5,5,7,7,8,8],"right_children":[2,4,-1,6,8,10,-1,12,14,-1,-1,-1,-1,-1,-1],"split_conditions":[3.7911074E3,1.5821775E3,-6.869335E-2,4.77458E5,1.6962314E3,1E0,2.2899507E-2,1.108351E0,1.6146036E1,7.757547E-2,3.753456E-2,-7.663655E-2,-2.2252323E-2,-3.9825164E-2,3.8270243E-3],"split_indices":[19,29,0,14,30,44,0,32,26,0,0,0,0,0,0],"split_type":[0,0,0,0,0,0,0,0,0,0,0,0,0,0,0],"sum_hessian":[5.675673E2,5.484124E2,1.9154915E1,3.8445515E1,5.099669E2,2.2584402E1,1.5861111E1,2.630983E1,4.8365704E2,1.2378205E1,1.0206197E1,1.6267094E1,1.0042735E1,1.830983E1,4.6534723E2],"tree_param":{"num_deleted":"0","num_feature":"46","num_nodes":"15","size_leaf_vector":"1"}},{"base_weights":[-7.323987E-3,-8.249054E-2,2.5657998E-2,9.868893E-2,-7.184689E-1,6.389436E-2,6.6548444E-2,-9.346566E-1,6.0399123E-3,-8.295113E-3,1.3259912E-2,-2.0394059E-2,-7.640181E-2],"categories":[],"categories_nodes":[],"categories_segments":[],"categories_sizes":[],"default_left":[0,0,0,0,0,0,0,0,0,0,0,0,0],"id":1,"left_children":[1,-1,3,5,7,-1,9,11,-1,-1,-1,-1,-1],"loss_changes":[3.0613855E1,0E0,3.0189182E1,1.9075712E1,9.121683E0,0E0,2.2818213E1,1.1753605E1,0E0,0E0,0E0,0E0,0E0],"parents":[2147483647,0,0,2,2,3,3,4,4,6,6,7,7],"right_children":[2,-1,4,6,8,-1,10,12,-1,-1,-1,-1,-1],"split_conditions":[1.1891638E1,-8.249054E-2,3.3947625E3,1.6037805E3,2.1754494E0,6.389436E-2,2.3159148E3,1.0277284E1,6.0399123E-3,-8.295113E-3,1.3259912E-2,-2.0394059E-2,-7.640181E-2],"split_indices":[26,0,29,20,27,0,21,23,0,0,0,0,0],"split_type":[0,0,0,0,0,0,0,0,0,0,0,0,0],"sum_hessian":[5.6333685E2,1.0124414E1,5.5321246E2,5.045607E2,4.865178E1,1.2359117E1,4.9220157E2,3.859611E1,1.005567E1,2.2688095E2,2.6532062E2,2.133937E1,1.7256739E1],"tree_param":{"num_deleted":"0","num_feature":"46","num_nodes":"13","size_leaf_vector":"1"}},{"base_weights":[-1.3174534E-2,3.3755824E-2,-7.227742E-2,9.051356E-1,-2.2537483E-2,5.834326E-2,2.0999338E-2,-6.9203883E-1,6.723841E-2,-8.148101E-3,-5.474725E-2,1.1767857E-2,-8.166875E-3],"categories":[],"categories_nodes":[],"categories_segments":[],"categories_sizes":[],"default_left":[0,0,0,0,0,0,0,0,0,0,0,0,0],"id":2,"left_children":[1,3,-1,5,7,-1,-1,9,11,-1,-1,-1,-1],"loss_changes":[3.7526123E1,2.654855E1,0E0,3.6801033E0,3.063796E1,0E0,0E0,1.2668781E1,1.7470585E1,0E0,0E0,0E0,0E0],"parents":[2147483647,0,0,1,1,3,3,4,4,7,7,8,8],"right_children":[2,4,-1,6,8,-1,-1,10,12,-1,-1,-1,-1],"split_conditions":[3.7911074E3,1.5699519E3,-7.227742E-2,1E0,1.098686E0,5.834326E-2,2.0999338E-2,4.093E-4,7.6503225E-2,-8.148101E-3,-5.474725E-2,1.1767857E-2,-8.166875E-3],"split_indices":[19,29,0,44,27,0,0,2,31,0,0,0,0],"split_type":[0,0,0,0,0,0,0,0,0,0,0,0,0],"sum_hessian":[5.5651733E2,5.398075E2,1.6709843E1,3.184172E1,5.0796576E2,1.977063E1,1.207109E1,5.9267967E1,4.4869778E2,2.6229338E1,3.303863E1,2.594821E2,1.892157E2],"tree_param":{"num_deleted":"0","num_feature":"46","num_nodes":"13","size_leaf_vector":"1"}},{"base_weights":[-3.091118E-3,6.451399E-2,-3.907837E-2,-5.7892746E-1,4.2901106E-2,-8.079336E-2,-3.0928552E-1,1.4780623E-1,-5.4000974E-1,9.288788E-3,-4.6398636E-2,4.3923794E-3,5.3311314E-2,-3.6707945E-2,3.033415E-2],"categories":[],"categories_nodes":[],"categories_segments":[],"categories_sizes":[],"default_left":[0,0,0,0,0,0,0,0,0,0,0,0,0,0,0],"id":3,"left_children":[1,-1,3,5,7,-1,9,11,13,-1,-1,-1,-1,-1,-1],"loss_changes":[2.6743866E1,0E0,2.4761795E1,2.0123178E1,2.9810286E1,0E0,1.8480211E1,2.2639124E1,1.7001825E1,0E0,0E0,0E0,0E0,0E0,0E0],"parents":[2147483647,0,0,2,2,3,3,4,4,6,6,7,7,8,8],"right_children":[2,-1,4,6,8,-1,10,12,14,-1,-1,-1,-1,-1,-1],"split_conditions":[1.6037805E3,6.451399E-2,2.1005371E1,1E0,3.4155183E3,-8.079336E-2,4.3676E-4,3.2380417E3,4.150834E0,9.288788E-3,-4.6398636E-2,4.3923794E-3,5.3311314E-2,-3.6707945E-2,3.033415E-2],"split_indices":[20,0,26,42,19,0,2,29,36,0,0,0,0,0,0],"split_type":[0,0,0,0,0,0,0,0,0,0,0,0,0,0,0],"sum_hessian":[5.724993E2,1.4554682E1,5.5794464E2,7.275809E1,4.8518652E2,1.3984895E1,5.8773193E1,4.1181888E2,7.336766E1,3.30372E1,2.573599E1,3.876096E2,2.420927E1,6.3051952E1,1.0315706E1],"tree_param":{"num_deleted":"0","num_feature":"46","num_nodes":"15","size_leaf_vector":"1"}},{"base_weights":[2.2929743E-2,1.01891756E-1,-5.014057E-1,-2.6166786E-3,5.225244E-1,-7.296422E-1,1.7126305E-2,9.4367087E-1,-5.5993248E-2,6.512426E-1,-3.12153E-3,2.2792814E-3,-9.076812E-1,6.78715E-2,2.2687566E-2,-5.9577968E-2,9.5936435E-4,3.756669E-3,4.0339835E-2,-2.2896515E-2,-6.1015964E-2],"categories":[],"categories_nodes":[],"categories_segments":[],"categories_sizes":[],"default_left":[0,0,0,0,0,0,0,0,0,0,0,0,0,0,0,0,0,0,0,0,0],"id":4,"left_children":[1,3,5,7,9,11,-1,13,15,17,-1,-1,19,-1,-1,-1,-1,-1,-1,-1,-1],"loss_changes":[2.3618647E1,2.1785896E1,1.4632929E1,2.0152185E1,7.466633E0,8.197813E0,0E0,3.7024384E0,3.2261887E1,7.1915855E0,0E0,0E0,6.2053757E0,0E0,0E0,0E0,0E0,0E0,0E0,0E0,0E0],"parents":[2147483647,0,0,1,1,2,2,3,3,4,4,5,5,7,7,8,8,9,9,12,12],"right_children":[2,4,6,8,10,12,-1,14,16,18,-1,-1,20,-1,-1,-1,-1,-1,-1,-1,-1],"split_conditions":[3.4155183E3,3.8229233E1,9.024003E1,1.5699519E3,1.5929513E4,1.4549672E1,1.7126305E-2,8.9997634E-2,1.6908164E3,1.8613754E3,-3.12153E-3,2.2792814E-3,3.4175898E3,6.78715E-2,2.2687566E-2,-5.9577968E-2,9.5936435E-4,3.756669E-3,4.0339835E-2,-2.2896515E-2,-6.1015964E-2],"split_indices":[19,33,26,29,12,33,0,23,19,19,0,0,29,0,0,0,0,0,0,0,0],"split_type":[0,0,0,0,0,0,0,0,0,0,0,0,0,0,0,0,0,0,0,0,0],"sum_hessian":[5.682291E2,4.9455725E2,7.3671906E1,3.969313E2,9.762593E1,5.8095688E1,1.557622E1,2.0303356E1,3.7662796E2,7.9925224E1,1.7700706E1,1.098932E1,4.710637E1,1.0047268E1,1.0256089E1,2.2464415E1,3.5416354E2,1.730766E1,6.261756E1,2.0327957E1,2.6778412E1],"tree_param":{"num_deleted":"0","num_feature":"46","num_nodes":"21","size_leaf_vector":"1"}},{"base_weights":[6.0858284E-3,6.773854E-2,-2.6462365E-2,-6.811165E-1,4.7560535E-2,-5.9643198E-2,-4.1975144E-1,1.428526E-1,-5.154068E-1,1.0622281E-2,-3.658875E-2,4.231476E-3,6.857728E-2,-6.208666E-2,-1.7030336E-2],"categories":[],"categories_nodes":[],"categories_segments":[],"categories_sizes":[],"default_left":[0,0,0,0,0,0,0,0,0,0,0,0,0,0,0],"id":5,"left_children":[1,-1,3,5,7,-1,9,11,13,-1,-1,-1,-1,-1,-1],"loss_changes":[2.5243351E1,0E0,2.7251448E1,7.139866E0,2.7195234E1,0E0,7.9187326E0,3.0871386E1,8.896599E0,0E0,0E0,0E0,0E0,0E0,0E0],"parents":[2147483647,0,0,2,2,3,3,4,4,6,6,7,7,8,8],"right_children":[2,-1,4,6,8,-1,10,12,14,-1,-1,-1,-1,-1,-1],"split_conditions":[1.6037805E3,6.773854E-2,1.0869002E0,7.777043E4,3.4155183E3,-5.9643198E-2,1.7096077E1,3.3766006E3,3E-4,1.0622281E-2,-3.658875E-2,4.231476E-3,6.857728E-2,-6.208666E-2,-1.7030336E-2],"split_indices":[20,0,27,7,19,0,33,30,1,0,0,0,0,0,0],"split_type":[0,0,0,0,0,0,0,0,0,0,0,0,0,0,0],"sum_hessian":[5.7323865E2,1.2550858E1,5.606878E2,5.612451E1,5.045633E2,1.7769066E1,3.8355446E1,4.3215906E2,7.2404236E1,1.2780254E1,2.5575191E1,4.136277E2,1.8531363E1,1.2860936E1,5.9543297E1],"tree_param":{"num_deleted":"0","num_feature":"46","num_nodes":"15","size_leaf_vector":"1"}},{"base_weights":[-4.1365717E-3,7.867384E-2,-5.646529E-1,3.5265945E-2,6.4713605E-2,-7.814093E-1,1.8233018E-2,-6.387925E-2,7.035704E-2,-3.627669E-3,-9.2743886E-1,4.297963E-2,1.0141388E-3,-5.889808E-2,-1.5729006E-2],"categories":[],"categories_nodes":[],"categories_segments":[],"categories_sizes":[],"default_left":[0,0,0,0,0,0,0,0,0,0,0,0,0,0,0],"id":6,"left_children":[1,3,5,7,-1,9,-1,-1,11,-1,13,-1,-1,-1,-1],"loss_changes":[2.6244951E1,2.595156E1,1.4945646E1,2.20523E1,0E0,6.07465E0,0E0,0E0,1.8369896E1,0E0,7.170185E0,0E0,0E0,0E0,0E0],"parents":[2147483647,0,0,1,1,2,2,3,3,5,5,8,8,10,10],"right_children":[2,4,6,8,-1,10,-1,-1,12,-1,14,-1,-1,-1,-1],"split_conditions":[3.4155183E3,3.384118E3,9.1663246E1,7.3624533E-1,6.4713605E-2,-2.2407568E4,1.8233018E-2,-6.387925E-2,1.6132295E3,-3.627669E-3,1.600879E3,4.297963E-2,1.0141388E-3,-5.889808E-2,-1.5729006E-2],"split_indices":[19,30,26,27,0,13,0,0,30,0,12,0,0,0,0],"split_type":[0,0,0,0,0,0,0,0,0,0,0,0,0,0,0],"sum_hessian":[5.634648E2,4.9168338E2,7.1781425E1,4.757247E2,1.5958678E1,5.833444E1,1.3446982E1,1.1462812E1,4.6426187E2,1.0220239E1,4.81142E1,2.6733936E1,4.3752795E2,3.3498642E1,1.461556E1],"tree_param":{"num_deleted":"0","num_feature":"46","num_nodes":"15","size_leaf_vector":"1"}},{"base_weights":[-3.0796826E-2,8.167684E-3,-5.8438666E-2,1.9179454E-1,-2.1579446E-1,8.3661807E-1,1.413175E-1,-5.46701E-1,3.316638E-2,1.7334463E-2,6.2080164E-2,-2.967446E-2,1.1063227E-2,2.584369E-2,-3.32568E-2,3.7437055E-2,-9.366962E-3],"categories":[],"categories_nodes":[],"categories_segments":[],"categories_sizes":[],"default_left":[0,0,0,0,0,0,0,0,0,0,0,0,0,0,0,0,0],"id":7,"left_children":[1,3,-1,5,7,9,11,13,15,-1,-1,-1,-1,-1,-1,-1,-1],"loss_changes":[2.52404E1,2.2708805E1,0E0,9.756761E0,2.051387E1,3.8993626E0,1.6730968E1,1.3805805E1,2.2690605E1,0E0,0E0,0E0,0E0,0E0,0E0,0E0,0E0],"parents":[2147483647,0,0,1,1,3,3,4,4,5,5,6,6,7,7,8,8],"right_children":[2,4,-1,6,8,10,12,14,16,-1,-1,-1,-1,-1,-1,-1,-1],"split_conditions":[3.7911074E3,1.2187602E-2,-5.8438666E-2,1.7011549E3,2.2899785E3,1.4790025E0,6.866486E4,1.6008344E3,2.5347524E3,1.7334463E-2,6.2080164E-2,-2.967446E-2,1.1063227E-2,2.584369E-2,-3.32568E-2,3.7437055E-2,-9.366962E-3],"split_indices":[19,3,0,21,21,25,7,19,21,0,0,0,0,0,0,0,0],"split_type":[0,0,0,0,0,0,0,0,0,0,0,0,0,0,0,0,0],"sum_hessian":[5.680225E2,5.501772E2,1.7845339E1,3.0239047E2,2.477867E2,2.0822123E1,2.8156833E2,1.0587153E2,1.4191518E2,1.0262803E1,1.0559319E1,2.6998356E1,2.5456999E2,1.0271028E1,9.56005E1,3.2865616E1,1.0904955E2],"tree_param":{"num_deleted":"0","num_feature":"46","num_nodes":"17","size_leaf_vector":"1"}},{"base_weights":[1.2603375E-2,4.6581633E-2,-5.655923E-2,-5.0719358E-2,7.22612E-2,4.8639607E-1,6.8225404E-3,1.7015716E-3,3.66366E-2,8.425781E-3,-1.11780185E-2],"categories":[],"categories_nodes":[],"categories_segments":[],"categories_sizes":[],"default_left":[0,0,0,0,0,0,0,0,0,0,0],"id":8,"left_children":[1,3,-1,-1,5,7,9,-1,-1,-1,-1],"loss_changes":[2.2038393E1,1.5067696E1,0E0,0E0,1.4584227E1,8.158157E0,1.7390926E1,0E0,0E0,0E0,0E0],"parents":[2147483647,0,0,1,1,4,4,5,5,6,6],"right_children":[2,4,-1,-1,6,8,10,-1,-1,-1,-1],"split_conditions":[3.7911074E3,7.3624533E-1,-5.655923E-2,-5.0719358E-2,-1.1564274E0,9.341586E-1,7.0503E-2,1.7015716E-3,3.66366E-2,8.425781E-3,-1.11780185E-2],"split_indices":[19,27,0,0,3,36,31,0,0,0,0],"split_type":[0,0,0,0,0,0,0,0,0,0,0],"sum_hessian":[5.647097E2,5.493496E2,1.5360134E1,1.2072308E1,5.372773E2,7.243467E1,4.6484262E2,2.5939049E1,4.649562E1,2.732982E2,1.9154442E2],"tree_param":{"num_deleted":"0","num_feature":"46","num_nodes":"11","size_leaf_vector":"1"}},{"base_weights":[1.1779066E-2,4.2878218E-2,-5.0667573E-2,5.584631E-2,1.8632416E-2,-1.7675683E-1,1.6159232E-1,1.16406E-3,-3.091365E-2,-2.1927627E-3,1.7651921E-2],"categories":[],"categories_nodes":[],"categories_segments":[],"categories_sizes":[],"default_left":[0,0,0,0,0,0,0,0,0,0,0],"id":9,"left_children":[1,3,-1,-1,5,7,9,-1,-1,-1,-1],"loss_changes":[1.793465E1,1.418798E1,0E0,0E0,1.4961453E1,2.0006317E1,1.2178641E1,0E0,0E0,0E0,0E0],"parents":[2147483647,0,0,1,1,4,4,5,5,6,6],"right_children":[2,4,-1,-1,6,8,10,-1,-1,-1,-1],"split_conditions":[3.7911074E3,1.6037805E3,-5.0667573E-2,5.584631E-2,2.196001E3,1.8893835E3,1.580251E0,1.16406E-3,-3.091365E-2,-2.1927627E-3,1.7651921E-2],"split_indices":[19,20,0,0,21,30,36,0,0,0,0],"split_type":[0,0,0,0,0,0,0,0,0,0,0],"sum_hessian":[5.601924E2,5.446283E2,1.5564094E1,1.102826E1,5.3360004E2,2.2535779E2,3.0824225E2,1.5574263E2,6.961515E1,1.4905595E2,1.591863E2],"tree_param":{"num_deleted":"0","num_feature":"46","num_nodes":"11","size_leaf_vector":"1"}},{"base_weights":[7.410647E-3,5.3212132E-2,-1.8044373E-2,-4.8345888E-1,5.264872E-2,-2.5954202E-1,-6.9337144E-2,-7.870093E-2,2.6865718E-1,1.6865488E-2,-3.0838836E-2,2.31454E-2,-8.295312E-3,2.4634972E-2,-2.1952249E-3],"categories":[],"categories_nodes":[],"categories_segments":[],"categories_sizes":[],"default_left":[0,0,0,0,0,0,0,0,0,0,0,0,0,0,0],"id":10,"left_children":[1,-1,3,5,7,9,-1,11,13,-1,-1,-1,-1,-1,-1],"loss_changes":[1.514862E1,0E0,1.8126354E1,1.433296E1,1.3597716E1,1.2882273E1,0E0,1.4167734E1,1.2708404E1,0E0,0E0,0E0,0E0,0E0,0E0],"parents":[2147483647,0,0,2,2,3,3,4,4,5,5,7,7,8,8],"right_children":[2,-1,4,6,8,10,-1,12,14,-1,-1,-1,-1,-1,-1],"split_conditions":[1.6037805E3,5.3212132E-2,2.1005371E1,1E0,1E0,9.016E-5,-6.9337144E-2,1.9133811E3,7.7798694E-2,1.6865488E-2,-3.0838836E-2,2.31454E-2,-8.295312E-3,2.4634972E-2,-2.1952249E-3],"split_indices":[20,0,26,44,35,1,0,28,31,0,0,0,0,0,0],"split_type":[0,0,0,0,0,0,0,0,0,0,0,0,0,0,0],"sum_hessian":[5.613968E2,1.2244054E1,5.491527E2,7.164334E1,4.775094E2,5.8443092E1,1.3200244E1,2.9733975E2,1.8016963E2,2.1903492E1,3.6539604E1,4.0638233E1,2.5670154E2,1.0460971E2,7.555992E1],"tree_param":{"num_deleted":"0","num_feature":"46","num_nodes":"15","size_leaf_vector":"1"}},{"base_weights":[-7.162058E-3,1.983375E-2,-4.20882E-2,-3.6080547E-3,4.770724E-2,3.0662756E-2,-5.1605653E-2,9.351498E-3,-5.7863723E-3],"categories":[],"categories_nodes":[],"categories_segments":[],"categories_sizes":[],"default_left":[0,0,0,0,0,0,0,0,0],"id":11,"left_children":[1,3,-1,5,-1,7,-1,-1,-1],"loss_changes":[1.2626931E1,1.1899054E1,0E0,1.87423E1,0E0,1.1803151E1,0E0,0E0,0E0],"parents":[2147483647,0,0,1,1,3,3,5,5],"right_children":[2,4,-1,6,-1,8,-1,-1,-1],"split_conditions":[3.7911074E3,3.692446E3,-4.20882E-2,3.4175898E3,4.770724E-2,4.906954E1,-5.1605653E-2,9.351498E-3,-5.7863723E-3],"split_indices":[19,19,0,29,0,22,0,0,0],"split_type":[0,0,0,0,0,0,0,0,0],"sum_hessian":[5.5868994E2,5.4213055E2,1.6559374E1,5.2983325E2,1.2297344E1,5.136869E2,1.614637E1,2.4824522E2,2.6544165E2],"tree_param":{"num_deleted":"0","num_feature":"46","num_nodes":"9","size_leaf_vector":"1"}},{"base_weights":[-2.7636563E-2,-2.8960044E-3,-5.5623006E-2,5.039943E-2,-2.6794E-2,-5.8578706E-1,4.0411152E-2,-6.285003E-3,-4.6113532E-2,-6.8045133E-3,8.591772E-3],"categories":[],"categories_nodes":[],"categories_segments":[],"categories_sizes":[],"default_left":[0,0,0,0,0,0,0,0,0,0,0],"id":12,"left_children":[1,3,-1,-1,5,7,9,-1,-1,-1,-1],"loss_changes":[1.5057574E1,1.3305292E1,0E0,0E0,2.0231867E1,8.831501E0,1.1183846E1,0E0,0E0,0E0,0E0],"parents":[2147483647,0,0,1,1,4,4,5,5,6,6],"right_children":[2,4,-1,-1,6,8,10,-1,-1,-1,-1],"split_conditions":[4.0278735E3,1.6037805E3,-5.5623006E-2,5.039943E-2,1.0922182E0,-5.0991256E-2,7.389E-5,-6.285003E-3,-4.6113532E-2,-6.8045133E-3,8.591772E-3],"split_indices":[28,20,0,0,27,3,0,0,0,0,0],"split_type":[0,0,0,0,0,0,0,0,0,0,0],"sum_hessian":[5.601504E2,5.486407E2,1.1509666E1,1.1719681E1,5.36921E2,5.6795555E1,4.8012546E2,2.4571524E1,3.222403E1,2.0490488E2,2.7522058E2],"tree_param":{"num_deleted":"0","num_feature":"46","num_nodes":"11","size_leaf_vector":"1"}},{"base_weights":[8.203714E-3,8.617226E-2,-5.255409E-1,-6.816502E-2,1.1913033E-1,6.935597E-2,-7.739668E-1,8.377394E-2,6.093364E-2,2.200624E-2,-1.538187E-2,-9.854205E-1,-1.2193646E-2,-1.6037384E-2,8.669533E-3,-6.492827E-2,-1.4171776E-2],"categories":[],"categories_nodes":[],"categories_segments":[],"categories_sizes":[],"default_left":[0,0,0,0,0,0,0,0,0,0,0,0,0,0,0,0,0],"id":13,"left_children":[1,3,5,-1,7,9,11,13,-1,-1,-1,15,-1,-1,-1,-1,-1],"loss_changes":[2.3693665E1,2.389022E1,1.0778809E1,0E0,1.8813633E1,3.2518415E0,5.5071564E0,1.7184023E1,0E0,0E0,0E0,7.617058E0,0E0,0E0,0E0,0E0,0E0],"parents":[2147483647,0,0,1,1,2,2,4,4,5,5,6,6,7,7,11,11],"right_children":[2,4,6,-1,8,10,12,14,-1,-1,-1,16,-1,-1,-1,-1,-1],"split_conditions":[3.4155183E3,1.1891638E1,-1.088028E1,-6.816502E-2,3.3932935E3,3.6289573E3,3.7652947E3,-6.2679906E0,6.093364E-2,2.200624E-2,-1.538187E-2,4.9128353E1,-1.2193646E-2,-1.6037384E-2,8.669533E-3,-6.492827E-2,-1.4171776E-2],"split_indices":[19,26,37,0,30,20,19,37,0,0,0,23,0,0,0,0,0],"split_type":[0,0,0,0,0,0,0,0,0,0,0,0,0,0,0,0,0],"sum_hessian":[5.672618E2,4.956906E2,7.157114E1,1.0123011E1,4.855676E2,2.1295755E1,5.027538E1,4.71483E2,1.4084604E1,1.0652086E1,1.0643669E1,3.5325233E1,1.4950146E1,8.5040215E1,3.8644278E2,2.3840502E1,1.1484733E1],"tree_param":{"num_deleted":"0","num_feature":"46","num_nodes":"17","size_leaf_vector":"1"}},{"base_weights":[4.6238843E-3,3.545154E-2,-4.8366394E-2,2.3892364E-1,-1.0444749E-1,-1.164002E-2,4.718836E-1,-6.8602556E-1,-2.39384E-2,-8.613297E-3,2.5709957E-2,3.2458E-2,2.8208685E-3,1.5802132E-3,-4.737681E-2,7.786367E-3,-2.1219246E-2],"categories":[],"categories_nodes":[],"categories_segments":[],"categories_sizes":[],"default_left":[0,0,0,0,0,0,0,0,0,0,0,0,0,0,0,0,0],"id":14,"left_children":[1,3,-1,5,7,9,11,13,15,-1,-1,-1,-1,-1,-1,-1,-1],"loss_changes":[1.7018576E1,1.5691845E1,0E0,1.3112457E1,1.5286798E1,9.308668E0,8.53533E0,7.4816246E0,2.0795986E1,0E0,0E0,0E0,0E0,0E0,0E0,0E0,0E0],"parents":[2147483647,0,0,1,1,3,3,4,4,5,5,6,6,7,7,8,8],"right_children":[2,4,-1,6,8,10,12,14,16,-1,-1,-1,-1,-1,-1,-1,-1],"split_conditions":[3.7911074E3,-1.2907211E-1,-4.8366394E-2,7.869181E-1,2.0157263E1,9.1802E-4,3.7703824E0,1.7374812E-2,8.4483854E-2,-8.613297E-3,2.5709957E-2,3.2458E-2,2.8208685E-3,1.5802132E-3,-4.737681E-2,7.786367E-3,-2.1219246E-2],"split_indices":[19,3,0,32,26,2,25,31,31,0,0,0,0,0,0,0,0],"split_type":[0,0,0,0,0,0,0,0,0,0,0,0,0,0,0,0,0],"sum_hessian":[5.6584204E2,5.493807E2,1.646133E1,2.2354471E2,3.25836E2,1.0816077E2,1.1538395E2,3.870675E1,2.8712924E2,8.33673E1,2.4793465E1,8.0480865E1,3.490308E1,1.0572675E1,2.8134075E1,1.986247E2,8.850454E1],"tree_param":{"num_deleted":"0","num_feature":"46","num_nodes":"17","size_leaf_vector":"1"}},{"base_weights":[-1.2295789E-2,7.096476E-1,-5.2796464E-2,1.5952526E-2,5.0537407E-2,-7.842179E-1,-8.886703E-3,-6.263774E-2,-4.6944343E-3,-1.4674579E-1,2.232023E-1,-1.1634584E-2,1.7864315E-2,2.058439E-2,-3.3883457E-3],"categories":[],"categories_nodes":[],"categories_segments":[],"categories_sizes":[],"default_left":[0,0,0,0,0,0,0,0,0,0,0,0,0,0,0],"id":15,"left_children":[1,3,5,-1,-1,7,9,-1,-1,11,13,-1,-1,-1,-1],"loss_changes":[1.6538446E1,3.2113142E0,1.718494E1,0E0,0E0,9.684158E0,1.62223E1,0E0,0E0,1.3860515E1,1.0390696E1,0E0,0E0,0E0,0E0],"parents":[2147483647,0,0,1,1,2,2,5,5,6,6,9,9,10,10],"right_children":[2,4,6,-1,-1,8,10,-1,-1,12,14,-1,-1,-1,-1],"split_conditions":[1.620033E3,7.923641E-1,1.6962314E3,1.5952526E-2,5.0537407E-2,8.5882074E-1,1E0,-6.263774E-2,-4.6944343E-3,1.2878786E-1,7.629733E-2,-1.1634584E-2,1.7864315E-2,2.058439E-2,-3.3883457E-3],"split_indices":[30,36,30,0,0,36,35,0,0,31,31,0,0,0,0],"split_type":[0,0,0,0,0,0,0,0,0,0,0,0,0,0,0],"sum_hessian":[5.633446E2,2.9046972E1,5.342976E2,1.3540902E1,1.5506069E1,2.9304344E1,5.049933E2,1.697109E1,1.2333255E1,3.1704105E2,1.8795222E2,2.7131555E2,4.5725502E1,1.13811775E2,7.414044E1],"tree_param":{"num_deleted":"0","num_feature":"46","num_nodes":"15","size_leaf_vector":"1"}},{"base_weights":[1.9951431E-2,1.6076162E-1,-1.5747641E-1,2.0750903E-1,-3.2128412E-2,-6.0986495E-1,-6.9908045E-2,6.7315274E-1,1.2255178E-1,-1.0281659E0,2.23495E-2,-3.5678086E-1,1.2995002E-1,1.9003078E-2,7.2194636E-2,-4.627904E-2,9.424175E-3,-1.7057812E-2,-6.8834476E-2,-9.137016E-3,-5.382604E-2,3.4272548E-2,-3.1069387E-3],"categories":[],"categories_nodes":[],"categories_segments":[],"categories_sizes":[],"default_left":[0,0,0,0,0,0,0,0,0,0,0,0,0,0,0,0,0,0,0,0,0,0,0],"id":16,"left_children":[1,3,5,7,-1,9,11,13,15,17,-1,19,21,-1,-1,-1,-1,-1,-1,-1,-1,-1,-1],"loss_changes":[1.3941038E1,1.1813868E1,9.740544E0,1.1575291E1,0E0,1.8108065E1,1.1973852E1,9.672504E0,1.7481174E1,6.4510765E0,0E0,1.0537041E1,1.3204349E1,0E0,0E0,0E0,0E0,0E0,0E0,0E0,0E0,0E0,0E0],"parents":[2147483647,0,0,1,1,2,2,3,3,5,5,6,6,7,7,8,8,9,9,11,11,12,12],"right_children":[2,4,6,8,-1,10,12,14,16,18,-1,20,22,-1,-1,-1,-1,-1,-1,-1,-1,-1,-1],"split_conditions":[1.2187602E-2,3.5445928E3,-1.4872913E4,-2.2694842E4,-3.2128412E-2,3.5547806E1,2.2564463E3,-5.890869E0,-1.16442585E1,5.8271E-4,2.23495E-2,1.8520701E3,2.5347524E3,1.9003078E-2,7.2194636E-2,-4.627904E-2,9.424175E-3,-1.7057812E-2,-6.8834476E-2,-9.137016E-3,-5.382604E-2,3.4272548E-2,-3.1069387E-3],"split_indices":[3,21,13,13,0,23,21,25,25,2,0,29,21,0,0,0,0,0,0,0,0,0,0],"split_type":[0,0,0,0,0,0,0,0,0,0,0,0,0,0,0,0,0,0,0,0,0,0,0],"sum_hessian":[5.5599316E2,3.100363E2,2.459569E2,2.9368768E2,1.6348597E1,3.8921158E1,2.0703574E2,4.4247475E1,2.4944022E2,2.7903969E1,1.1017188E1,8.4689186E1,1.2234655E2,3.313881E1,1.11086645E1,1.3990548E1,2.3544966E2,1.0057496E1,1.7846474E1,6.92079E1,1.5481284E1,3.0776293E1,9.157026E1],"tree_param":{"num_deleted":"0","num_feature":"46","num_nodes":"23","size_leaf_vector":"1"}},{"base_weights":[7.9587224E-4,5.0055236E-2,-2.398498E-2,-4.962474E-1,4.2870983E-2,-2.79678E-1,-6.479664E-2,7.491563E-2,-4.1455552E-2,1.4412536E-2,-2.8012587E-2,1.1392191E-2,-4.2403056E-3],"categories":[],"categories_nodes":[],"categories_segments":[],"categories_sizes":[],"default_left":[0,0,0,0,0,0,0,0,0,0,0,0,0],"id":17,"left_children":[1,-1,3,5,7,9,-1,11,-1,-1,-1,-1,-1],"loss_changes":[1.3852557E1,0E0,1.7239975E1,1.13638115E1,1.3436539E1,8.854551E0,0E0,1.131863E1,0E0,0E0,0E0,0E0,0E0],"parents":[2147483647,0,0,2,2,3,3,4,4,5,5,7,7],"right_children":[2,-1,4,6,8,10,-1,12,-1,-1,-1,-1,-1],"split_conditions":[1.6037805E3,5.0055236E-2,2.1005371E1,1E0,3.7911074E3,8E-5,-6.479664E-2,7.0503E-2,-4.1455552E-2,1.4412536E-2,-2.8012587E-2,1.1392191E-2,-4.2403056E-3],"split_indices":[20,0,26,44,19,1,0,31,0,0,0,0,0],"split_type":[0,0,0,0,0,0,0,0,0,0,0,0,0],"sum_hessian":[5.568612E2,1.25093155E1,5.4435187E2,6.6708496E1,4.776434E2,5.3554653E1,1.3153845E1,4.6159424E2,1.6049137E1,1.7699833E1,3.585482E1,2.3559421E2,2.2600003E2],"tree_param":{"num_deleted":"0","num_feature":"46","num_nodes":"13","size_leaf_vector":"1"}},{"base_weights":[2.9937949E-3,4.1524255E-1,-5.994054E-2,1.4457686E-2,8.979007E-1,1.8638737E-1,-1.4158711E-1,-2.1432962E-1,2.1682367E-2,2.890383E-2,6.553891E-2,3.324757E-1,-4.7457855E-2,-4.0815893E-1,6.292137E-2,1.6340276E-2,-2.7272392E-2,3.883288E-2,5.2499347E-3,-1.5533201E-2,-8.064263E-2,-1.2838701E-2,1.4443885E-2],"categories":[],"categories_nodes":[],"categories_segments":[],"categories_sizes":[],"default_left":[0,0,0,0,0,0,0,0,0,0,0,0,0,0,0,0,0,0,0,0,0,0,0],"id":18,"left_children":[1,3,5,7,9,11,13,15,-1,-1,-1,17,-1,19,21,-1,-1,-1,-1,-1,-1,-1,-1],"loss_changes":[1.4697513E1,1.4500419E1,9.911546E0,4.1215878E0,3.7346268E0,2.068501E1,2.018144E1,5.1673527E0,0E0,0E0,0E0,1.0985827E1,0E0,1.8366247E1,1.524987E1,0E0,0E0,0E0,0E0,0E0,0E0,0E0,0E0],"parents":[2147483647,0,0,1,1,2,2,3,3,4,4,5,5,6,6,7,7,11,11,13,13,14,14],"right_children":[2,4,6,8,10,12,14,16,-1,-1,-1,18,-1,20,22,-1,-1,-1,-1,-1,-1,-1,-1],"split_conditions":[-1.1564274E0,3.1201813E1,1.768911E1,1.108351E0,1.0451393E0,1.682219E1,1.4162164E0,-1.3679514E0,2.1682367E-2,2.890383E-2,6.553891E-2,4.7088078E1,-4.7457855E-2,1E0,2.0696E-4,1.6340276E-2,-2.7272392E-2,3.883288E-2,5.2499347E-3,-1.5533201E-2,-8.064263E-2,-1.2838701E-2,1.4443885E-2],"split_indices":[3,33,33,32,32,23,36,25,0,0,0,22,0,43,1,0,0,0,0,0,0,0,0],"split_type":[0,0,0,0,0,0,0,0,0,0,0,0,0,0,0,0,0,0,0,0,0,0,0],"sum_hessian":[5.645367E2,7.402711E1,4.9050955E2,4.1006493E1,3.302061E1,1.2178899E2,3.6872055E2,2.6844099E1,1.4162395E1,1.995959E1,1.3061022E1,1.0853333E2,1.3255655E1,1.5963908E2,2.0908148E2,1.0195297E1,1.6648802E1,3.5940353E1,7.259298E1,1.488506E2,1.0788482E1,8.652492E1,1.2255657E2],"tree_param":{"num_deleted":"0","num_feature":"46","num_nodes":"23","size_leaf_vector":"1"}},{"base_weights":[2.5308331E-2,5.299176E-2,-4.402983E-2,-8.457082E-2,2.0420405E-1,1.335214E-1,-4.9955362E-1,6.770267E-1,1.1954217E-1,1.4202222E-2,-2.4913011E-2,2.5457507E-2,-3.2334995E-2,7.237948E-3,4.288512E-2,-1.1756479E-2,1.8449165E-2],"categories":[],"categories_nodes":[],"categories_segments":[],"categories_sizes":[],"default_left":[0,0,0,0,0,0,0,0,0,0,0,0,0,0,0,0,0],"id":19,"left_children":[1,3,-1,5,7,9,11,13,15,-1,-1,-1,-1,-1,-1,-1,-1],"loss_changes":[1.4101207E1,1.1348618E1,0E0,2.5946888E1,1.0318535E1,1.8042084E1,1.498217E1,3.6493301E0,1.968748E1,0E0,0E0,0E0,0E0,0E0,0E0,0E0,0E0],"parents":[2147483647,0,0,1,1,3,3,4,4,5,5,6,6,7,7,8,8],"right_children":[2,4,-1,6,8,10,12,14,16,-1,-1,-1,-1,-1,-1,-1,-1],"split_conditions":[3.7911074E3,1.3879207E0,-4.402983E-2,2.1739271E1,-1.1318445E0,3.163747E3,1.5821775E3,2.9790812E1,8.411E-5,1.4202222E-2,-2.4913011E-2,2.5457507E-2,-3.2334995E-2,7.237948E-3,4.288512E-2,-1.1756479E-2,1.8449165E-2],"split_indices":[19,36,0,33,3,19,29,33,0,0,0,0,0,0,0,0,0],"split_type":[0,0,0,0,0,0,0,0,0,0,0,0,0,0,0,0,0],"sum_hessian":[5.594209E2,5.4374615E2,1.5674762E1,2.8495465E2,2.5879147E2,1.8723332E2,9.772132E1,3.823857E1,2.205529E2,1.5165231E2,3.558102E1,1.2127283E1,8.559404E1,1.0146972E1,2.8091599E1,9.109106E1,1.2946185E2],"tree_param":{"num_deleted":"0","num_feature":"46","num_nodes":"17","size_leaf_vector":"1"}},{"base_weights":[3.017729E-3,6.7186356E-2,-4.309508E-1,3.6881775E-2,4.9705487E-2,-5.938628E-2,-2.5483957E-1,8.8980034E-2,-4.5756155E-1,2.584497E-1,-6.160572E-1,1.9834477E-3,5.5705618E-2,-4.3669492E-2,2.6557593E-2,-1.2183774E-2,4.2033147E-2,-8.082376E-3,-4.7692705E-2],"categories":[],"categories_nodes":[],"categories_segments":[],"categories_sizes":[],"default_left":[0,0,0,0,0,0,0,0,0,0,0,0,0,0,0,0,0,0,0],"id":20,"left_children":[1,3,5,7,-1,-1,9,11,13,15,17,-1,-1,-1,-1,-1,-1,-1,-1],"loss_changes":[1.5842616E1,1.3884377E1,9.464722E0,1.2429438E1,0E0,0E0,1.1418141E1,2.1992144E1,1.93791E1,7.7435193E0,5.362193E0,0E0,0E0,0E0,0E0,0E0,0E0,0E0,0E0],"parents":[2147483647,0,0,1,1,2,2,3,3,6,6,7,7,8,8,9,9,10,10],"right_children":[2,4,6,8,-1,-1,10,12,14,16,18,-1,-1,-1,-1,-1,-1,-1,-1],"split_conditions":[3.4155183E3,3.384118E3,3E-4,3.1622412E3,4.9705487E-2,-5.938628E-2,3.7029E-4,3.0994094E3,3.4143538E3,3.740087E3,-3.298672E4,1.9834477E-3,5.5705618E-2,-4.3669492E-2,2.6557593E-2,-1.2183774E-2,4.2033147E-2,-8.082376E-3,-4.7692705E-2],"split_indices":[19,30,1,20,0,0,1,20,21,30,12,0,0,0,0,0,0,0,0],"split_type":[0,0,0,0,0,0,0,0,0,0,0,0,0,0,0,0,0,0,0],"sum_hessian":[5.668733E2,4.9458658E2,7.228672E1,4.799355E2,1.4651093E1,1.2561973E1,5.9724747E1,4.3492822E2,4.5007263E1,2.4786995E1,3.493775E1,4.1595844E2,1.8969805E1,3.176453E1,1.3242732E1,1.3621074E1,1.1165921E1,1.5527905E1,1.9409845E1],"tree_param":{"num_deleted":"0","num_feature":"46","num_nodes":"19","size_leaf_vector":"1"}},{"base_weights":[-2.9669907E-2,6.8965214E-1,-6.2300026E-2,4.6353187E-2,1.7827934E-2,-2.930982E-1,8.79182E-2,-1.2983407E-1,-7.157935E-1,1.3735177E-1,-3.961975E-2,-3.2996107E-2,1.4647254E-3,-8.013686E-2,-1.5932946E-2,5.2853324E-2,4.7192676E-3],"categories":[],"categories_nodes":[],"categories_segments":[],"categories_sizes":[],"default_left":[0,0,0,0,0,0,0,0,0,0,0,0,0,0,0,0,0],"id":21,"left_children":[1,3,5,-1,-1,7,9,11,13,15,-1,-1,-1,-1,-1,-1,-1],"loss_changes":[1.3107149E1,1.5860147E0,1.8517427E1,0E0,0E0,1.4434681E1,1.42017765E1,1.2931875E1,2.0071358E1,1.2050962E1,0E0,0E0,0E0,0E0,0E0,0E0,0E0],"parents":[2147483647,0,0,1,1,2,2,5,5,6,6,7,7,8,8,9,9],"right_children":[2,4,6,-1,-1,8,10,12,14,16,-1,-1,-1,-1,-1,-1,-1],"split_conditions":[1.605019E3,-4.2434278E0,2.196001E3,4.6353187E-2,1.7827934E-2,1.8546442E3,3.7911074E3,1.6908164E3,6.7128E-4,-4.6792777E4,-3.961975E-2,-3.2996107E-2,1.4647254E-3,-8.013686E-2,-1.5932946E-2,5.2853324E-2,4.7192676E-3],"split_indices":[19,23,21,0,0,29,19,19,2,13,0,0,0,0,0,0,0],"split_type":[0,0,0,0,0,0,0,0,0,0,0,0,0,0,0,0,0],"sum_hessian":[5.5559625E2,2.3235718E1,5.3236053E2,1.2525209E1,1.0710507E1,2.0951164E2,3.2284888E2,1.52079E2,5.7432655E1,3.0648248E2,1.6366404E1,3.438588E1,1.1769311E2,1.6823658E1,4.0608997E1,1.26255245E1,2.9385696E2],"tree_param":{"num_deleted":"0","num_feature":"46","num_nodes":"17","size_leaf_vector":"1"}},{"base_weights":[6.714547E-3,-5.938064E-2,3.178195E-2,1.7011346E-1,-1.5192729E-1,-2.947605E-2,3.6777344E-1,-3.33225E-1,2.04038E-1,1.0179779E-2,-3.8627815E-2,2.2964163E-2,-3.1055082E-2,-3.3672582E-2,-3.6522937E-3,2.8317288E-2,-4.330886E-3],"categories":[],"categories_nodes":[],"categories_segments":[],"categories_sizes":[],"default_left":[0,0,0,0,0,0,0,0,0,0,0,0,0,0,0,0,0],"id":22,"left_children":[1,-1,3,5,7,9,11,13,15,-1,-1,-1,-1,-1,-1,-1,-1],"loss_changes":[1.6679585E1,0E0,1.3886254E1,1.2303861E1,1.5221465E1,2.717E1,1.4459227E1,1.3755688E1,8.458367E0,0E0,0E0,0E0,0E0,0E0,0E0,0E0,0E0],"parents":[2147483647,0,0,2,2,3,3,4,4,5,5,6,6,7,7,8,8],"right_children":[2,-1,4,6,8,10,12,14,16,-1,-1,-1,-1,-1,-1,-1,-1],"split_conditions":[7.3624533E-1,-5.938064E-2,7.091459E-2,1.4870044E0,8.84825E5,3.0305344E1,8.1314653E3,2.8524338E1,-2.822055E-1,1.0179779E-2,-3.8627815E-2,2.2964163E-2,-3.1055082E-2,-3.3672582E-2,-3.6522937E-3,2.8317288E-2,-4.330886E-3],"split_indices":[27,0,31,27,14,26,13,33,11,0,0,0,0,0,0,0,0],"split_type":[0,0,0,0,0,0,0,0,0,0,0,0,0,0,0,0,0],"sum_hessian":[5.5486414E2,1.0453102E1,5.44411E2,3.1060333E2,2.338077E2,1.549707E2,1.5563263E2,1.5495235E2,7.885535E1,1.1852168E2,3.6449028E1,1.4294057E2,1.2692072E1,6.645855E1,8.84938E1,3.4678917E1,4.4176426E1],"tree_param":{"num_deleted":"0","num_feature":"46","num_nodes":"17","size_leaf_vector":"1"}},{"base_weights":[3.2332384E-3,5.5024564E-1,-2.7006103E-2,2.48017E-4,4.1965943E-2,-5.9463173E-1,1.1692318E-2,-5.8240242E-2,1.0895126E-3,1.566289E-1,-9.214127E-2,1.3893134E-2,-4.065754E-2,-2.131763E-2,3.9523444E-3],"categories":[],"categories_nodes":[],"categories_segments":[],"categories_sizes":[],"default_left":[0,0,0,0,0,0,0,0,0,0,0,0,0,0,0],"id":23,"left_children":[1,3,5,-1,-1,7,9,-1,-1,11,13,-1,-1,-1,-1],"loss_changes":[9.358814E0,4.667655E0,1.1786296E1,0E0,0E0,1.2061421E1,7.5842686E0,0E0,0E0,2.4952991E1,1.683633E1,0E0,0E0,0E0,0E0],"parents":[2147483647,0,0,1,1,2,2,5,5,6,6,9,9,10,10],"right_children":[2,4,6,-1,-1,8,10,-1,-1,12,14,-1,-1,-1,-1],"split_conditions":[1.5699519E3,8.5882074E-1,1.7735189E3,2.48017E-4,4.1965943E-2,7.598725E-1,2.1613865E1,-5.8240242E-2,1.0895126E-3,1.9164726E1,2.8290583E1,1.3893134E-2,-4.065754E-2,-2.131763E-2,3.9523444E-3],"split_indices":[29,36,28,0,0,32,41,0,0,23,41,0,0,0,0],"split_type":[0,0,0,0,0,0,0,0,0,0,0,0,0,0,0],"sum_hessian":[5.6388654E2,2.8638374E1,5.3524817E2,1.0274504E1,1.836387E1,3.3245132E1,5.0200302E2,1.6808304E1,1.643683E1,2.0931761E2,2.926854E2,1.8669237E2,2.2625242E1,9.863309E1,1.940523E2],"tree_param":{"num_deleted":"0","num_feature":"46","num_nodes":"15","size_leaf_vector":"1"}},{"base_weights":[-3.0770998E-2,2.7340071E-2,-4.1853184E-1,-1.2310502E-2,5.4392036E-2,-5.513671E-2,-2.4219142E-1,-4.564358E-2,3.8185224E-2,1.2749201E-1,-8.351311E-1,3.2508955E-3,-1.2882232E-2,3.1912036E-2,-1.7416058E-2,-5.279478E-2,-2.6425734E-2],"categories":[],"categories_nodes":[],"categories_segments":[],"categories_sizes":[],"default_left":[0,0,0,0,0,0,0,0,0,0,0,0,0,0,0,0,0],"id":24,"left_children":[1,3,5,7,-1,-1,9,11,-1,13,15,-1,-1,-1,-1,-1,-1],"loss_changes":[1.2524298E1,2.0359957E1,8.472427E0,1.2125642E1,0E0,0E0,1.3011532E1,1.0553139E1,0E0,9.246019E0,9.8135376E-1,0E0,0E0,0E0,0E0,0E0,0E0],"parents":[2147483647,0,0,1,1,2,2,3,3,6,6,7,7,9,9,10,10],"right_children":[2,4,6,8,-1,-1,10,12,-1,14,16,-1,-1,-1,-1,-1,-1],"split_conditions":[3.4155183E3,3.384118E3,9E-4,2.7156773E0,5.4392036E-2,-5.513671E-2,1.6969E-4,7.7338025E-2,3.8185224E-2,7.442438E-1,3.8704844E3,3.2508955E-3,-1.2882232E-2,3.1912036E-2,-1.7416058E-2,-5.279478E-2,-2.6425734E-2],"split_indices":[19,30,2,32,0,0,0,31,0,32,28,0,0,0,0,0,0],"split_type":[0,0,0,0,0,0,0,0,0,0,0,0,0,0,0,0,0],"sum_hessian":[5.543075E2,4.8287225E2,7.143527E1,4.664218E2,1.6450441E1,1.3561828E1,5.7873447E1,4.481146E2,1.8307207E1,3.613139E1,2.1742056E1,2.9488318E2,1.5323143E2,1.7261324E1,1.8870066E1,1.1219962E1,1.0522094E1],"tree_param":{"num_deleted":"0","num_feature":"46","num_nodes":"17","size_leaf_vector":"1"}},{"base_weights":[2.361997E-2,7.025831E-1,-2.0335168E-2,1.41166E-3,1.0802727E0,-4.6385136E-1,4.075965E-2,7.120993E-2,3.125592E-2,1.4251298E-2,-6.348768E-1,1.83962E-1,-9.06487E-2,-1.2259448E-2,-5.1109415E-2,3.0504955E-2,-4.6253375E-5,8.7159185E-4,-3.5125982E-2],"categories":[],"categories_nodes":[],"categories_segments":[],"categories_sizes":[],"default_left":[0,0,0,0,0,0,0,0,0,0,0,0,0,0,0,0,0,0,0],"id":25,"left_children":[1,3,5,-1,7,9,11,-1,-1,-1,13,15,17,-1,-1,-1,-1,-1,-1],"loss_changes":[1.6884317E1,8.730549E0,1.4430935E1,0E0,2.557043E0,8.438953E0,8.831027E0,0E0,0E0,0E0,7.718401E0,1.7686077E1,1.6209696E1,0E0,0E0,0E0,0E0,0E0,0E0],"parents":[2147483647,0,0,1,1,2,2,4,4,5,5,6,6,10,10,11,11,12,12],"right_children":[2,4,6,-1,8,10,12,-1,-1,-1,14,16,18,-1,-1,-1,-1,-1,-1],"split_conditions":[1.5821775E3,4.9864644E-1,2.1005371E1,1.41166E-3,2.2213879E-1,-7.7341733E0,2.9435477E-1,7.120993E-2,3.125592E-2,1.4251298E-2,1.8491812E3,1.9932156E1,3.323345E3,-1.2259448E-2,-5.1109415E-2,3.0504955E-2,-4.6253375E-5,8.7159185E-4,-3.5125982E-2],"split_indices":[29,10,26,0,3,23,23,0,0,0,21,41,21,0,0,0,0,0,0],"split_type":[0,0,0,0,0,0,0,0,0,0,0,0,0,0,0,0,0,0,0],"sum_hessian":[5.642753E2,3.3398205E1,5.308771E2,1.2376035E1,2.102217E1,6.347678E1,4.6740033E2,1.0761482E1,1.0260686E1,1.1677479E1,5.17993E1,2.234718E2,2.4392851E2,2.663447E1,2.5164833E1,6.692344E1,1.5654837E2,2.0813515E2,3.579337E1],"tree_param":{"num_deleted":"0","num_feature":"46","num_nodes":"19","size_leaf_vector":"1"}},{"base_weights":[5.5761645E-3,7.56242E-2,-3.3852968E-1,1.2494251E-1,-4.2982757E-1,2.4334712E-2,-4.4986412E-1,7.91657E-2,7.1636844E-1,-4.960046E-2,-5.9941836E-2,-6.675135E-2,-2.8810266E-1,7.2444933E-3,-2.0148156E-2,1.2169376E-3,5.4321714E-2,2.7070394E-2,-2.9914225E-2,4.469762E-3,-3.0632576E-2],"categories":[],"categories_nodes":[],"categories_segments":[],"categories_sizes":[],"default_left":[0,0,0,0,0,0,0,0,0,0,0,0,0,0,0,0,0,0,0,0,0],"id":26,"left_children":[1,3,5,7,9,-1,11,13,15,-1,17,-1,19,-1,-1,-1,-1,-1,-1,-1,-1],"loss_changes":[1.3328102E1,1.1504536E1,8.811647E0,1.1295094E1,8.47895E0,0E0,1.1489281E1,1.242591E1,7.655937E0,0E0,8.686136E0,0E0,8.801093E0,0E0,0E0,0E0,0E0,0E0,0E0,0E0,0E0],"parents":[2147483647,0,0,1,1,2,2,3,3,4,4,6,6,7,7,8,8,10,10,12,12],"right_children":[2,4,6,8,10,-1,12,14,16,-1,18,-1,20,-1,-1,-1,-1,-1,-1,-1,-1],"split_conditions":[8.6641914E-1,3.3730422E3,-2.0694033E4,3.2449321E3,3.791755E3,2.4334712E-2,-9.952665E3,3.1462083E3,-7.9175835E3,-4.960046E-2,3.7911074E3,-6.675135E-2,4.9740154E-1,7.2444933E-3,-2.0148156E-2,1.2169376E-3,5.4321714E-2,2.7070394E-2,-2.9914225E-2,4.469762E-3,-3.0632576E-2],"split_indices":[3,29,13,29,28,0,13,20,13,0,19,0,9,0,0,0,0,0,0,0,0],"split_type":[0,0,0,0,0,0,0,0,0,0,0,0,0,0,0,0,0,0,0,0,0],"sum_hessian":[5.5088086E2,4.5835574E2,9.252512E1,4.182944E2,4.006132E1,1.0598244E1,8.192688E1,3.8929645E2,2.8997982E1,1.5230646E1,2.4830675E1,1.1537935E1,7.038895E1,3.4320935E2,4.6087086E1,1.0475109E1,1.8522873E1,1.1726275E1,1.3104401E1,3.2875023E1,3.751392E1],"tree_param":{"num_deleted":"0","num_feature":"46","num_nodes":"21","size_leaf_vector":"1"}},{"base_weights":[-2.8588498E-2,1.0781513E-2,-5.018861E-1,-1.6677709E-1,1.5847878E-1,-6.0415454E-2,-1.9047531E-1,3.1308297E-2,-6.367819E-1,5.605328E-1,4.7892276E-2,2.273635E-2,-3.8518544E-2,1.653672E-2,-1.6575223E-2,-4.074731E-2,1.9974811E-2,1.7161353E-3,4.7145814E-2,-5.0204992E-2,7.5512393E-3],"categories":[],"categories_nodes":[],"categories_segments":[],"categories_sizes":[],"default_left":[0,0,0,0,0,0,0,0,0,0,0,0,0,0,0,0,0,0,0,0,0],"id":27,"left_children":[1,3,5,7,9,-1,11,13,15,17,19,-1,-1,-1,-1,-1,-1,-1,-1,-1,-1],"loss_changes":[1.0561679E1,1.3767965E1,9.345059E0,2.221782E1,1.2714111E1,0E0,1.2097215E1,1.843519E1,1.3386036E1,1.2387196E1,2.4653717E1,0E0,0E0,0E0,0E0,0E0,0E0,0E0,0E0,0E0,0E0],"parents":[2147483647,0,0,1,1,2,2,3,3,4,4,6,6,7,7,8,8,9,9,10,10],"right_children":[2,4,6,8,10,-1,12,14,16,18,20,-1,-1,-1,-1,-1,-1,-1,-1,-1,-1],"split_conditions":[3.4175898E3,2.196001E3,3.6496384E3,1.8893835E3,2.4496377E3,-6.0415454E-2,7.545455E-1,5.8576822E-2,4.196302E1,2.1971868E3,3.9256264E1,2.273635E-2,-3.8518544E-2,1.653672E-2,-1.6575223E-2,-4.074731E-2,1.9974811E-2,1.7161353E-3,4.7145814E-2,-5.0204992E-2,7.5512393E-3],"split_indices":[29,21,30,30,20,0,32,3,33,29,26,0,0,0,0,0,0,0,0,0,0],"split_type":[0,0,0,0,0,0,0,0,0,0,0,0,0,0,0,0,0,0,0,0,0],"sum_hessian":[5.655138E2,5.229877E2,4.2526127E1,2.3742775E2,2.8555994E2,1.2129876E1,3.0396252E1,1.6768826E2,6.9739494E1,6.0723106E1,2.2483682E2,1.4490124E1,1.5906128E1,9.191776E1,7.577049E1,5.9690643E1,1.0048854E1,2.6014072E1,3.4709034E1,1.9294039E1,2.0554279E2],"tree_param":{"num_deleted":"0","num_feature":"46","num_nodes":"21","size_leaf_vector":"1"}},{"base_weights":[1.3084059E-2,-6.796707E-1,4.9655512E-2,-4.6503406E-2,-1.2099696E-2,1.507378E-1,-1.276502E-1,2.0961116E-1,-3.2376942E-1,-4.4333118E-1,1.5517676E-1,-9.518738E-3,1.579289E-2,-4.623442E-2,5.1726946E-3,-3.5214946E-2,1.5173546E-2,2.1843156E-2,-1.2064191E-2],"categories":[],"categories_nodes":[],"categories_segments":[],"categories_sizes":[],"default_left":[0,0,0,0,0,0,0,0,0,0,0,0,0,0,0,0,0,0,0],"id":28,"left_children":[1,3,5,-1,-1,7,9,11,13,15,17,-1,-1,-1,-1,-1,-1,-1,-1],"loss_changes":[1.4070953E1,2.8272152E0,9.468173E0,0E0,0E0,9.4610195E0,1.720858E1,1.2797965E1,9.724564E0,1.7944147E1,1.149599E1,0E0,0E0,0E0,0E0,0E0,0E0,0E0,0E0],"parents":[2147483647,0,0,1,1,2,2,5,5,6,6,7,7,8,8,9,9,10,10],"right_children":[2,4,6,-1,-1,8,10,12,14,16,18,-1,-1,-1,-1,-1,-1,-1,-1],"split_conditions":[1.15776E5,2.874947E1,7.840644E-2,-4.6503406E-2,-1.2099696E-2,3.4155183E3,2.2002106E0,3.3114377E-2,5.767494E1,2.442748E3,-1.8536201E4,-9.518738E-3,1.579289E-2,-4.623442E-2,5.1726946E-3,-3.5214946E-2,1.5173546E-2,2.1843156E-2,-1.2064191E-2],"split_indices":[14,26,31,0,0,19,36,31,26,13,12,0,0,0,0,0,0,0,0],"split_type":[0,0,0,0,0,0,0,0,0,0,0,0,0,0,0,0,0,0,0],"sum_hessian":[5.530626E2,2.685109E1,5.262115E2,1.636409E1,1.04869995E1,3.352403E2,1.9097122E2,2.9873386E2,3.650644E1,8.997593E1,1.009953E2,6.253121E1,2.3620264E2,1.4685649E1,2.182079E1,6.671832E1,2.3257605E1,5.8984642E1,4.201066E1],"tree_param":{"num_deleted":"0","num_feature":"46","num_nodes":"19","size_leaf_vector":"1"}},{"base_weights":[-9.357185E-3,4.197687E-1,-5.0993744E-2,7.6830655E-1,-3.784565E-3,2.1278534E-2,-3.602194E-1,5.875E-2,1.615904E-2,2.658524E-2,-2.6979461E-2,-6.1022818E-2,4.754087E-1,3.033542E-2,-4.8011234E-1,1.2970279E-2,-1.0649812E-2,-1.0234537E-2,4.251797E-2,-3.34812E-2,1.5247102E-2],"categories":[],"categories_nodes":[],"categories_segments":[],"categories_sizes":[],"default_left":[0,0,0,0,0,0,0,0,0,0,0,0,0,0,0,0,0,0,0,0,0],"id":29,"left_children":[1,3,5,7,9,11,13,-1,-1,-1,-1,15,17,-1,19,-1,-1,-1,-1,-1,-1],"loss_changes":[1.0005153E1,7.3145676E0,1.14107895E1,4.539814E0,6.987414E0,1.5522087E1,1.150358E1,0E0,0E0,0E0,0E0,1.7187344E1,1.6420784E1,0E0,1.3089268E1,0E0,0E0,0E0,0E0,0E0,0E0],"parents":[2147483647,0,0,1,1,2,2,3,3,4,4,5,5,6,6,11,11,12,12,14,14],"right_children":[2,4,6,8,10,12,14,-1,-1,-1,-1,16,18,-1,20,-1,-1,-1,-1,-1,-1],"split_conditions":[-2.7769297E4,-4.1004398E-1,3.3964246E3,4.836712E-1,-1.4763611E5,2.7920605E3,1.3172763E1,5.875E-2,1.615904E-2,2.658524E-2,-2.6979461E-2,1.9357525E1,1.1362087E0,3.033542E-2,3.546012E0,1.2970279E-2,-1.0649812E-2,-1.0234537E-2,4.251797E-2,-3.34812E-2,1.5247102E-2],"split_indices":[13,3,28,9,12,30,33,0,0,0,0,33,36,0,36,0,0,0,0,0,0],"split_type":[0,0,0,0,0,0,0,0,0,0,0,0,0,0,0,0,0,0,0,0,0],"sum_hessian":[5.577713E2,4.8528816E1,5.0924246E2,2.6175388E1,2.2353428E1,4.135246E2,9.571786E1,1.2821342E1,1.3354046E1,1.1183831E1,1.1169598E1,3.508129E2,6.2711685E1,1.0111218E1,8.560664E1,1.12630394E2,2.3818251E2,2.2448273E1,4.0263412E1,6.907823E1,1.6528406E1],"tree_param":{"num_deleted":"0","num_feature":"46","num_nodes":"21","size_leaf_vector":"1"}},{"base_weights":[2.5322877E-2,-4.1440807E-2,4.486325E-2,4.4604924E-2,2.007186E-2,4.3731982E-1,-2.2992136E-2,5.464837E-3,3.950843E-2,-1.9932834E-2,1.4796824E-3],"categories":[],"categories_nodes":[],"categories_segments":[],"categories_sizes":[],"default_left":[0,0,0,0,0,0,0,0,0,0,0],"id":30,"left_children":[1,-1,3,-1,5,7,9,-1,-1,-1,-1],"loss_changes":[9.4556465E0,0E0,1.1589792E1,0E0,9.676143E0,5.7444353E0,9.663368E0,0E0,0E0,0E0,0E0],"parents":[2147483647,0,0,2,2,4,4,5,5,6,6],"right_children":[2,-1,4,-1,6,8,10,-1,-1,-1,-1],"split_conditions":[7.3624533E-1,-4.1440807E-2,1.8760256E-2,4.4604924E-2,-2.7769297E4,-1.2628476E1,-1.4872913E4,5.464837E-3,3.950843E-2,-1.9932834E-2,1.4796824E-3],"split_indices":[27,0,31,0,13,37,13,0,0,0,0],"split_type":[0,0,0,0,0,0,0,0,0,0,0],"sum_hessian":[5.633111E2,1.1672513E1,5.516386E2,1.4688293E1,5.369503E2,4.937732E1,4.87573E2,2.6267601E1,2.3109718E1,5.9062035E1,4.2851096E2],"tree_param":{"num_deleted":"0","num_feature":"46","num_nodes":"11","size_leaf_vector":"1"}},{"base_weights":[-1.1672157E-2,6.1636806E-1,-4.225539E-2,1.0366956E-2,5.1214404E-2,-2.563228E-1,9.542372E-2,-6.370366E-1,-9.916523E-2,-1.4762768E-1,2.3837087E-1,1.4091316E-3,-4.1816927E-2,1.6432513E-3,-4.1416474E-2,1.2028261E-2,-2.8319234E-2,1.5494393E-2,-3.2873865E-2],"categories":[],"categories_nodes":[],"categories_segments":[],"categories_sizes":[],"default_left":[0,0,0,0,0,0,0,0,0,0,0,0,0,0,0,0,0,0,0],"id":31,"left_children":[1,3,5,-1,-1,7,9,11,13,15,17,-1,-1,-1,-1,-1,-1,-1,-1],"loss_changes":[1.0822063E1,4.1531277E0,1.5848567E1,0E0,0E0,1.2527041E1,1.14131E1,8.15053E0,1.4480221E1,1.9951258E1,1.343953E1,0E0,0E0,0E0,0E0,0E0,0E0,0E0,0E0],"parents":[2147483647,0,0,1,1,2,2,5,5,6,6,7,7,8,8,9,9,10,10],"right_children":[2,4,6,-1,-1,8,10,12,14,16,18,-1,-1,-1,-1,-1,-1,-1,-1],"split_conditions":[1.6228933E3,7.3443294E-1,2.196001E3,1.0366956E-2,5.1214404E-2,3.5077423E-2,1.1009179E0,1.623936E-2,2.0340054E3,1.7827501E1,3.6289573E3,1.4091316E-3,-4.1816927E-2,1.6432513E-3,-4.1416474E-2,1.2028261E-2,-2.8319234E-2,1.5494393E-2,-3.2873865E-2],"split_indices":[20,36,21,0,0,31,36,31,21,33,20,0,0,0,0,0,0,0,0],"split_type":[0,0,0,0,0,0,0,0,0,0,0,0,0,0,0,0,0,0,0],"sum_hessian":[5.6107306E2,2.5164064E1,5.35909E2,1.3318069E1,1.1845995E1,2.094259E2,3.264831E2,6.029878E1,1.4912712E2,1.20894615E2,2.0558849E2,1.4098882E1,4.6199898E1,1.27072876E2,2.2054243E1,6.2957638E1,5.793698E1,1.9099513E2,1.459336E1],"tree_param":{"num_deleted":"0","num_feature":"46","num_nodes":"19","size_leaf_vector":"1"}},{"base_weights":[-1.90693E-2,3.7464648E-1,-7.3562995E-2,8.170503E-4,7.800755E-1,-7.2127235E-1,-7.7231745E-3,2.3701368E-2,-2.3548078E-2,5.9242237E-2,1.6591834E-2,-6.757964E-2,-3.2072377E-1,1.8028614E-1,-1.3849019E-1,3.7061085E-3,-4.6002407E-2,2.6489029E-2,-6.981898E-3,-1.4060879E-2,6.29372E-3],"categories":[],"categories_nodes":[],"categories_segments":[],"categories_sizes":[],"default_left":[0,0,0,0,0,0,0,0,0,0,0,0,0,0,0,0,0,0,0,0,0],"id":32,"left_children":[1,3,5,7,9,11,13,-1,-1,-1,-1,-1,15,17,19,-1,-1,-1,-1,-1,-1],"loss_changes":[1.1917458E1,1.0236044E1,2.0789705E1,8.2918E0,5.4853153E0,1.0923752E1,1.0932344E1,0E0,0E0,0E0,0E0,0E0,6.8873005E0,2.0471508E1,9.929682E0,0E0,0E0,0E0,0E0,0E0,0E0],"parents":[2147483647,0,0,1,1,2,2,3,3,4,4,5,5,6,6,12,12,13,13,14,14],"right_children":[2,4,6,8,10,12,14,-1,-1,-1,-1,-1,16,18,20,-1,-1,-1,-1,-1,-1],"split_conditions":[-2.2694842E4,-1.1326359E1,-1.4872913E4,-2.9371428E-1,4.8892337E-1,-7.220086E0,4.899289E1,2.3701368E-2,-2.3548078E-2,5.9242237E-2,1.6591834E-2,-6.757964E-2,1.9546454E0,2.4785013E1,2.7018742E1,3.7061085E-3,-4.6002407E-2,2.6489029E-2,-6.981898E-3,-1.4060879E-2,6.29372E-3],"split_indices":[13,25,13,11,10,37,22,0,0,0,0,0,27,33,33,0,0,0,0,0,0],"split_type":[0,0,0,0,0,0,0,0,0,0,0,0,0,0,0,0,0,0,0,0,0],"sum_hessian":[5.531777E2,6.654153E1,4.8663614E2,3.5141243E1,3.1400284E1,4.39838E1,4.4265234E2,1.7541622E1,1.7599623E1,1.5636686E1,1.5763597E1,1.6167528E1,2.7816269E1,1.8142754E2,2.612248E2,1.7297007E1,1.0519263E1,8.6393166E1,9.503437E1,1.6959738E2,9.162742E1],"tree_param":{"num_deleted":"0","num_feature":"46","num_nodes":"21","size_leaf_vector":"1"}},{"base_weights":[1.628217E-2,5.2618915E-1,-1.2248972E-2,4.1052952E-2,3.7853015E-3,-6.6461474E-1,3.27203E-2,-1.0356903E0,1.6733514E-3,3.8126576E-1,-1.969144E-2,-3.085897E-2,-6.644769E-2,5.87068E-2,1.8871352E-3,-3.6024056E-2,1.5553132E-3],"categories":[],"categories_nodes":[],"categories_segments":[],"categories_sizes":[],"default_left":[0,0,0,0,0,0,0,0,0,0,0,0,0,0,0,0,0],"id":33,"left_children":[1,3,5,-1,-1,7,9,11,-1,13,15,-1,-1,-1,-1,-1,-1],"loss_changes":[8.16103E0,3.8862E0,1.5622761E1,0E0,0E0,8.930412E0,9.1132345E0,1.935606E0,0E0,1.7715668E1,1.5481072E1,0E0,0E0,0E0,0E0,0E0,0E0],"parents":[2147483647,0,0,1,1,2,2,5,5,6,6,7,7,9,9,10,10],"right_children":[2,4,6,-1,-1,8,10,12,-1,14,16,-1,-1,-1,-1,-1,-1],"split_conditions":[1.5699519E3,1E0,1.6962314E3,4.1052952E-2,3.7853015E-3,3.1201813E1,1.8423687E3,4.9791864E-1,1.6733514E-3,8.5882074E-1,1.8620513E3,-3.085897E-2,-6.644769E-2,5.87068E-2,1.8871352E-3,-3.6024056E-2,1.5553132E-3],"split_indices":[29,44,30,0,0,41,21,9,0,36,21,0,0,0,0,0,0],"split_type":[0,0,0,0,0,0,0,0,0,0,0,0,0,0,0,0,0],"sum_hessian":[5.5952094E2,2.872403E1,5.307969E2,1.6863304E1,1.1860726E1,3.3341084E1,4.974558E2,2.1453526E1,1.1887557E1,6.4205536E1,4.3325027E2,1.0118344E1,1.1335181E1,1.8677923E1,4.5527615E1,2.8391157E1,4.048591E2],"tree_param":{"num_deleted":"0","num_feature":"46","num_nodes":"17","size_leaf_vector":"1"}},{"base_weights":[2.9990032E-2,-1.3088972E-2,4.3290272E-1,5.883713E-1,-4.591378E-2,5.553585E-2,3.3765305E-2,4.932196E-2,1.3890045E-2,-7.1701145E-1,-8.634358E-3,3.8972414E-1,-3.717514E-2,-1.0336543E-2,-6.765217E-2,2.7921153E-2,-2.76609E-3,-4.0051416E-3,3.9911006E-2],"categories":[],"categories_nodes":[],"categories_segments":[],"categories_sizes":[],"default_left":[0,0,0,0,0,0,0,0,0,0,0,0,0,0,0,0,0,0,0],"id":34,"left_children":[1,3,5,7,9,-1,11,-1,-1,13,15,17,-1,-1,-1,-1,-1,-1,-1],"loss_changes":[9.645612E0,9.952018E0,1.4483865E1,2.9512148E0,1.1943127E1,0E0,9.921837E0,0E0,0E0,7.874275E0,1.2037132E1,4.7726383E0,0E0,0E0,0E0,0E0,0E0,0E0,0E0],"parents":[2147483647,0,0,1,1,2,2,3,3,4,4,6,6,9,9,10,10,11,11],"right_children":[2,4,6,8,10,-1,12,-1,-1,14,16,18,-1,-1,-1,-1,-1,-1,-1],"split_conditions":[4.6015427E1,1.6132295E3,-3.6484145E4,2.241E-5,1.6962314E3,5.553585E-2,2.6081238E3,4.932196E-2,1.3890045E-2,7.694E-5,1.8131373E3,4.975694E-1,-3.717514E-2,-1.0336543E-2,-6.765217E-2,2.7921153E-2,-2.76609E-3,-4.0051416E-3,3.9911006E-2],"split_indices":[33,30,12,0,30,0,21,0,0,1,19,10,0,0,0,0,0,0,0],"split_type":[0,0,0,0,0,0,0,0,0,0,0,0,0,0,0,0,0,0,0],"sum_hessian":[5.543899E2,5.017146E2,5.267529E1,2.5088306E1,4.766263E2,1.8861662E1,3.3813625E1,1.0041535E1,1.5046772E1,2.4123623E1,4.525027E2,2.3534384E1,1.02792425E1,1.4120196E1,1.0003426E1,3.358799E1,4.1891467E2,1.1319406E1,1.2214977E1],"tree_param":{"num_deleted":"0","num_feature":"46","num_nodes":"19","size_leaf_vector":"1"}},{"base_weights":[9.040102E-3,9.52434E-2,-1.8079703E-1,-8.2645744E-2,2.409369E-1,-1.0824043E0,-2.9940479E-2,-6.826604E-1,1.6566837E-2,5.0686425E-1,4.9942065E-2,-7.936023E-2,-1.4309204E-2,1.4307442E-1,-4.6216494E-1,-5.066389E-2,-9.908387E-3,-4.1768182E-2,4.3230685E-3,3.4025107E-2,-1.1558155E-2,-1.33071095E-2,2.1943681E-2,-3.7111472E-2,1.31128775E-2,-7.218018E-2,-5.9476756E-3],"categories":[],"categories_nodes":[],"categories_segments":[],"categories_sizes":[],"default_left":[0,0,0,0,0,0,0,0,0,0,0,0,0,0,0,0,0,0,0,0,0,0,0,0,0,0,0],"id":35,"left_children":[1,3,5,7,9,11,13,15,17,19,21,-1,-1,23,25,-1,-1,-1,-1,-1,-1,-1,-1,-1,-1,-1,-1],"loss_changes":[9.277591E0,1.0122946E1,2.4050182E1,1.0503937E1,1.0872221E1,9.735067E0,1.1485949E1,3.8090506E0,9.136661E0,1.1636473E1,1.5604308E1,0E0,0E0,1.1782061E1,1.4612326E1,0E0,0E0,0E0,0E0,0E0,0E0,0E0,0E0,0E0,0E0,0E0,0E0],"parents":[2147483647,0,0,1,1,2,2,3,3,4,4,5,5,6,6,7,7,8,8,9,9,10,10,13,13,14,14],"right_children":[2,4,6,8,10,12,14,16,18,20,22,-1,-1,24,26,-1,-1,-1,-1,-1,-1,-1,-1,-1,-1,-1,-1],"split_conditions":[1.1022125E1,7.840571E-1,3.1639E-4,2.9328832E-2,4.156E-4,2.526284E1,1.219E-4,6.04123E-1,-1.0652577E1,5.2183943E0,1.7248579E0,-7.936023E-2,-1.4309204E-2,4.8460842E1,5.0404976E1,-5.066389E-2,-9.908387E-3,-4.1768182E-2,4.3230685E-3,3.4025107E-2,-1.1558155E-2,-1.33071095E-2,2.1943681E-2,-3.7111472E-2,1.31128775E-2,-7.218018E-2,-5.9476756E-3],"split_indices":[24,32,2,31,2,33,0,32,25,25,27,0,0,22,26,0,0,0,0,0,0,0,0,0,0,0,0],"split_type":[0,0,0,0,0,0,0,0,0,0,0,0,0,0,0,0,0,0,0,0,0,0,0,0,0,0,0],"sum_hessian":[5.648787E2,3.888182E2,1.7606049E2,1.7526074E2,2.1355746E2,2.4350798E1,1.517097E2,2.4033134E1,1.5122762E2,8.857636E1,1.2498111E2,1.4294634E1,1.0056164E1,1.0881941E2,4.2890285E1,1.3636311E1,1.0396825E1,1.0635982E1,1.4059163E2,7.1769005E1,1.6807356E1,6.91217E1,5.5859413E1,1.229124E1,9.652817E1,1.0281993E1,3.260829E1],"tree_param":{"num_deleted":"0","num_feature":"46","num_nodes":"27","size_leaf_vector":"1"}},{"base_weights":[5.802013E-3,3.3847493E-1,-5.596852E-2,-9.778381E-2,7.6850855E-1,-4.6299517E-1,1.3444974E-2,2.6859558E-1,-5.3119082E-2,5.039185E-1,5.792434E-2,-7.0156676E-1,2.2938298E-2,7.4450575E-2,-3.9464727E-1,-1.5136761E-2,3.9717857E-2,-5.521605E-4,4.0890303E-2,-4.8604817E-3,-5.2554198E-2,-5.853329E-3,1.524574E-2,3.2610726E-3,-5.51224E-2],"categories":[],"categories_nodes":[],"categories_segments":[],"categories_sizes":[],"default_left":[0,0,0,0,0,0,0,0,0,0,0,0,0,0,0,0,0,0,0,0,0,0,0,0,0],"id":36,"left_children":[1,3,5,7,9,11,13,15,-1,17,-1,19,-1,21,23,-1,-1,-1,-1,-1,-1,-1,-1,-1,-1],"loss_changes":[1.1345772E1,1.6295712E1,1.3164829E1,1.5767088E1,3.9206219E0,1.5249673E1,9.959285E0,1.0016864E1,0E0,4.4990625E0,0E0,1.1372221E1,0E0,1.5388046E1,1.7007288E1,0E0,0E0,0E0,0E0,0E0,0E0,0E0,0E0,0E0,0E0],"parents":[2147483647,0,0,1,1,2,2,3,3,4,4,5,5,6,6,7,7,9,9,11,11,13,13,14,14],"right_children":[2,4,6,8,10,12,14,16,-1,18,-1,20,-1,22,24,-1,-1,-1,-1,-1,-1,-1,-1,-1,-1],"split_conditions":[-3.1513403E1,-5.1154125E1,-1.3078964E1,4.157286E1,1E0,6.153991E1,3.323345E3,-1.0773053E0,-5.3119082E-2,2.4916046E0,5.792434E-2,1.8987391E3,2.2938298E-2,2.1863042E3,1.8397368E0,-1.5136761E-2,3.9717857E-2,-5.521605E-4,4.0890303E-2,-4.8604817E-3,-5.2554198E-2,-5.853329E-3,1.524574E-2,3.2610726E-3,-5.51224E-2],"split_indices":[24,24,24,22,42,26,21,25,0,36,0,21,0,21,27,0,0,0,0,0,0,0,0,0,0],"split_type":[0,0,0,0,0,0,0,0,0,0,0,0,0,0,0,0,0,0,0,0,0,0,0,0,0],"sum_hessian":[5.502004E2,8.546082E1,4.6473953E2,4.2806885E1,4.265394E1,6.688272E1,3.978568E2,3.1546318E1,1.1260568E1,2.6777966E1,1.5875976E1,5.3320988E1,1.3561732E1,3.4682727E2,5.1029552E1,1.5321287E1,1.622503E1,1.05062685E1,1.6271696E1,2.0006126E1,3.331486E1,1.896877E2,1.5713957E2,3.1482656E1,1.9546896E1],"tree_param":{"num_deleted":"0","num_feature":"46","num_nodes":"25","size_leaf_vector":"1"}},{"base_weights":[2.657926E-3,-4.8991643E-2,2.4054997E-2,3.8234312E-2,-5.4967944E-3,1.15704104E-1,-1.5927441E-1,-6.8354807E-3,1.5881022E-2,-5.4712076E-2,-4.1915434E-3],"categories":[],"categories_nodes":[],"categories_segments":[],"categories_sizes":[],"default_left":[0,0,0,0,0,0,0,0,0,0,0],"id":37,"left_children":[1,-1,3,-1,5,7,9,-1,-1,-1,-1],"loss_changes":[1.1643076E1,0E0,1.1865083E1,0E0,9.749592E0,1.4954368E1,1.617067E1,0E0,0E0,0E0,0E0],"parents":[2147483647,0,0,2,2,4,4,5,5,6,6],"right_children":[2,-1,4,-1,6,8,10,-1,-1,-1,-1],"split_conditions":[7.3624533E-1,-4.8991643E-2,1.6019425E3,3.8234312E-2,2.4029002E-2,7.7156985E-1,1.6962314E3,-6.8354807E-3,1.5881022E-2,-5.4712076E-2,-4.1915434E-3],"split_indices":[27,0,30,0,3,32,30,0,0,0,0],"split_type":[0,0,0,0,0,0,0,0,0,0,0],"sum_hessian":[5.517196E2,1.080474E1,5.4091486E2,1.9800318E1,5.211145E2,2.9156396E2,2.2955057E2,1.2972227E2,1.6184169E2,1.6131374E1,2.1341919E2],"tree_param":{"num_deleted":"0","num_feature":"46","num_nodes":"11","size_leaf_vector":"1"}},{"base_weights":[-2.1962617E-2,3.9191872E-2,-4.1579783E-2,-7.4486606E-2,4.5460284E-1,-2.2390591E-2,-4.421739E-1,1.9473433E-2,6.428491E-2,-3.2507877E-3,3.982772E-2,-4.7572426E-2,-1.4773557E-2,2.1978788E-2,-2.0361168E-2],"categories":[],"categories_nodes":[],"categories_segments":[],"categories_sizes":[],"default_left":[0,0,0,0,0,0,0,0,0,0,0,0,0,0,0],"id":38,"left_children":[1,-1,3,5,7,9,11,13,-1,-1,-1,-1,-1,-1,-1],"loss_changes":[8.713512E0,0E0,8.802902E0,9.654177E0,1.2105424E1,1.5514495E1,4.392748E0,4.3076134E0,0E0,0E0,0E0,0E0,0E0,0E0,0E0],"parents":[2147483647,0,0,2,2,3,3,4,4,5,5,6,6,7,7],"right_children":[2,-1,4,6,8,10,12,14,-1,-1,-1,-1,-1,-1,-1],"split_conditions":[1.6037805E3,3.9191872E-2,4.558722E0,3.4155183E3,4.975694E-1,3.2380417E3,3.4879375E3,-5.2086152E4,6.428491E-2,-3.2507877E-3,3.982772E-2,-4.7572426E-2,-1.4773557E-2,2.1978788E-2,-2.0361168E-2],"split_indices":[20,0,36,19,10,29,19,12,0,0,0,0,0,0,0],"split_type":[0,0,0,0,0,0,0,0,0,0,0,0,0,0,0],"sum_hessian":[5.481642E2,1.210201E1,5.360622E2,5.035187E2,3.254347E1,4.419602E2,6.155852E1,2.2031868E1,1.0511602E1,4.2096982E2,2.0990395E1,1.2540157E1,4.9018364E1,1.1086512E1,1.0945356E1],"tree_param":{"num_deleted":"0","num_feature":"46","num_nodes":"15","size_leaf_vector":"1"}}]},"name":"gbtree"},"learner_model_param":{"base_score":"[5E-1]","boost_from_average":"1","num_class":"0","num_feature":"46","num_target":"1"},"objective":{"name":"binary:logistic","reg_loss_param":{"scale_pos_weight":"1.51709402"}}},"version":[3,2,0]}